tree
version=v4
num_class=1
num_tree_per_iteration=1
label_index=0
max_feature_idx=11
objective=binary sigmoid:1
feature_names=Column_0 Column_1 Column_2 Column_3 Column_4 Column_5 Column_6 Column_7 Column_8 Column_9 Column_10 Column_11
feature_infos=[48098:136574] [884.10599999999999:1559.45] [320.84460000000001:661.91129999999998] [152.17179999999999:305.81799999999998] [48643:138384] [247.46770000000001:417.00290000000001] [0.49209999999999998:0.94810000000000005] [0.91859999999999997:0.99439999999999995] [0.46949999999999997:0.8296] [0.55459999999999998:0.92549999999999999] [1.1487000000000001:3.1444000000000001] [0.56079999999999997:0.90490000000000004]
tree_sizes=4764 3517 2816 5279 2614 4856 3533 3140 3354 4779 5687 5793 3357 4100 4064 4375 5283 4603 2836 2724 5002 2653 4385 5217 5907 4879 4376 3564 3066 5450 5331 5732 4308 5529 3060 5419 3069 4799 2544 4217 5758 7150 2128 6099 3869 3772 4691 5431 5230 2014 3671 4292 4209 3292 3471 4067 3685 4814 4318 6123 3500 5266 4624 5476 6291 3912 5483 4233 2654 3709 4835 3096 3985 2998

Tree=0
num_leaves=45
num_cat=0
split_feature=6 9 11 11 3 5 11 5 5 1 8 1 1 8 8 0 5 1 1 8 5 8 9 5 5 5 0 8 9 0 0 0 3 1 8 8 8 8 0 5 5 8 8 0
split_gain=577.081 54.9323 12.6612 9.97883 8.70627 10.1749 4.88548 4.4664 7.39708 2.60267 1.63206 1.7505 1.38215 1.05206 1.38344 0.950148 0.842966 5.69482 2.74323 0.792302 2.0303 0.684527 0.6191 0.962152 0.33912 1.18934 0.274291 0.220652 0.202849 1.1036 0.264045 0.653577 0.187195 0.144959 0.0554705 0.195927 0.0318147 0.0314984 0.0225907 0.0198101 0.149252 0.0098727 0.227947 0.00503754
threshold=0.86205000000000009 0.7571500000000001 0.74595000000000011 0.66480000000000017 194.40495000000001 320.66520000000008 0.73050000000000015 341.62225000000007 347.07975000000005 1186.4755000000002 0.73965000000000014 1287.4275000000002 1238.9420000000002 0.67945000000000011 0.7440500000000001 73038.500000000015 295.56750000000005 1088.7915 1060.8055000000002 0.68405000000000016 330.63720000000006 0.74745000000000006 0.83255000000000012 350.29405000000003 299.62130000000008 328.98105000000004 90116.000000000015 0.70545000000000013 0.83925000000000016 73351.500000000015 77975.000000000015 85860.500000000015 203.13985000000002 1125.5865000000001 0.68975000000000009 0.62130000000000007 0.74565000000000015 0.6957000000000001 75176.000000000015 352.66045000000003 362.69535000000008 0.74075000000000013 0.65995000000000015 86865.500000000015
decision_type=2 2 2 2 2 2 2 2 2 2 2 2 2 2 2 2 2 2 2 2 2 2 2 2 2 2 2 2 2 2 2 2 2 2 2 2 2 2 2 2 2 2 2 2
left_child=2 3 6 39 36 16 7 15 -9 34 11 32 13 -11 -15 -1 -6 18 -18 20 -17 -16 23 26 -12 -26 -8 37 29 -24 -31 -32 -5 -19 35 -7 -3 -10 -4 -2 -41 42 -14 -40
right_child=1 4 38 10 5 9 22 8 27 12 24 -13 41 14 21 19 17 33 -20 -21 -22 -23 28 -25 25 -27 -28 -29 -30 30 31 -33 -34 -35 -36 -37 -38 -39 43 40 -42 -43 -44 -45
leaf_value=-0.19734941373911169 0.10468677940242414 0.082661947147933693 -0.2851097697754516 -0.027485734899405048 -0.046375835166210924 -0.094201584785117712 -0.24915066411943759 -0.2578649447090775 -0.065537740505196285 0.03938548764675652 0.10541133388973127 0.10505735063520831 0.056138199139620912 -0.078684579783271716 -0.094201584785117684 -0.16788203805917906 -0.2497167788442396 -0.050833677585166534 -0.12270084009170265 -0.24544093526930871 -0.29406113952115881 0.033297059549935323 -0.29431566168147238 -0.16071716159406879 -0.09420158478511767 0.10505735063520831 -0.19387610534140232 -0.02739654213528768 -0.27447193667077069 -0.16052013352810479 -0.2936489704944561 -0.19410746959900751 -0.069046602843522903 -0.071823499026907184 -0.050519236978810299 -0.027325044911625532 0.10562428990920829 -0.09420158478511767 -0.27785203284105564 0.081175159536249639 0.10635023458079086 0.048956752704936088 0.020348203657893915 -0.28276305624159054
leaf_weight=16.455002009868622 56.345915973186493 4.2384096086025229 31.66341295838356 1.4959092736244182 5.2356824576854732 0.49863642454147505 13.213865250349041 2.7425003349781027 1.7452274858951571 2.9918185472488421 0.99727284908294711 0.74795463681220997 3.9890913963317853 3.241136759519577 0.49863642454147372 4.7370460331439999 2.243863910436632 12.715228825807573 6.9809099435806274 12.216592401266096 1.7452274858951566 2.7425003349781036 3.2411367595195797 1.4959092736244191 0.49863642454147317 0.74795463681221008 0.99727284908294755 2.2438639104366302 9.972728490829466 0.74795463681221042 0.99727284908294711 1.9945456981658933 3.9890913963317871 4.4877278208732596 5.734318882226944 3.7397731840610504 1.2465910613536832 0.49863642454147328 17.950911283493042 3.9890913963317862 8.2275010049343091 3.4904549717903137 3.4904549717903137 16.953638434410095
leaf_count=66 226 17 127 6 21 2 53 11 7 12 4 3 16 13 2 19 9 51 28 49 7 11 13 6 2 3 4 9 40 3 4 8 16 18 23 15 5 2 72 16 33 14 14 68
internal_value=-0.107343 0.0331722 -0.250827 0.090891 -0.03265 -0.0433309 -0.222648 -0.200227 -0.128625 -0.00202959 -0.0115451 -0.0379693 0.0184045 -0.00967747 -0.0324179 -0.214947 -0.0830167 -0.0902859 -0.15366 -0.230404 -0.201976 0.0137329 -0.251725 -0.237271 0.0615371 0.0257262 -0.245306 -0.0495653 -0.265073 -0.251532 -0.214244 -0.227554 -0.0576491 -0.0562973 -0.0439618 -0.0351677 0.0880703 -0.0718634 -0.282582 0.103548 0.0982105 0.0426015 0.0395329 -0.280263
internal_weight=286.217 144.605 141.613 77.0393 67.5652 62.0802 75.0448 42.3841 7.23023 30.4168 8.47682 6.23296 20.4441 9.47409 6.48227 35.1539 31.6634 26.4277 9.22477 18.6989 6.48227 3.24114 32.6607 15.707 2.24386 1.24659 14.2111 4.48773 16.9536 6.98091 3.73977 2.99182 5.485 17.203 9.97273 4.23841 5.485 2.24386 66.568 68.5625 12.2166 10.97 7.47955 34.9045
internal_count=1148 580 568 309 271 249 301 170 29 122 34 25 82 38 26 141 127 106 37 75 26 13 131 63 9 5 57 18 68 28 15 12 22 69 40 17 22 9 267 275 49 44 30 140
is_linear=0
shrinkage=1


Tree=1
num_leaves=33
num_cat=0
split_feature=10 3 2 7 0 10 0 0 3 3 7 7 0 6 5 6 0 0 3 4 2 7 7 3 3 0 0 3 3 3 0 5
split_gain=446.052 24.8503 57.3388 11.5375 10.044 5.1319 8.00758 3.60771 3.13457 0.844474 0.643789 1.30586 0.458653 1.84114 0.885427 0.767336 3.98406 0.431327 0.420455 0.393329 0.573754 0.279491 1.6354 0.187031 0.180873 0.101156 0.0379008 0.0250611 0.0372783 0.0206499 0.0203311 0.0232091
threshold=1.9464500000000002 202.67205000000004 476.67215000000004 0.98765000000000014 72240.500000000015 1.9162500000000002 94612.500000000015 66846.500000000015 204.8357 213.63890000000001 0.99235000000000007 0.98925000000000007 92696.000000000015 0.82750000000000012 344.43020000000007 0.84715000000000007 70800.000000000015 73673.000000000015 208.82400000000004 68316.000000000015 431.90080000000006 0.98465000000000014 0.98805000000000009 207.58625000000004 223.29555000000002 71704.000000000015 74308.500000000015 218.54305000000002 214.06995000000003 228.93665000000001 85230.500000000015 315.54190000000006
decision_type=2 2 2 2 2 2 2 2 2 2 2 2 2 2 2 2 2 2 2 2 2 2 2 2 2 2 2 2 2 2 2 2
left_child=5 19 4 23 7 12 8 -3 -7 -5 11 -8 13 18 -14 24 -17 25 -1 20 -2 -6 -23 -4 27 -10 -20 28 -15 -26 31 -18
right_child=1 2 3 9 21 6 10 -9 17 -11 -12 -13 14 15 -16 16 30 -19 26 -21 -22 22 -24 -25 29 -27 -28 -29 -30 -31 -32 -33
leaf_value=-0.10678836907897858 0.1540786425444701 0.047553232799770029 0.089322600582708231 0.18352857273619308 -0.020254785272321281 0.0865769102924515 0.005323520330531642 -0.13808164342755641 -0.15495023930549193 0.15443891707104684 0.2027133800671046 0.20271338006710457 -0.061610323897131364 -0.13859190777288397 -0.13718575144755288 -0.03058255326120109 -0.15289863383211433 -0.10508058565732058 -0.16462537592029874 0.18770129267979863 0.19073268303148735 -0.024023453528816904 0.032220674640875489 0.043796195883116527 -0.14031202105283486 -0.12417809091345169 -0.1582645739845901 -0.15591300037207395 -0.15327466410462087 -0.13177454153160262 -0.17583338022065803 -0.17701596771075848
leaf_weight=1.4699254631996144 11.726455017924311 1.2470440268516529 0.99726516008376975 12.966218769550322 1.7462283372879017 0.74274462461471458 0.99908412992954143 6.4449068903923035 3.7137231230735761 46.416308179497719 0.49968484044075001 0.49968484044075012 1.7223051339387918 5.1635134816169721 16.736460819840431 3.9613046646118146 3.7032711952924728 5.4210819005966187 28.419407188892365 23.184529900550842 6.982766017317771 6.485145732760432 25.417469710111618 9.7258482724428159 5.4090340137481716 1.7330919951200483 23.048453330993652 4.6722795069217673 3.9424762725830078 17.23147489130497 1.2277794331312177 0.73881720006465901
leaf_count=6 47 5 4 52 7 3 4 26 15 186 2 2 7 21 68 16 15 22 116 93 28 26 102 39 22 7 94 19 16 70 5 3
internal_value=-0.00259915 0.113178 0.0884892 0.143567 -0.00491786 -0.138063 -0.0798803 -0.107973 -0.111703 0.160806 0.104814 0.0715986 -0.144801 -0.147525 -0.130154 -0.132851 -0.107591 -0.125289 -0.160276 0.178838 0.167807 0.018652 0.0207849 0.0480714 -0.139515 -0.145285 -0.161793 -0.148778 -0.145031 -0.133845 -0.161317 -0.157108
internal_weight=284.396 153.34 111.446 70.1056 41.3408 131.056 13.6091 7.69195 11.6106 59.3825 1.99845 1.49877 117.447 98.9877 18.4588 46.05 9.63117 10.8679 52.9378 41.8938 18.7092 33.6488 31.9026 10.7231 36.4188 5.44682 51.4679 13.7783 9.10599 22.6405 5.66987 4.44209
internal_count=1148 615 447 281 166 533 55 31 47 238 8 6 478 403 75 187 39 44 216 168 75 135 128 43 148 22 210 56 37 92 23 18
is_linear=0
shrinkage=0.1


Tree=2
num_leaves=26
num_cat=0
split_feature=10 2 9 2 7 7 0 7 4 4 7 4 4 7 7 0 7 7 7 7 4 1 1 2 7
split_gain=454.206 7.50667 5.85222 2.58408 1.51264 3.5689 0.969532 0.964336 0.8819 2.61536 0.716122 0.620972 1.4245 0.592129 0.944546 0.39882 0.194676 0.122458 0.645203 0.11598 0.0636037 0.0610249 2.94311 1.67219 0.0119792
threshold=2.0226500000000005 457.69945000000007 0.78935000000000011 473.77800000000008 0.97715000000000007 0.98775000000000013 91660.500000000015 0.98445000000000016 76844.000000000015 60135.000000000007 0.98935000000000006 98266.500000000015 82285.000000000015 0.9920500000000001 0.98555000000000015 91127.000000000015 0.99115000000000009 0.99275000000000013 0.99175000000000013 0.98645000000000016 81811.000000000015 1111.4965000000002 1038.6510000000001 462.11040000000008 0.98030000000000006
decision_type=2 2 2 2 2 2 2 2 2 2 2 2 2 2 2 2 2 2 2 2 2 2 2 2 2
left_child=1 2 20 21 -5 7 15 -6 9 13 11 12 -7 14 -4 -3 -16 18 -12 -11 -1 22 -2 -23 -10
right_child=3 6 8 4 5 10 -8 -9 24 19 17 -13 -14 -15 16 -17 -18 -19 -20 -21 -22 23 -24 -25 -26
leaf_value=-0.036728480229143989 0.16311031091021877 -0.095020413408247614 0.042979661896151801 -0.024281432391418563 0.057047227385810778 0.17564481361545076 -0.059109647381223054 0.12046257885499211 -0.16526679425976804 -0.11917177378587462 0.1556119955454508 0.17877630391733915 0.081211047800040959 -0.16204186637448742 -0.087500932591296876 -0.18831781648642257 -0.039901536222246056 0.18028106483623263 0.18006225123415381 -0.13248899052798974 -0.064434548189830784 0.06182452112525403 0.099858339077266114 0.13694668509745675 -0.14349328099342273
leaf_weight=6.3464580178260794 11.591916561126711 6.8641071170568493 0.95702126622199912 0.49239425361156364 2.9791564792394629 2.6970361173152906 20.773146629333496 12.613110914826391 0.48043964803218742 7.9544654637575141 30.511194318532944 2.4655551612377167 3.9531031101942062 0.47554579377174366 2.1698141098022465 0.49312905967235554 1.4465725719928739 6.1713953316211692 17.262674674391747 61.442267626523972 0.96417006850242604 4.238559201359748 20.261429324746132 9.951251417398451 44.468998491764069
leaf_count=26 47 28 4 2 12 11 85 51 2 33 124 10 16 2 9 2 6 25 70 255 4 17 82 40 185
internal_value=-0.00242199 -0.116939 -0.127315 0.139213 0.150187 0.151281 -0.0701868 0.108369 -0.132633 -0.125914 0.161882 0.135708 0.119615 -0.0563432 -0.0451841 -0.1014 -0.0685467 0.166291 0.164465 -0.130971 -0.0404262 0.120336 0.122899 0.114538 -0.143745
internal_weight=280.025 154.836 126.706 125.189 79.1456 78.6532 28.1304 15.5923 119.395 74.4457 63.061 9.11569 6.65014 5.04895 4.57341 7.35724 3.61639 53.9453 47.7739 69.3967 7.31063 46.0432 31.8533 14.1898 44.9494
internal_count=1148 641 526 507 321 319 115 63 496 309 256 37 27 21 19 30 15 219 194 288 30 186 129 57 187
is_linear=0
shrinkage=0.1


Tree=3
num_leaves=50
num_cat=0
split_feature=9 11 7 10 10 7 2 7 3 2 4 4 4 2 8 3 8 4 8 8 7 4 8 7 2 2 8 8 8 8 4 4 2 4 4 8 9 4 7 7 4 7 8 8 4 8 3 3 2
split_gain=322.02 23.2102 11.5452 9.89866 23.4487 13.114 8.64074 3.26887 2.77866 11.0212 4.60223 4.24257 2.86302 1.55469 1.34799 1.14618 1.04748 0.936669 0.894248 0.623379 0.50899 1.07592 0.494004 0.481939 3.96388 4.59667 3.06536 4.33202 2.05957 0.624892 0.467775 0.369236 0.360328 0.237645 0.254391 0.229554 0.212826 0.171598 0.15363 0.193243 0.0819708 1.4575 0.0704522 0.118365 0.0383586 0.0367981 0.00690638 0.0427671 0.00560831
threshold=0.78605000000000014 0.74375000000000013 0.99275000000000013 1.8815500000000001 2.2613500000000006 0.99055000000000015 449.46245000000005 0.9839500000000001 213.42825000000002 482.86915000000005 65541.500000000015 97239.000000000015 105543.50000000001 430.60995000000008 0.74895000000000012 211.93435000000002 0.60515000000000019 100491.00000000001 0.69835000000000014 0.68975000000000009 0.98075000000000012 61593.000000000007 0.68540000000000012 0.98555000000000015 520.44645000000003 431.90080000000006 0.71010000000000006 0.73180000000000012 0.66660000000000008 0.72805000000000009 73884.000000000015 89179.500000000015 445.98045000000008 71141.500000000015 96509.500000000015 0.75225000000000009 0.7138000000000001 95550.500000000015 0.98975000000000013 0.99075000000000013 83054.500000000015 0.9920500000000001 0.75065000000000015 0.67355000000000009 77671.000000000015 0.66535000000000011 233.13840000000002 219.92615000000004 435.68740000000008
decision_type=2 2 2 2 2 2 2 2 2 2 2 2 2 2 2 2 2 2 2 2 2 2 2 2 2 2 2 2 2 2 2 2 2 2 2 2 2 2 2 2 2 2 2 2 2 2 2 2 2
left_child=3 2 8 7 5 23 14 36 10 13 19 37 17 30 -4 48 -17 -13 -12 45 21 -3 40 26 25 28 32 -28 -25 -27 -10 -8 -5 -24 38 -31 -1 -11 -35 -40 44 -42 43 -9 -22 -2 47 -6 -7
right_child=1 20 6 4 46 15 31 42 9 11 18 12 -14 -15 -16 16 -18 -19 -20 -21 22 -23 33 24 -26 29 27 -29 -30 35 -32 -33 -34 34 -36 -37 -38 -39 39 -41 41 -43 -44 -45 -46 -47 -48 -49 -50
leaf_value=-0.16282486083650585 0.048063670619846663 0.038259433846769199 -0.15797021679353937 0.0040896499733215144 0.16061767467424626 0.16957073599888853 0.19556080845935753 0.10640882581922524 -0.1075542636650043 -0.09193729985515714 -0.053365231617288934 0.075376235637323957 0.19528066478794018 -0.084833803989978113 0.035648608968587292 0.044655480377388507 0.13450875446044874 -0.022678694635595048 -0.11703672314587535 -0.012785962443855015 -0.12223459948433578 -0.15560038630005837 -0.15658859419879376 0.028054660299023274 0.16897387891342766 0.0091286081079837156 -0.18998541679498299 0.052516201163161018 0.17133732218978326 -0.020851040809217375 -0.13748429133977755 0.12970123545534815 0.099801159606533213 -0.14814089180828979 -0.15969267300412598 -0.066572697609550577 -0.094995973765894123 -0.04293902584875435 -0.11517730474830257 -0.13837192931739034 -0.15847651987853587 0.049205099179481515 0.035131068853846655 0.041702477669554795 -0.15505289977211573 0.028305281181831191 0.16729288697175038 0.16847774318516884 0.18939801592361755
leaf_weight=0.71306475996971119 2.8978258520364779 0.48248073458671459 1.3970953822135914 0.49092242121696772 51.735382571816444 0.72723042964935602 1.2481400966644285 0.72436074912548043 14.826098203659059 1.728536501526831 4.0944830775260908 2.2157618105411534 1.4812003821134565 35.188028112053871 0.48126322031021107 1.4743556827306736 11.245171338319777 1.7319307029247282 4.8182164132595062 4.1057066321372986 5.7771061658859244 0.69281892478466034 16.843062460422516 1.7120906412601531 1.9308865517377842 9.4234491586685163 1.4820130765438082 1.4563186317682264 2.4267697185277939 4.2290511876344672 8.2520746439695341 2.9293287992477417 1.9898678362369535 11.101324841380118 7.0207653492689124 1.4831902682781217 1.4289863705635069 1.2450781017541883 4.8450472652912167 16.81780906021595 1.1641302704811094 0.4723755121231078 0.48342931270599354 0.47944653034210205 0.46193832159042347 1.4472516477107999 8.4105255454778654 11.081434950232504 3.2301969528198242
leaf_count=3 12 2 6 2 216 3 5 3 63 7 17 9 6 146 2 6 46 7 20 17 25 3 73 7 8 38 6 6 10 17 35 12 8 48 30 6 6 5 21 73 5 2 2 2 2 6 35 46 13
internal_value=-0.00225096 -0.0967273 -0.0637617 0.122085 0.127373 0.0693274 0.069547 -0.0360272 -0.0733724 -0.0826532 -0.0377233 0.0244 0.0769666 -0.0980923 -0.108391 0.138848 0.124116 0.0323794 -0.0878342 0.0151456 -0.141936 -0.0761795 -0.143128 0.0257627 0.0325626 0.0188561 -0.000848599 -0.0699046 0.112176 -0.00668984 -0.118285 0.149593 0.0809135 -0.146416 -0.142089 -0.0327733 -0.11791 -0.0715331 -0.138293 -0.133213 -0.119405 -0.0985527 0.0679596 0.0809301 -0.124789 0.0415263 0.162653 0.162018 0.185977
internal_weight=274.125 155.767 90.088 118.358 114.529 43.3015 6.05583 3.82929 84.0322 66.6687 17.3635 8.40251 5.42889 58.2662 1.87836 16.677 12.7195 3.94769 8.9127 8.45078 65.6789 1.1753 64.5036 26.6246 21.2054 19.2746 5.41912 2.93833 4.13886 15.1357 23.0782 4.17747 2.48079 56.628 39.7849 5.71224 2.14205 2.97361 32.7642 21.6629 7.87555 1.63651 1.68724 1.20381 6.23904 4.34508 71.2273 62.8168 3.95743
internal_count=1148 659 375 489 473 176 25 16 350 278 72 34 22 244 8 68 52 16 37 35 284 5 279 108 86 78 22 12 17 61 98 17 10 245 172 23 9 12 142 94 34 7 7 5 27 18 297 262 16
is_linear=0
shrinkage=0.1


Tree=4
num_leaves=24
num_cat=0
split_feature=6 11 5 2 9 4 2 5 2 4 4 2 2 9 9 1 5 2 2 1 9 1 9
split_gain=319.22 27.5516 7.07158 6.538 3.82747 3.78205 2.44114 1.35837 0.984463 5.70295 0.47133 0.271732 0.187809 0.167862 0.0819472 0.10052 0.0651513 0.094169 0.053156 0.0482789 0.0302375 0.0226555 0.0142163
threshold=0.8781500000000001 0.73635000000000017 289.98140000000006 482.86915000000005 0.81545000000000012 75068.000000000015 516.35385000000008 305.19580000000002 480.42750000000007 111064.50000000001 86793.500000000015 393.81290000000007 449.46245000000005 0.8801000000000001 0.80345000000000011 1180.8090000000002 302.27610000000004 443.54710000000006 446.35200000000003 1166.9390000000001 0.75555000000000005 1118.1695000000002 0.80505000000000015
decision_type=2 2 2 2 2 2 2 2 2 2 2 2 2 2 2 2 2 2 2 2 2 2 2
left_child=1 2 -1 5 20 -4 7 16 11 -10 -7 22 -9 14 15 -13 18 -18 -2 -16 -5 -14 -3
right_child=6 8 3 4 -6 10 -8 12 9 -11 -12 13 21 -15 19 -17 17 -19 -20 -21 -22 -23 -24
leaf_value=0.02479575692554057 0.13394509924977854 -0.15427341371034919 -0.10596550773951541 0.0012852501662491489 0.11612142662870205 -0.047236335735374106 0.15499706354773909 0.061094854074642248 -0.16231958632755025 0.23285002770494467 -0.072628291880309642 -0.094877972296426971 0.10188300727376463 -0.14857493965103638 -0.12657829538734797 -0.14977755876857288 0.1947286218081066 0.14658733101109986 0.14563538557761646 -0.13494495222892544 -0.023959005404948525 0.113119811258779 -0.14142485964835053
leaf_weight=11.081695735454558 13.594552725553518 1.5958731025457407 23.558646500110626 0.49736325442790885 2.4658939987421027 25.870473966002464 37.507411137223244 0.74649703502654929 1.4121779054403294 0.48717045783996571 10.233604177832602 1.6111577898263925 2.4727667868137351 4.406305104494094 34.39036713540554 0.4476894438266753 0.49682366847991843 5.1772694736719131 6.9866440892219535 10.65131939947605 9.6088066548109037 37.171297818422318 24.123729810118675
leaf_count=46 58 7 101 2 10 108 162 3 6 2 43 7 10 20 155 2 2 22 30 47 39 157 109
internal_value=-0.00209488 -0.0897144 -0.0495751 -0.0609857 0.00455054 -0.0747949 0.134558 0.123045 -0.131974 -0.0606075 -0.0544431 -0.133725 0.111492 -0.129453 -0.127648 -0.107157 0.140792 0.150973 0.137949 -0.128572 -0.0227151 0.112432 -0.142253
internal_weight=266.596 162.442 83.3165 72.2348 12.5721 59.6627 104.153 66.6459 79.1258 1.89935 36.1041 77.2264 40.3906 51.5068 47.1005 2.05885 26.2553 5.67409 20.5812 45.0417 10.1062 39.6441 25.7196
internal_count=1148 704 349 303 51 252 444 282 355 8 151 347 170 231 211 9 112 24 88 202 41 167 116
is_linear=0
shrinkage=0.1


Tree=5
num_leaves=46
num_cat=0
split_feature=10 6 10 2 2 4 0 4 4 9 4 4 0 0 4 4 4 4 8 8 8 8 2 2 0 0 8 8 8 8 8 3 4 9 9 9 4 8 8 0 0 0 0 0 0
split_gain=214.767 62.1723 28.238 6.84687 9.72453 3.90261 12.8176 3.87906 3.33101 2.2042 4.15973 0.886736 0.823721 2.24013 0.796551 2.20822 0.4471 0.241512 1.16271 0.399728 0.207882 0.196937 0.195836 0.328446 0.174532 0.199435 0.161076 0.141564 0.094409 0.147558 0.130787 0.079349 3.17205 0.830072 1.68977 0.553029 0.0701315 0.0584224 2.07286 0.0431028 0.0466253 0.0955282 0.0587543 0.111746 0.0523027
threshold=1.9050500000000004 0.86675000000000013 2.2140000000000009 404.28785000000005 501.10335000000003 64486.000000000007 82568.500000000015 71561.500000000015 86325.500000000015 0.78105000000000013 96034.500000000015 75990.500000000015 84745.500000000015 85677.500000000015 81146.500000000015 65990.000000000015 80976.500000000015 87387.000000000015 0.72880000000000011 0.74815000000000009 0.70265000000000011 0.71230000000000016 477.6135000000001 422.70215000000002 81246.000000000015 72951.000000000015 0.63495000000000013 0.73365000000000014 0.7642000000000001 0.61775000000000013 0.74455000000000016 233.59930000000003 101469.00000000001 0.85725000000000007 0.81775000000000009 0.81065000000000009 73884.000000000015 0.73505000000000009 0.74635000000000007 91660.500000000015 90772.500000000015 85230.500000000015 75176.000000000015 67713.500000000015 82819.000000000015
decision_type=2 2 2 2 2 2 2 2 2 2 2 2 2 2 2 2 2 2 2 2 2 2 2 2 2 2 2 2 2 2 2 2 2 2 2 2 2 2 2 2 2 2 2 2 2
left_child=9 3 5 -2 12 21 7 27 -8 10 14 37 16 -14 15 -1 -5 18 20 -19 -10 -3 23 28 25 -24 -13 -7 29 -4 -31 33 39 34 35 -11 -25 -9 -39 40 41 42 43 -33 -44
right_child=1 2 22 4 -6 6 8 11 17 31 -12 26 13 -15 -16 -17 -18 19 -20 -21 -22 -23 24 36 -26 -27 -28 -29 -30 30 -32 32 -34 -35 -36 -37 -38 38 -40 -41 -42 -43 44 -45 -46
leaf_value=-0.155888851345232 0.092674909667527644 0.11368821856177064 0.14826506243008125 -0.083309720077770835 0.11209719181925276 0.058636227652597718 0.0096907009457664478 -0.046502035651056511 -0.02517471429692987 -0.041486876185977802 0.2332000456511476 0.0096841420138074289 0.11759893412190858 -0.067974376334914099 -0.15674837569523994 0.025895508247848916 -0.12528792306493641 0.11498701118452992 0.18347223297961857 0.15915113039506695 0.058586881518938365 0.15703400457251979 0.14889432003746961 0.15127475860168396 0.14274604085393791 0.12279294723365315 -0.016907846443681915 0.09805751399841113 0.15232814220351906 0.083889826542550519 0.14662509163298723 -0.14125393456718066 -0.032994788755112366 -0.14238595244260385 -0.12288431889364337 -0.09279768879867617 0.16537194019046744 0.034211111301390117 -0.13550179223246395 -0.11338028888839809 -0.14289148345449906 -0.1277360849162423 -0.11554788063936255 -0.10065084892748628 -0.12795201566822523
leaf_weight=1.1325640976428983 3.2088944166898719 2.1045668125152579 0.88355965912342416 16.92854392528535 2.9475157856941214 4.3416448682546642 3.4188641756773022 5.1412412226200122 0.49214223027229553 3.5846853852272016 0.48786684870719899 2.9541952013969413 0.70648624002933313 7.630145251750946 0.91665746271610249 1.6165405660867689 3.0132133960723868 11.58433376252651 0.74066708981990803 2.545061767101287 0.73042356967926025 2.2933671772480011 4.189517453312873 12.049222022295 40.781620591878891 11.270460993051527 9.895054101943968 1.1729212552309034 0.9036332070827483 1.5441747307777403 0.43932968378067005 0.83398123085499065 4.7216676920652381 10.243905290961264 25.239822447299957 5.1205892711877823 6.3648868501186362 1.2362098395824435 1.711467459797859 13.040657818317412 1.0554854124784459 11.533354774117468 13.824850872159006 4.8066364526748657 5.3964537829160681
leaf_count=5 13 9 4 73 12 18 14 21 2 16 2 12 3 32 4 7 13 49 3 11 3 10 19 54 184 51 40 5 4 7 2 4 21 49 117 23 27 5 7 59 5 54 65 23 25
internal_value=0.00156189 0.0730279 0.10494 -0.0463233 -0.0606204 0.0465003 0.0378798 -0.00747445 0.0993558 -0.11108 -0.0396427 -0.0271288 -0.0786403 -0.052185 -0.0762272 -0.0491367 -0.0896833 0.118395 0.085041 0.122997 0.0248909 0.136448 0.142462 0.150621 0.139231 0.129913 -0.0107914 0.0671051 0.123238 0.113815 0.098127 -0.114063 -0.111422 -0.117349 -0.109773 -0.0717065 0.156192 -0.0530562 -0.0643842 -0.118752 -0.120607 -0.119941 -0.116299 -0.106777 -0.119064
internal_weight=266.779 163.223 128.789 34.4348 31.2259 50.3622 45.9642 26.4527 19.5115 103.556 4.15363 20.9382 28.2784 8.33663 3.66576 2.7491 19.9418 16.0926 1.96323 14.1294 1.22257 4.39793 78.4264 22.1848 56.2416 15.46 12.8492 5.51457 3.7707 2.86706 1.9835 99.4021 55.2131 44.189 33.9451 8.70527 18.4141 8.08892 2.94768 50.4914 37.4508 36.3953 24.8619 5.64062 19.2213
internal_count=1186 707 561 146 133 209 190 108 82 479 18 85 121 35 16 12 86 68 8 60 5 19 352 98 254 70 52 23 17 13 9 461 256 205 156 39 81 33 12 235 176 171 117 27 90
is_linear=0
shrinkage=0.1


Tree=6
num_leaves=33
num_cat=0
split_feature=10 11 9 5 5 4 2 5 2 4 9 9 3 9 9 4 4 4 4 4 4 4 4 2 5 5 3 5 5 4 5 9
split_gain=198.381 32.9192 9.9166 5.68489 5.11869 4.1209 3.84247 2.92961 1.95874 0.646324 0.414453 0.402542 0.911069 0.586877 0.331527 0.256044 2.86529 0.194963 0.623529 1.20494 0.482296 0.183112 1.55375 0.163306 0.0636086 3.71384 0.0426637 0.00772968 0.00482489 0.283563 0.063016 0.00108605
threshold=1.9441000000000002 0.70525000000000015 0.80805000000000016 361.9178500000001 353.16375000000005 57831.500000000007 533.1096500000001 291.34045000000009 458.51105000000001 99638.000000000015 0.84945000000000015 0.80055000000000009 261.64380000000006 0.72755000000000014 0.81015000000000015 77748.000000000015 72701.500000000015 88778.500000000015 83566.500000000015 77914.000000000015 72818.000000000015 72993.500000000015 92720.000000000015 555.28960000000006 315.54190000000006 337.07765000000006 214.42735000000002 307.59145000000007 330.63720000000006 68469.000000000015 355.16620000000006 0.81275000000000008
decision_type=2 2 2 2 2 2 2 2 2 2 2 2 2 2 2 2 2 2 2 2 2 2 2 2 2 2 2 2 2 2 2 2
left_child=4 6 3 28 5 31 7 -2 -6 15 14 13 21 -7 -10 16 -4 18 19 20 -15 -13 -23 -8 27 -26 -25 -9 29 -3 -30 -1
right_child=1 2 9 -5 8 11 23 24 10 -11 -12 12 -14 17 -16 -17 -18 -19 -20 -21 -22 22 -24 26 25 -27 -28 -29 30 -31 -32 -33
leaf_value=0.044203993146598883 0.12942706165171328 -0.16465786378069386 0.070535443500262529 0.17240819474224719 -0.13808529538952222 -0.15251097926480695 0.14268168948249302 0.080646318258763006 -0.031476483739844491 0.16752988973336883 -0.056683346886166996 -0.1102787056126745 -0.13877431293898576 -0.060660941546428537 0.023925957785371717 0.080941172688502094 -0.15264508484063607 -0.023767150258630243 -0.14877597503925216 -0.14969932591955479 0.014997017321575941 -0.10686782083563291 -0.051208013140678278 0.14178650640252519 0.064492906597083469 0.12286593627710446 0.12296249254037722 0.077186021815756539 -0.12788795436047212 -0.1058354116667559 -0.092601302532398705 0.03690036766470773
leaf_weight=0.4768818318843836 15.593643367290495 0.94081205129623224 3.5404417216777793 0.73004554212093431 1.2056696563959102 1.115360438823698 11.924631625413896 20.395796462893486 1.425219193100929 0.48187290132045735 1.0895371884107588 34.996783435344696 8.6445800960063917 3.1546973437070847 4.4081826061010361 1.6428393274545667 0.68179528415203083 0.69069916009902943 1.0953820645809171 1.3187618255615232 1.1461952924728391 45.729921936988831 5.6499823480844489 1.6677325814962376 31.47134193778038 16.693948239088058 10.24059437215328 17.002265185117722 2.3903824985027327 7.4124815613031387 0.7371634542942046 1.529491066932678
leaf_count=2 72 4 15 3 6 5 57 91 6 2 5 171 43 14 19 7 3 3 5 6 5 221 25 8 138 75 49 74 10 32 3 7
internal_value=0.00146525 0.0796146 -0.0446548 -0.0973436 -0.0972181 -0.103107 0.0980667 0.089546 -0.0207365 0.0567075 -0.000212317 -0.105857 -0.107733 -0.0848844 0.010372 0.0474647 0.0343551 -0.0746012 -0.079806 -0.0662392 -0.0405003 -0.104619 -0.100753 0.134205 0.0822705 0.0847358 0.125659 0.0790841 -0.114566 -0.112557 -0.119737 0.0387497
internal_weight=257.225 143.548 18.5578 12.2109 113.677 105.549 124.99 101.157 8.12861 6.34695 6.92294 103.542 95.0213 8.5211 5.8334 5.86508 4.22224 7.40574 6.71504 5.61965 4.30089 86.3767 51.3799 23.833 85.5634 48.1653 11.9083 37.3981 11.4808 8.35329 3.12755 2.00637
internal_count=1186 643 79 52 543 507 564 450 36 27 30 498 460 38 25 25 18 33 30 25 19 417 246 114 378 213 57 165 49 36 13 9
is_linear=0
shrinkage=0.1


Tree=7
num_leaves=29
num_cat=0
split_feature=11 11 7 4 0 5 3 5 0 4 7 5 7 5 1 0 9 5 7 3 5 5 0 11 7 0 5 0
split_gain=139.917 35.7316 22.5895 8.40057 9.40009 0.718264 0.69858 0.663132 1.97901 1.4562 0.65459 0.649187 0.567768 0.82771 0.468341 0.307709 0.28437 0.199444 0.652196 0.938649 0.0988543 0.203296 0.0784654 0.135174 0.0330512 0.0117122 0.0474002 0.257829
threshold=0.66480000000000017 0.75095000000000012 0.98985000000000012 85905.500000000015 66846.500000000015 331.84520000000003 242.58600000000004 292.57565000000005 109156.00000000001 59147.000000000007 0.9829500000000001 385.16975000000008 0.98465000000000014 299.91760000000005 1140.0440000000001 77911.000000000015 0.83205000000000007 314.45865000000009 0.9859500000000001 217.98960000000002 341.70425000000006 295.56750000000005 70119.500000000015 0.65005000000000013 0.98345000000000016 89398.500000000015 320.41795000000008 86865.500000000015
decision_type=2 2 2 2 2 2 2 2 2 2 2 2 2 2 2 2 2 2 2 2 2 2 2 2 2 2 2 2
left_child=17 2 7 4 -4 -5 -6 9 14 24 -11 -7 13 16 -9 -16 -3 22 19 -19 21 -14 23 -1 -2 26 -23 -28
right_child=1 12 3 5 6 11 -8 8 -10 10 -12 -13 20 -15 15 -17 -18 18 -20 -21 -22 25 -24 -25 -26 -27 27 -29
leaf_value=0.13777535343531339 0.039458855885711658 -0.064743904913183686 0.087931731611415584 0.013392008209068213 -0.026000879171604614 0.068516054969903956 -0.13545006770391529 -0.072974180863750515 0.14746681062002653 -0.14700557731281796 -0.043819261337466511 0.18924902585441156 -0.13337588897376093 -0.13428262748215256 0.025475642922480231 -0.055931117385140332 0.016595956978247332 0.030294381135383037 0.12751798694389366 0.14357278044449182 -0.13595137885573491 -0.11202578674798769 0.14059056616802862 0.11362195331332535 0.073213394493556544 -0.13218526254849514 -0.13370020799262158 -0.095705432963708231
leaf_weight=6.3692013174295443 0.48116454482078441 1.3792525976896279 8.707537040114401 2.3982704132795361 35.479454606771469 23.778115630149845 0.58831325173377891 33.673003911972046 0.43501685559749503 0.65146131813526054 10.019444301724432 0.45080654323100944 11.244847565889357 1.7155483216047285 0.47156724333763378 21.595262214541435 0.62045092880725849 1.717877954244613 36.589468613266945 1.2740917801856992 6.767749309539794 13.322771549224859 14.317622140049933 4.015627846121788 0.83603113889694214 0.74683979153633018 6.0405717492103559 2.6408178806304932
leaf_count=32 2 7 39 11 162 108 3 152 2 3 47 2 60 9 2 96 3 8 183 6 35 70 70 20 4 4 32 14
internal_value=0.00134036 -0.043022 -0.0181456 0.0211617 -0.0052899 0.065635 -0.0278051 -0.0593199 -0.0638789 -0.0379379 -0.0501862 0.0708017 -0.121068 -0.0834035 -0.0655417 -0.0541854 -0.0395202 0.128343 0.123838 0.0786969 -0.124489 -0.122187 0.135534 0.128496 0.0610908 -0.116628 -0.11607 -0.122206
internal_weight=248.328 184.044 139.565 71.4025 44.7753 26.6272 36.0678 68.163 56.1749 11.9881 10.6709 24.2289 44.4788 3.71525 55.7398 22.0668 1.9997 64.2839 39.5814 2.99197 40.7636 33.9958 24.7025 10.3848 1.3172 22.751 22.0042 8.68139
internal_count=1186 867 633 325 204 121 165 308 252 56 50 110 234 19 250 98 10 319 197 14 215 180 122 52 6 120 116 46
is_linear=0
shrinkage=0.1


Tree=8
num_leaves=31
num_cat=0
split_feature=6 10 4 8 0 8 5 9 0 4 3 4 0 8 3 0 9 8 5 0 3 0 0 4 4 3 3 3 0 8
split_gain=167.656 21.2767 7.76588 1.79354 1.014 0.409089 2.48795 2.00189 0.547367 0.809484 0.400693 1.21142 0.380688 0.367094 0.460688 1.88371 0.271138 2.91805 0.246023 0.221537 0.216858 0.107833 0.174198 0.100444 1.01486 0.0844249 0.0493712 0.0174304 0.00507036 0.00503586
threshold=0.86240000000000017 2.2701000000000007 87530.000000000015 0.72325000000000006 75986.500000000015 0.71360000000000012 272.80420000000009 0.82555000000000012 75095.500000000015 100328.50000000001 216.91690000000003 90920.500000000015 68319.000000000015 0.74275000000000013 231.22760000000002 108799.00000000001 0.73155000000000014 0.67605000000000015 322.04700000000008 93627.500000000015 257.90390000000008 83517.500000000015 76889.000000000015 66080.000000000015 61593.000000000007 216.17870000000002 231.49685000000002 260.98035000000004 82819.000000000015 0.74455000000000016
decision_type=2 2 2 2 2 2 2 2 2 2 2 2 2 2 2 2 2 2 2 2 2 2 2 2 2 2 2 2 2 2
left_child=5 2 3 -2 -5 7 -7 16 25 19 23 12 -12 28 18 -16 -1 20 -15 -10 26 22 -14 24 -8 -9 -18 -19 -3 -4
right_child=1 13 29 4 -6 6 10 8 9 -11 11 -13 21 14 15 -17 17 27 -20 -21 -22 -23 -24 -25 -26 -27 -28 -29 -30 -31
leaf_value=-0.13915925296420525 0.0081759655217280968 0.13007842424419477 0.098902923273089818 0.028564033423091287 0.076042565822567507 0.048235944318153132 -0.15059531615424737 -0.11369885511568541 -0.11303505968410202 -0.029043098703367028 -0.11579407727615842 -0.060387321873040523 -0.07936738430492829 0.13395526469372598 -0.13194077020778613 0.13228468394986506 -0.052874778006557301 -0.11352939658502491 0.1064117689207373 -0.071353628847485071 -0.011739780466680646 -0.098814438960360976 -0.096512606471519213 -0.041495820658022903 -0.042211606233481413 -0.13225837750446109 -0.039904986553782128 -0.13856021112407213 0.13377942775927415 0.093571677476475615
leaf_weight=0.60215474665165203 30.681468605995178 21.738830178976059 14.781207174062731 11.362366706132891 7.4544296264648429 1.4664677679538716 1.134605050086974 3.8096581548452404 8.9656966775655729 1.531318575143813 7.0716234743595114 13.83737228810787 14.496452718973162 6.0491048246622068 0.37453506886958965 0.93069988489151001 9.2464410066604632 9.1490465253591502 7.4495690762996674 1.5290511399507511 1.8043318092823017 10.64850367605686 10.413105517625807 2.0340196937322617 3.6036752462387085 9.1904513835906965 4.466395527124404 0.40108515322208482 19.756538182497025 4.6790866106748572
leaf_count=3 130 114 68 50 31 7 6 19 47 7 40 68 77 32 2 5 43 43 40 8 8 56 55 10 17 50 21 2 105 22
internal_value=0.00126524 0.0813783 0.0441332 0.0230865 0.0473891 -0.0856898 -0.0803908 -0.0924444 -0.112581 -0.0970915 -0.0833773 -0.0861406 -0.0944916 0.12699 0.113307 0.0562394 -0.0727934 -0.0711711 0.118801 -0.107001 -0.0443798 -0.0902389 -0.0865533 -0.060288 -0.0682994 -0.126867 -0.0486676 -0.114654 0.131857 0.0976462
internal_weight=240.659 125.258 68.9586 49.4983 18.8168 115.401 64.7058 50.6956 25.0262 12.0261 63.2394 56.4671 42.6297 56.2993 14.8039 1.30523 25.6695 25.0673 13.4987 10.4947 15.5172 35.5581 24.9096 6.7723 4.73828 13.0001 13.7128 9.55013 41.4954 19.4603
internal_count=1186 599 301 211 81 587 336 251 131 62 329 296 228 298 79 7 120 117 72 55 72 188 132 33 23 69 64 45 219 90
is_linear=0
shrinkage=0.1


Tree=9
num_leaves=45
num_cat=0
split_feature=11 10 10 4 10 6 4 4 8 4 0 8 8 0 8 8 4 0 8 7 4 8 8 2 2 4 4 4 4 8 4 8 8 0 8 8 4 4 4 4 8 4 8 0
split_gain=135.401 31.0252 6.47202 7.46214 4.89368 3.81093 6.08062 3.51539 2.37842 2.04977 1.93657 3.28698 1.45597 1.32735 0.789022 0.780211 0.645363 3.16639 1.43343 3.35863 3.14358 0.533079 0.78379 0.521974 0.510035 0.389198 0.298056 0.208082 0.241333 0.181683 0.164863 0.0882728 0.0871063 0.402672 0.356713 0.350505 0.0823819 0.0750486 0.0638529 0.0512679 0.0329475 0.0220374 0.012298 0.00485053
threshold=0.6785000000000001 1.9628500000000002 1.7961000000000003 97945.500000000015 2.2212500000000004 0.87980000000000014 67147.500000000015 76123.000000000015 0.67015000000000013 106544.00000000001 87505.000000000015 0.70860000000000012 0.63595000000000013 72691.500000000015 0.74565000000000015 0.73045000000000015 95755.000000000015 69518.500000000015 0.74935000000000007 0.98945000000000005 87877.000000000015 0.71805000000000008 0.70195000000000007 417.31310000000002 445.98045000000008 78300.500000000015 79065.500000000015 87994.000000000015 79065.500000000015 0.68105000000000016 68469.000000000015 0.74035000000000006 0.73285000000000011 85002.500000000015 0.61775000000000013 0.76300000000000012 80976.500000000015 68617.500000000015 92306.500000000015 98815.500000000015 0.72685000000000011 96509.500000000015 0.67490000000000017 87287.000000000015
decision_type=2 2 2 2 2 2 2 2 2 2 2 2 2 2 2 2 2 2 2 2 2 2 2 2 2 2 2 2 2 2 2 2 2 2 2 2 2 2 2 2 2 2 2 2
left_child=4 2 9 27 16 6 14 12 -9 23 11 13 -8 -7 15 -3 17 -1 19 20 25 22 29 37 -13 -19 30 28 -4 -10 -6 40 34 -34 -28 -35 -30 -2 -20 41 -23 -12 -14 -25
right_child=1 5 3 -5 26 10 7 8 21 -11 39 24 42 -15 -16 -17 -18 18 38 -21 -22 31 -24 43 -26 -27 32 -29 36 -31 -32 -33 33 35 -36 -37 -38 -39 -40 -41 -42 -43 -44 -45
leaf_value=0.14777377582626788 -0.097067212929703883 0.051486020198084431 -0.068434364311166035 0.060344372806988372 0.11792531151632579 0.1612304839271882 -0.16485270922583525 0.065230186342608368 -0.040091925291434891 0.01925745375614818 0.10414104761972361 -0.10863235740450111 -0.061046494307720925 0.053772204252554127 0.16035921394396821 0.17177254294174404 0.13401702447262206 -0.035104725130920771 0.091005230772251533 0.057132314953266622 0.16117687521321739 0.00080800002698011575 -0.08160670911314466 -0.1277611350421016 -0.016246864329666395 -0.13460223793144219 0.10713460736779122 -0.057161948187611555 -0.10104427931659009 0.0074177863651740603 0.13547722392260672 -0.0079274050269457878 0.13368392841845084 0.08459367545446532 0.13168387308798629 0.13015031602253099 -0.080779958332774848 -0.10738085579314788 0.13751461831935757 0.13477165202304184 0.022604888634166272 0.1330963978313929 -0.052081375500960647 -0.12235220265374221
leaf_weight=2.5647557526826832 12.615463986992838 3.2166222929954524 28.633130982518196 4.795352339744567 8.3109353482723254 1.5934593975543956 1.3890500217676187 4.661098942160609 1.223137587308883 1.2323691248893727 2.520185604691505 0.71064248681068409 2.403128966689108 4.1292160153388977 1.365584924817085 0.64542517066001881 0.95606955885887224 0.48338724672794242 1.4946013092994679 4.8286725729703903 0.47387915849685658 1.1702477484941467 2.5485923737287521 7.1451989263296154 3.6426340341567993 2.2174299955368042 12.102173179388048 9.9753161072731 2.7553063780069342 2.3311827927827835 17.507518321275711 5.3957658857107162 4.4347081482410422 6.5696865320205671 12.061727672815321 2.3111007213592529 8.8093084245920164 19.02041283249855 0.40225690603256214 1.1482084989547727 1.7040039896965025 0.3833763301372527 6.226275160908699 11.697137266397474
leaf_count=12 74 14 143 20 47 7 6 20 5 6 12 3 10 17 6 3 5 2 7 21 2 5 11 42 15 9 67 47 14 10 94 23 24 37 67 13 45 111 2 6 7 2 27 66
internal_value=0.00119732 -0.0525566 -0.0826847 -0.0587851 0.109857 0.0138397 -0.00417395 -0.0220436 0.00319546 -0.108082 0.0575361 0.0340252 -0.0699745 0.083811 0.0950596 0.0717886 0.0549767 0.0488617 0.0231743 0.00462503 -0.0751972 -0.0169368 -0.0393423 -0.111192 -0.0314391 -0.116898 0.121488 -0.0701762 -0.0733979 -0.00896058 0.129852 -0.000386867 0.115709 0.108942 0.119414 0.0965175 -0.085651 -0.103285 0.101212 0.115885 0.0137526 0.108192 -0.0546137 -0.124438
internal_weight=231.806 155.087 106.679 54.9684 76.7189 48.4078 34.2801 29.0525 19.034 51.7106 14.1277 10.076 10.0185 5.72268 5.22763 3.86205 13.4211 12.465 9.90023 8.00337 3.1747 14.3729 6.10291 50.4782 4.35328 2.70082 63.2978 50.1731 40.1977 3.55432 25.8185 8.27002 37.4794 13.3155 24.1639 8.88079 11.5646 31.6359 1.89686 4.05177 2.87425 2.90356 8.6294 18.8423
internal_count=1186 777 568 269 409 209 147 124 81 299 62 42 43 24 23 17 60 55 43 34 13 61 26 293 18 11 349 249 202 15 141 35 208 74 134 50 59 185 9 20 12 14 37 108
is_linear=0
shrinkage=0.1


Tree=10
num_leaves=54
num_cat=0
split_feature=10 8 7 4 3 1 3 3 3 3 8 7 7 4 3 8 4 3 8 3 7 7 8 3 7 4 8 6 7 4 8 4 4 8 8 4 8 8 8 7 8 8 7 4 4 8 1 3 4 8 8 4 8
split_gain=107.548 2.93008 8.75903 4.44697 6.84118 4.33086 9.98057 2.14457 2.08324 2.18472 1.66793 1.44126 6.19309 2.58317 0.978191 3.88904 3.00527 8.48607 0.856079 1.58761 0.683557 0.646554 0.571974 0.565216 1.73818 0.479714 0.676548 0.34478 1.40435 0.567833 1.04272 0.642709 2.8292 0.243973 0.201057 0.30976 0.654237 0.481934 0.181983 0.147381 0.0906853 0.124344 0.0785351 0.0763073 0.0580477 0.045595 0.0365477 0.0306738 0.0304709 0.0182787 0.0203981 0.0100757 0.00945646
threshold=2.1744500000000007 0.76135000000000008 0.99265000000000014 73096.500000000015 238.50650000000005 1243.4310000000003 195.09960000000004 215.42355000000003 230.4462 256.02280000000002 0.71010000000000006 0.98795000000000011 0.98915000000000008 88113.500000000015 227.97670000000002 0.61775000000000013 82285.000000000015 206.44355000000004 0.72985000000000011 276.14760000000007 0.98955000000000015 0.98975000000000013 0.71865000000000012 236.19230000000002 0.98645000000000016 75403.500000000015 0.72220000000000006 0.91420000000000012 0.98725000000000007 95550.500000000015 0.74345000000000006 80320.500000000015 71987.500000000015 0.75195000000000012 0.58655000000000013 72381.000000000015 0.7430500000000001 0.65795000000000015 0.64105000000000012 0.99215000000000009 0.72070000000000012 0.73705000000000009 0.99155000000000015 65112.000000000007 81912.500000000015 0.65035000000000009 1224.6865000000003 220.95140000000001 70046.500000000015 0.63745000000000007 0.71010000000000006 110154.50000000001 0.73405000000000009
decision_type=2 2 2 2 2 2 2 2 2 2 2 2 2 2 2 2 2 2 2 2 2 2 2 2 2 2 2 2 2 2 2 2 2 2 2 2 2 2 2 2 2 2 2 2 2 2 2 2 2 2 2 2 2
left_child=1 2 5 -4 -5 6 21 20 14 11 38 48 44 -14 15 47 17 -17 19 -7 -3 22 -1 24 -9 -16 -27 28 29 30 31 32 43 -12 -30 -36 37 45 -6 -25 -39 52 -26 -2 -13 -37 -29 -8 -10 -23 -51 -48 -42
right_child=27 7 3 4 10 18 8 23 9 -11 33 12 13 -15 25 16 -18 -19 -20 -21 -22 49 -24 39 42 26 -28 46 34 -31 -32 -33 -34 -35 35 36 -38 40 -40 -41 41 -43 -44 -45 -46 -47 51 -49 -50 50 -52 -53 -54
leaf_value=0.13917259038569449 -0.054649452039827497 0.21272067715379564 -0.12514822966866856 0.17458554063085749 0.13055813653762102 -0.033024132114933678 0.045528075771127406 0.27781564415569654 -0.12282467004839299 -0.11389434090004516 -0.05437830596450563 -0.13228265729977493 -0.057040662347233831 0.011243908044150451 -0.12457121486217959 0.047819836783421894 0.099105161495822186 -0.072826576282908104 0.05089585240443259 0.13084728937621748 0.066044410884673971 0.13412760541603849 0.010629282695724331 -0.043821591637518267 0.010068845860338094 -0.099591875032672458 -0.0016550057476710273 0.12628096481979884 0.1287472976982254 0.13121277940675244 0.13676887976947835 -0.028751324861820277 0.14560724648437584 0.0096403961146105405 0.13075981121260552 0.090353430736419049 0.077194324920371829 0.13563780062479949 0.053711006528170471 -0.12263106442793448 0.1022751083518415 0.13703741437608533 -0.023713223895256159 -0.11375829119140624 -0.1589763313021339 0.12860439448137237 0.11513549615347632 0.017178946699914394 -0.10033439911356382 0.18692557796521236 0.15322196437244234 0.12622322998773963 0.12469942886054997
leaf_weight=0.61331883072853022 0.53759042918682087 0.63410903513431438 1.4471327662467945 3.4682966172695142 0.36910685896873507 4.7259066551923734 3.8871737420558921 0.22813765704631839 0.77201588451862235 13.260930582880972 3.058313980698586 1.2661253213882435 20.248926475644115 7.6233483701944342 2.535852685570716 6.5873984247446051 1.2252529263496388 50.4955874979496 3.5023313611745834 0.67065049707889546 0.64567913115024567 0.38811542093753804 0.78915213048458099 0.95230501890182473 1.3916306197643282 2.0380126535892491 1.0780466943979261 9.3804051280021685 6.4491642564535132 0.91415986418724049 0.98521859943866719 1.5229205787181852 1.3763256669044492 0.73668597638607014 5.4330660253763225 6.2655171453952851 6.6446349173784247 5.8915849775075895 1.8836545944213865 0.3168853372335434 3.0311675369739537 1.9978037774562833 1.3516325354576109 0.38889704644680023 4.3877307921648026 0.35767406225204457 9.1519774049520475 0.43420106172561634 8.5228558331727964 0.48139689862728097 0.81731179356575012 1.6548226624727238 0.33209989964961995
leaf_count=3 3 3 9 16 2 22 17 1 5 79 17 7 116 36 16 28 5 256 16 3 3 2 4 5 7 10 5 57 38 5 5 7 7 4 31 34 36 33 9 2 17 11 7 2 22 2 56 2 45 2 4 10 2
internal_value=-0.000268292 -0.0454139 -0.0480943 0.0378848 0.0627321 -0.0550086 -0.0597177 0.0260913 -0.0641297 -0.0784152 -0.0015028 -0.0674155 -0.0577383 -0.0383649 -0.0523914 -0.0487877 -0.055572 -0.0589007 0.0124308 -0.012554 0.139277 0.117701 0.067149 -0.00818773 0.0156775 -0.0922427 -0.0657711 0.110451 0.105245 0.0591195 0.0452953 0.0215867 0.0548737 -0.0419505 0.11249 0.108968 0.104114 0.114094 0.0665705 -0.0639149 0.126746 0.116855 -0.0065831 -0.0799552 -0.153124 0.092517 0.121286 0.0427064 -0.102269 0.1594 0.166396 0.116892 0.104676
internal_weight=215.15 152.835 147.315 10.9632 9.51606 136.352 127.453 5.52038 124.363 56.0819 6.04776 42.821 33.5261 27.8723 68.2815 62.6296 58.3082 57.083 8.89889 5.39656 1.27979 3.0893 1.40247 4.24059 2.9714 5.65191 3.11606 62.315 42.1278 5.72511 4.81095 3.82573 2.30281 3.795 36.4027 29.9535 24.5205 17.8758 2.25276 1.26919 11.2527 5.36107 2.74326 0.926487 5.65386 6.62319 20.1872 4.32137 9.29487 1.68682 1.29871 10.8068 3.36327
internal_count=1146 790 762 57 48 705 664 28 649 310 32 231 181 152 339 308 289 284 41 25 6 15 7 22 15 31 15 356 233 29 24 19 12 21 204 166 135 99 11 7 63 30 14 5 29 36 123 19 50 8 6 66 19
is_linear=0
shrinkage=0.1


Tree=11
num_leaves=55
num_cat=0
split_feature=6 7 11 11 11 3 7 8 3 1 7 7 8 3 1 5 3 8 5 3 1 3 5 0 8 8 0 0 0 1 8 8 3 3 3 8 8 1 1 8 0 8 8 3 5 1 1 1 1 1 8 0 0 8
split_gain=86.256 5.51795 5.27442 5.16079 5.53577 3.37069 2.02377 2.89871 1.68769 2.41893 1.59726 1.50812 4.33601 1.29596 1.28082 1.18548 2.58197 5.07402 3.87165 1.07108 0.997631 0.612035 0.329556 2.6104 0.992277 0.327474 0.277403 0.313196 0.309604 0.249362 0.661131 0.20711 0.178515 1.09641 0.15375 0.152858 0.281263 0.0835609 2.76002 0.320524 0.169082 0.0749216 0.386737 0.0554111 0.0548783 1.04009 0.660292 0.0869349 0.0498847 0.339721 0.0409668 0.0331609 0.277904 0.00736937
threshold=0.85905000000000009 0.98735000000000006 0.72645000000000015 0.63670000000000015 0.69575000000000009 204.8357 0.98385000000000011 0.74245000000000017 216.91690000000003 1350.5835000000002 0.98795000000000011 0.98705000000000009 0.7602000000000001 215.13970000000003 1245.6920000000002 344.08810000000005 234.23545000000004 0.73915000000000008 323.37960000000004 226.69590000000002 1201.8780000000002 224.19640000000001 287.50980000000004 99661.500000000015 0.70620000000000005 0.75840000000000007 68112.000000000015 83097.000000000015 69518.500000000015 1243.4310000000003 0.71475000000000011 0.68105000000000016 212.97335000000001 222.90840000000003 230.4462 0.70195000000000007 0.72645000000000015 1011.1895000000001 1136.1875000000002 0.73825000000000007 81246.000000000015 0.72550000000000014 0.70195000000000007 230.4462 315.54190000000006 917.67700000000013 1169.2010000000002 1025.6795000000002 1031.9790000000003 1091.8110000000004 0.6946500000000001 72691.500000000015 78099.500000000015 0.73935000000000006
decision_type=2 2 2 2 2 2 2 2 2 2 2 2 2 2 2 2 2 2 2 2 2 2 2 2 2 2 2 2 2 2 2 2 2 2 2 2 2 2 2 2 2 2 2 2 2 2 2 2 2 2 2 2 2 2
left_child=2 3 22 29 6 -6 7 13 37 15 11 12 44 -5 21 16 18 31 25 -17 -8 -12 24 32 -1 50 -23 28 -28 -2 -31 -18 -24 -34 -35 -21 -37 41 39 -39 51 42 -3 -22 45 -4 -46 -47 -13 -50 -10 -40 -53 -38
right_child=1 8 10 4 5 -7 20 -9 9 -11 14 48 -14 -15 -16 19 17 -19 -20 35 43 26 23 -25 -26 -27 27 -29 -30 30 -32 -33 33 34 -36 36 53 38 40 -41 -42 -43 -44 -45 46 47 -48 -49 49 -51 -52 52 -54 -55
leaf_value=-0.065561905617583169 0.12419855610142135 0.11403286505595706 0.1065831865392613 -0.020561099048044523 0.14326512397676888 -0.15384760089910868 0.018716634845887564 0.13048571468032813 0.0083543504988676069 0.12506974974949267 -0.11354831599999067 -0.12632169662875126 0.16431555206116732 -0.20615701839631126 -0.025019040012101243 0.12215132111508858 0.062423323918486318 -0.19268802718894631 0.089016314164160906 0.067328524580527294 0.12801981922979794 -0.1209741456421623 -0.071926540478659165 0.15955311010052281 0.071111555754843778 0.070227406552970315 -0.12176508185516377 -0.096168490908202675 -0.074000720389838417 0.12513046350469656 0.0080466251665063087 0.010898207975252532 0.0033385486644664413 -0.034426317708565038 -0.061342103137227058 0.085491585080321064 0.043122905967771415 0.053065932446108605 0.12125492762356126 0.078619923701877148 0.12330716048338149 0.072631289654779704 0.038950391609247299 0.089171959625190284 -0.12273693027197699 -0.045444736700414892 -0.039436897816062223 -0.070559287429952378 -0.06521613403663333 -0.12714946884218825 -0.0042213206698345131 0.12307576427712158 0.080619748002132618 0.03517320336153841
leaf_weight=0.94258853793144526 2.3568174391984966 3.4618714451789847 0.39464879035949696 0.60760793089866483 0.42356914281845037 3.5649631768465042 5.3488925397396088 0.5443005859851836 4.8013117164373433 4.4031736552715293 13.982857123017309 0.9671824723482122 0.97086904942989427 0.98903529345989227 2.7146326303482047 2.9836370348930386 1.5298595279455178 1.3980019837617872 11.404906660318373 6.8878174722194654 0.52192485332489047 2.5962270498275748 1.4380836188793242 0.68993726372718711 1.2039739042520521 0.7395760118961342 1.4838112592697168 18.69156539440155 17.382907882332802 1.1342447102069853 0.83808410167694081 1.593484118580818 5.0166072696447364 3.0150436609983426 7.3906898498535156 1.5146804451942442 1.8107669204473493 19.5961376875639 0.88559351861476709 6.5966845154762259 7.9551811665296555 1.5326623171567915 0.86468756198883046 1.6799562871456144 1.3532261848449705 2.3917507529258728 3.2100128382444382 3.420236349105835 1.6331761628389361 1.9890532046556471 5.6125533580780029 2.7575487494468689 3.6355011016130447 4.5191818624734879
leaf_count=4 15 19 2 3 2 16 25 3 20 28 84 6 5 4 12 20 7 6 57 39 3 18 7 3 5 3 10 114 108 7 5 7 26 16 37 8 9 100 6 33 52 8 4 8 9 15 19 20 10 12 24 18 21 24
internal_value=-0.000221821 0.0578649 -0.0718261 0.00704838 -0.0230699 -0.122151 0.0177465 -0.0679643 0.067349 0.0543705 -0.0841888 -0.0565896 -0.0375596 -0.135823 -0.0921105 0.0474076 0.0342377 -0.0347033 0.0480608 0.067522 0.0420799 -0.0954717 -0.0258828 -0.030406 0.011076 0.00615946 -0.0891633 -0.0869481 -0.0777894 0.102143 0.0755332 0.0362004 -0.0382251 -0.0350593 -0.0535651 0.0564197 0.0468025 0.0808451 0.0792219 0.0595161 0.113072 0.0922418 0.0990931 0.0986568 -0.0558273 -0.0495853 -0.0642503 -0.0602748 -0.105175 -0.099358 0.00157642 0.101806 0.0990169 0.0374821
internal_weight=207.373 114.494 92.8791 18.0094 13.6802 3.98853 9.69172 2.14094 96.4848 49.199 73.1822 16.3302 11.7407 1.59664 56.852 44.7958 27.0797 4.52135 22.5583 17.7161 7.55077 54.1374 19.6969 17.5504 2.14656 11.1534 40.1545 37.5583 18.8667 4.32915 1.97233 3.12334 16.8604 15.4223 10.4057 14.7324 7.84463 47.2859 41.4266 26.1928 15.2338 5.85922 4.32656 2.20188 10.7699 6.20664 4.56324 5.81199 4.58941 3.62223 10.4139 7.27864 6.39305 6.32995
internal_count=1146 604 542 91 64 18 46 10 513 252 444 98 70 7 346 224 124 20 104 100 36 334 98 89 9 47 250 232 118 27 12 14 86 79 53 80 41 261 230 133 97 31 23 11 65 37 28 35 28 22 44 45 39 33
is_linear=0
shrinkage=0.1


Tree=12
num_leaves=31
num_cat=0
split_feature=6 2 6 6 9 6 8 2 9 8 8 8 8 8 8 8 4 4 1 8 8 4 4 8 8 8 8 8 8 8
split_gain=74.8391 7.72234 11.4573 5.55142 4.78022 2.25863 2.02207 3.41513 1.58817 3.31413 1.11506 2.08783 0.976039 0.555001 0.40292 0.274365 0.284976 0.237845 0.174692 0.140293 0.113511 0.0983859 0.566499 0.252487 1.24812 0.0272703 0.198688 0.0148791 0.0304441 1.03927
threshold=0.89315000000000011 438.29205000000007 0.87380000000000013 0.85275000000000012 0.73920000000000008 0.80540000000000012 0.73915000000000008 429.42590000000007 0.77585000000000015 0.75445000000000018 0.63255000000000006 0.73450000000000015 0.68105000000000016 0.73135000000000006 0.61585000000000012 0.60515000000000019 68973.000000000015 91321.500000000015 1018.2010000000001 0.74765000000000015 0.6957000000000001 74127.000000000015 102343.50000000001 0.76235000000000008 0.72805000000000009 0.74565000000000015 0.75840000000000007 0.72685000000000011 0.71360000000000012 0.61975000000000013
decision_type=2 2 2 2 2 2 2 2 2 2 2 2 2 2 2 2 2 2 2 2 2 2 2 2 2 2 2 2 2 2
left_child=1 3 5 8 -4 -3 -5 -8 9 12 -6 -12 -1 14 -7 -2 18 19 -17 -10 -16 -18 25 24 -24 27 -27 28 29 -23
right_child=15 2 4 6 10 13 7 -9 17 -11 11 -13 -14 -15 20 16 21 -19 -20 -21 -22 22 23 -25 -26 26 -28 -29 -30 -31
leaf_value=0.044000192559555416 0.12353485232736766 -0.12359323591324665 -0.21235652360663759 -0.031921411671149279 0.08051755356981212 -0.10607207468910174 0.0704653890187521 -0.14885280864605982 -0.078201312377841017 0.24087244582760642 0.0063948082595071945 0.069778813914472507 -0.1228818738962288 -0.051516464549286982 -0.020240618905992491 0.052763208921385224 0.12334952672462494 -0.11883176999937971 0.095412343742604197 -0.062316241948999679 -0.033137474430363828 0.0021114767812510748 0.12107283768703858 0.12321611513177047 -0.0051289667267904165 0.085417854434820042 0.12358795865230061 0.12140372294978063 0.12442000540179438 0.12148473482353006
leaf_weight=0.56015588343143352 12.282999992370604 3.1423263996839514 0.73462875187397259 18.764153555035595 6.7785287946462658 0.63626337051391857 4.6539657413959494 0.83281370997428883 43.964669615030289 0.48137381672859181 11.977549627423288 9.1769872307777387 0.92156675457954407 14.851968973875044 15.751753374934198 1.3983167409896839 4.6226897239685085 1.3543055504560459 3.2502786219120026 6.5231095850467673 12.111507564783095 0.8063432425260596 1.5869705229997633 0.76526452600955952 1.5421899259090421 2.5187886059284201 3.1650354415178299 4.7826605737209311 2.3217646181583396 7.6741512268781662
leaf_count=3 82 21 3 90 32 3 23 4 283 2 53 43 6 75 78 9 31 10 21 43 62 5 11 5 10 16 21 33 15 53
internal_value=-0.000223063 -0.0340071 -0.0111272 -0.0560361 0.0385899 -0.0417836 -0.0163075 0.0370679 -0.0739391 0.0143099 0.0452271 0.033902 -0.0598469 -0.0358397 -0.0276619 0.110569 0.105926 -0.0772821 0.0826572 -0.0761556 -0.0258521 0.109542 0.106981 0.0717333 0.0589611 0.113416 0.106766 0.115805 0.11327 0.110144
internal_weight=199.935 153.218 75.1615 78.0561 28.6677 46.4938 24.2509 5.48678 53.8052 1.9631 27.9331 21.1545 1.48172 43.3515 28.4995 46.7175 34.4345 51.8421 4.6486 50.4878 27.8633 29.7859 25.1632 3.89442 3.12916 21.2687 5.68382 15.5849 10.8023 8.48049
internal_count=1146 834 370 464 131 239 117 27 347 11 128 96 9 218 143 312 230 336 30 326 140 200 169 26 21 143 37 106 73 58
is_linear=0
shrinkage=0.1


Tree=13
num_leaves=38
num_cat=0
split_feature=6 9 8 2 5 3 8 3 8 0 0 9 9 2 5 4 3 5 0 5 5 5 5 8 0 0 0 0 2 0 2 8 8 8 5 0 4
split_gain=60.7832 16.1714 2.48833 2.32966 1.35997 6.36797 1.70225 1.04415 1.00787 1.66319 1.64467 1.10982 1.43946 1.24215 0.967152 0.832258 0.566717 0.513905 0.411489 0.360895 0.353823 0.811829 0.148262 0.119163 1.57853 1.04365 0.328322 0.106501 0.378805 0.340721 0.0280915 0.016898 0.640167 0.015243 0.00911537 0.0062393 0.00424408
threshold=0.85865000000000014 0.77075000000000016 0.75545000000000007 523.41350000000011 350.66005000000007 235.07310000000004 0.75375000000000014 199.34125000000003 0.65795000000000015 112434.50000000001 64809.500000000007 0.83835000000000015 0.78775000000000006 387.36505000000005 305.19580000000002 104573.00000000001 257.27740000000006 287.50980000000004 73574.500000000015 356.53745000000009 312.88675000000006 319.18575000000004 303.88405000000006 0.65455000000000008 78099.500000000015 87719.500000000015 67988.000000000015 71559.500000000015 390.94375000000008 64656.000000000007 439.17855000000003 0.7440500000000001 0.71420000000000006 0.72495000000000009 339.23980000000006 67025.000000000015 69115.500000000015
decision_type=2 2 2 2 2 2 2 2 2 2 2 2 2 2 2 2 2 2 2 2 2 2 2 2 2 2 2 2 2 2 2 2 2 2 2 2 2
left_child=2 7 8 4 5 23 33 17 10 11 -1 12 35 -13 -12 -6 -9 -2 -16 20 -15 -22 -14 26 31 -26 -3 29 -29 -4 -30 32 -25 -7 -23 -10 -19
right_child=1 3 27 -5 15 6 -8 16 9 -11 14 13 22 19 18 -17 -18 36 -20 -21 21 34 -24 24 25 -27 -28 28 30 -31 -32 -33 -34 -35 -36 -37 -38
leaf_value=0.098928460139640642 0.081211257960282224 -0.010678225415453926 0.099283978839280571 0.12942909457493076 0.036833274093449178 -0.068253916576719267 -0.25056894698919413 0.079943249863491037 -0.12007597383856375 0.18372882927758438 -0.084405387204220583 -0.11872122853146644 -0.045803817645486307 -0.061635502990871366 -0.12589892966694699 0.14624016653202107 -0.0074596135410932938 0.12741857677769861 -0.012054540549320904 -0.033400092880287474 -0.031204054624871108 -0.094364005139986204 -0.060018333249563821 -0.027573123453051358 0.032098530634097205 0.13449663768858255 0.03719853272874718 -0.11758492694784624 0.015239951210522105 0.00051444147591537214 -0.0049919901269670254 -0.00037898918851973822 0.01645904346264972 -0.079093357166421699 -0.10118282969663223 -0.14140233561564844 0.11949405458770471
leaf_weight=0.80111111700534721 4.6293937116861335 1.8406179994344691 0.44743864238262077 1.5558479875326146 3.530794918537139 3.2220626026391974 0.5918050855398177 40.640849530696869 0.43405649065971319 0.24888609349727531 4.3494329750537855 8.5916839167475683 11.090141400694845 8.4127056002616936 0.33598507940769184 0.86293309926986683 0.75447533279657264 2.5112111121416074 4.645290732383728 1.967889055609702 2.200601562857627 7.7361746653914434 22.415207087993622 7.0482795089483314 10.694262877106665 1.0935886353254307 6.4152460992336273 0.27497385442256961 1.2886603176593783 1.533179387450218 1.4562589377164838 5.5325394421815863 6.2029344141483307 2.9658217281103134 4.9993116408586502 1.8345951735973356 7.9415993243455887
leaf_count=4 31 9 3 9 17 15 3 262 3 1 25 65 64 59 2 4 5 16 25 11 15 56 131 32 46 6 28 2 8 10 8 25 28 13 36 10 59
internal_value=-0.000166276 0.0496172 -0.0633927 0.00912127 0.00536483 0.000242908 -0.0891426 0.0865803 -0.0676668 -0.071939 -0.0381572 -0.0728655 -0.0605583 -0.0858386 -0.0499754 0.0584664 0.0783492 0.109138 -0.0198551 -0.0746574 -0.078126 -0.0873895 -0.0553214 0.0158605 0.0129767 0.0416526 0.0265227 0.00503669 -0.00677721 0.0230292 0.00451109 -0.00502444 -0.00696192 -0.0735114 -0.0970806 -0.137602 0.121459
internal_weight=193.098 108.034 85.0636 51.5567 50.0009 45.6072 6.77969 56.4775 80.0631 69.9313 10.1318 69.6824 35.774 33.9084 9.33071 4.39373 41.3953 15.0822 4.98128 25.3167 23.3488 14.9361 33.5053 38.8275 30.5716 11.7879 8.25586 5.00051 3.01989 1.98062 2.74492 18.7838 13.2512 6.18788 12.7355 2.26865 10.4528
internal_count=1146 608 538 235 226 205 31 373 507 451 56 450 208 242 52 21 267 106 27 177 166 107 195 174 137 52 37 31 18 13 16 85 60 28 92 13 75
is_linear=0
shrinkage=0.1


Tree=14
num_leaves=38
num_cat=0
split_feature=6 7 0 2 7 10 0 7 0 5 0 0 5 2 2 0 5 5 2 7 1 0 0 1 5 7 0 5 0 0 5 5 0 7 0 2 2
split_gain=74.267 7.27664 4.39664 5.70975 2.62435 1.55511 1.42735 2.62419 1.07437 0.469743 0.455832 0.391869 0.37973 0.35147 8.64444 2.7632 0.582166 0.851539 0.278477 0.242965 0.335934 0.687728 0.757214 0.198301 0.341988 0.540647 0.17515 1.00126 0.171478 0.144202 0.123924 0.0559797 0.049491 0.0379547 0.0369602 0.0263977 0.0056173
threshold=0.88295000000000012 0.98885000000000012 57920.500000000007 413.29010000000005 0.98725000000000007 2.2956500000000006 95068.500000000015 0.99125000000000008 68112.000000000015 292.93560000000008 102032.50000000001 91704.500000000015 291.34045000000009 426.45615000000004 494.16110000000009 84353.500000000015 298.23705000000001 320.41795000000008 441.90480000000008 0.98315000000000008 1234.0880000000002 84039.500000000015 69639.000000000015 1184.4200000000003 356.2204000000001 0.99075000000000013 95068.500000000015 327.31945000000002 90772.500000000015 76794.500000000015 306.06855000000002 293.62475000000006 89398.500000000015 0.98915000000000008 93326.500000000015 428.93855000000008 438.6262000000001
decision_type=2 2 2 2 2 2 2 2 2 2 2 2 2 2 2 2 2 2 2 2 2 2 2 2 2 2 2 2 2 2 2 2 2 2 2 2 2
left_child=1 4 -3 32 26 6 7 19 9 12 11 -10 -6 16 15 30 31 -18 35 -2 21 22 -21 -7 33 -26 27 -1 -29 36 -15 -5 -4 -25 -35 -17 -9
right_child=5 2 3 13 8 23 -8 29 10 -11 -12 -13 -14 14 -16 18 17 -19 -20 20 -22 -23 -24 24 25 -27 -28 28 -30 -31 -32 -33 -34 34 -36 -37 -38
leaf_value=-0.044024670565946528 -0.014030090527823409 0.1301995969005654 -0.067847197651315999 -0.0041110070338162656 -0.014142692413122446 0.11757799249854615 0.12290316877373125 0.12774407620609091 -0.10181466776176291 -0.12660125100656894 -0.1702318650726069 -0.14623261127127937 -0.12929553623958942 -0.02123807198959124 0.091138736197894629 -0.11477628761289543 -0.027222471360158804 -0.11644817159300672 -0.048434224492807369 0.078194782440360058 0.0026290888564440944 0.099668167143941541 0.024506333196089723 0.11887006074358444 0.050075665895441407 0.11689358633094674 -0.026935230634529978 -0.084664846774250527 -0.1284540031934974 0.10998701832671386 0.00068907215334193441 0.028282430019654994 -0.11400551362971181 0.10134978167958791 0.11602748641240655 -0.078819747309292754 0.14864409749996491
leaf_weight=14.652406997978693 0.6817628294229604 1.7474799752235401 26.289542965590957 0.95879928767680977 2.1474461704492604 13.009179629385473 5.1809939146041861 0.4968688040971746 13.302181355655195 0.62163560092449177 1.3147886842489231 2.3734688088297835 0.32584133744239796 2.966674983501437 7.3282197266817084 0.24979928880930247 5.0270713418722153 1.3557882159948347 17.313298799097538 3.8609058409929302 1.5561788082122792 2.4632281363010398 8.2259908840060216 3.7126714587211636 2.8549819514155379 2.1177791655063629 2.3223392218351355 2.5673887133598319 1.4326525852084158 4.09549880027771 19.418740794062614 1.1923536509275434 0.2415248230099668 6.42434214055538 2.8803149908781052 2.6169404610991478 1.476476654410362
leaf_count=84 4 9 180 4 13 103 35 3 77 4 7 13 2 13 35 2 31 11 96 23 9 13 39 28 21 17 13 15 9 24 97 6 2 52 24 21 7
internal_value=-0.000154751 -0.0430154 -0.0265899 -0.0298225 -0.0776931 0.0925985 0.0755012 0.0647314 -0.103531 -0.0492214 -0.113406 -0.108586 -0.0295501 -0.0123507 -0.00914069 -0.0264142 -0.0310997 -0.0462538 -0.0532442 0.0443344 0.0468094 0.051531 0.0416825 0.108047 0.101124 0.0786238 -0.0529312 -0.0561589 -0.100493 0.12107 -0.00222027 0.0138609 -0.0682894 0.109684 0.105955 -0.0821529 0.143726
internal_weight=186.804 127.766 86.7062 84.9588 41.0601 59.0372 28.0379 22.8569 20.0854 3.09492 16.9904 15.6757 2.47329 58.4277 49.8937 42.5655 8.53401 6.38286 20.18 16.7881 16.1063 14.5501 12.0869 30.9993 17.9901 4.97276 20.9748 18.6524 4.00004 6.06884 22.3854 2.15115 26.5311 13.0173 9.30466 2.86674 1.97335
internal_count=1146 744 507 498 237 402 157 122 116 19 97 90 15 316 264 229 52 42 119 88 84 75 62 245 142 38 121 108 24 34 110 10 182 104 76 23 10
is_linear=0
shrinkage=0.1


Tree=15
num_leaves=41
num_cat=0
split_feature=10 2 6 7 8 8 8 1 8 7 7 3 8 0 1 3 3 3 7 0 7 7 0 1 1 1 0 0 0 7 7 7 7 0 7 1 1 1 1 1
split_gain=67.8478 7.60382 5.94168 4.53853 1.6063 1.51755 0.813792 2.41413 0.588992 2.46946 0.5046 0.397292 0.353719 0.247254 0.214386 0.196386 3.65159 0.183777 0.673058 0.157368 0.294241 0.150157 0.583678 0.539696 0.48959 0.147299 0.0695123 0.0642395 0.188305 0.0571257 2.83199 0.0339655 0.581504 0.0270638 0.0168773 0.0105249 0.09859 1.56376 0.000337466 0.723353
threshold=2.0199000000000003 504.16940000000005 0.90495000000000014 0.9910500000000001 0.65685000000000016 0.74225000000000008 0.76785000000000014 1275.9960000000003 0.75225000000000009 0.98845000000000016 0.98775000000000013 199.87095000000002 0.70805000000000007 91022.500000000015 1214.7800000000002 222.69305000000003 210.79425000000001 233.59930000000003 0.9869500000000001 67025.000000000015 0.98285000000000011 0.98525000000000007 81325.000000000015 1274.0195000000001 1061.7855000000002 1124.8120000000001 97958.500000000015 85230.500000000015 70220.500000000015 0.98605000000000009 0.98945000000000005 0.99045000000000016 0.98875000000000013 96574.500000000015 0.98835000000000006 1197.2845000000002 1131.4865000000002 1173.2335 1146.8575000000003 1104.2675000000002
decision_type=2 2 2 2 2 2 2 2 2 2 2 2 2 2 2 2 2 2 2 2 2 2 2 2 2 2 2 2 2 2 2 2 2 2 2 2 2 2 2 2
left_child=1 5 3 6 11 19 7 25 -7 -10 -3 -5 -12 -4 27 16 -13 18 -15 20 -1 24 29 35 -21 -2 -27 28 -6 -23 -31 32 -11 -26 -20 36 -24 -38 39 -30
right_child=2 10 13 4 14 8 -8 -9 9 31 12 15 -14 17 -16 -17 -18 -19 34 21 -22 22 23 -25 33 26 -28 -29 38 30 -32 -33 -34 -35 -36 -37 37 -39 -40 -41
leaf_value=-0.13326773211686169 0.027202706385163773 0.17647494744674269 0.11545589777996382 0.12009261443599169 0.12513287469588472 -0.0477183245742831 0.1282178054761621 0.12547115573920906 0.10772952233202626 -0.14298222488696355 0.096940873253296214 0.1342501204502185 0.032674073307112028 0.0018609397091614963 0.12187611041454452 0.05896418200887904 -0.081052078305189734 0.11726691033732328 0.11560035996843672 -0.017320745725638374 -0.071929002875037937 -0.029441759479396826 -0.085264027130470127 0.031145792676845575 -0.095535061676056424 0.015542399919987652 -0.016810784848759204 0.10857952971387722 0.12268786401383465 -0.09285290632776598 -0.03059138371399401 -0.046076464620370544 -0.0021286061582618792 -0.12759497087916399 0.095528236292515528 -0.077775156379831387 -0.093764151284485189 -0.021916819643109653 0.088121547877458142 0.046444153969051487
leaf_weight=0.83973388373851676 17.645648807287216 0.48920015990734045 15.899223394691946 0.54902333766222255 1.3492304757237414 13.292999707162382 0.81121429055929084 2.3422572389245024 1.3818764835596073 0.3588280826807021 1.9107453227043154 1.4297236502170565 1.5639337599277494 0.84006600081920435 4.5942970514297476 1.6077069342136381 1.7419577687978742 2.6006649285554886 0.60523005574941624 0.93593299388885398 12.267561204731463 0.99985089153051276 5.0005456730723479 0.48686240613460441 3.1537327840924267 17.020823895931247 0.68663559854030509 3.0368857383728027 2.3477641046047211 11.706045135855677 19.444823510944843 3.94032172113657 1.5097131878137586 0.34343683719634999 5.0989967659115791 9.6563972532749158 8.6355966478586179 4.6715745925903311 1.551617808640003 2.664649985730648
leaf_count=5 88 2 138 4 9 88 5 16 7 2 9 8 7 6 33 12 9 21 5 6 75 6 38 2 20 90 4 17 11 77 127 25 9 2 45 49 57 29 9 13
internal_value=0.000605353 -0.0540335 0.0670008 0.0497642 0.0873108 -0.0594925 0.0294026 0.0272589 -0.0352493 -0.0121794 0.0816914 0.0398731 0.0681078 0.10785 0.103553 0.0305388 0.0160551 0.0945684 0.0854631 -0.0658446 -0.0759093 -0.0638102 -0.0624952 -0.0729406 -0.0816921 0.0207347 0.0142826 0.0958112 0.0908436 -0.0532415 -0.054 -0.0407755 -0.0294956 -0.0988657 0.0977601 -0.0747586 -0.0731458 -0.0685605 0.0837032 0.0822458
internal_weight=187.013 102.59 84.4236 59.3794 20.8729 98.6258 38.5066 37.6954 20.4837 7.19074 3.96388 5.32841 3.47468 25.0442 15.5444 4.77939 3.17168 9.14496 6.54429 78.1421 13.1073 65.0348 60.6017 28.451 4.4331 35.3531 17.7075 10.9501 7.91326 32.1507 31.1509 5.80886 1.86854 3.49717 5.70423 27.9641 18.3077 13.3072 6.56403 5.01241
internal_count=1185 642 543 328 125 624 203 198 131 43 18 33 16 215 92 29 17 77 56 493 80 413 385 175 28 182 94 59 42 210 204 36 11 22 50 173 124 86 33 24
is_linear=0
shrinkage=0.1


Tree=16
num_leaves=50
num_cat=0
split_feature=9 6 7 9 1 1 1 7 7 7 7 7 4 4 8 4 5 8 5 5 1 5 1 1 1 1 5 1 1 1 8 8 5 5 1 5 6 6 8 8 8 1 1 8 8 4 4 4 4
split_gain=52.2421 13.6718 3.68136 1.33017 0.664472 2.50026 0.545423 0.486089 3.63051 1.25681 2.94552 0.817837 3.92491 0.797731 0.722755 0.473301 0.460708 1.24455 3.03937 0.418076 0.556927 0.613685 0.820787 0.439925 0.965724 0.393123 0.365108 0.34404 2.21717 0.737029 0.254796 0.193768 1.12519 1.82856 0.173605 0.15019 0.114046 1.71218 0.0711489 0.264086 0.0690653 1.48265 1.5946 0.154146 1.16125 0.0132184 0.153579 0.0107445 0.229517
threshold=0.76345000000000007 0.86240000000000017 0.98645000000000016 0.82960000000000012 1027.6195 1303.6625000000001 1210.3300000000002 0.99375000000000013 0.99295000000000011 0.99185000000000012 0.9900500000000001 0.98535000000000006 98511.000000000015 101901.00000000001 0.65995000000000015 78494.500000000015 344.43020000000007 0.7410500000000001 329.42195000000009 369.13085000000007 1247.0795000000003 316.34185000000008 984.39400000000012 1106.7775000000001 1014.0025000000002 978.67650000000015 303.76040000000006 1183.162 1153.6785000000002 1167.9130000000002 0.69320000000000015 0.71865000000000012 316.34185000000008 336.31380000000007 1071.4660000000001 363.99195000000003 0.91675000000000006 0.85945000000000016 0.70760000000000012 0.74615000000000009 0.67065000000000008 1190.5525000000002 1120.5720000000003 0.73180000000000012 0.74715000000000009 81711.000000000015 80976.500000000015 78411.500000000015 94578.000000000015
decision_type=2 2 2 2 2 2 2 2 2 2 2 2 2 2 2 2 2 2 2 2 2 2 2 2 2 2 2 2 2 2 2 2 2 2 2 2 2 2 2 2 2 2 2 2 2 2 2 2 2
left_child=2 3 15 4 -2 34 25 8 9 10 11 26 16 14 -14 -1 17 -13 -19 20 21 22 -12 24 -24 38 -3 28 30 -30 -23 32 -27 -34 -6 -8 37 -17 -5 -40 41 42 -11 -42 -45 46 -4 -36 -49
right_child=1 7 45 6 5 -7 35 -9 -10 40 19 12 13 -15 -16 36 -18 18 -20 -21 -22 27 23 -25 -26 31 -28 -29 29 -31 -32 -33 33 -35 47 -37 -38 -39 39 -41 43 -43 -44 44 -46 -47 -48 48 -50
leaf_value=0.056709360054128383 -0.017092735665189436 -0.050235643711231681 0.10195310262117407 -0.078530052501381994 -0.065505824776454474 0.17396934746933601 -0.046201658236269226 0.12667946868773397 0.13335702919768985 0.20531305232910502 0.13025526167741391 -0.056585349163907596 0.12485413365959981 0.14114484687985782 -0.07115623401683964 0.15511726333193573 0.032660315728040262 0.050597954250965228 -0.18226522997786726 0.1207750608982263 -0.031482625828076941 -0.017612060596968647 -0.077913346242096282 0.072249096111351538 0.036777345636265737 -0.10379117440498545 -0.15734638516150443 -0.020089953564724386 0.1689610925855097 0.04551025047942979 -0.088306609043956319 -0.061483019244546577 -0.087004899174207381 0.036509469427392305 -0.043080040178471952 -0.0026606256144385619 -0.027647456410748724 -0.017952250881524034 -0.11890449280315035 -0.064937754934888139 0.029078700257800627 -0.162744262667263 -0.038306537404119684 0.0014418933550445435 0.12587696788797145 0.10846964170261347 0.15337039603720404 -0.056182372132447089 -0.031969778077715005
leaf_weight=4.4446203112602216 7.9349065795540801 0.61657184362411743 16.147834748029712 1.9888800010085095 8.2086126655340248 0.48832227289676566 2.0937287807464595 0.34503142535686393 2.2214681878685942 0.49767310917377272 1.0037935227155781 14.040495499968538 0.3311606347560877 1.519982650876045 0.42224764823913574 0.711732737720013 0.84118147194385429 3.0741683691740032 0.68024213612079609 0.43646585941314597 1.7418931871652592 1.906327307224273 0.85135512053966333 2.2548242211341858 5.1458549201488495 6.9383913278579694 0.66935808956623077 2.9378545880317688 0.9233139008283614 1.0211597830057142 0.69319729506969441 20.897938385605812 3.290606252849102 1.879912309348583 3.49361573904753 1.2748730629682539 0.67402176558971394 2.8190212398767471 2.9533366486430168 1.3423972651362417 4.1183670237660408 0.34095390141010273 0.57417228817939758 1.6242807283997538 1.3888466879725454 20.446975700557232 0.62091689556836982 14.146109752357008 5.4523879885673514
leaf_count=28 44 3 135 15 51 2 11 2 14 2 6 63 2 8 2 5 4 14 3 3 9 8 4 10 23 55 3 16 4 5 3 163 27 14 21 7 5 16 24 10 21 2 3 8 9 177 4 89 28
internal_value=0.000603024 -0.0308033 0.0927689 -0.056176 -0.0429967 -0.0494584 -0.0684414 0.00922497 0.00843135 0.00282931 -0.00442443 -0.0291323 -0.0243556 0.0995499 0.0152349 0.0339743 -0.0394941 -0.042914 0.0082161 0.0245661 0.0222609 0.0278626 0.0450716 0.0346351 0.020442 -0.0717534 -0.106395 0.00655538 0.0237891 0.104421 -0.0366031 -0.0673628 -0.0774795 -0.0421023 -0.0529718 -0.0297562 0.00989981 0.017101 -0.0947384 -0.102139 0.0377152 0.0174115 0.0752234 0.0417202 0.0589168 0.106427 0.103903 -0.0485024 -0.049457
internal_weight=180.471 134.606 45.8651 82.384 39.724 31.789 42.6601 52.2222 51.8772 49.6557 41.1114 22.1954 20.9095 2.27339 0.753408 8.6494 18.6361 17.7949 3.75441 18.916 18.4796 16.7377 9.25583 8.25203 5.99721 39.2915 1.28593 7.48185 4.544 1.94447 2.59952 33.0068 12.1089 5.17052 31.3007 3.3686 4.20478 3.53075 6.28461 4.29573 8.54429 1.4128 1.07185 7.13149 3.01313 37.2157 16.7688 23.0921 19.5985
internal_count=1185 815 370 561 235 191 326 254 252 238 193 102 96 12 4 54 84 80 17 91 88 79 43 37 27 308 6 36 20 9 11 259 96 41 189 18 26 21 49 34 45 7 5 38 17 316 139 138 117
is_linear=0
shrinkage=0.1


Tree=17
num_leaves=43
num_cat=0
split_feature=6 10 9 1 9 9 11 5 5 0 5 8 5 5 5 0 0 1 0 8 5 0 0 0 5 8 8 8 0 1 5 5 5 8 8 8 8 8 0 5 5 5
split_gain=50.6812 10.876 2.74493 3.09737 1.77305 1.90371 1.59754 1.36015 1.27887 0.860863 0.854531 0.79047 0.659439 0.634096 6.26118 0.424441 1.85562 0.357779 0.348658 1.1769 0.273751 3.06831 0.739439 0.258324 0.174796 0.145495 1.21996 0.122293 0.080193 0.0701029 0.0436995 0.178547 0.105071 0.0402734 0.527368 3.19184 0.11266 0.232967 0.0364833 0.00507087 1.71344 1.1287
threshold=0.86875000000000013 2.2661000000000002 0.83925000000000016 1277.5195000000001 0.81490000000000007 0.72875000000000012 0.77165000000000006 328.98105000000004 310.34020000000004 80759.500000000015 303.01235000000003 0.73915000000000008 349.29120000000006 317.4337000000001 280.39485000000008 81457.000000000015 88953.500000000015 1287.4275000000002 104412.00000000001 0.72735000000000005 345.6434000000001 108799.00000000001 81862.500000000015 86129.500000000015 276.48515000000003 0.70860000000000012 0.68795000000000006 0.74765000000000015 81246.000000000015 1148.7420000000002 303.88405000000006 324.72820000000007 307.75390000000004 0.73755000000000015 0.60515000000000019 0.65600000000000014 0.69650000000000012 0.72880000000000011 83517.500000000015 313.54730000000006 271.56335000000007 292.57565000000005
decision_type=2 2 2 2 2 2 2 2 2 2 2 2 2 2 2 2 2 2 2 2 2 2 2 2 2 2 2 2 2 2 2 2 2 2 2 2 2 2 2 2 2 2
left_child=2 7 3 4 5 9 20 8 27 10 -1 25 23 14 -7 39 38 -3 19 -19 22 -22 24 -9 -4 26 -10 33 -15 -24 -8 32 -32 34 -2 -36 -37 -38 -17 40 -6 -42
right_child=1 17 6 -5 15 13 30 12 11 -11 -12 -13 -14 28 -16 16 -18 18 -20 -21 21 -23 29 -25 -26 -27 -28 -29 -30 -31 31 -33 -34 -35 35 36 37 -39 -40 -41 41 -43
leaf_value=-0.035446213435678553 0.083744605451572765 0.11331588840933596 -0.11567072199898201 0.096405803747568644 0.095854125314779187 0.16608380266518671 -0.11373167570202752 0.007638748615851944 0.013750425913696211 0.20253936679210205 0.14721991660241546 0.049473103937049373 0.084185507933004361 -0.056949292609356196 -0.063624038061235996 -0.072249209256486133 -0.0036983364508872637 0.11235990341677249 0.1128579610163406 0.0078174895800434251 -0.077464297651803238 0.20241279454214284 -0.031776677658197583 0.048452862615203963 -0.070396775382945809 -0.027621293075938792 -0.076030998470520195 0.056886262245938249 -0.078007990875677655 0.00081236878542134303 -0.11454071010337397 -0.11382459322959566 -0.06922557589517149 0.048149381442429993 0.10093865588690727 -0.03609864284193235 -0.018745373909194434 0.028627488315234696 -0.092509476236497579 -0.009556074866118449 -0.067578188270741801 -0.0050716893862264804
leaf_weight=0.91001224517822155 1.7104932218790079 22.746328219771389 0.93940874189139023 1.6936001777648915 1.2955687046051085 1.2701152861118341 3.8689917847514135 1.9619027376174907 7.4392628595232946 0.30208764970302571 0.3506801426410675 2.5549132153391829 5.2667308971285811 2.1742100268602362 17.126975350081921 1.422638975083826 6.6157792955636978 2.6438817158341399 3.3240499272942543 1.8163977414369581 2.1136356666684146 0.47560474276542652 3.540579378604888 7.4500415623188019 10.6191359013319 3.8412010967731467 1.8946763426065443 2.8718961328268042 13.542317189276217 0.80962610244750965 0.69257526844739947 3.8139939457178116 2.1771387681365013 1.8374907374382008 3.6080211251974088 1.7457090914249418 4.1775788515806198 1.3758153393864629 3.1837246417999268 3.5839820280671111 4.1681979671120635 9.3919071927666646
leaf_count=5 9 223 8 8 6 6 37 9 34 2 2 12 38 12 95 9 37 27 33 15 14 2 30 43 87 17 8 15 74 6 6 36 19 10 17 8 19 7 23 26 25 66
internal_value=0.000603685 0.0603393 -0.0480559 -0.0369236 -0.0403869 -0.0554072 -0.0737315 0.0305215 0.0192675 0.0523848 0.0157339 -0.00137573 0.0558496 -0.0603526 -0.0477236 -0.0223141 -0.0376454 0.106947 0.0882757 0.0698462 -0.0559912 -0.0257578 -0.0609012 0.0399555 -0.0741262 -0.0112525 -0.00450341 0.0380041 -0.0751148 -0.0257139 -0.104786 -0.0995241 -0.0803477 0.0342331 0.032187 0.0240654 -0.0139747 -0.00699106 -0.0863408 -0.0129752 -0.0137955 -0.0243044
internal_weight=174.349 78.2664 96.0825 67.0318 65.3382 35.6764 29.0507 47.7357 33.0571 1.56278 1.26069 15.7301 14.6787 34.1136 18.3971 29.6618 11.2221 30.5307 7.78433 4.46028 18.498 2.58924 15.9088 9.41194 11.5585 13.1751 9.33394 17.327 15.7165 4.35021 10.5527 6.68371 2.86971 14.4551 12.6176 10.9071 7.2991 5.55339 4.60636 18.4397 14.8557 13.5601
internal_count=1185 544 641 396 388 196 245 246 156 9 7 71 90 187 101 192 69 298 75 42 147 16 131 52 95 59 42 85 86 36 98 61 25 70 60 51 34 26 32 123 97 91
is_linear=0
shrinkage=0.1


Tree=18
num_leaves=26
num_cat=0
split_feature=6 2 0 4 2 7 3 2 7 4 1 7 0 0 3 7 3 3 7 7 3 3 3 3 7
split_gain=46.5554 3.27557 2.50361 1.0374 0.696903 5.69363 1.1921 0.7233 1.19771 0.676899 0.541143 0.47552 0.288902 0.277913 0.275201 0.23575 0.178641 0.0980585 0.0845137 2.73559 1.05316 0.0391973 0.0343041 0.00983174 0.00465251
threshold=0.8922500000000001 452.86460000000005 76794.500000000015 87994.000000000015 472.12955000000005 0.99275000000000013 227.08045000000001 484.95800000000003 0.99275000000000013 65909.500000000015 984.39400000000012 0.9819500000000001 79539.500000000015 97002.500000000015 226.30675000000005 0.98825000000000007 213.63890000000001 205.96815000000001 0.99255000000000015 0.98735000000000006 233.59930000000003 227.37745000000004 226.89650000000003 244.89145000000002 0.99025000000000007
decision_type=2 2 2 2 2 2 2 2 2 2 2 2 2 2 2 2 2 2 2 2 2 2 2 2 2
left_child=1 2 9 12 5 6 14 18 11 15 -11 -9 -4 17 16 -1 -3 -2 19 23 -21 -19 -7 -6 -13
right_child=13 4 3 -5 7 22 -8 8 -10 10 -12 24 -14 -15 -16 -17 -18 21 -20 20 -22 -23 -24 -25 -26
leaf_value=-0.030711447510168785 0.11357038390553986 0.011046520372707421 -0.03926371929058238 -0.11356708936947187 -0.10753033707006948 0.14827337173673935 -0.059982341815550046 0.14897073624676768 0.087074655331749878 -0.11161810230609577 -0.032109077372775553 0.0025218308739665437 -0.065539195660840988 0.085382170885009073 0.064928467342753898 -0.00049682771322097981 -0.02169614627158711 0.098978346187639954 0.017160756716449781 0.05594819660053562 -0.02241846330457499 0.1154839242381013 0.18447494809845566 -0.12483377227071457 0.005847587819039028
leaf_weight=3.4625557363033286 14.335112802684309 2.1447380185127294 6.2308926135301652 3.910444200038909 1.129882335662842 1.0330567657947529 9.6447068229317647 0.22553744912148133 2.0481854006648055 0.86869827657937904 45.024343200027943 7.5540288686752346 12.960347056388853 7.1894452795386306 0.45394562184810716 10.120901003479956 7.4153182506561279 11.638418488204477 0.62533870339393693 2.9153034538030624 4.149600937962532 1.9024363160133351 0.55763833224773396 1.1262815296649931 9.5865086540579778
leaf_count=22 147 10 43 38 5 5 62 1 14 9 286 40 103 73 2 68 31 109 3 13 23 17 3 7 51
internal_value=0.000588484 -0.0264025 -0.0386791 -0.0666162 -0.00636914 -0.0201606 -0.034899 0.00361346 0.0148472 -0.0278228 -0.0336264 0.00630502 -0.0570215 0.103097 -0.0107211 -0.00820845 -0.014347 0.107649 -0.0183084 -0.0206975 0.00993372 0.10134 0.161513 -0.116432 0.00438396
internal_weight=168.254 133.188 82.5782 23.1017 50.6101 21.2494 19.6587 29.3607 19.4143 59.4765 45.893 17.3661 19.1912 35.0654 10.014 13.5835 9.56006 27.876 9.94641 9.32107 7.0649 13.5409 1.5907 2.25616 17.1405
internal_count=1185 839 569 184 270 113 105 157 106 385 295 92 146 346 43 90 41 273 51 48 36 126 8 12 91
is_linear=0
shrinkage=0.1


Tree=19
num_leaves=25
num_cat=0
split_feature=9 10 1 3 5 3 3 1 4 1 11 10 5 3 4 4 1 1 3 3 3 3 1 1
split_gain=31.5742 19.8789 5.6029 1.38362 2.21226 1.38004 0.910094 2.9063 2.77526 0.730502 0.558189 1.20567 0.431328 0.37464 0.663849 0.369784 0.929913 0.336179 0.257754 0.220682 0.099972 0.0755074 0.00223689 0.0249511
threshold=0.75285000000000013 2.0277500000000006 1294.1415000000002 204.32905000000002 329.62870000000004 200.39150000000004 211.16685000000004 992.54500000000007 68316.000000000015 1003.1580000000001 0.73505000000000009 1.6947500000000002 320.66520000000008 238.80105000000003 99143.000000000015 76672.500000000015 1112.9090000000003 1235.1975000000002 205.96815000000001 193.36330000000001 260.98035000000004 243.53170000000003 1203.8235000000002 1175.8410000000001
decision_type=2 2 2 2 2 2 2 2 2 2 2 2 2 2 2 2 2 2 2 2 2 2 2 2
left_child=10 2 6 5 15 19 7 18 -8 -10 13 -12 20 14 -1 -5 -17 22 -2 -3 -11 -14 23 -6
right_child=1 3 -4 4 17 -7 8 -9 9 12 11 -13 21 -15 -16 16 -18 -19 -20 -21 -22 -23 -24 -25
leaf_value=0.09750066884117177 0.029785098307365188 0.086695297322712334 0.1412473542800792 0.0252359878335023 0.08990851052989067 0.008905022208775577 -0.11603780049434281 -0.092957017192665983 -0.11199365712335646 -0.038037003532619101 -0.11628654107199593 0.1376653149587041 -0.061910989941027644 0.13405330948088687 0.048326186413596317 0.066689503794863145 -0.010806004573537505 0.044667692677652922 -0.014115906988576434 0.12995202936436126 -0.10935319348927414 -0.051373420395474573 0.074602180123385972 0.07068919989529529
leaf_weight=23.9639943689108 4.7771225273609144 2.7676505148410788 1.5529241263866413 8.9964602366089839 1.5274298191070541 2.1047351881861687 6.550233617424964 3.7102528512477875 1.7419897913932789 34.237220443785191 0.37991603463888068 0.3584907203912735 9.3915320932865125 2.3071148395538321 3.1191972345113745 1.7724089324474324 12.013564229011534 6.1052469536662102 1.8525943234562872 2.1450948342680931 0.19440477341413398 26.647329226136208 3.4777390584349632 1.5413085073232649
leaf_count=246 23 21 8 40 7 11 59 19 18 244 3 2 59 24 34 8 59 45 14 14 2 192 24 9
internal_value=0.000593292 -0.0203315 -0.0467758 0.036139 0.0280967 0.0766971 -0.0500607 -0.0221503 -0.0537229 -0.0480626 0.0930264 0.00708085 -0.0464742 0.0951836 0.0918477 0.00947114 -0.000820995 0.0616182 0.0175137 0.105699 -0.0384559 -0.0541281 0.0773776 0.0803913
internal_weight=163.236 133.107 90.6556 42.4516 35.4342 7.01748 89.1027 10.34 78.7627 72.2125 30.1287 0.738407 70.4705 29.3903 27.0832 22.7824 13.786 12.6517 6.62972 4.91275 34.4316 36.0389 6.54648 3.06874
internal_count=1185 876 638 238 192 46 630 56 574 515 309 5 497 304 280 107 67 85 37 35 246 251 40 16
is_linear=0
shrinkage=0.1


Tree=20
num_leaves=47
num_cat=0
split_feature=6 9 3 6 1 0 0 0 6 9 4 0 5 0 8 8 3 8 0 3 4 0 0 8 4 0 8 0 5 5 8 8 8 8 8 8 1 5 1 8 8 4 8 1 4 8
split_gain=21.723 6.16007 5.69001 7.55355 4.67168 2.92164 1.87339 3.23436 1.81587 4.45344 2.00844 5.49402 1.15429 1.11521 1.10704 0.905311 0.862849 1.15936 0.611827 0.364838 0.408041 0.36248 1.53878 0.212324 0.16711 0.132168 0.269966 0.681592 0.125696 0.94426 0.121255 0.924747 0.222035 0.0916065 0.530397 0.0686496 0.140987 0.0508271 0.0452752 0.0501536 0.121141 0.0343074 0.0342701 0.0244232 0.0127599 0.0106525
threshold=0.84845000000000015 0.73050000000000004 204.8357 0.88070000000000015 1238.9420000000002 72469.000000000015 66664.000000000015 74473.500000000015 0.81040000000000012 0.76345000000000007 100328.50000000001 107016.50000000001 297.51250000000005 74473.500000000015 0.68280000000000018 0.74935000000000007 251.07595000000003 0.75065000000000015 66664.000000000015 232.18935000000002 81146.500000000015 80900.500000000015 87046.500000000015 0.63255000000000006 94402.500000000015 86489.000000000015 0.62890000000000013 89238.000000000015 361.9178500000001 322.04700000000008 0.75885000000000014 0.70545000000000013 0.73610000000000009 0.67945000000000011 0.70325000000000004 0.66535000000000011 1153.6785000000002 312.37155000000007 1140.0440000000001 0.66735000000000011 0.63670000000000015 86325.500000000015 0.74455000000000016 984.39400000000012 72303.500000000015 0.74035000000000006
decision_type=2 2 2 2 2 2 2 2 2 2 2 2 2 2 2 2 2 2 2 2 2 2 2 2 2 2 2 2 2 2 2 2 2 2 2 2 2 2 2 2 2 2 2 2 2 2
left_child=8 25 15 6 5 -5 -4 12 19 18 41 -12 33 -7 28 38 17 42 -10 -1 44 -15 -23 -14 -22 35 -27 -28 29 37 31 -25 -33 -8 -35 36 -2 -9 39 40 -3 -11 45 -17 -21 -16
right_child=1 2 3 4 -6 13 7 14 9 10 11 -13 23 21 16 43 -18 -19 -20 20 24 22 -24 30 -26 26 27 -29 -30 -31 -32 32 -34 34 -36 -37 -38 -39 -40 -41 -42 -43 -44 -45 -46 -47
leaf_value=-0.11149233229360188 0.10832017528911642 0.067402352044000857 -0.13262142216566672 -0.21891981493653093 0.11401004451819513 0.083901700613082469 0.012590816954400627 0.049810241050779636 0.046895854201076809 -0.055519547304955653 -0.061893701099630771 0.2049203783725087 -0.049677045053136665 -0.0027093286506408125 -0.031591523032169479 0.14377780791371386 0.034682145883690389 0.03276652956176828 0.18680081033013846 -0.046651229006300317 -0.077347289435291594 -0.0041462209691689074 0.074454880738190996 -0.12961994256740769 -0.11227210890438438 0.1092622509931353 -0.03473197578747942 0.080350367556914062 -0.0031174650770522967 0.0039444993154234814 -0.13869657651991155 -0.071224301521538289 -0.023857538971739402 -0.12953450317870085 0.004612706781050151 0.10922856332558493 0.070526848439753737 0.07353661390783868 0.10633814824499217 0.06700436961741961 0.038555157095482906 -0.063021095599283913 -0.047295471995449534 0.1192946497285618 -0.05819566472737852 -0.023849431291223827
leaf_weight=3.7928635776042929 1.9661329314112643 3.0777591913938487 1.4120885282754887 0.49001149833202973 7.4332604482769957 2.927932649850848 1.3279841542243951 1.4461431801319102 0.50154752284288295 24.129118449985981 2.4729122146964069 1.1158659309148786 2.1956322938203794 5.9676054045558002 12.893793925642976 0.81105729192495291 3.2419692799448958 3.3354131728410712 0.84530961513519287 1.5429105311632136 2.9908174350857735 6.0372717753052694 4.23381257802248 2.5512567162513733 2.6534923166036606 1.8005172237753866 0.608543120324612 3.2387053892016411 1.45067799091339 6.3251978531479836 0.40998992323875416 2.6139173358678818 1.6040557771921156 0.36172233521938313 1.4989194720983503 3.1983866617083549 2.0946894958615303 2.6994264200329781 0.22256152331829149 5.7848344668745995 2.8233401775360107 8.7467446252703649 1.3383139222860325 1.6782791838049886 3.5986750200390816 2.1828709691762915
leaf_count=42 27 24 8 2 76 14 7 7 3 201 14 5 12 34 65 5 16 17 4 17 34 40 33 15 28 23 6 38 8 31 2 14 8 2 9 42 24 13 3 38 18 68 7 16 34 12
internal_value=-0.00229418 0.0243103 0.0150785 0.00415379 0.0465068 0.0209568 -0.0193163 -0.0159324 -0.0547409 -0.0431697 -0.0497716 0.0212328 -0.059432 0.0271458 -0.000272631 0.0727074 -0.0130945 -0.0209445 0.13508 -0.0847257 -0.0752644 0.0168887 0.0282727 -0.0771017 -0.0938537 0.088921 0.0772363 0.0621216 0.0244502 0.0282707 -0.0854464 -0.0821189 -0.0532645 -0.00743727 -0.0217356 0.0979503 0.0889399 0.0653337 0.061193 0.0602867 0.0536476 -0.0575251 -0.0318658 0.12755 -0.0547831 -0.0304799
internal_weight=155.674 103.284 90.3771 75.9793 27.0899 19.6566 48.8894 47.4773 52.3903 37.8115 36.4646 3.58878 12.5635 19.1666 34.9138 14.3978 22.9924 19.7504 1.34686 14.5788 10.7859 16.2387 10.2711 9.37485 5.64431 12.907 5.64777 3.84725 11.9214 10.4708 7.17922 6.76923 4.21797 3.18863 1.86064 7.25921 4.06082 4.14557 11.9085 11.6859 5.9011 32.8759 16.415 2.48934 5.14159 15.0767
internal_count=1166 716 556 452 199 123 253 245 450 295 288 19 69 121 176 104 117 101 7 155 113 107 73 51 62 160 67 44 59 51 39 37 22 18 11 93 51 20 83 80 42 269 84 21 51 77
is_linear=0
shrinkage=0.1


Tree=21
num_leaves=24
num_cat=0
split_feature=11 11 6 4 6 0 4 0 11 4 10 10 4 0 0 4 4 2 0 2 4 3 4
split_gain=17.7877 12.3273 5.35838 2.05963 0.56979 3.03947 1.94782 1.04888 0.340331 1.24453 0.268935 0.618821 0.733392 0.394438 0.508086 0.162822 0.93054 0.444664 1.57791 0.110254 0.152707 0.134173 0.0712158
threshold=0.65575000000000017 0.7420000000000001 0.88575000000000015 93355.500000000015 0.86205000000000009 75451.500000000015 70991.000000000015 100043.50000000001 0.59995000000000009 89632.500000000015 1.7067000000000003 1.6504000000000001 69420.000000000015 70507.500000000015 76794.500000000015 69335.500000000015 76483.000000000015 417.31310000000002 73574.500000000015 494.72335000000004 98815.500000000015 217.12225000000004 83566.500000000015
decision_type=2 2 2 2 2 2 2 2 2 2 2 2 2 2 2 2 2 2 2 2 2 2 2
left_child=8 2 4 -4 7 6 -6 15 9 -1 11 12 -3 -12 -15 -2 17 -17 -19 -10 21 -21 -18
right_child=1 10 3 -5 5 -7 -8 -9 19 -11 13 -13 -14 14 -16 16 22 18 -20 20 -22 -23 -24
leaf_value=0.10778626428260459 -0.0094571860761838746 -0.11055854393276586 0.032228034963173571 0.11236805620001525 0.00063016347400421835 0.019238779555650325 -0.067778232107972125 0.053180001251743408 0.10834791725764299 -0.078987410633590049 -0.089351403686793326 -0.11083439091203742 -0.047381928466155604 -0.018838744186920258 -0.065762935737858991 0.025695277125599176 -0.029560626476335963 -0.060166331386728347 0.060806329548291044 0.090917904176919112 0.10959080640492247 0.060749940181220957 -0.041653585841730983
leaf_weight=1.114232007414105 8.5337193161249143 2.6126632988452929 15.380412407219412 4.0497571527957907 7.9852859303355244 27.085669212043285 8.6876429915428144 1.9663144946098317 5.4090078733861473 0.51930681616067875 4.1219021305441883 4.7940187677741042 6.2281022146344185 3.1424506381154051 8.7440721914172155 4.1548677161335963 8.1601915806531924 3.1610392034053802 1.6302332878112791 5.5226784683763963 3.0376392155885696 2.0813786163926125 12.400462932884691
leaf_count=16 54 31 103 44 41 129 41 9 76 6 41 55 69 29 78 33 56 21 11 75 39 28 81
internal_value=-0.00213323 -0.014677 0.00165069 0.0489568 -0.00932448 -0.00143759 -0.0350236 -0.0179493 0.0920687 0.0483409 -0.0715092 -0.0818686 -0.0661059 -0.0626621 -0.053372 -0.0216329 -0.0251516 0.00176878 -0.0189816 0.0965016 0.0904308 0.0827078 -0.0368632
internal_weight=150.523 132.839 103.196 19.4302 83.7654 43.7586 16.6729 40.0068 17.6842 1.63354 29.6432 13.6348 8.84077 16.0084 11.8865 38.0405 29.5068 8.94614 4.79127 16.0507 10.6417 7.60406 20.5607
internal_count=1166 926 623 147 476 211 82 265 240 22 303 155 100 148 107 256 202 65 32 218 142 103 137
is_linear=0
shrinkage=0.1


Tree=22
num_leaves=41
num_cat=0
split_feature=11 7 11 11 2 9 2 11 11 11 3 8 1 0 1 8 8 8 8 0 0 2 8 8 3 0 8 0 3 2 1 8 3 11 9 3 1 1 8 8
split_gain=14.9056 7.24795 3.39857 3.32379 2.67823 5.38367 2.28163 2.11245 3.23 2.21838 3.03852 1.27758 1.1226 1.06797 0.918248 0.642421 1.17832 0.818193 0.812131 0.543321 0.91628 0.518532 0.820157 6.03041 0.436949 1.91533 0.391003 0.367499 0.764549 0.222835 0.219784 0.497416 0.153001 0.297018 0.10547 0.277071 0.139868 0.376332 0.0819975 0.0311226
threshold=0.70865000000000011 0.98775000000000013 0.76245000000000007 0.64405000000000012 511.98245000000003 0.76095000000000013 517.37620000000004 0.63120000000000009 0.65810000000000013 0.69510000000000016 220.75065000000004 0.70805000000000007 948.92800000000011 66043.500000000015 1142.4360000000004 0.69410000000000005 0.74595000000000011 0.62495000000000012 0.72220000000000006 81862.500000000015 74836.500000000015 444.03130000000004 0.58845000000000003 0.72255000000000014 238.80105000000003 72823.500000000015 0.66795000000000015 70119.500000000015 236.04490000000001 484.95800000000003 1193.3430000000003 0.72935000000000005 213.20455000000001 0.64960000000000007 0.82425000000000015 228.35140000000004 989.81550000000004 1029.6915000000001 0.65685000000000016 0.67015000000000013
decision_type=2 2 2 2 2 2 2 2 2 2 2 2 2 2 2 2 2 2 2 2 2 2 2 2 2 2 2 2 2 2 2 2 2 2 2 2 2 2 2 2
left_child=1 3 4 30 5 14 21 -3 32 10 13 26 -11 -10 38 17 18 -7 -17 20 -15 22 -5 39 25 -14 -12 -23 -29 -13 -1 -32 -9 -34 -4 -36 -37 -38 -2 -24
right_child=2 7 34 6 -6 15 -8 8 9 12 11 29 24 19 -16 16 -18 -19 -20 -21 -22 27 23 -25 -26 -27 -28 28 -30 -31 31 -33 33 -35 35 36 37 -39 -40 -41
leaf_value=0.10770749689864122 0.14494583807090383 0.10736320197368797 -0.11319964873041191 0.12784328899498246 0.13796995436248069 0.016600704932436438 0.1159263807170792 0.10786545958145066 0.081278260621250736 0.12765224685585005 0.046497257681051146 0.17867866652325765 -0.060023540384604016 0.046368087593947754 0.2738432196853699 -0.054155795332977402 0.013681263012627884 -0.052296982881037526 -0.018814658858806427 -0.061019004095594277 -0.009384855612831082 0.10659212430351708 -0.18870772834396671 0.034377881053760828 -0.029902293464457726 0.028833928909313029 0.11878947624638753 -0.054123393202180903 0.035239410121001999 0.11720571659253926 0.10953179538188507 -0.0013385331888933643 0.10764070312162187 0.04986575198523726 -0.10909515264645925 -0.10788224197605117 -0.10991918360212394 -0.057203452692970683 0.08508678456105305 -0.16396019108536511
leaf_weight=1.1304105632007151 0.3594645857810963 5.1119584925472727 0.93529950082301994 0.18199351429938992 0.99333609640598197 1.890151940286162 0.82154871523380357 4.9445362389087659 2.3490071445703533 0.68024064600467937 5.0822010748088342 0.71264122426509846 3.2364038079977062 5.0886419937014562 0.45922286808490742 10.975332148373129 6.6827924624085417 19.279937334358692 15.970350652933119 1.0410266369581211 6.9930539056658745 0.1643623486161222 1.6377797871828081 2.3738596215844154 4.4349263012409201 9.635697126388548 0.87694501131772984 7.2430139407515508 1.0993736535310743 4.1456071697175503 0.74836887419223763 0.8733898252248764 1.8926835097372534 1.7077342607080934 2.3290777951478949 0.92630776017904182 1.6604426726698855 7.5007440894842148 0.74368200451135635 1.4576179832220075
leaf_count=17 2 80 9 1 5 11 9 73 17 4 41 3 16 30 2 82 49 142 124 7 34 2 8 15 22 42 8 34 5 37 9 10 28 24 31 13 20 89 4 7
internal_value=-0.00196846 0.0288786 -0.0349788 -0.0270586 -0.0243961 -0.02727 -0.0456191 0.0460005 0.040052 0.0291814 0.0476938 0.0883406 0.00211823 0.0192543 0.155475 -0.0324943 -0.0238965 -0.0461423 -0.0332175 0.00812387 0.0141057 -0.0550319 -0.0785176 -0.0854978 -0.00285036 0.00647684 0.0572291 -0.0393909 -0.0423311 0.126401 0.0738565 0.0499931 0.0963269 0.0803487 -0.0804105 -0.0778947 -0.0706388 -0.0668145 0.105173 -0.177343
internal_weight=146.371 75.665 70.7061 17.7317 57.3543 56.3609 14.9795 57.9333 52.8213 44.2764 26.2891 10.8174 17.9873 15.4717 1.56237 54.7986 33.6285 21.1701 26.9457 13.1227 12.0817 14.158 5.65125 5.46926 17.307 12.8721 5.95915 8.50675 8.34239 4.85825 2.75217 1.62176 8.54495 3.60042 13.3519 12.4166 10.0875 9.16119 1.10315 3.0954
internal_count=1166 583 583 117 421 416 81 466 386 261 177 89 84 88 8 408 255 153 206 71 64 72 31 30 80 58 49 41 39 40 36 19 125 52 162 153 122 109 6 15
is_linear=0
shrinkage=0.1


Tree=23
num_leaves=49
num_cat=0
split_feature=10 10 10 4 8 10 10 10 5 4 3 5 4 4 5 8 4 0 8 5 5 5 0 8 0 8 5 3 3 0 8 8 4 4 4 8 4 4 0 8 4 5 0 8 0 0 8 8
split_gain=14.8309 7.30495 2.07071 2.55364 2.0645 3.20399 1.92814 1.8953 1.4742 1.45264 1.74764 1.1635 0.983974 0.936811 1.60772 0.923193 1.75891 1.73766 1.30456 0.988217 0.964299 0.794461 1.83589 0.750929 1.71636 1.76952 0.589361 0.398115 0.970599 1.08567 1.59325 0.637511 0.381118 0.264208 0.260696 0.259253 0.245777 2.16262 0.086928 0.0855521 0.0681714 0.0523843 0.629491 0.0485925 0.0186611 0.19525 0.00774127 0.158466
threshold=2.0001000000000007 2.1847500000000006 2.1297500000000005 85000.500000000015 0.76235000000000008 1.8879000000000004 1.8498000000000003 1.7403000000000002 361.9178500000001 69335.500000000015 210.45215000000005 287.50980000000004 77519.500000000015 68874.000000000015 319.48975000000007 0.75145000000000006 91776.000000000015 94891.500000000015 0.70805000000000007 341.62225000000007 294.48750000000001 361.9178500000001 86865.500000000015 0.74075000000000013 74308.500000000015 0.65795000000000015 323.79275000000007 237.06270000000004 205.48195000000001 88371.500000000015 0.60925000000000018 0.72375000000000012 76210.000000000015 107924.50000000001 73261.000000000015 0.62675000000000014 85000.500000000015 78300.500000000015 100432.50000000001 0.75645000000000007 70991.000000000015 328.21775000000008 91022.500000000015 0.74745000000000006 72823.500000000015 81067.000000000015 0.7410500000000001 0.75935000000000008
decision_type=2 2 2 2 2 2 2 2 2 2 2 2 2 2 2 2 2 2 2 2 2 2 2 2 2 2 2 2 2 2 2 2 2 2 2 2 2 2 2 2 2 2 2 2 2 2 2 2
left_child=4 2 9 23 5 6 8 -6 13 11 -11 -2 -9 -1 32 17 40 18 20 26 -7 22 44 24 25 -4 -20 28 34 30 36 -31 -15 -19 39 -22 37 -30 41 43 -17 -12 -43 -3 -8 -46 -32 -48
right_child=1 27 3 -5 7 15 21 12 -10 10 38 -13 -14 14 -16 16 -18 33 19 -21 35 -23 -24 -25 -26 -27 -28 -29 29 31 46 -33 -34 -35 -36 -37 -38 -39 -40 -41 -42 42 -44 -45 45 -47 47 -49
leaf_value=-0.099628729012900319 0.090801035351305653 0.068042957391334688 0.14475214262367225 0.12292662359407863 -0.11081214030721874 0.0015205421963272502 -0.022854990562264806 0.18700799179695785 0.012827344554764718 -0.12130342734340044 -0.016140148682969993 -0.015070497497624076 0.025466181480921526 -0.046580377058166804 -0.083399160236871356 0.036049216914270342 0.23494613465320927 0.03910533588932897 0.029726792757778453 -0.12897631711479213 -0.026914703019746002 -0.18335029291287205 0.084732833457849863 0.071361594440665185 -0.063748923434582147 -0.10224929021397773 -0.030843886709257071 0.10826534408002052 0.1219980225469348 0.10925606437472789 0.051978788931078879 0.048530139412678669 -0.011443124499390145 0.12881772304774536 0.10814032904238034 -0.068137969343583321 0.0025162977237021683 -0.13590078797142544 0.0079588046022703411 0.10877646755147892 -0.011602624507154432 0.016034264677697276 -0.041443661548824451 0.11108363970136428 -0.011538609077837589 -0.059567823072581495 0.040962465224291873 0.10660423409976716
leaf_weight=7.0208216309547415 2.4484587386250523 4.4389701709151321 1.0002557635307296 2.9426513537764549 0.45631900429725591 3.4260568022728064 3.1333217248320544 0.90657937526702859 2.4757378920912734 1.5088653415441537 14.258197426795965 1.796726122498512 0.64652450382709503 9.0327873229980487 13.273012124001978 0.44558101892471202 0.43410544097423542 3.6587263345718375 6.1314063593745196 0.50923356413841325 1.9052831530570964 0.24881163239479143 1.826846085488796 1.3412901908159254 2.5604839622974396 0.40345560014247883 2.1713297814130783 2.5560276545584193 0.44858342409133767 3.7157847732305518 4.6999689191579819 3.2576508373022079 4.6963737085461608 0.35747644305229176 4.7490768022835255 7.8693184778094292 0.88133487850427616 1.1466506198048589 2.2858039066195479 0.70166917890310276 0.89449447393417358 4.9569312036037427 3.0882010608911514 0.2904401123523711 1.8419661968946459 1.5673640072345731 1.2581923604011533 0.52317035943269719
leaf_count=81 15 60 5 23 5 18 24 4 16 7 61 8 4 93 142 2 2 17 38 3 11 1 11 7 11 2 15 37 3 54 35 43 44 2 75 50 10 11 13 10 6 22 17 3 14 12 11 8
internal_value=-0.00179425 0.0322925 0.00388588 0.0482993 -0.0323918 -0.0351488 -0.0516024 0.0674858 -0.0616469 -0.0081924 -0.0170191 0.0460235 0.120069 -0.0670677 -0.058584 -0.00844372 0.0612492 -0.0132056 -0.0242437 0.00554993 -0.0441279 -0.00905115 -0.0037612 0.00682795 -0.0150656 0.0736367 0.0138754 0.0705248 0.0668098 0.0513668 0.0283068 0.0809452 -0.0345706 0.0472447 0.0909386 -0.0601221 -0.0398588 -0.0632146 -0.0105958 0.0758084 0.00430538 -0.0124995 -0.00603929 0.0708041 -0.0285188 -0.0336785 0.0543665 0.0604942
internal_weight=142.188 67.2588 38.5913 8.24814 74.9295 72.9201 45.117 2.00942 36.4987 30.3432 26.098 4.24518 1.5531 34.023 27.0022 27.803 1.77418 26.0288 22.0126 8.81197 13.2007 8.61831 8.3695 5.30549 3.9642 1.40371 8.30274 28.6675 26.1115 15.9313 8.9579 6.97344 13.7292 4.0162 10.1802 9.7746 2.47657 1.59523 24.5891 5.43108 1.34008 22.3033 8.04513 4.72941 6.54265 3.40933 6.48133 1.78136
internal_count=1166 551 191 48 615 602 438 13 376 143 120 23 8 360 279 164 10 154 135 56 79 62 61 25 18 7 53 360 323 175 78 97 137 19 148 61 24 14 113 73 8 100 39 63 50 26 54 19
is_linear=0
shrinkage=0.1


Tree=24
num_leaves=56
num_cat=0
split_feature=8 2 7 7 2 9 2 7 9 8 3 9 1 7 3 4 7 0 0 2 4 1 4 9 4 3 3 7 9 9 9 2 7 0 2 2 0 1 2 2 3 9 7 0 4 3 3 3 3 3 3 0 0 0 0
