tree
version=v4
num_class=1
num_tree_per_iteration=1
label_index=0
max_feature_idx=11
objective=binary sigmoid:1
feature_names=Column_0 Column_1 Column_2 Column_3 Column_4 Column_5 Column_6 Column_7 Column_8 Column_9 Column_10 Column_11
feature_infos=[48098:136574] [884.10599999999999:1559.45] [320.84460000000001:661.91129999999998] [152.17179999999999:305.81799999999998] [48643:138384] [247.46770000000001:417.00290000000001] [0.49209999999999998:0.94810000000000005] [0.91859999999999997:0.99439999999999995] [0.46800000000000003:0.8296] [0.55459999999999998:0.92549999999999999] [1.1487000000000001:3.1444000000000001] [0.56079999999999997:0.90490000000000004]
tree_sizes=4079 4354 4222 6000 3307 4035 2900 2302 5091 5086 5848 5407 3753 3991 4292 3770 6148 3974 4295 3148 3746 2854 4185 4602 5951 4199 4808 4303 3679 3564 4922 4777 3482 4615 2032 3894 2446 4290 2839 3689 5310 6299 2556 5530 3170 5020 2342 3777 5038 3178 3797 3774 3904 5248 3896 4089 5552 5555 4722 4930 2563 5764 3392 4112 4127 4523 4209 2451 2559 4313 4021 3915 3384 3177

Tree=0
num_leaves=38
num_cat=0
split_feature=6 9 11 3 0 11 11 8 5 1 3 8 9 0 5 5 8 8 5 0 0 0 0 0 5 8 8 8 8 8 8 8 8 8 0 0 0
split_gain=589.085 53.2484 10.0892 8.01032 7.92552 7.3728 6.40213 4.89181 2.76023 0.793865 0.726027 0.425908 0.392151 0.287862 0.246565 0.229207 0.216601 0.653305 0.151447 0.941733 0.2808 4.44578 0.147851 0.741595 0.117735 0.47494 0.465324 2.40997 1.61031 0.0844142 0.0566655 0.131832 0.0431176 0.215373 0.0282566 0.0247223 0.0494369
threshold=0.86280000000000012 0.75705000000000011 0.74615000000000009 193.11630000000002 82311.000000000015 0.66405000000000014 0.73235000000000017 0.72725000000000006 347.69280000000009 1189.4105000000002 188.53955000000005 0.63975000000000015 0.83355000000000012 73078.500000000015 363.23380000000003 293.44040000000007 0.71695000000000009 0.73675000000000013 299.48425000000003 77961.000000000015 86024.000000000015 101510.00000000001 88948.000000000015 87073.500000000015 320.58085000000005 0.67975000000000008 0.74035000000000006 0.6805500000000001 0.74735000000000007 0.74565000000000015 0.74420000000000008 0.69555000000000011 0.65850000000000009 0.62130000000000007 84141.000000000015 75228.000000000015 98033.000000000015
decision_type=2 2 2 2 2 2 2 2 2 2 2 2 2 2 2 2 2 2 2 2 2 2 2 2 2 2 2 2 2 2 2 2 2 2 2 2 2
left_child=2 5 6 10 24 34 7 13 22 -7 -3 -12 18 -1 -11 -14 -13 -18 -8 -20 -21 -22 23 -9 26 -26 27 -5 -28 32 31 -27 33 -6 -2 -4 -37
right_child=1 3 35 4 29 9 12 8 -10 14 11 16 15 -15 -16 -17 17 -19 19 20 21 -23 -24 -25 25 30 28 -29 -30 -31 -32 -33 -34 -35 -36 36 -38
leaf_value=-0.23514244636489723 0.10645033846136313 0.10619425929927177 -0.27491785521077844 -0.047155856026271634 0.017209197629631787 -0.027307150698637594 -0.26572835317635035 -0.1687535955835453 -0.02748573489940509 0.02599338476251524 0.10505735063520823 -0.027752127757802572 -0.29431566168147238 -0.21549228386876909 0.10435290095388246 -0.26369745161879471 -0.027752127757802517 0.10505735063520831 -0.20536559341699584 -0.29418360333094068 -0.2943553144771956 -0.02775212775780253 -0.1440962012680965 -0.29269406760554734 -0.16052013352810487 -0.09420158478511767 -0.11631630538413672 -0.11316063006265074 -0.01160179143307967 0.009583494385355551 -0.09420158478511767 -0.027752127757802544 -0.0070748260058841328 -0.017072950732445427 0.10120993309700847 -0.2816457747719745 -0.26765145363501619
leaf_weight=13.463183462619783 35.652504354715347 3.7397731840610495 25.430457651615143 11.717955976724634 4.4877278208732667 4.4877278208732596 3.4904549717903164 12.715228825807571 1.4959092736244191 2.4931821227073674 0.74795463681221042 0.74795463681221042 3.2411367595195797 17.701593071222305 0.49863642454147328 12.964547038078306 0.74795463681220986 0.74795463681221008 4.4877278208732587 2.2438639104366302 3.7397731840610504 0.74795463681220997 1.9945456981658924 0.49863642454147417 0.74795463681220953 0.49863642454147317 2.2438639104366294 10.471364915370939 4.2384096086025238 7.2302281558513632 0.49863642454147328 0.74795463681221008 13.213865250349043 3.241136759519577 38.145686477422714 30.91545832157135 3.7397731840610495
leaf_count=54 143 15 102 47 18 18 14 51 6 10 3 3 13 71 2 52 3 3 18 9 15 3 8 2 3 2 9 42 17 29 2 3 53 13 153 124 15
internal_value=-0.0993075 0.0399657 -0.247082 -0.0267192 -0.0384585 0.0941645 -0.223526 -0.200597 -0.156908 -0.000549625 0.0766327 0.0393855 -0.259007 -0.224001 0.0393855 -0.269879 0.0170703 0.0391404 -0.246977 -0.241072 -0.264781 -0.249882 -0.16966 -0.173501 -0.0732152 -0.0940938 -0.0714023 -0.0782998 -0.0478327 -2.38201e-05 -0.0655377 -0.0541718 -0.00336784 0.00290072 0.103756 -0.277956 -0.28016
internal_weight=286.217 147.347 138.87 66.0693 59.3377 81.2777 78.7846 47.8691 16.7043 7.47955 6.73159 2.99182 30.9155 31.1648 2.99182 16.2057 2.24386 1.49591 14.7098 11.2193 6.73159 4.48773 15.2084 13.2139 31.1648 2.49318 28.6716 22.1893 6.48227 28.173 1.74523 1.24659 20.9427 7.72886 73.7982 60.0857 34.6552
internal_count=1148 591 557 265 238 326 316 192 67 30 27 12 124 125 12 65 9 6 59 45 27 18 61 53 125 10 115 89 26 113 7 5 84 31 296 241 139
is_linear=0
shrinkage=1


Tree=1
num_leaves=41
num_cat=0
split_feature=10 7 3 2 3 5 3 4 2 2 6 6 3 7 3 0 3 3 0 3 2 7 3 3 7 7 4 4 2 2 3 4 4 4 2 4 4 4 4 5
split_gain=456.378 17.3432 31.2891 48.6985 9.09529 13.2552 6.40814 4.74467 1.89141 1.37851 1.18447 2.61171 1.89207 1.17825 3.93004 1.1435 1.09745 1.11724 0.368853 0.339632 3.78609 0.30523 0.259913 0.254655 0.211433 0.617304 0.183533 0.911913 0.0688481 1.68234 0.0237624 0.0214917 0.129627 0.0312879 0.00497291 0.060077 0.00258351 0.0355666 0.54708 0.000692704
threshold=1.9483000000000004 0.99165000000000014 201.74860000000004 457.33915000000007 234.59055000000004 365.89855000000006 192.06115000000003 85348.500000000015 431.47460000000007 403.14220000000006 0.85070000000000012 0.82935000000000014 246.50865000000002 0.98155000000000014 207.56230000000002 73704.500000000015 213.89785000000003 202.24025000000003 63376.000000000007 215.16150000000002 441.57600000000008 0.99245000000000017 218.07770000000002 223.45855000000003 0.98925000000000007 0.98575000000000013 66779.500000000015 95560.000000000015 462.48370000000006 482.81295000000006 226.02915000000002 98580.000000000015 66779.500000000015 96665.500000000015 469.45120000000003 69381.000000000015 72161.500000000015 89597.000000000015 73583.000000000015 363.23380000000003
decision_type=2 2 2 2 2 2 2 2 2 2 2 2 2 2 2 2 2 2 2 2 2 2 2 2 2 2 2 2 2 2 2 2 2 2 2 2 2 2 2 2
left_child=6 2 9 8 7 39 -1 -5 -4 -2 11 21 13 -12 -15 -10 17 -13 -11 34 -21 24 -17 -16 25 -8 -18 36 -22 -30 -25 32 -26 -34 35 -3 -28 38 -38 -6
right_child=1 19 3 4 5 -7 10 -9 15 18 12 16 -14 14 23 22 26 -19 -20 20 28 -23 -24 30 31 -27 27 -29 29 -31 -32 -33 33 -35 -36 -37 37 -39 -40 -41
leaf_value=0.22017425652235262 0.12796537754843795 0.19550123762166988 -0.09982708802345526 0.0900662798579243 -0.0016551250399636161 0.1940543592334612 -0.12222304349023715 0.16260000998978311 0.005855373244690815 0.15624620892817964 0.022463561937315295 -0.046797389014439993 -0.037384624566703654 0.088287665050137992 -0.13439511339559221 -0.083480149886028865 -0.075451208813088921 -0.1773871322519244 0.18529930827209906 -0.053755915784403988 0.15319644702532795 -0.13742699072720224 -0.047558730228665282 -0.18161436210922019 -0.17578114707536174 -0.16168058889171771 -0.12239533170836232 -0.078397218885103648 0.10567872672949492 0.18625458519316962 -0.16018648029111465 -0.17611167358387991 -0.15826319486760648 -0.17493483124416778 0.19107013877188345 0.17168695956242441 -0.086093112532480948 -0.13520648419333622 -0.13108757981820227 -0.0054565569118738902
leaf_weight=0.49480439722537894 5.984071508049964 2.4947659671306601 8.1840582787990588 13.721882984042166 12.225867256522179 4.7381017953157416 5.6382777988910702 26.447329968214035 3.9950548708438864 5.4877550452947608 0.49369585514068859 0.74209530651569267 2.7255723923444739 0.7413802444934835 6.4280229955911619 2.745258763432501 0.98319347202777763 5.900877833366394 27.181559458374977 0.74631817638874309 1.7434650361537958 7.8475680351257315 7.7210968136787415 0.99069711565971363 6.8687119185924557 14.224665582180021 8.8703234642744047 4.7005236744880667 2.9940181672573116 20.473667323589325 4.7000107616186142 2.2101803272962561 23.04841369390488 1.7157492786645878 8.2282109558582288 2.994943380355835 3.2077233642339769 4.6752083450555793 18.734195053577423 0.49935513734817583
leaf_count=2 24 10 33 55 49 19 23 106 16 22 2 3 11 3 26 11 4 24 109 3 7 32 31 4 28 58 36 19 12 82 19 9 94 7 33 12 13 19 76 2
internal_value=0.0046801 0.11753 0.0984231 0.0628249 0.111644 0.0513726 -0.137438 0.137837 -0.0614168 0.172338 -0.138858 -0.142594 -0.113407 -0.128902 -0.134721 -0.0396514 -0.125019 -0.162847 0.180444 0.174786 0.167883 -0.156234 -0.0570176 -0.148396 -0.158969 -0.150515 -0.118896 -0.119949 0.174454 0.176 -0.164076 -0.163908 -0.163027 -0.159454 0.187782 0.18268 -0.125441 -0.126432 -0.124532 -0.00180761
internal_weight=284.549 158.607 118.931 80.278 57.6325 17.4633 125.942 40.1692 22.6455 38.6534 125.447 109.368 16.0794 13.3538 12.8601 14.4614 47.8141 6.64297 32.6693 39.6754 25.9575 61.5536 10.4664 12.1187 53.706 19.8629 41.1712 40.188 25.2112 23.4677 5.69071 33.8431 31.6329 24.7642 13.7179 5.48971 35.4875 26.6171 21.9419 12.7252
internal_count=1148 636 477 322 231 70 512 161 91 155 510 445 65 54 52 58 194 27 131 159 104 251 42 49 219 81 167 163 101 94 23 138 129 101 55 22 144 108 89 51
is_linear=0
shrinkage=0.1


Tree=2
num_leaves=40
num_cat=0
split_feature=10 10 7 1 0 2 4 7 0 4 7 1 7 7 2 1 1 2 2 2 0 1 1 1 1 9 7 7 1 1 1 4 1 2 2 2 2 2 4
split_gain=394.152 67.0678 11.2183 4.51421 4.7025 4.08622 5.64414 5.04157 1.54493 1.29851 0.99404 0.838464 0.51659 0.417141 1.13506 0.335318 2.83807 0.164184 0.20406 0.167407 0.160819 3.5045 0.789622 0.669466 0.192933 0.122223 0.325366 0.120563 0.105484 0.241301 0.235323 0.0854429 0.0667989 0.0586596 0.504957 0.056167 0.0476012 0.0468489 0.0367261
threshold=2.1621500000000005 2.0277500000000006 0.99025000000000007 1088.5680000000002 79542.500000000015 449.17815000000002 61481.500000000007 0.99025000000000007 99661.500000000015 83313.500000000015 0.98275000000000012 999.94600000000003 0.99165000000000014 0.98955000000000015 483.86950000000007 1038.8635000000002 1081.0000000000002 430.01320000000004 435.27565000000004 406.93790000000007 81815.000000000015 1259.8400000000004 1194.3155000000004 1228.6190000000004 1174.5965000000003 0.76800000000000013 0.98675000000000013 0.98935000000000006 1323.9940000000004 1184.3410000000001 1169.0645000000002 93297.500000000015 1143.9520000000002 507.39560000000006 403.14220000000006 445.63605000000001 438.15290000000005 495.11750000000006 86462.500000000015
decision_type=2 2 2 2 2 2 2 2 2 2 2 2 2 2 2 2 2 2 2 2 2 2 2 2 2 2 2 2 2 2 2 2 2 2 2 2 2 2 2
left_child=1 5 3 -3 25 6 -1 10 33 11 -7 -8 13 14 17 -13 -17 19 -19 -2 32 22 24 -24 -22 -5 -27 -12 29 30 -16 38 -6 34 -4 -36 -15 -38 -11
right_child=12 2 8 4 20 7 9 -9 -10 31 27 15 -14 36 28 16 -18 18 -20 -21 21 -23 23 -25 -26 26 -28 -29 -30 -31 -32 -33 -34 -35 35 -37 37 -39 -40
leaf_value=-0.030398699721511276 0.17969783178940024 0.094433734057519092 0.17840493091518606 -0.18308229352752914 0.0042198155146752668 0.021816286062993719 -0.14015633469642691 -0.044818929079616016 0.015740589547123877 -0.14071047813480958 -0.11850513432030195 -0.12572042210290907 0.17745274391516674 0.1781142832383763 0.17659254598692517 -0.12970086696448274 -0.0782734919497165 0.079569027780092602 0.1281624178847714 0.13123739884339275 0.051828185084757998 0.19226098856906482 -0.12695497053561475 -0.031003139093628337 -0.015269797324197022 -0.1862220372821386 -0.11018068709306317 -0.14071015051645466 0.15285749770538826 0.17876814534689009 0.1209782334335366 -0.16447638760446687 0.038929868300770158 0.090490767560223631 0.12196207258367969 0.10660650793761162 0.1609822477650534 0.16946908650466583 -0.15180837118382667
leaf_weight=6.559650555253028 1.2344901710748666 2.9887187033891705 1.2330533862113959 0.4965351819992051 0.99813759326934848 0.4894313514232661 17.951787203550339 18.308666318655014 1.7397049069404591 7.903858810663225 15.134762242436411 23.156726732850075 25.554615899920464 4.9229614883661261 1.4742223620414763 29.282419607043266 16.992459580302238 0.9883648157119741 9.3648209124803525 1.9782987833023069 0.74569274485111214 0.7478085309267043 1.2464361488819125 1.7477236688137052 0.99416396021842957 0.74654719233512912 2.4893462210893631 3.1411205679178229 4.1755868047475806 11.814030185341833 1.7237923890352247 3.5774996280670157 1.2491993457078931 0.99539746344089586 3.7315628677606574 9.2091637402772886 14.071581840515135 21.40883032977581 7.6394438892602921
leaf_count=27 5 12 5 2 4 2 75 75 7 33 62 96 104 20 6 121 70 4 38 8 3 3 5 7 4 3 10 13 17 48 7 15 5 4 15 37 57 87 32
internal_value=0.00424032 -0.0832254 0.0497782 -0.0149198 -0.0434649 -0.111007 -0.120457 -0.0821721 0.105058 -0.126002 -0.118594 -0.120814 0.165056 0.160714 0.152183 -0.115803 -0.110827 0.129907 0.123566 0.150113 0.00106399 -0.00817047 -0.0400045 -0.0710972 0.0135452 -0.135558 -0.127989 -0.12236 0.167893 0.172022 0.146856 -0.149673 0.0235642 0.115292 0.117 0.111081 0.16761 0.166127 -0.146213
internal_weight=280.209 181.497 31.3592 14.4503 11.4616 150.138 113.064 37.074 16.9089 106.504 18.7653 87.3834 98.7116 73.157 32.7536 69.4316 46.2749 13.566 10.3532 3.21279 7.72916 5.48183 4.73402 2.99416 1.73986 3.73243 3.23589 18.2759 19.1876 15.012 3.19801 19.1208 2.24734 15.1692 14.1738 12.9407 40.4034 35.4804 15.5433
internal_count=1148 747 126 58 46 621 469 152 68 442 77 362 401 297 133 287 191 55 42 13 31 22 19 12 7 15 13 75 78 61 13 80 9 61 57 52 164 144 65
is_linear=0
shrinkage=0.1


Tree=3
num_leaves=57
num_cat=0
split_feature=10 7 2 3 3 2 2 2 7 8 10 9 4 8 7 4 2 4 8 8 8 8 4 7 7 7 8 8 8 8 7 7 7 8 8 2 2 8 8 8 8 4 3 8 4 4 4 4 7 8 8 8 8 4 8 8
split_gain=316.737 6.90727 18.8539 8.20736 11.7014 10.7471 4.86459 4.12548 3.65957 6.32742 3.05718 4.36354 13.1227 4.48482 2.27472 3.48596 1.01206 1.00739 1.32514 1.20925 0.989452 1.33012 0.889715 2.91277 0.710537 0.530231 0.734628 0.471814 0.892971 0.858785 0.453226 2.72131 0.43903 1.43413 0.414056 0.360308 0.35912 0.31972 0.271724 0.833711 0.262426 0.223601 0.778677 0.632993 0.159257 0.134027 0.12009 0.0970315 0.0746271 0.0188082 0.208916 0.0401237 0.0853741 0.0106604 0.00476985 0.213246
threshold=1.9507000000000001 0.98565000000000014 515.76370000000009 219.68645000000001 213.26260000000005 483.86950000000007 438.15290000000005 485.28460000000001 0.98875000000000013 0.69555000000000011 1.8734500000000003 0.80535000000000012 111406.00000000001 0.7491000000000001 0.99055000000000015 101229.50000000001 394.77515000000005 66779.500000000015 0.69795000000000018 0.68995000000000006 0.74235000000000007 0.59355000000000013 84749.000000000015 0.98325000000000007 0.98885000000000012 0.98795000000000011 0.66555000000000009 0.76285000000000014 0.72245000000000015 0.66555000000000009 0.98675000000000013 0.98635000000000017 0.98915000000000008 0.7279500000000001 0.70355000000000012 466.33205000000004 444.66645000000005 0.72245000000000015 0.66705000000000014 0.75365000000000015 0.7400500000000001 77185.000000000015 226.64670000000004 0.72955000000000014 97197.000000000015 85714.500000000015 79224.000000000015 93858.500000000015 0.98935000000000006 0.6039500000000001 0.73100000000000009 0.64685000000000015 0.71215000000000017 93097.000000000015 0.7642000000000001 0.73365000000000014
decision_type=2 2 2 2 2 2 2 2 2 2 2 2 2 2 2 2 2 2 2 2 2 2 2 2 2 2 2 2 2 2 2 2 2 2 2 2 2 2 2 2 2 2 2 2 2 2 2 2 2 2 2 2 2 2 2 2
left_child=10 7 3 4 6 27 32 17 9 25 11 13 35 16 22 45 -1 19 -19 -2 21 -10 23 -12 30 26 -5 28 29 -6 31 -25 38 -34 -11 44 -8 -38 -3 -40 -20 -9 43 -43 -13 46 -16 -24 -4 -23 51 -51 -53 -47 55 -50
right_child=1 2 48 8 5 -7 36 41 20 34 14 12 -14 -15 15 -17 -18 18 40 -21 -22 49 47 24 -26 -27 -28 -29 -30 -31 -32 -33 33 -35 -36 -37 37 -39 39 -41 -42 42 -44 -45 -46 53 -48 -49 54 50 -52 52 -54 -55 -56 -57
leaf_value=-0.16247262390770401 -0.023476786595038004 0.092798133123931009 0.16816863616426453 0.19473892095867074 -0.027818180029049927 0.16631223700790251 0.17441526185542958 0.16259684078555212 0.17741594546071829 -0.17802726701786742 0.098089431412162809 -0.13288433006274564 0.2325993511130717 0.10810513996440535 -0.079544685631581832 0.20752572360240459 -0.064251260512967132 -0.003835212747303056 -0.091710107784051323 0.16899278291087072 0.093649078661521168 0.055840287138834092 -0.16222374739625067 -0.11286907521726747 -0.13052219747790494 0.021313809121833168 0.062630386888218662 0.048901656487048265 0.0079858891987685723 -0.10167127967774375 -0.10633798006185952 0.1154358525894911 0.077725168744022521 0.15382073977207733 -0.081010386117555705 -0.16253624526637625 0.14962349848133755 0.12643211737658788 0.030932802226665675 0.16976723740127372 -0.17534657317813857 0.16447489556504219 0.024483012463353132 0.058863523445863299 -0.15699776919930014 -0.051188540000268491 -0.047941832845714551 -0.13202390736586198 0.16244626387534511 0.026433859760573292 0.067724144307012693 0.031517178041050281 0.050991363542840354 -0.038924631329972245 0.1656698601055929 0.14289489182393708
leaf_weight=1.4212446659803379 0.9786856472492198 1.9486499279737497 11.045982614159582 0.99822036921978285 4.3970425426959956 3.8347784876823416 4.1335670053958884 0.47630690038204182 0.72947567701340332 0.49207964539527882 0.73309615254402771 78.356502413749695 0.97579842805862327 1.4410823136568067 4.5390852242708171 0.49890705943107683 4.0265251249074936 2.448837012052536 1.7090204060077669 0.4839726984500885 5.6263112574815741 0.74140398204326885 2.1288918256759635 1.9082034975290283 6.1635207384824753 0.49424548447132099 0.73748955130577087 0.74198177456855852 3.4583981484174728 2.4536039531230927 3.3444482386112213 0.71343843638896931 11.639460101723669 3.1539060622453681 4.2098786681890488 4.7302386313676825 19.673721000552181 8.9226018786430341 3.6611424386501312 0.48623524606227864 0.49053083360195149 1.4323363155126578 1.2309542298316953 0.95222795009613026 3.0065743327140799 1.6866651475429537 1.6813275367021558 2.6602661609649658 21.552044153213505 4.1810512244701412 2.226315662264823 6.6620095670223218 3.445026233792305 1.4672273099422453 2.6279716193675986 8.1457578092813474
leaf_count=6 4 8 46 4 18 16 17 2 3 2 3 337 4 6 19 2 17 10 7 2 23 3 9 8 26 2 3 3 14 10 14 3 48 13 17 20 82 37 15 2 2 6 5 4 13 7 7 11 90 17 9 27 14 6 11 34
internal_value=0.00390162 0.0998045 0.105498 0.0814144 0.100635 0.0221857 0.12241 0.0203095 0.0382947 -0.0255736 -0.116583 -0.125175 -0.131237 -0.048511 -0.0872379 -0.0487599 -0.0900042 -0.0317176 -0.0544819 0.040557 0.0570473 0.0455735 -0.108739 -0.0949595 -0.106664 0.112996 0.138957 -0.0278784 -0.0334271 -0.0543263 -0.081925 -0.050632 0.0846702 0.0939961 -0.0913454 -0.135374 0.14648 0.142411 0.0619776 0.0473984 -0.110725 0.0979584 0.0892257 0.122519 -0.133785 -0.0625047 -0.0710506 -0.145607 0.160483 0.0399493 0.0392182 0.0347533 0.0381785 -0.0455589 0.157831 0.157109
internal_weight=274.106 152.623 142.42 99.0486 68.5051 14.8858 53.6193 10.2029 30.5435 6.93191 121.483 93.958 87.0691 6.88885 27.5251 9.87321 5.44777 6.11105 4.64839 1.46266 23.6116 17.9853 17.6519 12.8627 12.1296 2.22996 1.73571 11.051 10.309 6.85065 5.96609 2.62164 20.8894 14.7934 4.70196 86.0933 32.7299 28.5963 6.09603 4.14738 2.19955 4.09183 3.61552 2.38456 81.3631 9.37431 6.22041 4.78916 43.3718 17.2558 16.5144 14.2881 10.107 3.15389 32.3258 29.6978
internal_count=1148 630 588 407 283 61 222 42 124 28 518 403 374 29 115 41 23 25 19 6 96 73 74 54 51 9 7 45 42 28 25 11 86 61 19 370 136 119 25 17 9 17 15 10 350 39 26 20 181 70 67 58 41 13 135 124
is_linear=0
shrinkage=0.1


Tree=4
num_leaves=31
num_cat=0
split_feature=6 6 4 9 9 4 5 9 4 11 6 2 5 5 2 4 5 4 9 6 4 2 2 5 9 4 4 4 4 4
split_gain=295.098 13.5178 15.4844 1.43734 9.80079 3.90645 10.5717 3.18814 1.49614 1.39057 0.71086 0.809691 0.694792 1.33702 0.366899 0.313682 0.251843 0.371863 0.240599 0.122783 0.555012 0.106379 0.213849 0.0767898 0.0544579 0.0395618 0.0329025 0.0313435 1.08795 0.0106568
threshold=0.88395000000000012 0.88070000000000015 105572.00000000001 0.73835000000000006 0.84985000000000011 67547.000000000015 268.82790000000006 0.68105000000000016 72025.000000000015 0.64715000000000011 0.88685000000000014 497.21505000000008 318.23990000000009 305.19580000000002 390.30585000000002 73292.500000000015 289.46610000000004 73479.000000000015 0.79285000000000017 0.9305500000000001 96665.500000000015 484.5193000000001 534.14430000000004 313.80405000000002 0.89275000000000004 72684.500000000015 101229.50000000001 76657.000000000015 80843.500000000015 87817.000000000015
decision_type=2 2 2 2 2 2 2 2 2 2 2 2 2 2 2 2 2 2 2 2 2 2 2 2 2 2 2 2 2 2
left_child=1 2 3 7 5 6 -5 -1 -7 19 16 15 13 14 -3 25 -11 -18 -4 -2 -21 -14 -23 -6 -25 -12 29 -17 -29 -13
right_child=9 12 18 4 23 8 -8 -9 -10 10 11 26 21 -15 -16 27 17 -19 -20 20 -22 22 -24 24 -26 -27 -28 28 -30 -31
leaf_value=-0.16167083149151537 0.15576506026632356 0.15951753449422959 0.045325970385150072 0.16045474852538039 -0.14009868036684367 -0.11145674880846912 -0.062640150661345581 0.068548340770065233 -0.078070233737464689 0.16626431519632584 0.1316790563488682 0.15521827277289299 0.058865150072510447 -0.035914766580307185 0.059841151368736183 0.12110683266130443 0.17346897672363915 0.08197381160551627 0.1081513123607073 0.15432391927912142 0.083374716885949704 0.087835143129576229 0.16315005473688002 -0.12792675214104879 -0.14919167708474315 0.16419140081990594 0.15822081299291627 0.14648418299612323 0.078338693733116568 0.14501016771305483
leaf_weight=0.93433479964733068 40.406190499663353 0.47111609578132618 0.73710672557353873 2.4352299124002483 19.589038953185081 16.008266374468803 16.393415778875351 1.6677110493183134 84.25359907746315 0.48164160549640556 12.729558542370796 2.5231714248657253 0.74812164902687106 1.728142127394676 1.7148599922657011 2.5689750164747229 0.48961701989173878 4.9137975424528122 3.8588753491640091 5.932533770799636 1.3802348524332044 1.979609087109566 0.47552295029163349 13.942129403352736 1.5518535077571858 0.47414842247963029 4.4056897461414328 4.103759750723837 5.5175783187150955 12.425448864698408
leaf_count=4 176 2 3 10 88 69 71 7 359 2 54 11 3 7 7 11 2 20 16 26 6 8 2 63 7 2 19 17 23 53
internal_value=0.00359411 -0.0767511 -0.0826999 -0.0880044 -0.0892483 -0.0755574 -0.0337501 -0.0142637 -0.0834063 0.141232 0.129638 0.13395 0.0580872 0.0297573 0.0816455 0.122124 0.0967659 0.0904201 0.098139 0.153518 0.141001 0.0925988 0.102731 -0.135705 -0.130105 0.13291 0.14943 0.110391 0.107467 0.146786
internal_weight=266.841 168.489 161.372 156.776 154.174 119.091 18.8286 2.60205 100.262 98.3523 50.6334 44.7483 7.11737 3.91412 2.18598 25.394 5.88506 5.40341 4.59598 47.719 7.31277 3.20325 2.45513 35.083 15.494 13.2037 19.3543 12.1903 9.62134 14.9486
internal_count=1148 726 697 678 667 509 81 11 428 422 214 190 29 16 9 107 24 22 19 208 32 13 10 158 70 56 83 51 40 64
is_linear=0
shrinkage=0.1


Tree=5
num_leaves=38
num_cat=0
split_feature=10 6 4 6 3 2 0 3 0 4 9 9 0 0 3 8 8 3 8 8 8 3 9 8 8 8 8 8 2 2 2 2 3 4 4 4 4
split_gain=257.551 12.544 7.9501 3.38305 10.2377 3.12946 10.7979 2.06323 1.50215 1.29103 1.8897 0.662442 0.399909 0.57394 0.289523 0.157255 0.1752 0.14683 0.142398 0.118104 4.27879 0.0784766 0.123209 0.0207024 1.38828 0.483373 0.256052 4.02297 0.017343 0.555423 0.369269 0.330759 0.0169399 0.00555956 0.0498085 0.362427 0.0235271
threshold=2.0277500000000006 0.90345000000000009 104563.00000000001 0.86340000000000006 200.92795000000004 470.97730000000007 68640.500000000015 270.45685000000009 67183.500000000015 82803.500000000015 0.84985000000000011 0.81275000000000008 78596.500000000015 84982.500000000015 201.74860000000004 0.72825000000000006 0.74485000000000012 233.73705000000004 0.74235000000000007 0.69455000000000011 0.71940000000000015 226.30675000000005 0.79835000000000012 0.66310000000000013 0.71375000000000011 0.69695000000000007 0.74265000000000014 0.73510000000000009 420.61030000000011 438.15290000000005 398.51925000000006 404.28785000000005 220.58490000000003 85000.500000000015 88898.000000000015 98074.000000000015 78033.000000000015
decision_type=2 2 2 2 2 2 2 2 2 2 2 2 2 2 2 2 2 2 2 2 2 2 2 2 2 2 2 2 2 2 2 2 2 2 2 2 2
left_child=2 5 3 4 -1 6 28 -4 19 11 -11 21 -7 -14 -3 -12 18 -15 -17 -5 -21 -6 -23 -10 25 -25 27 -26 30 -30 -2 -32 33 36 -35 -36 -16
right_child=1 14 7 8 9 12 -8 -9 23 10 15 -13 13 17 32 16 -18 -19 -20 20 -22 22 -24 24 26 -27 -28 -29 29 -31 31 -33 -34 34 35 -37 -38
leaf_value=0.12055349411713481 0.1555514588208658 0.14781599830930295 0.083550593452073774 -0.0044658902212614355 -0.10332941995765479 0.15314160756350026 0.0048303058681834661 -0.037419839641884459 -0.079318375764217977 -0.083654107173611478 -0.14287713814015868 -0.12146216342052379 0.063640927713273135 0.09123693593986347 0.15053647300842601 -0.1024919299103364 -0.14217152226567592 0.10610782724224133 -0.14370055145245 -0.18887978502983682 0.19087036471392982 -0.07108375339645287 -0.10533895732642667 0.015530728607222122 -0.17838911658786102 -0.070454979422808428 -0.068365484721658085 0.08739245365938568 0.093150198140414267 0.15532156330753721 0.15483427035638184 0.092645904630456771 0.12838980670975056 0.14703084648392192 0.14711403593209013 0.092399662601777066 0.12696846062665637
leaf_weight=1.9627640694379795 2.5221109539270383 23.827510982751846 2.6670111268758765 1.4771397262811654 12.876822710037233 1.136184126138686 19.952659964561462 2.9803124517202377 1.9688835591077785 34.156121745705605 4.8357918411493293 65.612883895635605 5.7191498428583136 13.940671905875208 0.67196382582187908 4.8621988594531995 2.5101577043533325 13.548360571265219 1.0635527968406675 0.49311688542366006 0.72902508080005646 2.3035355210304251 2.0413293093442917 1.9764396250247958 2.4414534568786626 0.97083881497383107 1.7303650826215742 0.7388467639684676 4.0056691020727158 2.2789427787065506 1.142408490180969 3.6126680225133896 10.666368573904036 3.7015874832868558 4.1395524144172668 1.7656008899211881 4.2364269345998764
leaf_count=8 11 109 11 6 56 5 82 13 8 152 23 302 24 60 3 23 12 58 5 2 3 10 9 8 10 4 7 3 17 10 5 15 49 17 19 8 19
internal_value=-0.0101194 0.101239 -0.0966517 -0.101193 -0.105899 0.0733872 0.0516338 0.0197304 -0.0514902 -0.109316 -0.0961234 -0.116863 0.0946038 0.0925777 0.139792 -0.12817 -0.119657 0.0985848 -0.110006 0.014558 0.0374885 -0.0993087 -0.087284 -0.0696325 -0.0671546 -0.0128592 -0.0996922 -0.116598 0.120465 0.115803 0.124406 0.107737 0.132171 0.134903 0.137159 0.13085 0.130348
internal_weight=267.266 116.868 150.399 144.751 132.225 67.8588 33.5145 5.64732 12.5261 130.262 47.4278 82.8346 34.3444 33.2082 49.009 13.2717 8.43591 27.489 5.92575 2.69928 1.22214 17.2217 4.34486 9.82683 7.85794 2.94728 4.91067 3.1803 13.5618 6.28461 7.27719 4.75508 25.1815 14.5151 9.60674 5.90515 4.90839
internal_count=1186 511 675 651 600 287 140 24 51 592 215 377 147 142 224 63 40 118 28 11 5 75 19 40 32 12 20 13 58 27 31 20 115 66 44 27 22
is_linear=0
shrinkage=0.1


Tree=6
num_leaves=27
num_cat=0
split_feature=11 10 5 11 3 9 3 2 3 5 4 3 3 2 3 2 2 2 5 5 4 2 9 9 5 5
split_gain=205.415 11.9522 10.901 7.17783 4.32227 4.30191 2.70806 5.72755 2.3286 1.53989 1.3201 2.70515 2.47187 0.847206 0.769582 0.470652 4.00398 0.408719 0.40869 0.389921 0.109556 0.0383984 0.0261728 0.104023 0.00480311 1.82472
threshold=0.70185000000000008 1.92195 359.50875000000002 0.74115000000000009 203.25825000000003 0.70635000000000014 189.61845000000002 510.27545000000003 262.37065000000001 307.70220000000006 68316.000000000015 244.36930000000004 221.93310000000002 437.48590000000007 192.06115000000003 411.34590000000009 440.04285000000004 438.15290000000005 355.71875000000006 352.28570000000008 93997.500000000015 429.44040000000007 0.74835000000000007 0.80115000000000014 343.17290000000008 340.55185000000006
decision_type=2 2 2 2 2 2 2 2 2 2 2 2 2 2 2 2 2 2 2 2 2 2 2 2 2 2
left_child=5 3 10 4 14 20 -7 9 13 15 -3 12 -12 -6 -2 -8 17 21 -9 -13 -1 -17 -5 -24 25 -11
right_child=1 2 -4 22 8 6 7 18 -10 24 11 19 -14 -15 -16 16 -18 -19 -20 -21 -22 -23 23 -25 -26 -27
leaf_value=0.14161760302307222 0.18094966304935386 -0.0029468099007083953 0.1813298182896565 -0.14683000165482743 -0.096661333061357352 0.13445339917821522 0.02607721066248413 0.12649483242226772 0.023197663516500155 0.045055822640265676 -0.11374052378868625 -0.021334397730520038 -0.044193852120909399 -0.06560376701166061 0.036840634637022432 0.032837421667616794 0.12558296109214007 0.090888874740575887 0.10078792297865811 0.037669337093290178 0.12335186059014583 0.018293976253559229 -0.14886981213034794 -0.123274017016687 0.043800355897484093 0.16149470838242927
leaf_weight=12.203850492835047 0.49541488289832969 4.7839296162128475 2.1586741060018531 0.65467861294746299 22.632811218500137 8.9816010147333127 1.4089904129505182 15.558503568172457 2.1174000501632682 37.412366762757301 9.3077431321144157 2.0988781303167334 11.352572277188299 14.453064724802969 1.4445953071117399 4.5869809687137622 11.22292812168598 1.1512328088283537 10.556790381669996 2.3901966959238052 5.0503349900245658 3.0560671389102936 1.750272974371909 67.809738501906395 2.181382328271865 1.3921574503183354
leaf_count=59 2 20 9 3 106 42 6 73 9 162 41 9 48 66 6 19 51 5 49 10 24 13 8 331 9 6
internal_value=-0.00944478 -0.0892205 -0.0354432 -0.104716 -0.0715336 0.0902715 0.0821184 0.0768013 -0.0787454 0.0603387 -0.0511042 -0.0602617 -0.0755462 -0.0845685 0.0740202 0.0820696 0.0860025 0.035447 0.116125 0.0100855 0.136309 0.0270401 -0.124153 -0.123929 0.0489694 0.0492539
internal_weight=258.213 143.45 32.092 111.358 41.1433 114.763 97.509 88.5274 39.2033 62.4121 29.9333 25.1494 20.6603 37.0859 1.94001 21.4262 20.0172 8.79428 26.1153 4.48907 17.2542 7.64305 70.2147 69.56 40.9859 38.8045
internal_count=1186 668 137 531 189 518 435 393 181 271 128 108 89 172 8 94 88 37 122 19 83 32 342 339 177 168
is_linear=0
shrinkage=0.1


Tree=7
num_leaves=21
num_cat=0
split_feature=11 11 7 3 0 0 4 0 9 9 9 4 4 1 5 9 4 5 0 7
split_gain=116.032 76.6203 33.2803 9.59147 6.25167 1.38469 2.12992 1.35486 1.22973 0.893403 1.67868 0.697921 0.22643 1.51124 0.293956 0.144645 0.137394 0.16248 0.09316 0.0532075
threshold=0.73935000000000006 0.66405000000000014 0.99095000000000011 192.06115000000003 98425.500000000015 83831.500000000015 87817.000000000015 72999.500000000015 0.82645000000000013 0.71545000000000003 0.81015000000000015 107275.00000000001 95361.500000000015 1243.8395000000003 320.2987500000001 0.85480000000000012 98340.500000000015 315.29165000000006 99851.000000000015 0.98865000000000014
decision_type=2 2 2 2 2 2 2 2 2 2 2 2 2 2 2 2 2 2 2 2
left_child=1 16 3 19 8 7 -7 -4 9 -5 -11 -8 14 -14 -2 -16 17 -1 -18 -3
right_child=12 2 5 4 -6 6 11 -9 -10 10 -12 -13 13 -15 15 -17 18 -19 -20 -21
leaf_value=0.13833474691340561 -0.11574811286115988 0.10210614126228611 0.069751531023198352 0.027860616044271303 0.046080028088481578 0.020164437903505958 0.088669535827149926 0.019834027647959045 -0.10864751482745692 -0.053636485070469031 -0.092145273857732884 0.14969484507557593 -0.12454413183201113 -0.03260887307095512 -0.13777230530002771 -0.11913856191356723 0.13719965192863567 0.12614230142361363 0.11385594542047915 0.079890254978068356
leaf_weight=22.921646773815155 40.20620085299015 2.1850309371948233 10.321240276098253 1.1063590794801701 5.4416775405406943 4.6553130894899395 13.673875734210013 11.4990326911211 5.9519262313842765 48.345690429210663 14.800352767109869 2.184713974595069 8.1985794901847822 2.2925131767988196 12.128142461180689 6.9599983841180793 2.3788529783487311 23.254879832267761 8.1915812045335752 2.4908930212259293
leaf_count=115 208 10 47 5 24 20 60 50 29 208 70 10 42 10 61 37 12 116 41 11
internal_value=-0.00884116 0.0337181 -0.0107339 -0.0485493 -0.0571422 0.0610113 0.0796677 0.0434569 -0.0651461 -0.061108 -0.0626691 0.0971221 -0.118246 -0.104481 -0.120673 -0.131012 0.129792 0.132209 0.119173 0.090373
internal_weight=249.189 179.403 122.656 80.3219 75.646 42.3342 20.5139 21.8203 70.2043 64.2524 63.146 15.8586 69.7854 10.4911 59.2943 19.0881 56.747 46.1765 10.5704 4.67592
internal_count=1186 828 544 357 336 187 90 97 312 283 278 70 358 52 306 98 284 231 53 21
is_linear=0
shrinkage=0.1


Tree=8
num_leaves=48
num_cat=0
split_feature=10 6 10 0 3 5 5 5 0 5 9 5 8 9 8 0 0 5 0 8 8 3 8 3 8 8 9 8 8 8 4 4 4 8 8 4 4 0 0 8 8 4 8 4 0 0 0
split_gain=126.754 53.0124 15.1812 6.22198 4.00797 2.70657 2.62143 1.99161 1.74774 2.25034 1.12943 2.57991 3.69712 1.46572 0.675939 0.605212 3.22403 4.38603 4.18346 0.52809 2.31684 0.473829 0.464333 0.282208 0.374115 0.730351 0.113351 0.0989051 0.069368 0.218241 0.371829 0.277412 0.327701 0.238373 0.0518671 0.0308706 0.0903404 0.0304398 3.70227 0.123049 0.0169363 0.059897 0.0061666 0.00435457 0.00124033 0.943911 0.150638
threshold=1.8997500000000003 0.87665000000000015 2.2225500000000005 93904.000000000015 210.84040000000002 285.44975000000005 310.34020000000004 309.78475000000009 89507.500000000015 339.68990000000002 0.81840000000000013 341.57010000000008 0.70915000000000006 0.72525000000000006 0.75445000000000018 72138.500000000015 75451.500000000015 305.0351500000001 85387.000000000015 0.72205000000000008 0.7148500000000001 216.17870000000002 0.75400000000000011 259.25700000000001 0.74670000000000014 0.72585000000000011 0.78820000000000012 0.74565000000000015 0.75760000000000016 0.70995000000000008 65903.500000000015 77185.000000000015 96039.000000000015 0.74175000000000013 0.68435000000000012 91776.000000000015 75937.500000000015 84898.000000000015 78339.000000000015 0.73285000000000011 0.66225000000000012 77412.000000000015 0.66705000000000014 76143.500000000015 98425.500000000015 76873.500000000015 80097.500000000015
decision_type=2 2 2 2 2 2 2 2 2 2 2 2 2 2 2 2 2 2 2 2 2 2 2 2 2 2 2 2 2 2 2 2 2 2 2 2 2 2 2 2 2 2 2 2 2 2 2
left_child=10 3 5 4 19 34 7 21 22 -10 13 14 42 -1 35 -7 17 -17 -18 20 -2 -6 37 24 25 -5 -9 -14 29 40 33 -32 -33 -31 -3 36 -12 38 -8 -39 41 -4 -13 -38 45 -15 -47
right_child=1 2 28 23 6 15 8 26 9 -11 11 12 27 44 -16 16 18 -19 -20 -21 -22 -23 -24 -25 -26 -27 -28 -29 -30 30 31 32 -34 -35 -36 -37 43 39 -40 -41 -42 -43 -44 -45 -46 46 -48
leaf_value=0.039371008845377024 -0.024203955643471005 0.13778904795965119 0.13356271400127959 0.030934169477950094 -0.098169372475442399 0.063765231574849729 0.048312525793342588 0.061310853743924615 -0.0079836860469780137 -0.17322127228691636 -0.11022703754177497 -0.0049642650177371362 -0.098916600662229043 -0.056477646360917511 -0.064827343336423635 0.081842443851287805 -0.015007343127652464 -0.16070271114190393 0.073946627002234283 0.036786903339266042 0.21319215282967643 -0.14236600184797474 -0.091941812347510116 0.079842206720367459 -0.0079803428797919074 0.12706818533899938 -0.0033172574384274719 -0.12858991999091232 0.13536652942223651 0.038885136306299486 0.13856311804974528 0.12305604721166251 0.088570725074801682 0.13214917247432409 0.11120628566513076 -0.13375629355720181 -0.13076616391813939 -0.019932610940120655 -0.06494434761604681 -0.055342446510606547 0.13431517638598264 0.12333538733771635 0.0028678583886568077 -0.11794888552963539 -0.087678772359221765 -0.13857579318971258 -0.1008804674321542
leaf_weight=1.061246365308764 6.7282480746507627 1.2002309262752526 11.018510922789575 4.0079979002475721 5.6426914036273939 4.8978798389434841 4.5159359276294797 0.45908814668655284 1.3560921102762216 2.099109947681427 34.125614643096924 1.3339196294546116 7.8651506751775724 7.2017792612314206 2.9453373849391928 1.1949924826622038 8.7286767065525073 1.9663514047861097 13.396742552518843 3.699806421995163 0.43283380568027485 4.3627367913722992 1.1560437530279148 2.0320679545402527 1.4325993210077284 0.98141568899154652 0.65138170123100281 1.3938315212726591 6.8703537434339514 0.99910765886307007 5.294465824961665 7.8781767487525922 4.3616995513439178 0.37693049013614655 2.7680647522211075 0.95273110270500083 0.72963561117649334 2.4894536435604087 7.9788115620613098 1.6277210116386411 6.9759369641542426 16.087858662009239 4.0228247195482254 25.36108785867691 1.3791472166776646 1.4067980796098707 5.0685094594955444
leaf_count=5 28 6 59 17 26 21 19 2 6 9 183 6 41 36 16 5 36 8 60 16 2 21 5 9 6 4 3 8 36 5 27 41 23 2 13 5 4 11 34 7 37 84 20 136 6 7 25
internal_value=-0.00826166 0.050316 0.0950294 -0.0310684 -0.0464217 0.0418195 -0.0640712 -0.103408 -0.043448 -0.108479 -0.0982252 -0.103169 -0.065214 -0.0740515 -0.111815 0.0315998 0.0253576 -0.0690309 0.0388573 0.00613486 -0.00971412 -0.117504 -0.030774 0.0473655 0.0370326 0.0499552 0.0235423 -0.103452 0.12538 0.124073 0.115288 0.119228 0.11081 0.06483 0.119414 -0.114072 -0.113749 -0.0264899 -0.0240061 -0.0339858 0.128929 0.127517 0.000911803 -0.118333 -0.0820576 -0.0814578 -0.109173
internal_weight=240.518 145.67 94.016 51.654 43.2 34.1529 32.3391 11.1159 21.2232 3.4552 94.8476 78.7301 14.6157 16.1175 64.1144 30.1846 25.2868 3.16134 22.1254 10.8609 7.16108 10.0054 17.768 8.45408 6.42201 4.98941 1.11047 9.25898 59.863 52.9927 18.9104 17.5343 12.2399 1.37604 3.9683 61.1691 60.2163 16.6119 12.4947 4.11717 34.0823 27.1064 5.35674 26.0907 15.0562 13.6771 6.47531
internal_count=1186 688 463 225 189 149 143 52 91 15 498 419 75 79 344 130 109 13 96 46 30 47 76 36 27 21 5 49 314 278 98 91 64 7 19 328 323 71 53 18 180 143 26 140 74 68 32
is_linear=0
shrinkage=0.1


Tree=9
num_leaves=48
num_cat=0
split_feature=10 7 2 4 6 6 4 6 6 2 8 4 4 8 7 8 8 4 4 4 2 8 8 8 4 8 4 8 8 8 4 7 4 7 4 4 4 4 7 7 8 8 7 7 7 7 7
split_gain=122.901 12.7312 5.12757 4.25562 8.47693 3.90001 4.91742 2.64483 10.4702 2.12999 1.4739 2.28075 0.964899 0.768199 1.62699 0.520217 0.502469 0.445362 1.29871 0.574576 0.345323 0.317337 0.177401 0.121766 0.459575 0.13226 0.125084 0.105429 1.39049 0.481982 0.0995647 1.29914 0.720475 1.211 0.0596166 0.214093 0.108176 0.339321 0.0446237 0.5268 0.0141999 1.97129 0.0136128 5.93996 2.55847 0.012181 0.13349
threshold=1.9454500000000003 0.98945000000000005 522.17040000000009 92501.000000000015 0.8317500000000001 0.86040000000000016 67763.000000000015 0.91675000000000006 0.87605000000000011 452.29175000000004 0.72955000000000014 81826.000000000015 79016.000000000015 0.72935000000000005 0.98615000000000008 0.54105000000000014 0.75055000000000016 79016.000000000015 86619.500000000015 84749.000000000015 472.07085000000006 0.73795000000000011 0.76135000000000008 0.62130000000000007 96778.000000000015 0.73450000000000015 68018.500000000015 0.72245000000000015 0.7602000000000001 0.73825000000000007 67547.000000000015 0.99285000000000012 64198.000000000007 0.98605000000000009 83983.000000000015 88268.000000000015 93858.500000000015 101229.50000000001 0.98015000000000008 0.98965000000000014 0.71125000000000016 0.74335000000000007 0.98555000000000015 0.99245000000000017 0.9910500000000001 0.9910500000000001 0.98915000000000008
decision_type=2 2 2 2 2 2 2 2 2 2 2 2 2 2 2 2 2 2 2 2 2 2 2 2 2 2 2 2 2 2 2 2 2 2 2 2 2 2 2 2 2 2 2 2 2 2 2
left_child=3 2 5 12 20 -2 22 8 10 16 17 -12 30 -14 -15 -11 -8 -3 19 -19 -5 -4 -7 26 27 -26 -10 -25 29 -29 32 38 -1 -34 -28 -36 -37 -38 -32 -40 -17 -42 -6 44 -44 46 -16
right_child=1 7 21 4 42 6 9 -9 23 15 11 -13 13 14 45 40 -18 18 -20 -21 -22 -23 -24 24 25 -27 34 28 -30 -31 31 -33 33 -35 35 36 37 -39 39 -41 41 -43 43 -45 -46 -47 -48
leaf_value=-0.074605411753260742 -0.14660641175324454 -0.017877612128602519 0.1098313137093367 -0.11674762818365472 0.0096202976004790067 0.076073694691491375 -0.04452800714335349 0.12796869138036662 0.13094371055212728 0.12710794326356398 0.1035874513062495 -0.012907081206356473 -0.12646482882686469 0.010207845648364668 -0.1323756539670361 0.0070882390778022305 -0.12136816377936566 -0.073506683203346121 0.04795486728791909 0.022796840774366084 -0.075277957350076252 0.053448190477518136 0.13483008684954084 0.097201206124921072 0.13183393396625226 0.10389699788449203 0.095812182739037258 0.099597595167661521 0.14352642573347629 0.057215442001289696 -0.12764365274837861 0.005838346986867568 -0.046443829446958802 -0.13087951898638381 0.077426521904304713 0.14430163453515046 0.14457389862460626 0.0827452516459668 -0.10481764936339744 -0.079607932333194228 -0.037688792304485047 0.057412471665342482 -0.051071300450726935 0.19929716767650454 0.085784514082235475 -0.10255336622742001 -0.097407003311145587
leaf_weight=8.6849217265844363 1.723104953765868 7.6137922704219836 4.9288659244775763 8.1472355276346224 0.6254376620054235 6.6613589972257605 7.6571735888719576 10.58021269738674 1.9814604371786106 0.34737436473369854 4.0166511833667746 2.8850091099739075 16.922167301177982 1.3460881561040867 1.8343477100133876 9.8619126528501528 0.95571032166481007 1.7227447926998141 4.7456485033035278 0.96253952383995045 2.720955863595008 1.2719021886587141 0.56373973190784443 13.183232054114344 3.8187059909105292 3.3599366545677185 6.100098639726637 3.8591710180044201 3.2286787927150717 8.936537101864813 0.35183097422122855 1.4491792321205128 2.1422702670097342 8.3479174971580488 1.5744148492813108 1.4171734899282453 1.6369450986385348 2.0090843290090561 14.577619284391401 19.575001463294029 5.2722709923982602 3.70820552110672 5.1302720308303815 1.5880822241306303 1.8561180084943769 6.1352886855602264 3.0254560261964798
leaf_count=46 8 33 28 47 3 33 33 62 11 2 17 12 93 7 10 46 4 7 20 4 13 7 3 65 21 18 31 19 16 44 2 8 11 47 8 7 8 11 80 110 24 18 24 7 8 33 17
internal_value=-0.00775392 0.0584998 0.0142441 -0.0880385 -0.0466291 4.63789e-05 0.00728096 0.0812262 0.0744479 -0.0118222 0.0166706 0.0549145 -0.097882 -0.11259 -0.0935192 0.00672241 -0.0531217 -0.0008849 0.0165242 -0.0390027 -0.106406 0.0983209 0.0807505 0.0992551 0.0960744 0.118842 0.107081 0.0904587 0.084882 0.070033 -0.0900652 -0.0868863 -0.0960005 -0.113668 0.103318 0.110137 0.120219 0.110669 -0.0907815 -0.0903826 0.00446903 0.00158865 0.0240055 0.0250467 -0.0146744 -0.106218 -0.110732
internal_weight=231.044 126.584 42.9516 104.46 20.0681 36.7509 35.0277 83.632 73.0518 27.8026 21.9464 6.90166 84.3921 29.2633 12.3412 19.1898 8.61288 15.0447 7.43093 2.68528 10.8682 6.20077 7.2251 51.1054 36.3863 7.17864 14.7192 29.2076 16.0244 12.7957 55.1287 35.9536 19.1751 10.4902 12.7377 6.63762 5.0632 3.64603 34.5045 34.1526 18.8424 8.98048 9.19991 8.57447 6.98639 10.9951 4.8598
internal_count=1186 620 206 566 102 171 163 414 352 127 93 29 464 160 67 90 37 64 31 11 60 35 36 259 183 39 76 144 79 63 304 200 104 58 65 34 26 19 192 190 88 42 42 39 32 60 27
is_linear=0
shrinkage=0.1


Tree=10
num_leaves=55
num_cat=0
split_feature=6 11 11 11 7 7 11 8 3 11 7 8 7 4 3 7 8 8 8 4 4 8 8 3 7 8 3 7 7 3 4 4 8 8 3 8 3 8 3 8 8 8 8 8 3 8 4 8 8 4 3 4 8 8
split_gain=128.574 16.1159 6.92242 3.8857 8.00501 4.77745 2.3561 1.9886 4.10849 1.25051 1.2151 4.32088 0.925792 0.895753 0.516683 0.469961 0.955247 0.636101 0.307837 0.77533 0.518972 0.288323 0.233817 0.898055 0.956753 0.20863 0.194454 5.65624 0.430947 0.132109 0.072192 4.06769 0.904633 0.479746 0.308276 0.32118 0.56146 0.131193 0.0716067 0.232889 0.497992 0.292351 0.0358481 0.0340727 0.032432 0.0273641 0.0149818 0.0131452 0.598271 0.00886483 0.00841583 0.00195224 0.00152552 6.52997e-05
threshold=0.87735000000000007 0.73625000000000018 0.67815000000000014 0.71515000000000006 0.99245000000000017 0.99035000000000006 0.68215000000000015 0.76580000000000015 190.21295000000001 0.66145000000000009 0.98675000000000013 0.75760000000000016 0.98925000000000007 78389.500000000015 222.16365000000002 0.98645000000000016 0.73055000000000014 0.66065000000000007 0.73675000000000013 86031.500000000015 70505.500000000015 0.73795000000000011 0.71375000000000011 216.36830000000003 0.99025000000000007 0.7602000000000001 223.45855000000003 0.98825000000000007 0.99015000000000009 230.76770000000002 86749.000000000015 95361.500000000015 0.73865000000000014 0.7209000000000001 221.37535000000003 0.68135000000000012 227.09470000000002 0.75760000000000016 261.55285000000009 0.69240000000000013 0.7592000000000001 0.7148500000000001 0.71375000000000011 0.70995000000000008 228.31400000000002 0.72765000000000013 72315.500000000015 0.69695000000000007 0.6614000000000001 79802.500000000015 238.62150000000003 80136.000000000015 0.70205000000000006 0.7057500000000001
decision_type=2 2 2 2 2 2 2 2 2 2 2 2 2 2 2 2 2 2 2 2 2 2 2 2 2 2 2 2 2 2 2 2 2 2 2 2 2 2 2 2 2 2 2 2 2 2 2 2 2 2 2 2 2 2
left_child=1 3 9 4 7 10 25 8 -1 22 11 13 15 21 -14 16 -11 -17 19 51 -20 -5 -2 -24 -25 43 28 -28 46 44 34 32 -32 -33 37 -36 53 52 42 -40 41 -41 47 -4 -26 -29 -8 48 -3 -6 -16 -7 -10 -37
right_child=2 38 6 5 49 18 26 -9 30 12 -12 -13 14 -15 50 17 -18 -19 20 -21 -22 -23 23 24 29 -27 27 45 -30 -31 31 33 -34 -35 35 36 -38 -39 39 40 -42 -43 -44 -45 -46 -47 -48 -49 -50 -51 -52 -53 -54 -55
leaf_value=0.15047132210416692 0.12702368792414648 -0.048052072145005675 0.1098957171310081 -0.033833489013477491 0.12605594600895198 -0.018532562393644272 -0.0030759383615882002 0.15099018003305192 -0.03217402937827215 -0.0069447555299549883 -0.10282758583156973 0.23694634158162795 0.088668687161712598 -0.1365484505793321 0.12241511256710963 0.1417263853131695 0.14125855607959309 0.056935476400913079 -0.13603596566113715 0.040703805064700609 -0.016929034580819815 -0.12872745209112307 0.12804312046620028 0.022265030461869742 0.088712209899980132 0.052012559972228659 -0.15722834439251521 0.080410400324982922 0.038093027892676726 0.12746326044944734 -0.081562735882660359 0.05322321296567474 -0.18868770832473891 -0.0056381219931723407 -0.033952172212960735 0.035368004469536939 -0.040215815279066543 -0.077334410107388035 -0.063373520186015747 -0.061311850771242529 -0.031467679025124019 -0.11274085592830801 -0.10187881591002512 0.09041377347380794 0.12411147851827575 0.097714885090629089 -0.014915685709440782 -0.099644469400869601 -0.10500179410181232 0.14243950973437824 0.1341432130548712 -0.022894905334436239 -0.034830023627751942 0.040342778055254207
leaf_weight=1.3040665239095712 27.563009575009346 2.3365304321050671 3.4945991784334209 2.9004281759262152 0.95423090457916204 3.4184267371892911 1.7777718603610972 0.66561925411224265 6.9938874542713201 1.9182743877172499 12.518074989318846 0.48627687990665425 8.5482535213232058 1.5620894730091093 5.9500462263822547 1.2411573082208631 0.55719681084156025 3.1054413318634033 0.3978983461856832 3.5295217931270599 4.0097561627626419 0.35641475021839131 12.827966779470446 1.8856752216815937 2.6492485851049428 0.92670807242393483 1.2008519321680067 2.5262071192264557 3.1318816244602203 1.867394760251045 3.9625459909439069 2.5615638196468353 0.98641216754913319 3.0041977018117905 3.0012010782957068 0.48489536345005113 1.4043175429105756 0.71669299900531847 2.5397562831640235 1.3185616284608821 1.0278809815645207 7.605322390794754 28.202439308166504 1.4933917075395582 0.32746635377407063 1.7932417541742323 2.7012404799461365 7.4275617748498908 9.0153802037239057 2.6139372736215591 1.5089658647775648 1.7591074109077451 5.5580619275569916 1.8928409367799757
leaf_count=6 166 13 15 15 4 18 8 3 31 9 67 2 41 8 30 6 3 14 2 16 19 2 76 11 16 4 5 11 14 11 17 11 4 13 13 2 6 3 13 7 6 47 171 7 2 8 11 45 54 11 8 9 24 8
internal_value=0.00504015 -0.0597409 0.0971307 -0.0261219 -0.00383428 -0.0521261 0.0436651 -0.0194351 -0.023018 0.111684 -0.0858272 -0.0456513 0.0924184 -0.0743875 0.105576 0.061488 0.0266253 0.081286 -0.00630897 0.00459172 -0.0278269 -0.0444046 0.121007 0.112496 0.082784 0.0960452 0.0200427 0.034325 0.00966571 0.106292 -0.0304436 -0.0371733 -0.103087 0.0214727 -0.0269055 -0.00955142 0.00982665 -0.0357692 -0.0976329 -0.0906624 -0.0975898 -0.105182 -0.0994761 0.104162 0.0928134 0.0877028 -0.0102285 -0.0958407 -0.0933077 0.138245 0.124878 -0.0200384 -0.0333648 0.0394112
internal_weight=215.512 126.516 88.996 67.0425 36.1045 30.938 19.0459 32.5363 31.8707 69.9501 17.8233 5.30521 22.8293 4.81893 16.0073 6.82207 2.47547 4.3466 13.1147 8.70706 4.40765 3.25684 47.1208 19.5578 6.72978 5.9147 13.1312 5.5203 7.61089 4.84411 30.5666 10.5147 4.94896 5.56576 20.0519 6.78325 3.78205 13.2686 59.4734 12.4915 9.95177 8.92388 46.9819 4.98799 2.97671 4.31945 4.47901 18.7795 11.3519 3.56817 7.45901 5.17753 12.5519 2.37774
internal_count=1146 670 476 314 156 158 83 141 138 393 94 27 111 25 79 32 12 20 64 43 21 17 282 116 40 26 57 24 33 29 132 45 21 24 87 29 16 58 356 73 60 54 283 22 18 19 19 112 67 15 38 27 55 10
is_linear=0
shrinkage=0.1


Tree=11
num_leaves=51
num_cat=0
split_feature=11 7 3 1 3 3 5 3 0 1 1 3 1 1 1 5 0 8 8 1 8 8 8 8 8 8 8 8 3 8 8 8 8 8 8 3 8 8 8 8 5 8 1 5 5 5 8 8 8 8
split_gain=85.128 7.85644 4.55294 6.92707 5.84957 3.26602 7.64168 2.79623 1.89216 1.62014 1.02285 7.25782 2.41621 1.72131 1.74668 0.937306 0.870619 0.798328 0.993765 0.733427 0.633827 0.374154 0.437279 0.229003 0.201747 0.172941 0.153362 0.14467 0.136754 0.117519 0.102976 1.35535 0.323144 0.0890395 0.0527993 0.0449028 0.0425147 0.255868 0.161351 0.0322489 0.0242804 0.0207986 0.0160048 0.0119499 0.129852 0.271138 0.00494003 0.504661 0.267671 0.00167761
threshold=0.73075000000000012 0.98945000000000005 195.35760000000002 1132.7980000000002 207.56230000000002 222.35900000000001 355.17695000000009 232.21560000000002 77961.000000000015 1234.0880000000002 1206.0545000000002 214.89975000000004 1361.2655000000002 1068.0100000000002 1032.2385000000002 309.02865000000003 77214.000000000015 0.70400000000000007 0.68135000000000012 1180.5345000000002 0.71695000000000009 0.7299500000000001 0.64230000000000009 0.73450000000000015 0.7400500000000001 0.72435000000000016 0.74265000000000014 0.75185000000000013 198.24415000000002 0.7652500000000001 0.75760000000000016 0.7188500000000001 0.67920000000000014 0.68135000000000012 0.68675000000000008 229.95300000000003 0.73865000000000014 0.73100000000000009 0.76580000000000015 0.71940000000000015 323.73080000000004 0.69555000000000011 1016.4005000000001 297.86115000000007 316.34185000000008 321.39495000000005 0.74295000000000011 0.72495000000000009 0.6916500000000001 0.65850000000000009
decision_type=2 2 2 2 2 2 2 2 2 2 2 2 2 2 2 2 2 2 2 2 2 2 2 2 2 2 2 2 2 2 2 2 2 2 2 2 2 2 2 2 2 2 2 2 2 2 2 2 2 2
left_child=1 5 42 4 28 10 8 36 -7 24 11 13 -12 14 21 23 -13 18 -9 34 35 22 -1 -6 43 -8 -26 -18 -4 -23 31 32 -30 -16 -15 -17 37 49 -38 -11 -10 -21 -3 -2 -45 -46 47 48 -36 -5
right_child=9 2 3 7 15 6 25 17 40 39 12 16 -14 19 33 20 27 -19 -20 41 -22 29 -24 -25 26 -27 -28 -29 30 -31 -32 -33 -34 -35 46 -37 38 -39 -40 -41 -42 -43 -44 44 45 -47 -48 -49 -50 -51
leaf_value=-0.051149587570798509 -0.094758851646888562 0.13223629332315762 0.060142777117601458 0.10818601930408306 -0.042481861544223835 0.055183431393422203 0.11011135071216126 0.083978418019383785 -0.053431714594696506 -0.015294251500932799 0.12290863663249546 -0.07891829676080267 -0.15547455658702949 0.082999518793566152 -0.0062329572545254475 -0.0073950280749018205 0.00018553499499677123 0.034914069386405719 0.0075582257303459721 0.15172500811592293 0.032685440012621955 0.086345478811455698 0.059478203549871447 -0.0090107189390188722 -0.12369410400483977 0.071736562441803653 -0.099702691563913329 -0.061032550673984998 0.078069313522174208 0.14516082729655383 0.13824190423931509 0.15639468812281773 0.018280441639388554 -0.035668551248037854 0.12841310006159123 -0.030677205174974666 0.091363560745442884 0.066396446859052258 0.12994685370965631 -0.036631613443894713 -0.06379477567475493 0.12733308024673695 0.12249379442942993 -0.081892911391375375 -0.12443703368350248 -0.090655384693445543 0.063101854024209855 0.14041030691343015 0.034303664004621412 0.11278445911424534
leaf_weight=0.41385893523693651 13.12183205783367 4.2291903495788556 1.2321822643280045 8.2703795135021263 6.0097561031579989 1.5443370342254663 2.7960718423128119 10.95690403878689 3.1911192387342444 2.1479894965887065 2.7292075306177135 4.7832073569297782 0.34754212200641621 4.317480802536009 2.7935257703065872 6.0053073912858945 2.4468223452568059 10.423979118466375 2.016106739640235 1.0644264519214623 6.5581932365894318 2.0012798756361012 2.456782191991806 3.1032830029726028 3.5481198728084591 2.1132887750864029 12.481923922896383 0.45321916043758381 3.0764420479536057 0.42507764697074879 0.56931526958942402 2.2307047843933105 1.2855820208787916 1.6247000843286512 0.35030673444271165 0.95801462233066548 7.2895822376012784 1.4807598888874043 1.3149809092283247 1.0663623958826063 10.571282550692557 1.0138014405965803 6.5300445109605789 11.407372534275057 2.8183255344629314 16.862445116043091 2.141864001750946 0.78201656043529499 2.0858505368232727 7.1493024677038184
leaf_count=2 83 24 7 48 30 8 16 57 16 10 18 24 2 23 14 26 10 51 9 6 29 10 13 15 23 10 81 2 16 2 3 11 6 8 2 5 42 9 8 6 50 6 44 71 18 105 11 4 11 41
internal_value=0.00476197 0.0475019 0.0653176 0.05709 0.0201276 0.0166918 -0.0148146 0.0805381 -0.0496343 -0.0916443 0.0364532 0.0306544 0.0912567 0.0604984 0.029328 -0.0063175 -0.0527284 0.0555504 0.0721108 0.0862336 0.010387 0.0680268 0.0434624 -0.0310968 -0.0953355 0.0936855 -0.105051 -0.00946491 0.0913985 0.0969334 0.0967279 0.0930385 0.060493 -0.0170888 0.0745833 -0.0106202 0.103445 0.106525 0.0973339 -0.0224237 -0.0614133 0.140168 0.126384 -0.0918009 -0.0905369 -0.0955242 0.06773 0.0707027 0.048078 0.110355
internal_weight=206.591 143.137 90.69 79.9308 31.0288 52.4471 20.2161 48.902 15.3067 63.4544 32.231 29.1542 3.07675 21.471 9.71522 22.6346 7.68325 23.397 12.973 11.7557 13.5215 5.297 2.87064 9.11304 60.24 4.90936 16.03 2.90004 8.39423 2.42636 7.16204 6.59273 4.36202 4.41823 9.67752 6.96332 25.505 16.9004 8.60456 3.21435 13.7624 2.07823 10.7592 44.21 31.0881 19.6808 5.36004 3.21817 2.43616 15.4197
internal_count=1146 749 481 413 148 268 100 265 74 397 168 148 20 112 49 105 36 117 66 63 60 27 15 45 381 26 104 12 43 12 36 33 22 22 51 31 148 98 50 16 66 12 68 277 194 123 28 17 13 89
is_linear=0
shrinkage=0.1


Tree=12
num_leaves=35
num_cat=0
split_feature=9 9 9 2 1 11 4 0 0 8 8 0 0 1 4 2 0 8 1 8 4 1 8 2 1 2 2 0 8 1 4 2 2 2
split_gain=70.5346 18.442 6.11727 6.03211 3.14363 1.9375 3.69066 3.7374 1.68843 1.90685 2.69147 1.2976 1.0057 2.41745 0.982566 4.52733 0.967224 0.567659 0.560087 0.533756 0.528459 0.273419 0.188921 0.172069 0.371072 0.624325 0.167271 0.376348 0.150914 0.17652 0.0675002 0.0937276 0.0706173 0.180295
threshold=0.76305000000000012 0.84575000000000011 0.83065000000000011 477.41050000000007 1039.8670000000004 0.69580000000000009 99643.000000000015 68905.000000000015 81815.000000000015 0.74215000000000009 0.74035000000000006 69816.500000000015 94482.500000000015 1158.5515000000003 90772.000000000015 463.12905000000006 76873.500000000015 0.72935000000000005 1136.6455000000003 0.74215000000000009 65698.000000000015 1125.5865000000001 0.76580000000000015 427.29670000000004 1116.3335000000004 477.41050000000007 446.60620000000006 71618.500000000015 0.7279500000000001 1054.7115000000001 73868.000000000015 459.11600000000004 441.57600000000008 423.93240000000009
decision_type=2 2 2 2 2 2 2 2 2 2 2 2 2 2 2 2 2 2 2 2 2 2 2 2 2 2 2 2 2 2 2 2 2 2
left_child=5 2 3 4 11 23 7 -7 9 10 -6 17 13 -5 28 -16 -9 -2 21 -14 -4 -10 -11 -1 26 -26 -25 -28 -3 -30 -22 32 33 -32
right_child=1 14 20 12 8 6 -8 16 18 22 -12 -13 19 -15 15 -17 -18 -19 -20 -21 30 -23 -24 24 25 -27 27 -29 29 -31 31 -33 -34 -35
leaf_value=0.12603313989121065 0.011087968484876518 -0.12116115383779257 -0.12269507271921094 -0.17547510669852626 -0.012886427833935647 -0.032417780325835373 -0.24500458485025436 0.34830327747047135 -0.066751587971167606 -0.073440110235359554 0.22118435399659303 -0.13089199878011948 0.045208094794478682 0.026485674698151208 -0.11975765123810488 0.096776220789445699 0.12476709734335101 0.051882249849424494 -0.050206075405615086 0.093157990739805865 -0.070515312493693832 -0.13127031854780652 -0.015328369851273291 0.069231204269145002 0.14388961537142836 0.10173133947190711 0.12188986174931452 0.065207284517918476 -0.09554183865585078 -0.12008070078416254 -0.051537856790502039 -0.044740045213470657 -0.049415311831840503 -0.087903224716967196
leaf_weight=3.1763491183519355 10.365470245480536 11.178216949105268 1.5182943344116235 0.62074789404869335 29.732998073101047 1.3398988991975782 0.44782650470733631 0.40590246021747578 1.2853955179452889 6.0555738359689704 0.49449065327644248 0.55161459743976671 10.742374137043951 11.216991215944288 3.7260475009679785 1.2984341979026792 0.38280194997787476 5.0829665362834939 13.266979441046713 2.968296378850936 5.500551491975787 1.3872143775224683 0.6204250007867812 4.4441851079463941 3.9105666130781165 37.570259422063828 2.6295763403177261 2.1545695066452026 7.9515402764081937 4.88424251973629 2.7675182521343213 4.2015039175748816 2.5796633362770081 2.7560589462518692
leaf_count=20 55 78 10 3 144 7 2 2 7 28 2 3 50 53 27 7 2 27 68 14 35 8 3 26 21 248 18 12 56 35 18 23 16 18
internal_value=0.00445708 -0.0329647 -0.0147996 -0.00430393 -0.019704 0.0990661 0.014312 0.0693223 -0.0314619 -0.019709 -0.00902078 0.0191256 0.0371883 0.0158243 -0.104084 -0.0637569 0.241299 0.0245239 -0.0586568 0.0556204 -0.0660536 -0.100429 -0.0680574 0.103116 0.101668 0.105723 0.0833938 0.0964606 -0.112506 -0.104924 -0.0611897 -0.0569926 -0.063312 -0.0697488
internal_weight=199.216 142.754 113.715 94.3915 68.8431 56.4619 2.57643 2.1286 52.8431 36.9035 30.2275 16.0001 25.5484 11.8377 29.0385 5.02448 0.788704 15.4484 15.9396 13.7107 19.3236 2.67261 6.676 53.8855 50.7092 41.4808 9.22833 4.78415 24.014 12.8358 17.8053 12.3047 8.10324 5.52358
internal_count=1146 788 585 465 345 358 13 11 260 177 146 85 120 56 203 34 4 82 83 64 120 15 31 345 325 269 56 30 169 91 110 75 52 36
is_linear=0
shrinkage=0.1


Tree=13
num_leaves=37
num_cat=0
split_feature=9 3 9 0 2 0 6 2 6 8 6 2 2 2 2 2 6 8 6 0 8 2 8 8 6 6 5 8 4 2 2 3 3 3 8 8
split_gain=33.9419 23.3112 12.8357 7.84888 11.1648 7.57012 4.03462 3.82005 2.20312 2.04971 4.83181 1.86678 1.71977 1.36507 0.942554 0.837062 0.724664 0.695768 0.437294 0.399018 0.259005 0.232639 0.130957 1.10274 0.0497892 0.192565 0.0487019 0.0390488 0.0236408 0.500232 0.270868 0.0197713 0.251178 0.0673899 0.000985997 1.97727
threshold=0.83995000000000009 207.56230000000002 0.81545000000000012 86679.500000000015 504.0492000000001 107219.50000000001 0.8640500000000001 472.66640000000007 0.86340000000000006 0.69620000000000004 0.88345000000000007 452.78170000000006 392.75025000000005 454.52545000000003 387.72425000000004 507.39560000000006 0.82645000000000013 0.74060000000000015 0.85620000000000007 93669.000000000015 0.74355000000000016 446.17165000000006 0.60110000000000008 0.73100000000000009 0.84845000000000015 0.87170000000000014 319.07100000000008 0.67105000000000015 77185.000000000015 443.03515000000004 390.30585000000002 226.30675000000005 212.28210000000004 240.87825000000001 0.68755000000000011 0.70705000000000007
decision_type=2 2 2 2 2 2 2 2 2 2 2 2 2 2 2 2 2 2 2 2 2 2 2 2 2 2 2 2 2 2 2 2 2 2 2 2
left_child=1 8 3 9 27 14 7 19 18 12 16 22 -3 21 -2 -6 -11 -17 -1 26 -19 -14 -10 34 -18 -26 31 -5 30 -30 -16 32 -4 -33 -24 -36
right_child=5 2 6 4 15 -7 -8 -9 11 10 -12 -13 13 -15 28 17 24 20 -20 -21 -22 -23 23 -25 25 -27 -28 -29 29 -31 -32 33 -34 -35 35 -37
leaf_value=-0.024352708318534817 -0.11869751716872201 0.17158923102290818 -0.12678019469907312 -0.0079372427579365284 0.017490047606900906 0.33614473010255763 0.18078606219381985 0.017783613840721902 0.095522511368939994 -0.12543970410331071 0.055129420936045039 0.12134824322802758 -0.021145282491409824 0.034760652209238289 -0.11834914519261897 0.10598933344702997 -0.031941642796767915 0.1276630968312524 0.049092304806651277 -0.12491212295583445 0.061145249938219737 0.009831927183199517 0.048059035787645386 0.10321450277436797 -0.059255487635880733 -0.036008008559078868 -0.077903657534514115 -0.019060624982192267 -0.097507591591813492 -0.060764845033975626 -0.069247915342223493 -0.070691619777059164 -0.061216306660445523 -0.1206932074164371 -0.084628320640788526 0.096786677062140267
leaf_weight=1.6011995077133172 9.1485849395394307 0.6660072654485728 0.62737566232682596 4.5191854089498511 1.433032333850863 0.41478255391120811 0.71229586005210777 5.3024792820215216 2.6761018335819271 1.2741980105638564 5.3934505730867377 18.105305269360542 9.4256465435028094 11.156878501176832 1.3313101232051865 18.646487593650821 1.9269752651453043 0.65228451788425346 1.632110074162483 1.5515717864036549 5.8610084280371666 3.2591174244880667 5.1508683338761312 6.1044315844774237 8.3076888471841794 6.3089118003845206 9.799398258328436 10.585168734192846 9.7865078374743444 6.0284303054213515 7.6032925993204117 3.7222667038440695 8.7581063956022245 0.29959447681903828 0.83920550346374545 2.0816901475191116
leaf_count=8 69 4 4 21 7 2 3 25 16 8 28 130 48 54 10 122 11 4 7 10 37 14 30 35 40 26 60 50 76 40 53 24 53 2 4 11
internal_value=0.00414737 0.023683 0.00205553 0.0212273 0.0529193 -0.0860141 -0.0536448 -0.0592294 0.0917362 -0.00646788 -0.0277614 0.09904 0.0137001 0.00925384 -0.091229 0.0919116 -0.0528618 0.0961455 0.0127346 -0.0757241 0.0679021 -0.0131843 0.0750432 0.0711438 -0.0472346 -0.0492381 -0.0724086 -0.0157373 -0.0810528 -0.0835264 -0.0766282 -0.0683635 -0.0656658 -0.0745655 0.0468388 0.0446032
internal_weight=192.693 158.38 120.189 89.416 41.6972 34.3129 30.7731 30.0608 38.1909 47.7189 23.2112 34.9576 24.5076 23.8416 33.8981 26.5928 17.8178 25.1598 3.23331 24.7583 6.51329 12.6848 16.8523 14.1762 16.5436 14.6166 23.2067 15.1044 24.7495 15.8149 8.9346 13.4073 9.38548 4.02186 8.07176 2.9209
internal_count=1146 896 655 474 241 250 181 178 241 233 113 226 120 116 248 170 85 163 15 153 41 62 96 80 77 66 143 71 179 116 63 83 57 26 45 15
is_linear=0
shrinkage=0.1


Tree=14
num_leaves=40
num_cat=0
split_feature=6 2 11 7 2 2 7 7 7 0 1 0 7 5 5 2 5 7 2 7 11 7 7 0 0 0 5 7 1 5 1 0 0 5 2 5 7 5 5
split_gain=69.3713 4.35785 3.58018 3.13557 5.20391 2.06164 4.259 2.95997 2.84194 2.35552 1.73037 1.42729 1.35302 1.21528 2.36499 1.04443 0.71418 0.618801 0.454588 1.59038 0.332564 0.193293 0.355286 0.186877 0.60594 0.170533 0.146251 0.113335 0.539367 0.57794 0.415075 0.631576 0.452262 0.281372 0.0953163 0.095232 0.0499582 0.00267745 0.62598
threshold=0.86445000000000005 485.28460000000001 0.77195000000000014 0.99025000000000007 491.65795000000008 468.01330000000007 0.99085000000000012 0.9910500000000001 0.98345000000000016 71038.500000000015 1102.6215000000002 69681.500000000015 0.98855000000000015 313.80405000000002 340.20585000000005 440.91985000000005 306.75105000000002 0.99285000000000012 443.03515000000004 0.98865000000000014 0.74275000000000013 0.98535000000000006 0.98615000000000008 89238.000000000015 79068.500000000015 73078.500000000015 341.57010000000008 0.98405000000000009 1148.4285000000002 318.77365000000003 1059.7000000000003 99851.000000000015 75986.500000000015 306.12990000000008 443.54210000000006 353.29805000000005 0.98955000000000015 337.58620000000008 328.04605000000004
decision_type=2 2 2 2 2 2 2 2 2 2 2 2 2 2 2 2 2 2 2 2 2 2 2 2 2 2 2 2 2 2 2 2 2 2 2 2 2 2 2
left_child=1 2 27 20 -5 6 9 25 16 11 -9 15 13 -10 37 21 -7 -4 19 -11 -3 -2 -23 24 -19 -8 -14 28 29 -1 33 32 -32 -29 -13 -28 -24 38 -15
right_child=5 3 17 4 -6 8 7 10 12 18 -12 34 26 14 -16 -17 -18 23 -20 -21 -22 22 36 -25 -26 -27 35 30 -30 -31 31 -33 -34 -35 -36 -37 -38 -39 -40
leaf_value=-0.0040359825639094274 0.00020797026397232916 -0.047750174116748499 -0.11743163741853468 -0.085103383290474344 0.15977046208535109 0.11375867478178291 -0.078413954764667115 0.13114072443389385 0.11826304713173018 -0.10006885221604689 0.042007316839781372 -0.036863540886925249 0.090630961585046466 0.019885972056205327 0.085749138724500143 0.12389284186129064 -0.069176131898251947 0.032704389163648276 0.0039451637102035893 0.029046706121565666 -0.14322424550050505 0.1423128501491418 0.040807272372587494 -0.11338346679437827 -0.11477709546657687 -0.0028007311954137432 0.086680933150929881 -0.065597351787299904 -0.12418886770897504 -0.12363969866192932 -0.022493732630843654 -0.12816495539764669 -0.053682176249080032 -0.11836304302619485 -0.10335953603553838 0.072384817387486963 0.058787813553119267 -0.0021579160916625636 -0.050582114918282864
leaf_weight=2.6155370473861694 0.77657299488782694 2.4354085475206371 13.665274217724798 1.3163091689348223 2.5275110006332397 0.23971112817525764 0.83401186764240154 8.3166108652949315 2.0871485397219649 1.9293641895055764 2.959344506263732 0.48008124530315477 25.603947386145592 3.0006697401404363 4.8965548202395439 2.3116362690925607 1.6801595017313955 0.65990607440471538 10.407461643218992 1.8785856664180753 0.42720119655132283 0.41360127925872792 4.4554189890623093 0.34167242795228947 0.47492384165525436 0.46406771242618561 8.9149595275521296 23.995686411857609 0.62406331300735463 0.47296418249607075 5.4889520257711402 1.0332965105772007 30.841266930103302 1.0598642453551281 0.40153986215591431 10.501768454909323 2.4520410969853401 0.53117580711841572 2.1663096696138382
leaf_count=14 5 11 110 6 11 2 4 50 16 9 13 2 168 16 30 16 9 5 45 8 2 2 24 3 4 2 58 158 4 3 31 6 192 8 2 69 14 3 11
internal_value=0.00388633 -0.0605237 -0.0669166 0.0169403 0.0759082 0.0618869 0.0436992 0.0913191 0.0734983 0.0202098 0.107778 0.0542977 0.0774811 0.0485946 0.0348191 0.0646492 -0.0460908 -0.110782 -0.00687377 -0.0364133 -0.0622287 0.0476689 0.0526976 -0.0490356 -0.0292355 -0.0515085 0.0856115 -0.0568652 -0.0397643 -0.0225272 -0.0578789 -0.0511816 -0.0489742 -0.0678532 -0.0675796 0.0789702 0.0472303 -0.00898027 -0.00967584
internal_weight=185.683 87.9798 81.2734 6.70643 3.84382 97.7027 38.0803 12.574 59.6224 25.5063 11.276 11.2909 57.7025 12.6819 10.5947 10.4093 1.91987 15.1418 14.2154 3.80795 2.86261 8.09763 7.32106 1.4765 1.13483 1.29808 45.0207 66.1316 3.71256 3.0885 62.4191 37.3635 36.3302 25.0556 0.881621 19.4167 6.90746 5.69816 5.16698
internal_count=1146 568 538 30 17 578 196 69 382 127 63 65 371 76 60 61 11 122 62 17 13 45 40 12 9 6 295 416 21 17 395 229 223 166 4 127 38 30 27
is_linear=0
shrinkage=0.1


Tree=15
num_leaves=35
num_cat=0
split_feature=6 10 10 7 3 3 2 0 2 2 2 2 3 3 3 7 3 7 3 7 3 0 3 3 7 7 3 7 3 0 2 0 2 7
split_gain=56.84 7.56168 7.20441 4.91706 3.0374 4.90255 2.94606 1.52424 0.512408 0.483507 0.445152 0.4015 0.275201 0.274901 0.252522 0.75602 1.97925 0.607992 0.736997 0.51489 0.451682 0.231457 2.67084 0.193301 0.0790485 1.27455 0.0779099 0.0724949 0.0392678 0.0897656 0.0207622 0.246983 0.021817 0.0143968
threshold=0.86135000000000017 2.4153000000000007 1.7961000000000003 0.99185000000000012 207.56230000000002 203.25825000000003 480.4984500000001 72594.000000000015 572.91380000000015 486.53980000000007 560.44585000000018 503.17450000000002 234.59055000000004 235.30060000000003 237.25180000000003 0.9759500000000001 202.98440000000002 0.99115000000000009 239.71105000000003 0.98745000000000016 244.22865000000004 101139.50000000001 217.76675000000003 222.74795000000003 0.98865000000000014 0.9900500000000001 212.08835000000002 0.98875000000000013 232.63685000000001 98425.500000000015 468.58595000000008 85935.000000000015 433.43300000000005 0.99055000000000015
decision_type=2 2 2 2 2 2 2 2 2 2 2 2 2 2 2 2 2 2 2 2 2 2 2 2 2 2 2 2 2 2 2 2 2 2
left_child=2 3 33 4 5 -2 7 -6 10 14 -8 12 23 -14 15 -4 -17 20 -19 -18 -16 -3 -23 26 -21 27 -5 -26 -13 -30 32 -32 -9 -1
right_child=1 21 9 11 6 -7 8 30 -10 -11 -12 28 13 -15 17 16 19 18 -20 24 -22 22 -24 -25 25 -27 -28 -29 29 -31 31 -33 -34 -35
leaf_value=-0.09276458176405479 0.087428549132348238 0.11556362373256104 -0.142479381303876 0.086111562136178502 -0.063517344340077081 -0.028378908469931477 0.032944075821997702 -0.018016918864229164 0.11800589837218554 -0.0030310362262658663 0.11722061641523451 0.11942523292258334 -0.024466566179318191 0.061674556912758943 -0.085910344376925851 0.075153389483531105 -0.013167636778659243 -0.13207818037777383 -0.0078654268024736362 -0.059740215763608974 -0.042099028622210016 -0.18929649505309848 0.1168204007140238 0.10822216356137493 -0.12490296900298813 -0.024664453930404812 0.061091749932383504 -0.076242508999556355 0.12610045464749067 0.092410009656408651 0.018795932603093105 -0.021587522856702589 -0.0010188266138733205 -0.09746172333362263
leaf_weight=20.020838730037212 14.870203815400602 14.520239785313608 0.62345410883426922 2.4619458839297312 4.6158135980367687 4.8435699492692939 21.080956779420383 0.79931263625622051 0.77535655349492927 4.1080102771520606 0.6420532613992681 2.0306334197521201 0.46319037675857577 1.7959106713533399 4.8680960461497289 1.6390494406223322 6.6816533952951458 0.53095002472400565 4.404144212603569 3.0766210854053524 4.5906642228364944 0.31393119692802374 2.7068716362118721 2.3060652315616608 0.3330159336328532 13.280131660401819 2.7028229981660843 6.1168620809912682 1.1306553184986112 3.2047086134552956 4.3599075824022284 2.3140662610530853 12.409892886877058 15.372052170336245
leaf_count=161 94 126 3 17 21 25 119 4 6 18 5 15 2 8 31 7 38 3 24 20 28 2 22 10 2 80 13 39 7 22 21 10 53 129
internal_value=-0.000424055 0.0506459 -0.0602607 0.038007 0.0260332 0.0589745 0.0122103 -0.0117815 0.0383331 -0.0359142 0.0354621 0.0876088 0.0747426 0.0439908 -0.0388407 -0.0338467 -0.0316479 -0.0498399 -0.0213525 -0.0375965 -0.0646823 0.110282 0.0847422 0.0840038 -0.0447482 -0.0423951 0.073093 -0.0788522 0.107197 0.101335 0.000240989 0.00478576 -0.00205503 -0.0948186
internal_weight=185.994 100.348 85.6455 82.8071 66.7111 19.7138 46.9974 24.499 22.4984 50.2527 21.723 16.0959 9.72994 2.2591 46.1446 31.7508 31.1273 14.3939 4.93509 29.4883 9.45876 17.541 3.0208 7.47083 22.8066 19.73 5.16477 6.44988 6.366 4.33536 19.8832 6.67397 13.2092 35.3929
internal_count=1185 602 583 452 358 119 239 109 130 293 124 94 50 10 275 189 186 86 27 179 59 150 24 40 141 121 30 41 44 29 88 31 57 290
is_linear=0
shrinkage=0.1


Tree=16
num_leaves=58
num_cat=0
split_feature=6 6 11 4 7 7 4 1 7 8 4 4 8 9 9 1 8 1 4 4 5 4 5 7 7 5 4 5 5 1 8 8 8 4 7 8 8 8 8 1 1 7 7 7 4 4 7 8 7 8 8 7 7 1 8 8 8
split_gain=44.9591 18.621 3.94122 2.91416 3.56777 8.81416 2.49123 2.02944 1.82548 1.58587 2.16688 1.50149 0.984303 0.972807 2.17334 0.814664 3.52947 0.756638 0.434421 0.731131 0.41562 1.69601 0.358934 1.52253 1.44706 0.957455 0.215513 0.152516 0.41567 0.1313 0.121802 0.117578 0.237866 0.116719 0.1181 0.103433 0.187967 0.155942 0.067419 0.475706 0.063592 0.0302089 0.381115 0.790212 0.029634 0.378783 0.134374 0.114513 0.211601 0.401322 0.538909 0.0182695 0.175447 0.0177629 0.00288045 0.0731804 0.0791761
threshold=0.86280000000000012 0.89105000000000012 0.77195000000000014 62317.000000000007 0.98855000000000015 0.99115000000000009 98886.000000000015 1059.7000000000003 0.97975000000000012 0.68935000000000013 97560.500000000015 72408.500000000015 0.74595000000000011 0.85725000000000007 0.84370000000000012 1082.2630000000001 0.70400000000000007 1230.1950000000002 78389.500000000015 94865.500000000015 334.23840000000001 93997.500000000015 344.69720000000001 0.98885000000000012 0.98745000000000016 328.31665000000004 102406.50000000001 303.64620000000008 294.69930000000005 1096.4870000000003 0.67495000000000005 0.71215000000000017 0.65970000000000006 73995.000000000015 0.99125000000000008 0.65970000000000006 0.74595000000000011 0.72585000000000011 0.73255000000000015 1078.2645000000002 1061.0760000000002 0.98315000000000008 0.98955000000000015 0.99025000000000007 70821.500000000015 66631.500000000015 0.99255000000000015 0.75760000000000016 0.99135000000000006 0.64230000000000009 0.73965000000000014 0.98795000000000011 0.99015000000000009 1240.4405000000004 0.58065000000000011 0.62130000000000007 0.6493000000000001
decision_type=2 2 2 2 2 2 2 2 2 2 2 2 2 2 2 2 2 2 2 2 2 2 2 2 2 2 2 2 2 2 2 2 2 2 2 2 2 2 2 2 2 2 2 2 2 2 2 2 2 2 2 2 2 2 2 2 2
left_child=2 3 13 35 9 7 38 31 -3 11 12 -5 -11 14 22 16 -9 30 -13 -20 51 -22 25 24 -24 29 -8 28 -15 -1 -17 32 -6 34 41 -2 37 -37 40 -40 -7 -4 -43 -44 45 -10 47 48 54 -50 -51 -16 -53 -42 -46 -56 -57
right_child=1 8 33 4 5 6 26 15 44 10 -12 18 -14 27 20 17 -18 -19 19 -21 21 -23 23 -25 -26 -27 -28 -29 -30 -31 -32 -33 -34 -35 -36 36 -38 -39 39 -41 53 42 43 -45 46 -47 -48 -49 49 50 -52 52 -54 -55 55 56 -58
leaf_value=-0.033702553561461325 0.12270349944032732 -0.10683216750285435 -0.11546081827740017 -0.093257883394926563 -0.045603594525186114 0.068187854431905823 -0.044545649700339141 0.19888493375859009 0.072614132120623287 -0.075668564215952749 0.062284651451460615 -0.033728343410895416 -0.17705479770760593 -0.11370831208059949 -0.11396700115271763 -0.049560415989169986 -0.15757976476792501 0.025880421972022363 0.026520295964230858 0.16419588069177471 0.040806657699404454 -0.12369595524508759 -0.011659204382717094 0.015670271898410196 -0.14030677538966874 -0.066045310759639805 0.010292510725307735 -0.11363403078512968 -0.032293080219790049 -0.020796602754512838 -0.026598361061709486 -0.12311570931928557 -0.11481021472860516 -0.11415942055047756 -0.11348518351642592 0.040980956413584201 0.12796443764263421 0.11643308673165259 0.14416733095541875 0.065266540521818267 0.097284927305727201 -0.11319167261262789 0.040421842380301401 -0.11209662258271835 0.096665891594869865 0.11977085561130663 0.11795569085640659 0.11576287068603644 0.053278447606161551 0.11838365935464563 0.043881997808654587 -0.11439478386315993 -0.081496562284268229 0.12084087742609287 0.11831622982208173 0.1190254503850755 0.095647952347420864
leaf_weight=29.160287149250507 1.1734319701790803 0.43567390739917655 0.25620721280574654 1.3344628363847713 0.89254966378212319 0.80850076675415206 1.0203266441822045 0.73137910664081462 4.2849731445312491 5.6948633641004562 1.0328697711229322 0.85556496679782901 1.1523917764425275 1.3011839017271989 0.45430415868759055 3.4689572602510435 0.44137121737003326 2.6134127378463736 2.6564460545778279 0.4469914138317107 1.1864770352840417 1.3187502250075338 2.029973208904265 5.8796727731823921 1.5326020419597624 9.1631139144301397 2.3754550963640213 1.7179918587207792 1.2180641293525694 10.859851777553557 7.0087484419345856 1.4043082147836683 1.1479163914918897 7.0408134162425995 1.9042248353362081 0.97095586359500907 0.66812583804130543 0.38314230740070343 0.9471752941608419 4.0125956833362579 6.7916931957006454 1.4640694782137873 0.64584092050790765 0.70680757611989975 4.3146395832300284 2.8759307637810707 3.5799579992890349 3.1010973751544944 3.1602891460061056 3.722389429807663 1.3250847309827802 2.3315387964248639 5.7519571259617805 0.43541651964187611 2.3827463686466244 1.764078602194785 12.099546186625956
leaf_count=185 8 3 2 6 4 4 5 3 34 25 5 4 5 12 4 15 2 14 11 2 8 9 11 29 8 57 13 16 11 67 30 6 5 66 18 5 4 3 5 19 31 14 6 7 36 23 29 27 27 31 10 21 49 3 19 14 95
internal_value=-0.000389793 0.0475894 -0.0526081 0.00637594 0.000123388 0.0171991 0.0700338 -0.0317099 0.0959028 -0.0440656 -0.0724883 -0.00172268 -0.092851 -0.0439657 -0.0411301 -0.0150568 0.0646147 -0.0222172 0.029206 0.0465873 -0.081821 -0.0458552 -0.0334587 -0.0155864 -0.0671263 -0.0368877 -0.00622136 -0.0904812 -0.074492 -0.0302038 -0.0342222 -0.100539 -0.0847308 -0.105714 -0.0936603 0.0987204 0.0845276 0.0626917 0.0899557 0.0804676 0.0957563 -0.0812057 -0.0778851 -0.0393825 0.0979883 0.0916256 0.09926 0.0971412 0.0951136 0.0813736 0.0988911 -0.0923395 -0.0910523 0.0987889 0.100577 0.101584 0.0986656
internal_weight=179.439 93.5155 85.9237 50.4691 47.2734 34.0998 16.3912 17.7086 43.0464 13.1736 7.88012 5.29347 6.84726 73.9058 69.6685 14.2639 1.17275 13.0911 3.959 3.10344 11.043 2.50523 58.6255 9.44225 3.56258 49.1833 3.39578 4.23724 2.51925 40.0201 10.4777 3.44477 2.04047 12.018 4.97715 3.19566 2.02222 1.3541 12.9954 4.95977 8.03561 3.07293 2.81672 1.35265 42.6107 7.1609 35.4498 31.8699 28.7688 8.20776 5.04747 8.5378 8.0835 7.22711 20.561 16.2464 13.8636
internal_count=1185 585 600 237 217 159 80 79 348 58 35 23 30 487 448 64 5 59 17 13 91 17 357 48 19 309 18 39 23 252 45 15 9 113 47 20 12 8 62 24 38 29 27 13 345 57 288 259 232 68 41 74 70 34 164 128 109
is_linear=0
shrinkage=0.1


Tree=17
num_leaves=37
num_cat=0
split_feature=10 10 6 8 5 1 1 1 0 1 8 0 1 8 8 5 0 8 8 8 5 5 5 1 8 0 0 5 0 0 5 0 0 0 0 5
split_gain=49.5834 9.51778 3.63974 2.5125 3.37713 1.51445 1.18359 2.60144 0.776998 3.7108 0.621829 5.74963 0.550277 0.494267 0.440991 0.340773 0.285958 0.321359 0.837944 0.269456 0.233922 0.416287 2.36831 0.203744 0.0828255 0.0634912 0.0619832 0.118047 0.270562 0.392143 0.118405 0.125859 0.814741 0.0178541 0.0176862 0.0140405
threshold=2.1072000000000002 1.7582500000000001 0.89785000000000015 0.60110000000000008 284.87045000000006 1271.3125000000002 1174.5965000000003 1131.3605000000002 93173.500000000015 1302.1960000000001 0.76580000000000015 67799.500000000015 1104.4590000000001 0.67825000000000013 0.73155000000000014 333.85915000000006 86878.500000000015 0.62130000000000007 0.72725000000000006 0.68335000000000012 309.48870000000005 299.78385000000009 280.03815000000003 1063.7695000000001 0.6332000000000001 86788.500000000015 64368.500000000007 313.54730000000006 68430.000000000015 70294.000000000015 329.72430000000003 79068.500000000015 83351.000000000015 72823.500000000015 88948.000000000015 327.11225000000007
decision_type=2 2 2 2 2 2 2 2 2 2 2 2 2 2 2 2 2 2 2 2 2 2 2 2 2 2 2 2 2 2 2 2 2 2 2 2
left_child=1 19 5 -3 24 6 7 12 10 13 11 23 -2 -10 25 -8 33 -18 -19 20 21 22 -1 -6 -5 -13 -21 28 -28 -30 31 -29 -33 -4 -16 -35
right_child=2 3 16 4 8 -7 15 -9 9 -11 -12 14 -14 -15 34 -17 17 18 -20 26 -22 -23 -24 -25 -26 -27 27 30 29 -31 -32 32 -34 35 -36 -37
leaf_value=0.24904362662359111 0.03867562341705108 0.12983349300666613 0.11384480917454949 0.012524566448350545 -0.11052525062627903 0.12037224570022659 0.037321740457093848 -0.036208960699645978 0.0012250814052497999 0.14831723372753744 0.085837775365322652 -0.029130190903761555 0.088922175578001916 -0.03803879836805317 -0.013600686548867293 0.084571564813402458 0.11299947492492977 0.11302084991033096 0.048336049867100862 -0.11359820024261642 -0.11550989497688871 -0.11225815230817532 -0.11676725771101731 -0.20284333275840713 0.046200086508195209 -0.039313846957504235 -0.11215145495160042 -0.11360163658425344 -0.11293751813584232 -0.053076169890686267 -0.11348489233833876 -0.11362709939051807 0.0021282665022079018 0.10375526243298035 -0.0034217788151890954 0.11360021034949984
leaf_weight=0.26685449481010681 7.9562954977154785 1.0513360053300846 6.5034633353352609 0.83724005520343681 8.1673508435487712 2.7354608550667754 2.0520914196968061 4.7282265275716773 4.7405985146760932 1.3387404531240452 0.4175276905298223 35.107156477868557 3.0077824145555496 9.8927711844444257 17.029071137309078 6.1095068231225014 3.776399500668048 3.6483382880687696 4.4655710384249687 2.7277334704995182 0.4805372655391692 0.42041655629873276 0.50212061405181885 0.24971644580364305 6.0461521968245506 7.4915743917226783 2.806947939097884 1.6564699411392192 1.6457603499293325 3.3137306421995163 5.8238636553287506 1.9933063983917239 0.87334577739238728 8.5097927376627904 1.9062233567237843 2.7206437662243834
leaf_count=2 47 5 63 4 53 20 11 23 23 7 2 206 14 50 99 38 37 36 40 26 4 4 4 1 34 42 29 16 16 32 57 19 9 76 10 26
internal_value=-0.000341807 -0.037484 0.0768192 -0.0235312 -0.0252678 0.0499443 0.0418437 0.0257641 -0.0306424 -0.010725 -0.0351619 -0.0358905 0.0524955 -0.0253218 -0.0252816 0.0727235 0.100928 0.0888015 0.0774746 -0.0958988 -0.0569386 -0.0328768 0.0109479 -0.113385 0.0421184 -0.0309259 -0.0990054 -0.0967762 -0.0872392 -0.0730375 -0.103888 -0.0914151 -0.0784137 0.10903 -0.012578 0.106191
internal_weight=173 116.787 56.2136 94.2755 93.2241 26.5894 23.8539 15.6923 86.3407 15.9721 70.3686 69.9511 10.9641 14.6334 61.534 8.1616 29.6242 11.8903 8.11391 22.5111 1.66993 1.18939 0.768975 8.41707 6.88339 42.5987 20.8412 18.1134 7.76644 4.95949 10.347 4.52312 2.86665 17.7339 18.9353 11.2304
internal_count=1185 754 431 536 531 153 133 84 493 80 413 411 61 73 357 49 278 113 76 218 14 10 6 54 38 248 204 178 77 48 101 44 28 165 109 102
is_linear=0
shrinkage=0.1


Tree=18
num_leaves=40
num_cat=0
split_feature=11 7 11 2 1 0 3 4 3 3 2 0 4 3 3 1 3 3 4 3 3 3 3 1 7 1 1 1 3 1 1 0 0 0 2 3 0 0 3
split_gain=30.1293 6.10727 5.30977 2.36177 3.56098 1.544 3.5056 1.33757 0.714675 0.652763 0.507438 1.34443 0.423443 0.882392 5.62884 3.21255 0.733886 0.660035 2.12718 0.426995 0.839041 0.384699 0.306713 0.305982 0.272019 0.223733 0.35382 0.167336 0.114189 0.0857394 0.0559479 0.0281574 0.213837 0.649873 0.0815619 0.0248425 0.0203417 0.35941 0.0182567
threshold=0.73625000000000018 0.98965000000000014 0.65390000000000015 460.58750000000003 982.16050000000007 102875.00000000001 191.05820000000003 107275.00000000001 224.06255000000002 210.21090000000001 428.93855000000008 69372.500000000015 98074.000000000015 226.64670000000004 200.22525000000002 1120.5055000000002 213.41750000000002 250.87230000000002 79224.000000000015 244.22865000000004 245.20425000000003 226.64670000000004 229.47295000000003 985.07700000000011 0.9869500000000001 1295.8265000000004 1265.5380000000002 1195.5910000000001 227.52715000000003 962.41000000000008 1098.5775000000001 75110.500000000015 90902.000000000015 77564.000000000015 383.97400000000005 240.60095000000004 89507.500000000015 99661.500000000015 203.56710000000001
decision_type=2 2 2 2 2 2 2 2 2 2 2 2 2 2 2 2 2 2 2 2 2 2 2 2 2 2 2 2 2 2 2 2 2 2 2 2 2 2 2
left_child=1 5 27 4 -4 6 30 10 -6 -5 11 23 13 14 -8 16 -16 18 -15 -20 -21 -14 -10 29 -7 26 -17 -3 -11 -2 -1 34 33 -33 -13 -24 -12 -38 -29
right_child=7 2 3 9 8 24 12 -9 22 28 36 31 21 17 15 25 -18 -19 19 20 -22 -23 35 -25 -26 -27 -28 38 -30 -31 -32 32 -34 -35 -36 -37 37 -39 -40
leaf_value=0.080347282439594839 -0.089477328671675918 0.11121819243889469 0.11105652891695626 0.11935430345885022 0.0095151090893771471 0.038605986505925102 0.10952106071012938 0.049226896893983754 -0.046644080261995631 0.034811545739102522 -0.099377622227606099 -0.10902104504440741 -0.054454463796559695 0.087451853339447161 -0.071741919493745906 0.019406046706577411 -0.029201857941707828 -0.12561914245822686 -0.051311831377458844 -0.12862328145782087 0.047787046883134732 0.035054293149896595 -0.00492385774955632 -0.11373917287174132 0.11601466682543023 0.1113613661419528 0.11005744399988925 0.10883921691362619 0.049709163882816439 -0.06309275075278864 0.10975695106108854 -0.002829733799339092 -0.10901594297435857 -0.065823926040769754 -0.052779494037461239 -0.022828110704033278 -0.076527826536477619 -0.12784120054784112 0.086985710772158248
leaf_weight=2.6725546345114704 3.6511821076273936 5.3948630541563025 3.1696258410811415 1.2695890814065958 21.163687273859981 0.76798983663320441 3.6319905743002918 0.82373619079589744 3.6490988284349424 6.8459967151284244 6.5791462957859022 0.2694135755300503 0.57419719547033254 1.3476494252681703 7.6905014067888322 7.1704852581024161 8.6023023724555951 0.78704458475112993 11.046391054987906 0.34862111508846183 1.1297888457775114 2.8089056462049484 3.9843702912330627 5.4986828193068504 1.1335681304335592 0.30698385089635838 0.45357391983270634 0.4943073019385319 21.56462112814188 1.9681492596864698 0.93339945375919331 2.682407058775425 0.49831669032573689 4.203832745552063 6.4337716549634933 0.95976748317480076 5.006907545030117 1.9025895893573759 7.9305451959371567
leaf_count=22 35 60 20 10 114 5 25 4 18 40 61 3 5 8 40 45 50 5 59 2 7 16 23 53 10 3 5 6 121 20 11 25 6 43 58 6 45 13 83
internal_value=-0.000304368 0.0232875 0.0412128 0.028824 0.0103805 -0.00336352 -0.00676409 -0.0766127 -0.000359603 0.0492791 -0.079298 -0.0708825 -0.0142266 -0.0169365 -0.00648237 -0.023895 -0.0492984 -0.0367914 -0.0317072 -0.0445596 0.00588399 0.0197998 -0.0246725 -0.096885 0.0849429 0.0282877 0.0248698 0.0973053 0.0461267 -0.0803034 0.0881058 -0.0503331 -0.0459497 -0.0413078 -0.0551219 -0.00842219 -0.0949905 -0.090742 0.0883336
internal_weight=167.351 127.832 76.4265 62.6068 32.9265 51.4059 49.5044 39.5181 29.7569 29.6802 38.6944 25.2058 45.8984 42.5153 27.8558 24.2238 16.2928 14.6595 13.8725 12.5248 1.47841 3.3831 8.59324 11.118 1.90156 7.93104 7.62406 13.8197 28.4106 5.61933 3.60595 14.0877 7.38456 6.88624 6.70319 4.94414 13.4886 6.9095 8.42485
internal_count=1185 819 501 352 181 318 303 366 161 171 362 243 270 249 168 143 90 81 76 68 9 21 47 108 15 53 50 149 161 55 33 135 74 68 61 29 119 58 89
is_linear=0
shrinkage=0.1


Tree=19
num_leaves=29
num_cat=0
split_feature=11 9 2 3 1 5 4 5 5 1 5 2 4 11 11 3 3 9 3 3 3 3 3 5 3 3 4 4
split_gain=34.8502 5.02419 2.73077 4.39361 1.5317 4.10687 3.08426 2.24119 1.01668 0.677215 0.521609 0.386564 0.336466 0.137084 0.554575 0.389027 0.51395 0.130861 0.113416 1.16648 0.382738 0.154428 0.209941 0.092658 0.0821457 0.330942 0.0338718 0.0762884
threshold=0.69740000000000013 0.85685000000000011 487.31060000000008 209.46900000000002 990.9045000000001 301.46420000000006 107275.00000000001 326.09475000000003 269.88555000000002 996.8325000000001 291.87310000000008 406.23000000000008 81706.000000000015 0.77375000000000016 0.75975000000000015 224.06255000000002 243.92645000000002 0.75625000000000009 223.20225000000002 206.77650000000003 236.13690000000003 228.60375000000002 233.60355000000001 354.57420000000008 241.89210000000006 237.44485000000003 77748.000000000015 75081.000000000015
decision_type=2 2 2 2 2 2 2 2 2 2 2 2 2 2 2 2 2 2 2 2 2 2 2 2 2 2 2 2
left_child=2 4 3 9 8 10 7 11 -2 -1 -6 -7 26 14 15 -3 -17 -11 19 -4 21 -20 -23 -9 25 -22 27 -5
right_child=1 13 18 12 5 6 -8 23 -10 17 -12 -13 -14 -15 -16 16 -18 -19 20 -21 24 22 -24 -25 -26 -27 -28 -29
leaf_value=0.11610571441999912 0.089273982037556376 -0.1113538897413154 0.11034465240788245 0.039599758584542614 -0.10368002987228231 -0.054100753972791696 0.095794078791800991 -0.048457636244377635 -0.0043116209506563049 0.071529655335271974 -0.065518729471364237 -0.0048260246186627755 -0.01883142060388995 -0.11009499524672989 -0.11053330058826889 0.061289747352516091 -0.10812762104495113 0.052850316832449597 0.11708871602297116 0.046678674421674886 0.13258151448864328 0.076524323770728778 0.12013075631083919 -0.034803596117600977 0.060882208942624055 0.065230049275203358 0.0064086712758007688 0.0083210077354547492
leaf_weight=2.8501628041267422 1.4660527557134617 0.39160550385713377 4.755459167063238 1.1723981350660309 5.2307506576180485 1.6763464510440851 2.1481509059667578 23.612910643219951 5.5012828037142754 8.2829788327217084 11.559410572052 30.065600477159023 6.287528231739997 6.8728462904691696 2.8672500252723694 0.57486375421285629 0.25406582653522491 7.0567701309919348 3.232045419514181 7.31624486297369 0.94219182431697657 3.9270392283797264 1.5736244991421697 6.3915811181068412 4.7945376038551331 3.3202569708228111 5.8661498874425888 2.3251242339611053
leaf_count=25 8 4 57 5 36 16 12 153 38 79 84 188 28 83 33 6 3 41 29 72 7 31 13 32 39 25 28 10
internal_value=-0.000290223 -0.0375318 0.0573587 0.0378998 -0.0295461 -0.0334306 -0.0218616 -0.0259625 0.0154282 0.0713159 -0.0774356 -0.00743692 -0.000945973 -0.10135 -0.0865258 -0.0298943 0.00900761 0.0629576 0.0794003 0.0717955 0.0845383 0.0995217 0.0890999 -0.0455558 0.0700426 0.0802594 0.0110657 0.018852
internal_weight=162.315 98.6127 63.7025 33.8411 87.6521 80.6848 63.8946 61.7464 6.96734 18.1899 16.7902 31.7419 15.6512 10.9606 4.08779 1.22054 0.82893 15.3397 29.8614 12.0717 17.7897 8.73271 5.50066 30.0045 9.05699 4.26245 9.36367 3.49752
internal_count=1185 696 489 216 567 521 401 389 46 145 120 204 71 129 46 13 9 120 273 129 144 73 44 185 71 32 43 15
is_linear=0
shrinkage=0.1


Tree=20
num_leaves=35
num_cat=0
split_feature=6 6 6 0 8 0 0 5 1 6 4 1 8 8 1 5 3 1 8 4 9 0 8 4 3 1 3 1 4 4 1 5 3 0
split_gain=30.5911 1.85034 8.71404 3.1127 3.08583 2.78574 1.72333 1.52398 1.36243 1.2993 0.997617 1.531 0.944607 1.08105 0.698093 0.622968 1.0426 0.797854 0.552645 0.402027 0.22722 0.737588 0.965249 0.201363 0.199957 2.8365 0.176143 0.170112 0.733186 0.865376 0.0402611 0.606719 0.0364573 0.0165022
threshold=0.89785000000000015 0.89485000000000015 0.84240000000000015 61209.000000000007 0.62695000000000012 69372.500000000015 106234.50000000001 300.92835000000008 1202.921 0.86135000000000017 77914.000000000015 1112.5475000000004 0.67405000000000015 0.72155000000000014 1352.0110000000002 347.69280000000009 211.65320000000003 1289.4180000000003 0.73865000000000014 69257.000000000015 0.68390000000000006 96314.500000000015 0.6805500000000001 58720.500000000007 226.02915000000002 1239.0420000000001 217.64290000000003 1041.3075000000001 77185.000000000015 74388.000000000015 1184.3410000000001 329.37270000000007 257.69570000000004 78339.000000000015
decision_type=2 2 2 2 2 2 2 2 2 2 2 2 2 2 2 2 2 2 2 2 2 2 2 2 2 2 2 2 2 2 2 2 2 2
left_child=1 2 7 9 5 -3 15 19 10 18 11 -9 -11 -14 -10 16 27 -17 -4 23 21 -2 -23 -1 26 33 -18 -5 29 -29 -22 -32 -8 -26
right_child=20 4 3 6 -6 -7 32 8 14 12 -12 -13 13 -15 -16 17 24 -19 -20 -21 30 22 -24 -25 25 -27 -28 28 -30 -31 31 -33 -34 -35
leaf_value=-0.13044138628256519 0.10879769110833948 0.11544311633377134 0.21962176139217876 0.001415779998622273 0.11934866049528817 -0.23723291610000394 0.11183424490529681 -0.033174900129218754 -0.0069289422799177283 0.1173986057912268 -0.069085862894808794 0.21724025673181707 0.12365110833725371 -0.028757813664560841 0.1652977737737259 0.008799265988723352 -0.0015460181436933399 0.12238191590880475 0.093110653331910542 -0.11288582386007791 0.11141297130950388 0.11097499833804214 -0.10536476463036502 -0.068569080195835588 -0.041274898062457425 0.23011451199323718 -0.017992337282017119 0.033525135449700066 0.13231087266564923 -0.044556929149886126 0.041292672762980216 0.1109632191921342 0.073987690059676633 -0.028838544009455708
leaf_weight=0.57358852028846552 2.0267641469836266 0.36973626911640112 0.71052676439285167 8.571967080235483 2.3345033824443817 0.55381347239017487 0.31676727533340399 7.317496255040175 5.2172568067908278 1.1960558742284777 15.663040675222872 0.24760620296001423 0.61517289280891452 1.8599137589335439 0.24145127832889546 8.6937247365713084 10.194466918706896 0.66094876825809556 0.69308021664619446 4.0105458274483681 11.173407331109049 0.38432127237319935 0.4335416853427887 6.8642103299498558 1.1559544205665648 0.42394515126943488 18.039981976151466 5.4947475716471663 0.55258826911449421 1.9082795381546018 1.4341655820608128 10.20710429549217 2.0476616322994232 21.334151767194271
leaf_count=5 27 3 3 45 18 4 3 68 36 10 164 1 4 13 1 43 56 5 3 41 127 4 3 76 7 3 91 27 3 9 17 117 14 115
internal_value=0.00385897 -0.0161388 -0.0180849 0.000144274 0.0581995 -0.0961636 -0.0047107 -0.0564463 -0.0441217 0.0760339 -0.0546842 -0.0248386 0.0446275 0.00928956 0.000830589 -0.00729426 -0.010638 0.0168872 0.157716 -0.0872948 0.103494 0.0765186 -0.00362912 -0.0734271 -0.0176933 -0.0246346 -0.012056 0.0111939 0.0217201 0.0133793 0.10684 0.102403 0.0792901 -0.0294875
internal_weight=153.522 127.863 124.605 84.4699 3.25805 0.92355 79.3952 40.1352 28.6869 5.07475 23.2281 7.5651 3.67114 2.47509 5.45871 77.0308 67.6761 9.35467 1.40361 11.4483 25.6593 2.84463 0.817863 7.4378 51.1485 22.9141 28.2344 16.5276 7.95562 7.40303 22.8147 11.6413 2.36443 22.4901
internal_count=1166 871 846 454 25 7 421 392 270 33 233 69 27 17 37 404 356 48 6 122 295 34 7 81 272 125 147 84 39 36 261 134 17 122
is_linear=0
shrinkage=0.1


Tree=21
num_leaves=26
num_cat=0
split_feature=2 11 11 0 3 0 6 6 6 4 10 10 0 6 4 4 0 11 0 0 0 4 0 4 4
split_gain=23.229 13.9794 5.1459 3.72202 1.0748 2.84106 0.754565 0.988562 0.753066 0.551483 0.451489 0.456298 0.381106 0.744609 0.271811 0.727519 0.208105 0.0990223 0.0639727 0.783922 0.199051 0.0260467 0.0152989 0.0478292 0.140383
threshold=494.43740000000008 0.70485000000000009 0.65695000000000014 73155.500000000015 217.31680000000003 69816.500000000015 0.83065000000000011 0.83545000000000014 0.8237000000000001 77748.000000000015 2.2763500000000003 2.0344000000000002 98425.500000000015 0.83615000000000006 76236.500000000015 91961.500000000015 104519.00000000001 0.64785000000000015 91343.500000000015 81622.500000000015 80717.000000000015 75807.000000000015 93318.000000000015 73817.500000000015 92306.500000000015
decision_type=2 2 2 2 2 2 2 2 2 2 2 2 2 2 2 2 2 2 2 2 2 2 2 2 2
left_child=1 2 -1 -4 5 6 -3 -8 22 -5 11 16 13 18 21 -16 -2 -12 19 20 -10 -15 23 -6 -25
right_child=10 4 3 9 8 -7 7 -9 12 -11 17 -13 -14 14 15 -17 -18 -19 -20 -21 -22 -23 -24 24 -26
leaf_value=0.10913182690034658 0.031828246048416588 -0.06203897149017399 0.055109000012887335 0.016748737008760509 -0.075164388976208071 -0.1306349997447184 -0.12947779745988899 0.010143356120091825 -0.039708471731197681 -0.016845077847792444 0.091524701363883632 0.087236970206002962 -0.075909412234494794 -0.016907718405766353 -0.047732947405619584 0.00072027770125093695 0.068467234614456904 0.11073541364565294 -0.042537011370318817 -0.11273353543340284 -0.11185577865937622 0.0027451130393764986 -0.060226343954159461 -0.059437381905192543 -0.10885402660139476
leaf_weight=6.5394069179892531 2.9657960683107403 1.988907322287562 14.051065750420092 6.471378609538081 5.8247652612626579 2.04821853339672 0.52459163963794608 11.937167316675184 5.0737516582012159 19.904576398432255 10.772027250379322 8.045855984091757 3.003441870212554 7.5364170372486132 14.062587179243566 3.973310410976409 3.2850837260484695 3.8102968856692305 1.3443028554320333 2.5103132724761963 0.41115444153547276 0.73770850896835316 3.6518740728497496 7.926800072193144 0.62521666288375843
leaf_count=87 13 22 90 32 75 12 4 70 46 92 139 59 16 52 83 21 18 44 11 25 4 4 40 99 8
internal_value=0.00364598 -0.0157108 0.0268659 0.0135464 -0.0430363 -0.0205634 -0.00492107 0.00421499 -0.049575 -0.00860058 0.0841664 0.0714726 -0.0416912 -0.0387977 -0.0301758 -0.0370606 0.0511253 0.0965817 -0.0630553 -0.0664745 -0.0452166 -0.015153 -0.0664605 -0.0680215 -0.0631135
internal_weight=149.026 120.147 46.9664 40.427 73.1805 16.4989 14.4507 12.4618 56.6816 26.376 28.8791 14.2967 38.653 35.6495 26.31 18.0359 6.25088 14.5823 9.33952 7.99522 5.48491 8.27413 18.0287 14.3768 8.55202
internal_count=1166 893 301 214 592 108 96 74 484 124 273 90 262 246 160 104 31 183 86 75 50 56 222 182 107
is_linear=0
shrinkage=0.1


Tree=22
num_leaves=39
num_cat=0
split_feature=11 7 8 8 9 3 9 1 0 3 8 8 8 1 1 0 1 1 1 0 8 8 2 7 7 7 8 8 8 1 9 2 8 3 9 0 3 3
split_gain=26.2461 1.58705 1.66953 2.82122 1.05778 2.82201 3.46206 1.98931 2.35301 1.7987 4.18346 1.60263 1.59124 1.33171 1.01076 0.935456 0.644163 0.637015 0.876856 0.450953 3.43557 0.7884 0.312514 5.27254 0.617111 0.711287 1.80212 0.248639 0.242905 0.207665 0.191164 0.0969991 0.70148 0.0893222 0.0556325 0.0118961 0.00172209 0.21998
threshold=0.67055000000000009 0.98535000000000006 0.70285000000000009 0.7592000000000001 0.79775000000000007 225.33845000000002 0.84635000000000016 1201.0370000000003 109077.50000000001 189.61845000000002 0.65760000000000007 0.74595000000000011 0.72245000000000015 1108.6550000000002 1156.2300000000002 108099.50000000001 1194.3155000000004 1143.9520000000002 1112.5475000000004 82133.000000000015 0.7228500000000001 0.73155000000000014 507.39560000000006 0.98245000000000016 0.98675000000000013 0.98585000000000012 0.72935000000000005 0.66495000000000015 0.66555000000000009 1035.6060000000002 0.7894500000000001 489.70050000000009 0.61930000000000007 239.39050000000003 0.8388500000000001 97268.500000000015 208.68650000000005 220.41965000000002
decision_type=2 2 2 2 2 2 2 2 2 2 2 2 2 2 2 2 2 2 2 2 2 2 2 2 2 2 2 2 2 2 2 2 2 2 2 2 2 2
left_child=22 2 14 30 9 6 13 19 15 -3 16 12 -12 -6 -2 35 -11 18 -14 20 27 28 23 -1 25 -25 -27 -7 -21 -13 -4 32 -26 -16 -32 -9 -24 -38
right_child=1 4 3 -5 5 7 -8 8 -10 10 11 29 17 -15 33 -17 -18 -19 -20 21 -22 -23 36 24 31 26 -28 -29 -30 -31 34 -33 -34 -35 -36 -37 37 -39
leaf_value=-0.20639758275286632 -0.12448459337289286 0.11472975595134911 -0.025593810061801205 0.15630758590643357 0.020355441081965089 -0.076729509061023771 -0.10983961106128599 -0.014336395486568704 0.15038155804361009 0.061508403515154311 -0.065688155355798528 0.11332422916110858 -0.01886788774474206 -0.20997187234099149 -0.0096661039092018463 0.1230886196310525 -0.0011121693711093367 -0.038858808150286174 0.064939408812649799 0.021416840896934394 -0.016382822992488277 -0.064542815895077515 0.10701471406723062 0.1095047912938527 0.057899174976045978 0.10627422710427335 -0.2330422170436228 -0.11573101310964758 -0.024704585752667575 0.01811470462291993 -0.06077029862000214 0.11412782483876081 0.11296204194479853 -0.056118079134969925 -0.10747340995292379 -0.022463443648612687 0.077723197840645269 0.10997605716548348
leaf_weight=0.60980229079723614 3.5703345686197263 1.3091431409120549 2.1937771663069725 0.81139277666807164 22.349274680018432 2.2837438434362429 2.3416672050952902 2.4255036041140503 0.94406947493553239 8.3017681092023832 10.665613055229192 0.23529112339019675 3.1794344037771207 0.24889323115348716 0.93736392259597756 0.47013992071151811 2.0468188077211371 4.0349877923727036 2.0486847758293152 1.326591707766055 8.8880099020898324 6.024199701845645 2.2484481036663047 0.49937138706445583 3.583829924464224 0.33561626449227333 0.28491906821727753 6.2162805795669556 8.0361447967588884 5.0755115374922752 1.8146186918020251 3.207132674753665 6.6302530877292156 0.74141315370798111 0.30727772414684285 7.6133474782109261 3.0328373089432699 7.5488024950027466
leaf_count=5 23 12 12 5 141 17 30 13 5 41 54 2 16 1 4 3 13 22 9 9 94 58 36 6 42 5 3 64 76 27 17 37 76 5 4 45 39 95
internal_value=0.00341078 -0.0174874 -0.054805 -0.0141897 -0.0138341 -0.0211275 0.00576998 -0.0362941 -0.000415047 -0.000160428 -0.00440275 -0.0263567 -0.0393633 0.017772 -0.0944217 -0.0140284 0.0491268 -0.00903178 0.0140005 -0.0488294 -0.0598707 -0.0363357 0.0903654 0.0805573 0.092659 0.0212162 -0.050116 -0.105305 -0.0181601 0.0224385 -0.0463926 0.0986091 0.0936814 -0.0302962 -0.0677778 -0.0205095 0.101911 0.100775
internal_weight=144.422 116.441 10.3762 5.12707 106.065 69.1679 24.9398 44.228 11.4531 36.8973 35.5881 25.2395 19.9287 22.5982 5.24911 10.509 10.3486 9.26311 5.22812 32.775 17.388 15.3869 27.981 15.1509 14.5411 1.11991 0.620535 8.50002 9.36274 5.3108 4.31567 13.4212 10.2141 1.67878 2.1219 10.0389 12.8301 10.5816
internal_count=1166 822 70 38 752 556 172 384 66 196 184 130 101 142 32 61 54 47 25 318 175 143 344 174 169 14 8 81 85 29 33 155 118 9 21 58 170 134
is_linear=0
shrinkage=0.1


Tree=23
num_leaves=43
num_cat=0
split_feature=11 10 11 0 5 0 10 8 5 8 3 5 0 8 8 8 8 8 5 4 4 5 4 4 5 4 3 3 3 4 3 8 8 8 8 5 8 5 8 8 4 8
split_gain=14.0853 9.84534 8.45679 3.97932 1.9247 1.64886 0.901776 2.28579 0.71831 1.16759 2.23029 0.658207 0.612388 1.92484 0.520863 1.17434 3.10208 0.472447 0.431349 0.77627 0.588148 0.267419 1.41117 0.301434 0.218718 0.173613 0.380581 0.172868 0.815575 0.153222 0.140765 0.111408 0.0807517 0.155771 0.0861664 0.063181 0.0583196 0.0468171 2.81563 1.90142 0.0162993 0.00254215
threshold=0.74460000000000015 2.0045500000000005 0.66360000000000008 107219.50000000001 298.92145000000005 86679.500000000015 1.7868000000000002 0.73775000000000013 301.97270000000003 0.77105000000000012 209.81890000000001 287.25730000000004 58526.000000000007 0.63145000000000007 0.7077500000000001 0.65035000000000009 0.65850000000000009 0.72585000000000011 319.34820000000008 105572.00000000001 71510.000000000015 329.59685000000007 110026.00000000001 66631.500000000015 280.55260000000004 75684.000000000015 221.68805000000003 254.15605000000002 265.77120000000008 84749.000000000015 210.02640000000002 0.59650000000000014 0.74060000000000015 0.67745000000000011 0.61105000000000009 307.70220000000006 0.61930000000000007 319.34820000000008 0.75400000000000011 0.74265000000000014 79869.500000000015 0.75005000000000011
decision_type=2 2 2 2 2 2 2 2 2 2 2 2 2 2 2 2 2 2 2 2 2 2 2 2 2 2 2 2 2 2 2 2 2 2 2 2 2 2 2 2 2 2
left_child=1 6 25 27 12 8 -1 21 -6 10 35 -9 -4 31 15 -12 -17 -7 20 29 -13 23 -23 24 -8 -3 30 40 -29 -20 32 -14 33 34 -27 -10 -32 38 39 -16 -2 -19
right_child=3 2 4 -5 5 17 7 11 9 -11 14 18 13 -15 37 16 -18 41 19 -21 -22 22 -24 -25 -26 26 -28 28 -30 -31 36 -33 -34 -35 -36 -37 -38 -39 -40 -41 -42 -43
