tree
version=v4
num_class=1
num_tree_per_iteration=1
label_index=0
max_feature_idx=11
objective=binary sigmoid:1
feature_names=Column_0 Column_1 Column_2 Column_3 Column_4 Column_5 Column_6 Column_7 Column_8 Column_9 Column_10 Column_11
feature_infos=[48098:132035] [884.10599999999999:1520.5250000000001] [320.84460000000001:648.99839999999995] [152.17179999999999:305.81799999999998] [48643:133706] [247.46770000000001:410.01490000000001] [0.49209999999999998:0.94810000000000005] [0.91859999999999997:0.99439999999999995] [0.46800000000000003:0.8296] [0.55459999999999998:0.92549999999999999] [1.1487000000000001:3.1444000000000001] [0.56079999999999997:0.90490000000000004]
tree_sizes=3125 4245 3309 5472 1901 4962 2815 2824 2837 5539 4375 5702 4389 3249 5126 4596 4380 3537 3269 2715 5296 2318 6245 5453 4503 3565 3870 4315 4902 2739 3562 4200 2345 3990 4492 6356 4107 3785 2323 4712 3069 2855 2132 5160 2761 4604 4715 6206 6181 4446 5268 5351 3796 3698 1839 2139 7723 4818 5447 4615 4020 3884 3609 4338 4936 4304 4641 3095 2364 2444 5264 4750 4239 4332 3905 4434 3492 4223 4853 5064 4923 2128

Tree=0
num_leaves=29
num_cat=0
split_feature=6 9 11 11 3 5 11 3 1 3 0 5 0 0 0 0 8 8 8 0 8 5 8 8 5 5 8 8
split_gain=611.938 36.5252 14.4401 12.9179 6.771 5.52608 5.32446 1.87035 2.39999 1.69752 0.743693 0.560549 0.451947 0.509972 0.661932 0.422499 0.270911 0.232931 1.04147 0.196076 0.169183 0.215738 0.152512 0.610972 0.119745 0.113714 0.0381472 0.186896
threshold=0.86325000000000007 0.75865000000000016 0.7460500000000001 0.66525000000000012 193.25945000000004 351.75945000000007 0.73120000000000007 188.80395000000001 1235.7225000000001 202.52355000000003 87084.000000000015 345.92415000000005 71365.000000000015 72999.500000000015 88422.000000000015 83562.500000000015 0.74010000000000009 0.72275000000000011 0.7037500000000001 81209.500000000015 0.72745000000000015 326.18260000000004 0.74625000000000008 0.7410500000000001 293.38835000000006 302.38770000000005 0.72975000000000012 0.74865000000000015
decision_type=2 2 2 2 2 2 2 2 2 2 2 2 2 2 2 2 2 2 2 2 2 2 2 2 2 2 2 2
left_child=2 3 6 26 16 10 15 -5 9 -9 20 -12 -8 -14 19 -1 17 18 -3 -15 21 24 23 -7 -6 -26 -2 -28
right_child=1 4 -4 7 5 22 12 8 -10 -11 11 -13 13 14 -16 -17 -18 -19 -20 -21 -22 -23 -24 -25 25 -27 27 -29
leaf_value=-0.20170778327155431 0.10629409762329985 0.10807196697010117 -0.2832088704698571 0.10739375996042731 -0.025355010314824566 0.036743906503845861 -0.26577542197697002 0.0079152203136226285 0.057920746789079394 -0.10385239833797609 -0.00097869865324344552 -0.063536221424772374 -0.19209127028455358 -0.24791483122851615 -0.22088334824291433 -0.17921175026822678 0.1080330958633144 0.027717538200761435 -0.025754068299944644 -0.27419714954399549 -0.033113236547329436 -0.073890481218775922 0.019062170398041436 0.10774847298597411 -0.063476255742018761 -0.043469380606712724 0.089717006280089287 0.10838200207609221
leaf_weight=31.916404724121094 46.62787252664566 2.7428160309791561 64.082156360149384 0.99738764762878318 2.9921629428863588 6.9817135334014875 11.22061103582382 1.9947752952575664 1.9947752952575681 4.2388975024223328 8.2284480929374677 1.7454283833503712 1.9947752952575708 6.732366621494295 6.9817135334014884 11.469957947731016 2.4934691190719604 1.24673455953598 0.74804073572158802 5.485632061958313 12.716692507266997 2.7428160309791556 2.2441222071647635 1.496081471443176 3.4908567667007473 16.456896185874939 10.721917212009432 13.464733242988585
leaf_count=128 187 11 257 4 12 28 45 8 8 17 33 7 8 27 28 46 10 5 3 22 51 11 9 6 14 66 43 54
internal_value=-0.0987 0.0442341 -0.248258 0.0897087 -0.0106538 -0.0218438 -0.218701 -0.0216535 -0.0374154 -0.0680295 -0.0362536 -0.0118998 -0.249373 -0.240653 -0.245672 -0.19577 0.0806742 0.0660648 0.07955 -0.259782 -0.0425907 -0.0472965 0.0431053 0.0493925 -0.0441244 -0.0469592 0.10421 0.10015
internal_weight=286.25 146.367 139.884 80.0404 66.3263 59.0952 75.8015 9.22584 8.22845 6.23367 48.3733 9.97388 32.4151 21.1945 19.1997 43.3864 7.23106 4.73759 3.49086 12.218 38.3994 25.6827 10.7219 8.4778 22.9399 19.9478 70.8145 24.1867
internal_count=1148 587 561 321 266 237 304 37 33 25 194 40 130 85 77 174 29 19 14 49 154 103 43 34 92 80 284 97
is_linear=0
shrinkage=1


Tree=1
num_leaves=40
num_cat=0
split_feature=10 3 2 7 3 7 7 2 10 3 6 3 10 3 7 5 4 5 7 2 2 7 3 7 7 7 5 7 2 5 5 2 7 7 7 7 5 7 7
split_gain=475.118 20.6059 40.0879 18.2683 4.01478 7.36355 6.05379 3.9311 3.15637 5.76406 3.1575 2.92213 1.91337 1.45629 1.24505 1.10661 0.845965 0.509874 0.381734 0.32879 0.621951 0.288804 0.286468 0.201834 1.07505 0.243436 0.199939 0.199244 0.321657 0.155653 0.329842 0.135201 0.128361 0.589839 0.0761261 0.335573 0.0564388 0.0302363 0.420464
threshold=1.9504500000000002 202.15410000000003 476.67215000000004 0.99055000000000015 233.98520000000005 0.98875000000000013 0.98545000000000016 439.40565000000004 1.9170000000000003 204.13550000000001 0.82830000000000015 241.98035000000002 1.8586500000000001 206.88610000000003 0.9839500000000001 328.48340000000007 68106.500000000015 362.79010000000005 0.98475000000000013 458.82125000000002 441.54340000000008 0.98015000000000008 223.05935000000002 0.9839500000000001 0.98515000000000008 0.99185000000000012 319.54655000000008 0.98815000000000008 402.94820000000004 338.59930000000003 303.84530000000007 473.77800000000008 0.98875000000000013 0.99075000000000013 0.9829500000000001 0.98715000000000008 348.97305000000006 0.98785000000000012 0.98855000000000015
decision_type=2 2 2 2 2 2 2 2 2 2 2 2 2 2 2 2 2 2 2 2 2 2 2 2 2 2 2 2 2 2 2 2 2 2 2 2 2 2 2
left_child=8 16 3 7 5 6 -4 18 9 12 21 14 -1 19 -6 -10 27 22 -3 20 -5 29 37 -24 -25 -26 -23 28 -2 30 -11 -15 -29 -34 -9 -36 -7 -12 -39
right_child=1 2 4 13 11 36 -8 34 15 10 17 -13 -14 31 -16 -17 -18 -19 -20 -21 -22 26 23 24 25 -27 -28 32 -30 -31 -32 -33 33 -35 35 -37 -38 38 -40
leaf_value=-0.074100218607312404 0.19202092172878424 -0.19099843837638938 -0.034957536729057617 0.09405365406747819 -0.0027883326427170416 0.17923281668728583 0.13591308476488537 -0.046703437410527231 -0.10821268125370716 -0.072929412287425555 -0.15082653435811177 0.085426919417538161 0.12251681619032649 0.078394341491958008 0.15861753161995701 -0.036893939757842678 0.19121583490334707 -0.046209537249769735 -0.10007691115682185 0.19618902280547793 0.20340856600925683 -0.15915453558569304 -0.079402774733748072 0.019905637692371733 -0.13265628684039332 -0.10935729789774214 -0.17123491404392321 0.14306836527010122 0.12553092504836111 -0.17353273055799001 -0.17387159682448128 0.043732452858130821 0.15199203648390777 0.19329216489882295 -0.041778505264905084 -0.0047795873728892239 0.19004359151776062 -0.17845782814964448 -0.12995154217714797
leaf_weight=0.98196332156658062 0.99778689444065394 0.49920906126499431 2.9921067059040052 1.7444795072078738 0.4997903853654887 26.695506483316422 6.7345331609249115 0.74242280423641105 10.888867795467375 0.98021322488784679 3.4556854218244579 16.714006915688515 0.98805947601795197 13.9715269356966 10.735051199793814 2.728037327527999 23.689585864543915 0.74195396900176902 6.7175506055355072 0.99835422635078419 0.74956177175045002 37.0065046697855 0.98854483664035697 0.49497868120670574 25.419466853141788 5.6766065955162039 24.262505248188972 1.9963081777095819 2.9938563406467438 0.49010661244392384 0.49041256308555603 1.2493543773889531 7.4827940315008146 6.7365698516368866 3.2447419166564933 9.9900305122137052 8.2278158217668516 2.2177307158708564 10.342466562986372
leaf_count=4 4 2 12 7 2 107 27 3 44 4 14 67 4 56 43 11 95 3 27 4 3 151 4 2 103 23 99 8 12 2 2 5 30 27 13 40 33 9 42
internal_value=0.00321575 0.12018 0.0974993 0.0169841 0.141754 0.160373 0.0833574 -0.0465866 -0.13953 -0.144945 -0.147913 0.111985 0.0245652 0.088976 0.151438 -0.0939445 0.178292 -0.128913 -0.106496 0.147226 0.127267 -0.162726 -0.13017 -0.124691 -0.126095 -0.128422 -0.163952 0.163097 0.142375 -0.124096 -0.107077 0.0755656 0.168152 0.171621 -0.0156256 -0.0138641 0.181807 -0.141274 -0.138585
internal_weight=284.557 156.403 112.506 39.9072 72.5988 44.65 9.72664 21.194 128.154 114.537 112.567 27.9488 1.97002 18.7133 11.2348 13.6169 43.8969 49.3374 7.21676 3.4924 2.49404 63.2297 48.5955 32.5796 31.5911 31.0961 61.269 20.2073 3.99164 1.96073 1.47063 15.2209 16.2157 14.2194 13.9772 13.2348 34.9233 16.0159 12.5602
internal_count=1148 627 451 160 291 179 39 85 521 466 458 112 8 75 45 55 176 200 29 14 10 258 197 132 128 126 250 81 16 8 6 61 65 57 56 53 140 65 51
is_linear=0
shrinkage=0.1


Tree=2
num_leaves=31
num_cat=0
split_feature=10 2 9 1 7 0 7 4 0 9 0 0 7 7 7 2 7 7 7 4 7 7 1 4 4 4 4 4 4 2
split_gain=452.53 16.177 3.25964 2.23859 7.32865 3.10934 2.2819 1.34292 1.13114 1.05739 9.36013 1.3963 1.12469 3.40564 1.48313 0.421186 0.242141 4.23399 3.54342 2.55097 0.0696472 1.44737 0.0409619 0.0158183 0.684777 0.216078 0.0698801 2.67969 0.493401 0.00493279
threshold=2.0287500000000005 502.30605000000008 0.86910000000000009 1147.9475000000002 0.98465000000000014 67961.500000000015 0.99185000000000012 76685.500000000015 105065.00000000001 0.73585000000000012 64903.500000000007 62971.000000000007 0.99115000000000009 0.98675000000000013 0.98975000000000013 405.85060000000004 0.98445000000000016 0.99065000000000014 0.98735000000000006 94719.500000000015 0.99335000000000007 0.98735000000000006 999.94600000000003 72059.000000000015 80005.000000000015 77215.500000000015 75937.500000000015 76685.500000000015 73123.500000000015 455.0206
decision_type=2 2 2 2 2 2 2 2 2 2 2 2 2 2 2 2 2 2 2 2 2 2 2 2 2 2 2 2 2 2
left_child=1 2 9 5 7 15 -7 -5 -3 11 12 -1 13 -11 -15 -2 19 18 -18 -12 21 -6 -17 -19 25 26 28 -28 -25 -8
right_child=3 8 -4 4 20 6 29 -9 -10 10 16 -13 -14 14 -16 22 17 23 -20 -21 -22 -23 -24 24 -26 -27 27 -29 -30 -31
leaf_value=-0.16839321541114782 0.17786478638053393 0.033669674014578398 -0.1639462933450051 0.17247015848055897 0.11473971716813663 0.093466777431570863 0.15060187770764288 -0.0037095518291793382 0.13875048892254718 0.051504717178634585 -0.16927261073839359 0.038858026636189397 0.040143556045265566 -0.12123554247838708 -0.036353482139745978 0.13157769230982894 -0.098389657582036827 -0.095824436638933863 -0.15316472876324316 -0.011160552625505233 0.18125459361205362 0.16238418213039676 0.14822027074678715 -0.033574719114852589 -0.11251799056379207 -0.060559482115733969 -0.17139528867333412 0.032495179547099955 -0.10144164487748407 0.1611606701861745
leaf_weight=0.48462802171707042 5.9027268141508129 2.489106908440589 15.942631050944327 0.48909717798232977 7.1744598001241675 28.491158023476601 2.4895118474960318 3.4761609882116318 1.7418021261692045 2.6539018601179114 6.2671069949865332 0.96302644908428192 1.7122027277946461 4.1032616049051267 4.1393782496452332 2.2113694101572028 15.44570332765579 10.408500880002974 50.742981910705566 1.2198121845722196 1.4834441393613804 61.857559382915497 12.334462106227873 1.4560671597719208 19.627785995602608 3.414364516735076 1.9299025088548662 0.96434518694877613 4.1273426413536072 4.447865903377533
leaf_count=2 24 10 67 2 29 115 10 14 7 11 26 4 7 17 17 9 64 43 210 5 6 251 50 6 81 14 8 4 17 18
internal_value=0.00290102 -0.115636 -0.121237 0.139147 0.150517 0.123979 0.106023 0.0182075 0.0770464 -0.11598 -0.116939 -0.0308533 -0.0351072 -0.046946 -0.0786584 0.155053 -0.125863 -0.124632 -0.140391 -0.143539 0.157955 0.157441 0.145737 -0.09974 -0.101017 -0.0819943 -0.0905845 -0.103516 -0.0837917 0.157485
internal_weight=280.192 149.834 145.603 130.358 74.4807 55.8771 35.4285 3.96526 4.23091 129.66 128.213 1.44765 12.6087 10.8965 8.24264 20.4486 115.604 108.117 66.1887 7.48692 70.5155 69.032 14.5458 41.9283 31.5198 11.892 8.47766 2.89425 5.58341 6.93738
internal_count=1148 620 603 528 302 226 143 16 17 536 530 6 52 45 34 83 478 447 274 31 286 280 59 173 130 49 35 12 23 28
is_linear=0
shrinkage=0.1


Tree=3
num_leaves=52
num_cat=0
split_feature=10 9 9 9 7 10 7 3 4 2 8 3 7 9 3 7 8 8 7 2 3 3 4 3 8 2 2 4 4 7 4 3 9 8 7 8 7 2 2 2 2 2 2 4 4 8 3 2 2 4 4
split_gain=328.617 22.0512 7.27969 14.7191 10.4274 6.10008 5.02746 3.7343 6.58364 6.21012 2.4188 2.26159 1.90874 1.90246 1.86662 1.61626 3.67309 1.77798 1.44152 1.35212 1.76272 1.32759 3.10787 2.13492 0.951753 1.80724 0.940366 2.19079 0.515165 0.476122 1.72397 1.44893 2.11773 0.473448 0.419989 0.697862 0.526241 1.56047 0.412868 1.27085 0.34197 2.28471 0.255747 0.102721 0.0759697 0.0672323 0.0618582 0.039052 0.00654071 0.00144081 0.000757253
threshold=1.9524000000000001 0.73510000000000009 0.79715000000000014 0.78605000000000014 0.98575000000000013 1.8810500000000003 0.9890500000000001 228.89980000000003 70991.000000000015 493.72855000000004 0.66055000000000008 202.15410000000003 0.98585000000000012 0.8176000000000001 213.70500000000001 0.98885000000000012 0.69415000000000016 0.70225000000000015 0.98765000000000014 528.82030000000009 233.42630000000003 213.35285000000002 77561.500000000015 211.50875000000002 0.7430000000000001 399.21455000000009 442.88430000000005 77106.000000000015 87948.500000000015 0.98325000000000007 73123.500000000015 258.67300000000006 0.81985000000000008 0.71875000000000011 0.98165000000000013 0.72455000000000014 0.98725000000000007 436.77925000000005 423.79435000000007 404.76100000000002 417.44590000000005 427.41150000000005 434.25045000000006 74127.000000000015 90642.000000000015 0.66495000000000015 225.20265000000003 415.79025000000007 446.30890000000005 75400.500000000015 99947.000000000015
decision_type=2 2 2 2 2 2 2 2 2 2 2 2 2 2 2 2 2 2 2 2 2 2 2 2 2 2 2 2 2 2 2 2 2 2 2 2 2 2 2 2 2 2 2 2 2 2 2 2 2 2 2
left_child=5 34 3 4 11 12 21 8 10 18 -5 -3 29 28 -7 16 -4 -18 -9 20 -8 23 -23 38 26 -26 27 -17 -14 30 -1 32 49 -11 35 -2 37 -36 39 -6 -16 -42 -10 -15 47 -40 -13 -27 -43 -31 -33
right_child=1 2 15 7 6 14 19 9 42 33 -12 46 13 43 40 24 17 -19 -20 -21 -22 22 -24 -25 25 44 -28 -29 -30 31 -32 50 -34 -35 36 -37 -38 -39 45 -41 41 48 -44 -45 -46 -47 -48 -49 -50 -51 -52
leaf_value=-0.050216098750350137 0.034636420828753754 0.067182615922582997 0.11296009607496721 0.13073610283195922 0.16717093219160117 -0.024253098478294214 0.13142642759917197 -0.17585469934085018 -0.16617917606809182 0.18474428316478705 -0.048513709415148543 -0.092228949586198039 -0.10328297476284981 -0.14560088973425306 -0.057710299251416776 -0.00025838979329013815 0.043580996728420834 -0.17790934515817086 -0.012046897541877148 0.1687314322066803 0.056232980917365422 -0.19765085446359543 0.057624246329003675 -0.060204074881549996 0.17469631888804962 0.007225885414803861 0.068616158802611363 0.21795516735223086 -0.041057352685551649 -0.020292133839457407 -0.15781253020671246 0.044971747476440491 -0.1602691316613801 0.10664451789760082 -0.037615952801100055 0.17353570281599626 0.16501777399281398 0.1475894860787004 0.11772514007827176 0.013738935238383827 -0.16364028333791061 -0.072373298456810994 -0.11184066043538923 -0.13778251929827265 -0.048498555995413375 0.14437255450534595 -0.12622906510831569 -0.024073326529423244 -0.077859968739011506 -0.026359270991896246 0.036523802576955131
leaf_weight=2.6152099817991239 0.72308972477912792 0.96872556209564153 0.98215027153492274 1.9254923313856109 0.96333229541778864 5.5301684141159084 37.186953574419022 0.73439152538776431 1.1983347982168195 1.7230523973703387 1.23040035367012 0.98336714506149325 7.0304043591022474 31.130311787128448 2.8455950617790249 5.6571070849895504 0.47774980962276448 1.4730954468250272 1.9686410427093504 8.6793261766433698 3.4152034372091284 0.49998140335082908 8.6172389239072782 0.74468879401683796 0.49036037921905418 0.48164592683315355 8.6720786392688733 0.49579754471778859 1.6533514261245725 1.4118728339672091 3.4753667414188385 0.47350892424583424 2.3370599001646042 1.4678974747657774 0.48310741782188316 0.72576132416725159 37.235970333218575 7.2924432158470154 1.7043207287788389 1.222724601626396 3.8035074621439007 5.4683901369571668 3.4777117967605591 45.599977374076843 1.2317737340927122 2.9320158511400223 1.4785033911466596 2.235045313835144 7.7054423391819 0.71731108427047718 0.48002350330352783
leaf_count=11 3 4 4 8 4 23 153 3 5 7 5 4 30 134 12 23 2 6 8 36 14 2 35 3 2 2 35 2 7 6 15 2 10 6 2 3 156 30 7 5 16 23 14 197 5 12 6 9 32 3 2
internal_value=0.00264209 0.100927 0.075604 0.0891895 0.107903 -0.119355 0.116743 -0.00542718 -0.050663 0.0546716 0.0608802 -0.061998 -0.13078 -0.135938 -0.0756565 0.0247196 -0.04438 -0.123687 -0.0568006 0.132809 0.12511 0.0692621 0.0435227 0.100223 0.0352499 -0.00536406 0.0474092 0.0174854 -0.0914677 -0.0924653 -0.111694 -0.070771 -0.0946454 0.149045 0.158315 0.104583 0.160032 0.136064 0.117768 0.0815865 -0.0899864 -0.0953767 -0.125932 -0.140964 -0.0279225 0.134718 -0.112869 -0.0185154 -0.075612 -0.0224004 0.0409481
internal_weight=274.057 151.779 105.319 83.1223 69.3964 122.278 65.9658 13.7259 7.83194 5.89398 3.15589 3.4306 96.9244 85.414 25.3531 22.1968 2.933 1.95085 2.70303 49.2815 40.6022 16.6843 9.11722 7.56708 19.2638 4.43883 14.825 6.1529 8.68376 11.5104 6.09058 5.41978 4.46624 3.19095 46.4604 1.44885 45.0115 7.77555 6.82239 2.18606 19.8229 16.9773 4.67605 76.7303 3.94846 4.63634 2.46187 2.71669 13.1738 2.12918 0.953532
internal_count=1148 625 431 341 285 523 271 56 32 24 13 14 417 368 106 90 12 8 11 203 167 68 37 31 78 18 60 25 37 49 26 23 19 13 194 6 188 32 28 9 83 71 19 331 16 19 10 11 55 9 4
is_linear=0
shrinkage=0.1


Tree=4
num_leaves=17
num_cat=0
split_feature=6 9 1 5 11 4 1 4 4 4 1 9 5 5 5 4
split_gain=294.553 17.8772 7.96214 5.37289 2.60839 2.13028 1.06375 1.00222 1.94194 0.773407 0.217741 0.287479 0.072182 0.0407398 0.0426249 0.0155254
threshold=0.88095000000000012 0.85130000000000006 1240.4405000000004 298.14950000000005 0.64755000000000007 86038.500000000015 1079.7690000000002 74523.500000000015 78954.500000000015 81371.000000000015 1313.2335000000003 0.8035000000000001 318.10590000000008 313.73305000000005 323.10975000000002 95452.000000000015
decision_type=2 2 2 2 2 2 2 2 2 2 2 2 2 2 2 2
left_child=1 2 3 6 13 9 -1 -5 -9 -6 11 -4 -3 -2 -15 -10
right_child=4 12 10 7 5 -7 -8 8 15 -11 -12 -13 -14 14 -16 -17
leaf_value=-0.033264867525147741 0.15657196740087795 -0.14942194998191891 0.030648712721245676 -0.10548975667958416 0.11162257980261914 0.14465904522672754 -0.15766248194173299 -0.048927362030943278 -0.08729793133197411 0.071990743783138314 0.0641653935147143 -0.0039960023051941167 -0.13886162076462424 0.14115329188059281 0.15183250964202791 -0.092492424689357186
leaf_weight=30.682675078511242 17.758750081062317 22.544843912124634 5.0992124378681147 17.811895310878754 28.385449796915054 21.940977662801743 0.69867369532585044 16.558592602610588 44.667849600315094 6.0064857304096213 0.96361328661441881 4.5094906538724899 11.162993311882017 5.9996848851442364 22.978365823626518 8.716306656599043
leaf_count=131 77 102 21 77 119 93 3 71 191 25 4 19 51 26 100 38
internal_value=0.00242812 -0.0810665 -0.0642008 -0.0715812 0.134806 0.120283 -0.0360596 -0.0842809 -0.0788724 0.104713 0.0189603 0.0143943 -0.145946 0.152295 0.149647 -0.0881549
internal_weight=266.486 163.416 129.708 119.136 103.07 56.3329 31.3813 87.7546 69.9427 34.3919 10.5723 9.6087 33.7078 46.7368 28.9781 53.3842
internal_count=1148 708 555 511 440 237 134 377 300 144 44 40 153 203 126 229
is_linear=0
shrinkage=0.1


Tree=5
num_leaves=47
num_cat=0
split_feature=10 6 3 0 2 9 0 8 9 2 8 3 2 4 3 9 8 0 8 8 8 0 3 3 2 0 8 8 8 3 3 0 8 2 2 2 2 2 0 0 3 0 0 0 0 0
split_gain=277.915 15.0758 10.4674 11.3614 3.76073 3.08561 2.06346 2.92156 1.93397 10.9678 1.78274 1.38343 1.3329 0.950887 0.66738 0.59719 4.82154 0.467855 0.409275 0.559642 0.885742 0.389211 0.276246 0.558647 1.35982 0.137522 0.11696 1.04738 0.0880671 0.443773 0.357881 0.197039 0.0590882 0.0497587 0.0402335 0.523026 0.0548072 0.0676622 0.032736 0.0188244 0.0134761 0.00929819 1.2574 1.60817 0.369257 0.188014
threshold=2.0287500000000005 0.88740000000000008 201.47895000000003 98205.500000000015 420.28850000000006 0.84965000000000013 91156.500000000015 0.73275000000000012 0.7813500000000001 482.76485000000008 0.5888500000000001 220.16935000000004 415.79025000000007 62377.000000000007 229.48685000000003 0.79190000000000016 0.64680000000000015 73697.500000000015 0.75545000000000007 0.74455000000000016 0.72975000000000012 71559.500000000015 270.35870000000006 214.38365000000002 441.71410000000009 76105.000000000015 0.67465000000000008 0.63555000000000017 0.69215000000000015 203.41405000000003 223.47920000000002 85990.500000000015 0.65615000000000012 451.50275000000005 408.84770000000009 417.17630000000003 428.34105000000005 437.65520000000009 68826.500000000015 68640.500000000015 249.56890000000001 78596.500000000015 82847.000000000015 83729.500000000015 91156.500000000015 85337.500000000015
decision_type=2 2 2 2 2 2 2 2 2 2 2 2 2 2 2 2 2 2 2 2 2 2 2 2 2 2 2 2 2 2 2 2 2 2 2 2 2 2 2 2 2 2 2 2 2 2
left_child=2 4 13 5 12 15 7 10 -5 -10 -6 -12 -2 -1 -9 16 21 -7 19 20 26 -4 23 38 34 -23 27 -8 29 39 31 -30 -18 -26 -25 -36 -37 -38 -17 -3 -19 -31 -43 -44 45 -45
right_child=1 28 3 8 6 17 18 14 9 -11 11 -13 -14 -15 -16 22 32 40 -20 -21 -22 25 -24 24 33 -27 -28 -29 30 41 -32 -33 -34 -35 35 36 37 -39 -40 -41 -42 42 43 44 -46 -47
leaf_value=0.13212276343031071 0.16471545641837074 0.14996813348947899 0.093336155250033817 -0.20484037193376292 0.20608200074516142 -0.14222372765314259 0.11119149988823668 -0.0350673397465859 -0.1437528736162057 0.057918216483964474 0.072680558709142987 0.010834029930621311 -0.0092223458251433944 -0.021247533192022338 0.039969727609019547 -0.077716049594718978 -0.15134428958948187 -0.11422641311831999 0.021183672190407624 0.17156460176969268 0.16373043091205339 0.053287591036721517 -0.14827001612550172 -0.10733764974064859 -0.076609602818362918 -0.016662430549123801 0.04186858417016541 -0.055740117690617534 0.1368946197477181 0.13054252081926124 0.15324869624806745 0.11664135949556574 -0.11195819426657057 -0.086476875257866459 -0.088965737291093486 -0.12791128810702124 -0.11233089951478768 -0.12798617380976482 -0.094518325850341825 0.14132710482206109 -0.1214237699070327 0.077224886348674665 -0.047487011320810076 0.089093571771987193 0.14996032783653479 0.12958202927340318
leaf_weight=2.1814687848091121 3.7753400206565848 6.439789071679118 1.1691671460866913 0.4779239147901525 0.73792782425881043 17.304827675223351 1.8974436074495313 6.1541345268487921 3.8059310466051093 9.2182562947273237 8.8103915154933912 6.1376594156026831 0.49790893495082844 0.49417515099048603 1.4631366580724714 13.045943856239317 0.45282508432865132 6.7650002092123058 0.707782283425331 0.9652428776025771 1.1807035505771635 0.46589016914367654 1.0968600660562504 14.320114225149153 7.4630760848522213 0.69255654513835907 1.4452876597642896 0.46496726572513569 24.051967322826389 3.2744916230440166 12.180667623877524 6.3521119356155387 6.0610012859106064 20.85301385819912 6.4581308662891415 8.878473713994028 9.8564705252647382 4.423536390066146 1.4141930490732182 10.427131056785582 9.9520437568426114 4.8412228375673321 0.47053846716881054 1.5739608556032205 11.739717185497282 4.8745906800031662
leaf_count=9 16 29 5 2 3 83 8 25 18 39 36 25 2 2 6 56 2 32 3 4 5 2 5 65 33 3 6 2 107 14 54 29 26 91 29 40 44 20 6 47 48 21 2 7 53 22
internal_value=0.000317875 0.112893 -0.0920302 -0.0956681 0.0567403 -0.104691 0.0442083 0.0301649 -0.00833347 -0.00104553 0.0548336 0.0472996 0.144458 0.103804 -0.0206353 -0.0955616 -0.0706913 -0.13061 0.0932739 0.101817 0.0881589 0.0527572 -0.0980614 -0.0974176 -0.101019 0.011564 0.0645373 0.0782812 0.135185 0.131854 0.138584 0.132684 -0.114813 -0.0838908 -0.112047 -0.114304 -0.121349 -0.117225 -0.0793925 0.144671 -0.118547 0.123753 0.122779 0.134574 0.139296 0.119779
internal_weight=267.315 120.464 146.851 144.175 34.2379 130.673 29.9647 23.3032 13.5021 13.0242 15.686 14.9481 4.27325 2.67564 7.61727 96.6513 8.84144 34.0219 6.66143 5.95364 4.9884 2.32761 87.8098 86.713 72.2528 1.15845 3.8077 2.36241 86.2262 43.6414 42.5847 30.4041 6.51383 28.3161 43.9367 29.6166 23.1585 14.28 14.4601 16.8669 16.717 26.7745 23.5 18.6588 18.1883 6.44855
internal_count=1186 526 660 649 141 590 123 95 59 57 64 61 18 11 31 427 38 163 28 25 21 10 389 384 322 5 16 10 385 195 190 136 28 124 198 133 104 64 62 76 80 119 105 84 82 29
is_linear=0
shrinkage=0.1


Tree=6
num_leaves=26
num_cat=0
split_feature=11 2 11 9 4 5 4 2 9 4 4 4 9 5 5 3 4 5 5 5 4 5 3 3 9
split_gain=227.411 23.5022 11.1488 7.28422 3.15486 2.69019 1.91481 0.559928 0.367166 0.217269 0.295363 0.171264 0.546164 0.641981 0.161156 0.180238 0.9255 0.0964364 0.509494 3.12267 0.078775 0.0320013 0.00550342 0.0378654 0.004261
threshold=0.70155000000000012 495.68980000000005 0.74035000000000006 0.77455000000000007 67392.500000000015 289.72770000000008 76685.500000000015 415.18055000000004 0.8176000000000001 71711.500000000015 91776.000000000015 87305.500000000015 0.83215000000000006 288.52215000000007 303.38190000000003 190.21295000000001 94026.000000000015 359.02055000000007 315.38450000000006 327.74705000000006 57477.500000000007 328.48340000000007 242.38245000000003 225.72400000000002 0.80750000000000011
decision_type=2 2 2 2 2 2 2 2 2 2 2 2 2 2 2 2 2 2 2 2 2 2 2 2 2
left_child=3 2 5 14 7 -2 -6 -5 -3 -7 -11 12 13 -4 20 -16 -17 18 -8 -20 -1 -14 23 -18 -13
right_child=1 8 11 4 6 9 17 -9 -10 10 -12 24 21 -15 15 16 22 -19 19 -21 -22 -23 -24 -25 -26
leaf_value=0.1417256374420782 -0.0186338643160808 0.098200715507651082 -0.042640151235144128 0.15446140993489371 0.0082245576868183335 -0.085765595069159442 0.096498730153345647 0.0681958806576453 0.16075913283903773 -0.074874924728028813 -0.055141303082162266 -0.1416831710455265 -0.12342090576494864 -0.1106056809813909 0.14072577231815947 0.10583503181180887 0.12499658151958203 0.083839656277221952 -0.0063862112450296217 0.093351659186039451 0.12347909270270628 -0.13733656391578261 0.12646201089177664 0.13625539408989709 -0.13012278248829959
leaf_weight=3.1217781305313137 10.498720124363897 4.6132082790136328 1.7977292686700801 3.8345162421464911 7.997885778546336 12.030821889638899 3.6493407338857713 0.95139178633689869 1.1987800598144529 34.578467801213264 9.8249673694372159 1.0407752245664621 38.034772619605064 6.2676119208335876 2.8852174431085578 41.258370608091354 5.447396516799933 2.7524089664220801 5.1662753373384458 7.9915883243083954 16.094984576106071 2.1853521764278403 4.7653959393501273 11.651700362563131 18.40613654255867
leaf_count=15 45 19 8 17 33 54 15 4 5 155 43 5 189 30 14 189 26 12 21 34 75 11 22 55 90
internal_value=0.000297805 -0.0855822 -0.0940805 0.102912 0.06249 -0.0651275 0.0494564 0.137405 0.111234 -0.0737742 -0.0705156 -0.122685 -0.119411 -0.0954942 0.118247 0.115841 0.114692 0.0663088 0.0634128 0.0542021 0.12648 -0.124194 0.131376 0.132707 -0.130779
internal_weight=258.046 140.477 134.665 117.568 32.3434 66.933 27.5575 4.78591 5.81199 56.4343 44.4034 67.7324 48.2855 8.06534 85.2248 66.0081 63.1229 19.5596 16.8072 13.1579 19.2168 40.2201 21.8645 17.0991 19.4469
internal_count=1186 654 630 532 136 297 115 21 24 252 198 333 238 38 396 306 292 82 70 55 90 200 103 81 95
is_linear=0
shrinkage=0.1


Tree=7
num_leaves=26
num_cat=0
split_feature=11 11 7 3 1 9 9 1 1 3 11 0 4 4 7 7 0 4 9 9 1 1 9 9 9
split_gain=118.485 70.2948 11.0741 11.7781 6.87304 3.29287 2.55477 1.80334 1.69646 1.1034 0.181051 0.236984 0.179495 0.123303 0.0969804 1.76643 0.671686 0.0964818 0.126577 0.131394 0.0896488 0.0492536 0.0383012 0.0336365 0.0388151
threshold=0.73870000000000013 0.66525000000000012 0.99335000000000007 192.80345000000003 1180.8495000000003 0.79765000000000008 0.81355000000000011 988.30300000000011 934.92450000000008 209.35645000000002 0.65610000000000013 91156.500000000015 70783.500000000015 61730.000000000007 0.98885000000000012 0.97430000000000005 102356.50000000001 88888.000000000015 0.83955000000000013 0.8740500000000001 1116.3725000000002 1241.6380000000001 0.87275000000000014 0.79765000000000008 0.82525000000000015
decision_type=2 2 2 2 2 2 2 2 2 2 2 2 2 2 2 2 2 2 2 2 2 2 2 2 2
left_child=1 10 3 -3 6 -6 -5 8 -8 -2 14 -12 13 -11 15 -1 -17 18 23 -20 -4 -22 -19 -14 -25
right_child=9 2 20 4 5 -7 7 -9 -10 12 11 -13 17 -15 -16 16 -18 22 19 -21 21 -23 -24 24 -26
leaf_value=-0.071810360076698623 -0.038495394465513554 0.15164424705560442 0.14005157880348792 -0.017798708948566732 0.050132979811822576 -0.017871860616428991 -0.16386500686196787 -0.067778544687014358 0.03837544990049252 -0.10606296379423696 0.10902280995740521 0.13868037768494698 -0.13755238853491988 -0.12872417867859801 0.13448150010835841 0.13993644002934361 0.06150666292293655 -0.11684090621282245 -0.10909134526459269 -0.089687944676228315 0.19184155774670605 0.16033508817761025 -0.13140969165958363 -0.10641651031357868 -0.12108217553325756
leaf_weight=0.44219903647899528 1.8961924463510502 4.456720992922782 0.9130145907402033 57.29425872862339 20.041306465864185 11.038722217082976 0.47676621377468409 20.659406378865242 2.9776674807071686 3.1010325998067882 8.9604145884513837 4.0203258246183387 0.99710334837436931 14.567784875631331 36.896588891744614 9.9519297033548337 1.2400010675191868 13.620523527264597 15.487001553177835 4.7595488131046286 1.5889818817377093 1.1305525153875349 2.5574542582035056 3.1852396577596647 6.4590089321136475
leaf_count=2 9 21 4 248 89 48 2 97 13 16 43 20 5 76 187 49 6 69 81 26 7 5 14 16 33
internal_value=0.000269555 0.0420213 -0.00235737 -0.0077019 -0.0140217 0.0259801 -0.0292945 -0.0565984 0.0102619 -0.113824 0.129008 0.118259 -0.116027 -0.124779 0.13187 0.123532 0.13128 -0.112728 -0.109327 -0.104554 0.169472 0.179068 -0.119185 -0.118355 -0.116298
internal_weight=248.72 182.089 120.577 116.945 112.488 31.08 81.4081 24.1138 3.45443 66.6309 61.5115 12.9807 64.7347 17.6688 48.5307 11.6341 11.1919 47.0659 30.8879 20.2466 3.63255 2.71953 16.178 10.6414 9.64425
internal_count=1186 841 534 518 497 137 360 112 15 345 307 63 336 92 244 57 55 244 161 107 16 12 83 54 49
is_linear=0
shrinkage=0.1


Tree=8
num_leaves=26
num_cat=0
split_feature=6 4 9 3 4 9 5 4 3 9 9 5 3 4 5 9 9 4 9 3 5 4 4 4 4
split_gain=161.621 10.383 4.88726 2.59547 9.08291 4.48652 2.13782 1.81093 1.80456 1.58996 1.2584 0.96871 3.65929 0.871656 0.812174 0.653069 0.520285 0.353869 0.302977 0.242412 0.163432 0.0518881 0.142199 0.279012 0.0555782
threshold=0.86365000000000014 107924.50000000001 0.84815000000000007 214.38365000000002 80521.500000000015 0.7390500000000001 329.42195000000009 85727.500000000015 218.34655000000004 0.75265000000000015 0.78470000000000006 295.84525000000002 231.40945000000002 67247.000000000015 348.39150000000006 0.76390000000000013 0.8176000000000001 81617.500000000015 0.82525000000000015 231.17450000000005 326.18260000000004 100586.50000000001 90385.500000000015 74312.500000000015 84653.000000000015
decision_type=2 2 2 2 2 2 2 2 2 2 2 2 2 2 2 2 2 2 2 2 2 2 2 2 2
left_child=1 2 8 5 -5 -2 7 -6 15 -8 11 -10 -13 -12 -14 -1 -17 -15 -3 -4 -7 22 23 -21 -25
right_child=3 18 19 4 6 20 9 -9 10 -11 13 12 14 17 -16 16 -18 -19 -20 21 -22 -23 -24 24 -26
leaf_value=-0.14648004637175124 0.12660031826479229 0.19348960565442891 -0.12992132508807294 -0.024620145933596821 0.052243190529650721 0.071025629074564958 0.11494467806277103 -0.11649529229690969 -0.14124160436337613 0.075778269980100066 0.038001002020949678 0.16312589346507569 -0.095647570432145446 -0.094617857338132855 0.049775732235635105 -0.062272521295705256 -0.031257285417719737 -0.078862448658576445 0.31332973183104296 -0.12796689254270749 0.13575183189742004 -0.12881288903137497 -0.12855269579566533 -0.092726672176349806 -0.10734775721634869
leaf_weight=0.64671419560909527 27.531569927930832 0.49637912213802238 10.745258167386053 9.0913262367248517 8.1230229288339579 32.412909612059593 18.767975956201553 0.68527790904045183 0.62044185400009055 23.287656933069229 0.57474596798419852 0.92923264205455813 2.0503339022397999 24.736897930502892 0.46881508827209462 9.6145773977041262 12.413082614541052 34.522430375218391 0.43121296167373657 4.279464930295954 0.396710604429244 1.7421451658010472 3.4594971835613242 7.8858552724122983 4.4293750077486038
leaf_count=3 147 2 61 38 34 150 99 3 3 106 3 4 10 124 2 43 58 168 2 25 2 10 20 44 25
internal_value=0.000263689 -0.0818235 -0.0844226 0.0821804 0.0674313 0.0968281 0.0838855 0.039055 -0.0719958 0.0932689 -0.0805981 -0.0267386 -0.00595764 -0.0842579 -0.068533 -0.0477388 -0.0448065 -0.085447 0.250599 -0.117468 0.0718293 -0.111299 -0.109745 -0.105786 -0.0980281
internal_weight=240.343 120.046 119.119 120.296 59.9553 60.3412 50.8639 8.8083 86.5773 42.0556 63.9029 4.06882 3.44838 59.8341 2.51915 22.6744 22.0277 59.2593 0.927592 32.5416 32.8096 21.7963 20.0542 16.5947 12.3152
internal_count=1186 607 603 579 280 299 242 37 418 205 314 19 16 295 12 104 101 292 4 185 152 124 114 94 69
is_linear=0
shrinkage=0.1


Tree=9
num_leaves=52
num_cat=0
split_feature=6 11 7 11 11 11 11 4 0 4 0 7 11 0 8 8 4 8 7 8 7 8 0 7 7 7 4 8 8 7 8 4 8 8 8 8 8 0 8 7 7 7 8 8 8 4 7 8 7 8 8
split_gain=107.673 27.0965 20.7013 28.5446 4.35283 1.90362 1.74841 1.69378 1.56685 1.02487 1.14318 0.889407 0.882396 1.0055 0.71712 0.817261 0.607944 0.585463 1.77272 2.39585 0.800235 0.530074 0.401073 0.378436 0.56532 1.20864 0.375559 1.61694 0.477145 0.334238 0.322529 0.321704 0.348517 0.28278 1.05617 0.181841 0.274928 0.291635 0.179784 0.227092 0.265298 0.210619 0.0751542 0.419071 0.0643324 0.0585505 0.0231967 0.0156406 0.00809092 1.24332e-06 0.000331094
threshold=0.84495000000000009 0.64995000000000014 0.99145000000000005 0.67875000000000008 0.71425000000000016 0.68310000000000015 0.68235000000000012 105492.50000000001 69980.500000000015 91058.000000000015 79958.500000000015 0.98625000000000007 0.75055000000000016 86747.500000000015 0.63555000000000017 0.72275000000000011 77215.500000000015 0.72275000000000011 0.98845000000000016 0.7047500000000001 0.98945000000000005 0.7359500000000001 78339.000000000015 0.98955000000000015 0.98835000000000006 0.9869500000000001 87824.500000000015 0.7410500000000001 0.74625000000000008 0.98275000000000012 0.71325000000000005 75937.500000000015 0.66555000000000009 0.74735000000000007 0.66900000000000015 0.74545000000000006 0.71745000000000014 75828.500000000015 0.72130000000000016 0.9920500000000001 0.9869500000000001 0.98895000000000011 0.68210000000000004 0.73065000000000013 0.75385000000000013 78954.500000000015 0.98775000000000013 0.70860000000000012 0.99225000000000008 0.77765000000000006 0.74235000000000007
decision_type=2 2 2 2 2 2 2 2 2 2 2 2 2 2 2 2 2 2 2 2 2 2 2 2 2 2 2 2 2 2 2 2 2 2 2 2 2 2 2 2 2 2 2 2 2 2 2 2 2 2 2
left_child=12 11 3 9 6 35 14 26 -6 10 30 31 13 21 16 -16 -5 18 -15 20 -20 38 -7 24 25 -19 42 -28 -29 -14 47 -2 -33 34 -9 36 37 -4 41 40 -40 -1 -8 -44 -32 -10 -23 -3 -48 50 -45
right_child=1 2 5 4 8 22 7 33 45 -11 -12 -13 29 17 15 -17 -18 23 19 -21 -22 46 -24 -25 -26 -27 27 28 -30 -31 44 32 -34 -35 -36 -37 -38 -39 39 -41 -42 -43 43 49 -46 -47 48 -49 -50 -51 -52
leaf_value=-0.07821135008778754 0.13069155849255026 0.11298326486260835 0.14168965482000295 0.027501843333043841 -0.029145353011237597 0.094625764309409055 -0.0155042616107154 0.1586494152519414 -0.083577410698620402 0.13425143035362533 0.042899895279278281 0.12877023178830874 -0.074533586667680868 -0.13626989508601481 0.073623100994388166 -0.039096406427896219 0.15147367893839209 0.043821239178084642 -0.13711154473669451 0.116456328137893 -0.021605351910031826 -0.13849317418409832 0.060086041049980901 -0.10552557003388358 -0.13503080362235509 -0.13513949681157442 -0.021146914691597931 -0.18768154508388118 -0.087683623349810821 -0.10836840370742791 0.088006636744180911 -0.0084990539207365819 0.077751782920272655 0.14973056553342251 -0.052953353003182019 0.14026419453441627 0.13662433308595243 0.094209309750733994 -0.0090827752386489109 -0.1394480469950134 -0.074113781393952055 -0.10168377679202478 -0.039387024171486526 -0.0068683314800632896 0.061821351731407487 -0.097298755052626265 -0.11560517221219294 0.13737991579268993 -0.13290952067251502 -0.0090210553608953987 -0.0084427048421171196
leaf_weight=6.690714821219454 0.72507703304290716 6.6938538700342232 1.6295957714319245 0.71391800045966991 5.5742293447256115 4.80680023133755 10.954573929309847 0.46645502746105083 5.5502619892358771 5.446405664086341 4.8016791343688956 33.45018182694912 3.2252915799617758 1.3586178719997386 1.16270948946476 1.4271788597106931 0.89054796099662781 1.0435008257627489 0.79437342286109958 1.1707372814416883 2.4146479517221451 0.79676708579063316 11.405023515224455 3.0829295814037323 0.58465583622455586 0.58469648659229267 7.0093173682689649 0.68144191801548037 1.6408397108316419 37.056922510266304 3.8018205314874649 0.64046093821525607 1.7273072451353071 0.44839783012866974 0.46815840899944305 3.3869229406118384 3.6648812741041175 6.8213272988796234 0.77940018475055595 0.41300506889820088 3.2547343969345093 9.3626683801412565 10.040138155221941 2.3855196982622138 1.3331265598535535 8.4299115389585477 4.931934729218483 0.39651441574096669 0.5674699842929839 0.49467521905899037 4.496179923415184
leaf_count=34 4 33 8 3 25 21 48 2 28 29 23 193 17 7 5 6 4 5 4 6 12 4 50 16 3 3 30 3 7 222 19 3 9 2 2 17 19 35 4 2 17 50 43 10 7 40 26 2 3 2 19
internal_value=0.000234663 0.0488557 0.0253796 -0.00026648 -0.0348613 0.0943536 -0.0171654 -0.0237509 -0.0740125 0.0964443 0.0843142 0.124019 -0.095348 -0.084345 0.0441537 0.0115465 0.0965783 -0.0588857 -0.0367022 -0.00569216 -0.050372 -0.0948149 0.0703541 -0.0828629 -0.0511157 -0.0206523 -0.0277419 -0.0451459 -0.117374 -0.105669 0.100555 0.0725083 0.0544464 0.0847463 0.052921 0.119419 0.113535 0.103445 -0.0869663 -0.068964 -0.0615804 -0.0919294 -0.0220101 -0.0260955 0.0812783 -0.0918842 -0.120278 0.114446 -0.117513 -0.00798766 -0.00790461
internal_weight=231.679 153.565 117.022 85.3079 62.8345 31.7146 43.2801 39.0857 19.5544 22.4734 17.027 36.543 78.1131 37.8309 4.19435 2.58989 1.60447 11.0342 5.73838 4.37976 3.20902 26.7967 16.2118 5.29578 2.21285 1.6282 37.7027 9.3316 2.32228 40.2822 12.2253 3.09285 2.36777 1.38301 0.934613 15.5027 12.1158 8.45092 20.5005 4.44714 4.03413 16.0534 28.3711 17.4165 5.13495 13.9802 6.29617 7.09037 5.4994 7.37637 6.8817
internal_count=1186 751 542 392 279 150 186 168 93 113 84 209 435 196 18 11 7 56 29 22 16 140 71 27 11 8 162 40 10 239 61 16 12 6 4 79 62 43 107 23 21 84 122 74 26 68 33 35 29 31 29
is_linear=0
shrinkage=0.1


Tree=10
num_leaves=41
num_cat=0
split_feature=6 11 7 10 7 7 4 1 1 8 3 8 3 1 4 8 1 4 8 8 8 4 4 4 1 3 4 3 4 1 1 8 8 4 4 3 3 7 7 7
split_gain=83.2119 55.508 2.88876 2.46148 1.58346 6.35949 4.42138 3.64575 1.10039 2.48245 1.89126 1.09729 0.541925 0.940733 0.436738 0.552693 0.414801 0.386249 0.239071 0.690431 1.20372 0.732157 0.696678 0.980007 0.306877 0.595442 3.17529 0.939959 0.23035 0.263107 0.198451 0.187114 0.109576 0.0703144 0.849995 0.0545149 0.112679 0.0493295 0.21967 0.286141
threshold=0.84265000000000012 0.6926500000000001 0.99065000000000014 2.5155000000000007 0.98140000000000016 0.98915000000000008 65238.500000000007 1007.4140000000001 1023.7325000000002 0.60055000000000003 221.09970000000001 0.67915000000000014 215.16980000000004 1240.4405000000004 86038.500000000015 0.73005000000000009 1145.1950000000004 75144.000000000015 0.73865000000000014 0.70935000000000015 0.73005000000000009 94977.000000000015 73010.000000000015 77215.500000000015 1220.8620000000003 235.21240000000003 75937.500000000015 236.95195000000004 80639.500000000015 1030.8475000000001 1061.7855000000002 0.72825000000000006 0.7198500000000001 93355.500000000015 110935.00000000001 236.17810000000003 222.08885000000001 0.98965000000000014 0.98645000000000016 0.9829500000000001
decision_type=2 2 2 2 2 2 2 2 2 2 2 2 2 2 2 2 2 2 2 2 2 2 2 2 2 2 2 2 2 2 2 2 2 2 2 2 2 2 2 2
left_child=12 2 3 14 -3 6 -6 11 -8 -10 -11 -7 37 17 15 30 -17 -14 19 22 -21 -22 -9 -24 25 26 -20 -27 29 -4 -2 -13 -16 -25 -35 36 -30 38 39 -1
right_child=1 4 28 -5 5 7 8 18 9 10 -12 31 13 -15 32 16 -18 -19 24 20 21 -23 23 33 -26 27 -28 -29 35 -31 -32 -33 -34 34 -36 -37 -38 -39 -40 -41
leaf_value=-0.13962848597840058 0.067869459731229029 -0.1560037223249158 0.1350031170242047 0.12618759823286982 0.063496474609946521 0.041229135759356161 -0.15301324256822757 -0.06525804799780123 0.11240691696464905 -0.1188135306406649 -0.054398403660190275 0.10829654174599045 -0.10488519558165632 -0.031180309770416432 0.089604010576411028 0.070078103359276542 0.12799978730554776 -0.086879543327015307 -0.072311966618228515 -0.013063004819322986 0.11815672164310156 -0.024492460043803448 -0.065270096855849655 -0.0088044055522332049 0.046506477449985845 0.090870761481737783 0.073713646758099119 -0.07152735020590098 0.11151073219144084 0.098820245647968499 0.042528091623207677 0.17019536003680846 0.071370575523778054 -0.0073775708307403723 0.14139452441088826 0.13031627103804155 0.12699759204529953 -0.13182944115378897 -0.13192314549990994 -0.052443366228963589
leaf_weight=0.59165064990520377 4.1954740732908311 0.90945951640605827 2.4820263981819144 8.9657300263643247 2.4669832885265377 3.0107397735118857 1.7743514180183435 3.6175002008676591 0.70877625048160808 7.1094985753297832 12.740431457757948 1.1653600037097933 18.632223054766655 2.5680422484874716 8.1609779596328718 6.4846302568912488 1.5385941863059995 34.14372430741787 2.5557422786951047 5.5167932361364356 1.3487875610589979 0.48775067925453175 3.2026266902685157 7.3221023827791196 1.3674129545688618 0.42255800962448153 3.5533904582262039 2.1484401971101761 11.051452934741979 11.806039050221441 11.995789945125578 0.90988025069236744 5.8348792493343344 3.8942660540342331 0.42099179327487934 5.7822892516851416 9.1448230594396573 2.640150249004364 2.4864710420370102 1.0524293333292005
leaf_count=3 22 4 14 55 11 13 8 17 3 32 59 5 115 13 43 33 9 204 12 25 6 2 15 33 6 2 15 10 65 62 59 4 31 17 2 33 50 15 14 5
internal_value=0.00404944 0.0434366 0.0958345 0.0790233 -0.0253057 -0.0234857 -0.0634427 0.000720645 -0.0774766 -0.0709209 -0.0774944 0.0799105 -0.0936591 -0.0903694 0.0679412 0.0597809 0.0812604 -0.093246 -0.0105204 -0.0156141 0.0102915 0.0802996 -0.0259356 -0.0163303 0.00256439 -0.00437898 0.0126124 -0.0447056 0.115518 0.105152 0.0491144 0.135787 0.0820318 -0.0028383 0.00727981 0.121197 0.118554 -0.12046 -0.113039 -0.0841564
internal_weight=216.211 154.097 87.4427 47.1761 66.6538 65.7444 24.8 40.9443 22.3331 20.5587 19.8499 5.08598 62.1147 55.344 38.2103 24.2145 8.02322 52.7759 35.8584 25.8108 7.35333 1.83654 18.4575 14.84 10.0475 8.68013 6.10913 2.571 40.2666 14.2881 16.1913 2.07524 13.9959 11.6374 4.31526 25.9786 20.1963 6.7707 4.13055 1.64408
internal_count=1146 777 476 252 301 297 113 184 102 94 91 22 369 332 197 123 42 319 162 117 33 8 84 67 45 39 27 12 224 76 81 9 74 52 19 148 115 37 22 8
is_linear=0
shrinkage=0.1


Tree=11
num_leaves=54
num_cat=0
split_feature=11 11 3 6 0 7 7 8 7 5 5 7 7 0 1 3 3 8 0 8 7 0 0 1 0 5 3 0 0 3 3 5 3 3 3 3 5 7 8 7 7 0 3 8 7 8 8 5 3 8 8 8 0
split_gain=106.478 12.2462 1.23388 1.78254 1.37378 3.34899 1.34433 1.07361 7.46145 3.15328 4.04307 2.59928 2.36966 2.16917 0.976252 0.807971 0.800219 0.758018 0.699792 0.691442 0.629673 0.578079 3.97658 0.649328 0.542191 0.492909 0.335265 1.80426 0.327442 1.44262 0.260455 2.70592 1.40862 0.702714 0.826598 2.88442 0.319768 0.206028 0.344075 0.179336 0.214595 0.125364 0.096368 0.174604 0.0681744 0.295714 0.0668728 0.202284 0.0540501 0.0320778 0.0214219 0.419093 0.0140522
threshold=0.69555000000000011 0.73955000000000004 207.50500000000002 0.91305000000000014 89206.000000000015 0.98965000000000014 0.98915000000000008 0.71815000000000007 0.99215000000000009 295.84525000000002 318.82155000000006 0.98545000000000016 0.98855000000000015 93604.500000000015 1243.8875000000003 201.47895000000003 215.90780000000004 0.73755000000000015 75974.500000000015 0.76155000000000006 0.99185000000000012 76815.500000000015 78757.500000000015 1018.3770000000001 74401.000000000015 301.84830000000005 210.77350000000004 87171.000000000015 82391.000000000015 240.43180000000004 249.56890000000001 353.02490000000006 228.89980000000003 234.77640000000005 232.69110000000003 230.42495000000002 326.18260000000004 0.98895000000000011 0.65830000000000011 0.9839500000000001 0.99025000000000007 82847.000000000015 215.62660000000002 0.73755000000000015 0.9829500000000001 0.73505000000000009 0.73915000000000008 299.33435000000003 225.72400000000002 0.74375000000000013 0.65180000000000005 0.62030000000000007 72609.000000000015
decision_type=2 2 2 2 2 2 2 2 2 2 2 2 2 2 2 2 2 2 2 2 2 2 2 2 2 2 2 2 2 2 2 2 2 2 2 2 2 2 2 2 2 2 2 2 2 2 2 2 2 2 2 2 2
left_child=2 7 6 4 5 17 18 8 14 -10 -11 26 16 41 21 -14 -13 -4 44 42 37 23 -23 -2 39 -17 -9 -28 48 -30 32 -32 -27 34 35 -34 -35 38 -6 -3 -41 -12 -7 -44 45 -1 47 -8 -18 -22 51 -39 -48
right_child=1 24 3 -5 20 19 46 11 9 10 13 12 15 -15 -16 25 28 -19 -20 -21 49 22 -24 -25 -26 30 27 -29 29 -31 31 -33 33 36 -36 -37 -38 50 -40 40 -42 -43 43 -45 -46 -47 52 -49 -50 -51 -52 -53 -54
leaf_value=0.011861690860256959 -0.045936363208267106 -0.078309877327780539 -0.0062740236309711192 0.12285328933407527 0.13137432431553453 0.067084732070991762 0.10139549697606197 0.019859668337959921 0.34098734248851026 -0.17253261385197946 0.20835447490503403 -0.020718643136419568 0.076880870703491019 0.0071863704973581842 0.0099815957975977684 -0.042855763522056042 -0.10137056227860911 0.076955677103983711 0.12575596677561038 0.15865858631771559 0.11002546389319712 0.10792994918204826 -0.063602958353114344 -0.083076742928298974 -0.087064051747032287 0.031750064646845613 0.045256744681098367 0.28472946130159904 -0.17624476854272175 -0.028616760181404511 0.2225267938158694 -0.018267919122971928 -0.1786114373878068 -0.0030695331239937529 -0.069203960970113276 0.11734767907877915 -0.074964544564565236 0.081949957238725765 0.07332956362414908 -0.12383388432418824 -0.1014758793658273 0.14756215553882737 0.08802428272075638 0.042876040332928592 0.068899215922854876 0.12357342652784148 0.13573024627250715 0.12504699764819407 -0.13248691888486427 0.12739395026964509 0.071336327528046736 -0.0063406914993080973 0.1229719518497686
leaf_weight=0.85507124662399181 7.0685379654169109 1.8171787261962915 7.5278457403183001 7.8152788132429114 1.6093140095472351 6.5116572082042721 6.4840483516454723 0.46249647438526409 0.40883898735046287 0.67220453917980183 0.49685914814472232 2.6260130703449267 1.1215912103652979 1.6072549074888227 2.0804766267538062 3.7295710146427181 1.8863741755485537 1.2752358466386793 2.425336927175521 1.0987850725650776 5.7481902241706839 1.5184257030487049 11.992663681507109 14.244868770241736 28.671945676207542 4.9585103541612607 1.0473226159811018 0.44637668132781971 0.88100524246692691 2.6294093579053879 0.55663982033729498 2.7562542408704758 0.43406917154789004 0.7474931627511977 1.029037222266197 1.3136652857065199 3.608859047293663 2.1483097970485692 2.8813602179288864 8.2061616480350512 9.5917330235242826 1.5029011964797971 8.1878560930490458 0.97445304691791612 9.0747923702001554 0.32367652654647827 2.390895038843154 8.8284386694431287 0.9316066801548003 1.6587993055582044 5.076261967420578 0.71518653631210316 3.3309444338083267
leaf_count=5 32 10 33 52 9 33 38 2 2 3 2 12 5 7 9 18 9 6 15 5 35 7 57 70 183 22 5 2 4 13 3 12 2 4 5 6 17 13 15 54 65 7 40 5 51 2 13 56 5 10 30 4 22
internal_value=0.00380184 -0.0568358 0.0882244 0.0787225 0.0711149 0.0557748 0.103212 -0.0309204 -0.0414354 0.0773412 0.0517799 -0.0168827 -0.0243618 0.0937682 -0.0565325 -0.00541846 -0.0671847 0.00581793 0.0774278 0.081984 0.0908725 -0.0605075 -0.0442915 -0.0707736 -0.0958778 -0.0102623 0.0945655 0.117543 -0.086432 -0.0658694 -0.00235875 0.0224608 -0.00916664 -0.0376139 0.00169976 0.043534 -0.0626496 0.0770494 0.0942575 -0.108735 -0.111817 0.163157 0.076559 0.0832503 0.0659392 0.0429429 0.118731 0.115069 -0.11188 0.114001 0.0672615 0.0599205 0.12842
internal_weight=207.988 121.046 86.9417 53.2285 45.4133 25.5758 33.7132 72.7593 41.593 4.68806 4.27922 31.1663 29.2101 3.60702 36.905 20.2557 8.95441 8.80308 12.6789 16.7728 19.8374 34.8245 13.5111 21.3134 48.287 19.1341 1.9562 1.4937 6.3284 3.51041 15.4045 3.31289 12.0916 7.13312 2.77677 1.74773 4.35635 12.4304 4.49067 19.6151 17.7979 1.99976 15.674 9.16231 10.2535 1.17875 21.0343 15.3125 2.81798 7.40699 7.93976 2.8635 5.72184
internal_count=1146 654 492 290 238 122 202 342 196 21 19 146 137 16 175 94 43 39 73 83 116 166 64 102 312 89 9 7 31 17 71 15 56 34 13 8 21 71 24 129 119 9 78 45 58 7 129 94 14 45 47 17 35
is_linear=0
shrinkage=0.1


Tree=12
num_leaves=41
num_cat=0
split_feature=11 6 11 0 9 2 1 1 8 0 8 2 0 0 8 0 8 0 2 2 0 2 2 1 8 6 4 0 0 1 1 1 1 2 2 8 0 2 2 8
split_gain=73.0455 25.9173 13.4093 2.15515 1.94203 1.21936 0.822321 1.66713 0.668435 0.737028 0.569431 0.889009 1.01205 1.53247 0.834694 3.16517 1.26989 0.781251 0.495809 1.39114 0.495554 2.78431 0.742359 0.291458 0.284117 0.0735719 0.157448 0.019523 0.148467 0.11913 0.0121244 0.128101 0.361709 0.0102354 1.54216 0.562648 0.386508 0.262523 0.541921 0.131452
threshold=0.66615000000000013 0.87495000000000012 0.7349500000000001 113593.00000000001 0.83085000000000009 419.53420000000011 1168.5380000000002 984.76400000000012 0.7470500000000001 75590.000000000015 0.7430000000000001 390.94375000000008 64572.000000000007 73351.500000000015 0.7279500000000001 65765.500000000015 0.73935000000000006 69669.500000000015 424.14920000000001 540.59375000000011 85230.500000000015 432.82335000000006 513.92205000000013 1115.2040000000004 0.69055000000000011 0.91635000000000011 65501.000000000007 98843.000000000015 75828.500000000015 1196.5635000000002 1039.0020000000002 1017.3730000000002 997.94400000000007 426.87660000000011 492.95055000000008 0.70030000000000014 62469.000000000007 441.54340000000008 427.78435000000007 0.69415000000000016
decision_type=2 2 2 2 2 2 2 2 2 2 2 2 2 2 2 2 2 2 2 2 2 2 2 2 2 2 2 2 2 2 2 2 2 2 2 2 2 2 2 2
left_child=25 2 4 30 10 -3 7 -6 9 -9 14 -12 -13 -14 33 -16 17 -17 -7 20 21 -20 -22 -23 -11 26 -1 28 -28 -30 31 32 -4 36 35 37 -2 38 -35 -36
right_child=1 5 3 -5 6 18 -8 8 -10 24 11 12 13 -15 15 16 -18 -19 19 -21 22 23 -24 -25 -26 -27 27 -29 29 -31 -32 -33 -34 34 39 -37 -38 -39 -40 -41
leaf_value=0.089106208234313991 0.00050340450139978773 0.10299593321344214 -0.10695451402218503 0.20067691195012571 0.18563930351363922 0.14777307891876065 0.11425715765691302 -0.073019014927928533 0.11009445457282814 -0.0046111734505470611 0.087478023636264418 0.14027080596371186 -0.087095809151933531 0.00085013583151487141 0.20034660673092183 -0.13993896725625585 0.027085694254179345 -0.034591013692350743 -0.10250230549870619 0.12686054475500594 0.035307209991395382 0.051082123124534265 0.09412074614192617 0.023853378551178549 0.098310090976080011 0.12030937994858777 0.12519767952437369 0.12055739472717386 0.096001634952027362 0.11387784361064862 -0.089671566369777633 -0.078700956621816906 -0.071068580526152073 -0.13155898287850307 0.044228503056190832 -0.067120190375727987 -0.046748344620645636 -0.024445894832128598 -0.038915094414914871 -0.00077849501724162298
leaf_weight=2.9883501827716854 2.0146891921758643 3.3601142764091483 11.253446236252787 0.24986501038074393 0.49665646255016271 0.41456755995750327 1.121180787682533 1.5677940100431449 0.39481280744075764 0.75770960748195626 0.91220079362392326 0.3995937705039968 2.6259689480066291 8.0225711911916715 0.69020697474479575 0.81771348416805079 3.4398928731679916 4.9317944794893265 1.6113869249820805 1.6734373122453678 9.3144624233245832 6.7137266993522671 2.7898181229829779 9.5271906405687314 0.40960308909416199 14.923409417271612 6.6666864156723085 4.6773981302976599 6.2952919900417355 10.357659906148909 32.239294767379761 4.7219389975070944 3.8080194145441046 0.73696139454842224 2.0948494821786876 7.894316464662551 12.260488316416739 9.7666300684213621 4.3143254965543747 0.93796527385711659
leaf_count=20 9 19 76 1 2 2 5 8 2 4 4 2 13 36 3 4 16 22 8 10 47 31 16 42 2 107 42 33 39 69 213 33 26 4 9 38 60 45 20 4
internal_value=0.00356275 -0.0293878 -0.0517545 -0.0896642 -0.0219991 0.0457105 0.0396053 0.0163963 -0.0107077 -0.0283204 -0.0267303 -0.00712783 -0.0149765 -0.0208669 -0.0314272 -0.0053915 -0.0209466 -0.0496853 0.039688 0.0382477 0.0332768 0.0226741 0.0488972 0.0351225 0.0317554 0.114291 0.111373 0.113732 0.112337 0.107152 -0.0910781 -0.0933463 -0.0979091 -0.0378527 -0.0366091 -0.0455525 -0.0400807 -0.0340423 -0.0525513 0.0303256
internal_weight=200.194 154.285 118.88 52.2726 66.6079 35.4047 4.74776 3.62658 3.12992 2.73511 61.8602 11.9603 11.0481 10.6485 49.8998 9.87961 9.1894 5.74951 32.0446 31.63 29.9566 17.8523 12.1043 16.2409 1.16731 45.9088 30.9854 27.997 23.3196 16.653 52.0227 19.7834 15.0615 40.0202 25.745 22.7122 14.2752 14.8179 5.05129 3.03281
internal_count=1146 836 661 349 312 175 23 18 16 14 289 55 51 49 234 45 42 26 156 154 144 81 63 73 6 310 203 183 150 108 348 135 102 189 120 107 69 69 24 13
is_linear=0
shrinkage=0.1


Tree=13
num_leaves=30
num_cat=0
split_feature=6 6 5 9 4 4 4 3 9 3 0 9 3 3 3 4 0 4 4 2 4 2 5 8 0 4 4 3 9
split_gain=37.7912 44.2651 4.80927 1.50612 5.00793 1.53042 1.09507 7.15708 4.34642 1.19485 0.658413 0.873636 0.570773 0.737388 1.79281 0.447018 0.761358 0.36982 0.425313 0.277365 0.908361 0.878015 0.561184 0.230524 0.194555 0.151029 1.28007 0.144432 0.00915184
threshold=0.83335000000000015 0.87635000000000007 271.91130000000004 0.8176000000000001 108947.50000000001 95572.500000000015 77106.000000000015 203.15660000000003 0.72875000000000012 200.22525000000002 88317.500000000015 0.75355000000000005 250.23920000000001 240.78820000000005 217.31085000000004 96960.500000000015 70507.500000000015 89828.500000000015 98340.500000000015 402.94820000000004 100358.00000000001 452.05690000000004 287.10650000000004 0.74935000000000007 84051.000000000015 94559.500000000015 77561.500000000015 225.72400000000002 0.8368000000000001
decision_type=2 2 2 2 2 2 2 2 2 2 2 2 2 2 2 2 2 2 2 2 2 2 2 2 2 2 2 2 2
left_child=3 2 23 5 15 12 7 9 -8 -4 24 -12 13 14 -1 16 -5 -13 -19 -3 21 22 -21 -2 -10 26 -18 -16 -9
right_child=1 19 6 4 -6 -7 8 28 10 -11 11 17 -14 -15 27 -17 25 18 -20 20 -22 -23 -24 -25 -26 -27 -28 -29 -30
leaf_value=0.13149643286096771 0.089792270429523716 0.12183202575974091 0.023041804937790813 -0.10942854561625254 0.23335490298948536 0.18605944309037442 0.28581950557791896 -0.062229837883292775 -0.030011738734825624 0.14653397177256605 0.17422718395703465 0.051667992456704538 -0.12033434442610075 -0.12038663897254663 -0.12023389238587363 -0.12094373260706544 -0.042505011457972447 -0.029880427426766321 0.0011650697933207454 0.079949024548626013 0.10979102817392386 0.081428272157489087 0.036162589791439118 0.15931050483602213 -0.050232268399481798 -0.043103936757945216 -0.096729169170016546 -0.042258743343938296 -0.055398578554876968
leaf_weight=0.74572531878948289 1.8682263940572732 1.6208295375108708 1.3425271362066262 10.871379777789118 0.47403280436992545 0.31862179934978474 0.45086663961410423 26.27869072556496 15.011301204562189 1.8849892467260358 0.24611546099186199 0.8266430944204356 0.71913112699985493 0.5804225206375121 0.29818437993526448 4.7467879131436339 6.4994989559054437 10.266449406743051 7.734200805425643 4.5982638150453559 8.9110280871391279 52.16743478924036 8.0931172519922239 0.65819512307643879 7.0014843493700019 1.2754453346133221 13.265739895403383 1.1619097888469694 2.6474846601486197
leaf_count=4 9 11 6 84 2 2 2 132 73 8 1 4 5 4 2 34 48 50 34 31 64 329 41 3 34 9 98 7 15
internal_value=0.00337062 0.0263966 -0.0273432 -0.0818557 -0.0880094 -0.0220594 -0.031997 -0.0458526 -0.0212668 0.0952858 -0.0246714 -0.0110665 -0.0412191 -0.0206147 0.00584451 -0.0921966 -0.0879018 -0.0135351 -0.0165439 0.0807238 0.0798122 0.075685 0.0520535 0.108189 -0.0364538 -0.0767552 -0.0789144 -0.0585499 -0.0616148
internal_weight=192.565 151.608 76.2172 40.9569 37.1329 3.82399 73.6908 32.1537 41.5371 3.22752 41.0862 19.0734 3.50537 2.78624 2.20582 36.6589 31.9121 18.8273 18.0007 75.3907 73.7698 64.8588 12.6914 2.52642 22.0128 21.0407 19.7652 1.46009 28.9262
internal_count=1146 847 371 299 275 24 359 161 198 14 196 89 22 17 13 273 239 88 84 476 465 401 72 12 107 155 146 9 147
is_linear=0
shrinkage=0.1


Tree=14
num_leaves=48
num_cat=0
split_feature=6 10 7 10 7 10 1 0 7 5 1 5 0 0 5 0 1 1 7 7 0 0 1 1 0 7 5 5 0 0 0 0 0 0 7 0 0 0 0 0 0 7 5 5 7 7 7
split_gain=63.1494 8.909 8.57376 4.82718 8.9023 2.23946 1.53798 1.26897 0.676651 0.891583 0.654921 0.587822 0.921308 0.558435 0.479131 0.384541 0.329841 0.640012 0.32544 0.266345 0.405418 1.39959 0.260104 0.236156 0.175329 0.152738 0.361671 0.519521 0.145833 0.119301 0.0983064 0.0767758 0.0631426 0.0527863 0.039453 0.0354185 0.0312356 0.0732214 0.03341 0.0297597 0.273253 0.0272101 0.0231533 0.014402 0.00104053 0.104674 1.07923
threshold=0.87765000000000015 2.2721500000000003 0.99115000000000009 1.6959500000000001 0.99135000000000006 1.7966000000000002 1157.2575000000002 84194.500000000015 0.9910500000000001 339.26985000000008 1191.7550000000003 355.26565000000005 109156.00000000001 72703.500000000015 323.38155000000006 79958.500000000015 1299.3625000000002 1336.7440000000004 0.98220000000000007 0.98855000000000015 79060.500000000015 88933.500000000015 1054.8200000000002 1044.3250000000003 67788.500000000015 0.98805000000000009 303.74680000000006 340.41255000000007 64284.000000000007 91367.000000000015 68826.500000000015 76711.500000000015 69669.500000000015 82847.000000000015 0.98975000000000013 91701.000000000015 83420.000000000015 88812.000000000015 83729.500000000015 84051.000000000015 87772.500000000015 0.98895000000000011 302.73910000000006 332.78575000000006 0.99095000000000011 0.98755000000000015 0.98220000000000007
decision_type=2 2 2 2 2 2 2 2 2 2 2 2 2 2 2 2 2 2 2 2 2 2 2 2 2 2 2 2 2 2 2 2 2 2 2 2 2 2 2 2 2 2 2 2 2 2 2
left_child=3 2 8 18 5 10 7 24 9 19 13 28 -13 -5 22 30 -8 -18 23 20 -2 -22 -15 -1 -7 -20 -27 -28 -6 31 -4 -30 -32 -21 -12 36 -16 38 -38 -33 -41 -11 -3 -17 45 46 -44
right_child=1 42 15 4 11 6 16 -9 -10 41 34 12 -14 14 35 43 17 -19 25 33 21 -23 -24 -25 -26 26 27 -29 29 -31 32 39 -34 -35 -36 -37 37 -39 -40 40 -42 -43 44 -45 -46 -47 -48
leaf_value=-0.010458793141290671 -0.0028248117786680671 0.11859238410698486 0.13061888475282485 -0.11862019976573797 0.058776760627816428 -0.038139252224306919 -0.020349256895053625 -0.12878344275731166 0.12403261911212622 0.056519216577095382 -0.019679480240847431 -0.035401055743312385 0.13079999471854864 -0.11621983458690405 -0.11589603091829358 0.1367187884152552 0.13674009338855692 -0.034268435740418483 -0.1172158546326704 -0.0012312914418691288 -0.076723975612692383 0.13031382166420069 -0.027230958472148927 -0.11773233294873511 -0.052168177166951817 -0.11472360652369853 -0.060419031722443062 -0.11537630939092945 0.03519250553486216 0.0017790338090236371 0.12545085608988404 0.02779909618741086 0.078902577419593778 0.017792882629418593 -0.046831284424097647 -0.1179120183196786 -0.11507284856979579 -0.11760262787243217 -0.075251600854435163 -0.00089055967666648605 0.048098055114719693 0.038602599356658218 -0.024664309346173557 0.12429109577727518 0.10974030755180722 0.11761150461553971 0.12147328062399845
leaf_weight=0.78635025024414307 4.1297563910484447 7.4865633100271216 0.52177727222442438 5.3167897835373861 1.3642445504665435 12.859793581068514 17.709980636835102 2.0315442979335776 0.45365835726261039 1.4494257122278207 0.98537114262580816 3.0795580595731731 0.36900974810123433 0.38358530402183566 0.49833688884973559 2.2897655814886093 0.3909650593996038 0.48557546734809875 2.8685019537806502 8.1681178659200651 2.6294916421175007 0.3680504411458968 2.1691014394164085 0.27342863380908966 29.672670006752014 4.2613468244671804 5.3145995140075684 2.561115063726902 7.4933553636074128 1.9932693243026722 0.33561928570270572 4.1184174567460996 3.2836809158325195 1.7701351344585408 1.205817252397537 0.66181489825248707 0.25261029601097185 0.65862250328063954 2.3368741497397423 3.2494627609848976 1.7471344918012617 2.252742737531662 0.60110583901405634 4.2836934924125671 13.406210348010061 12.049788668751715 3.1122281178832054
leaf_count=4 22 57 3 41 8 63 85 12 3 9 7 15 2 3 4 12 2 2 23 41 12 2 16 2 155 38 43 22 44 10 2 21 17 10 8 5 2 5 18 16 9 14 3 28 108 96 22
internal_value=0.00314376 0.0793362 0.0407151 -0.0414879 -0.0333883 -0.0496908 -0.0415539 -0.051632 0.00389088 0.00123646 -0.0851774 0.0206536 -0.0174487 -0.0941668 -0.0754151 0.113612 -0.0173818 0.0423323 -0.0923988 -0.00841645 -0.0231615 -0.051123 -0.0408104 -0.0385738 -0.0479318 -0.0961851 -0.0911671 -0.0783546 0.0272382 0.0249092 0.0894956 0.0276828 0.0833906 0.00216285 -0.034701 -0.0953812 -0.0912449 -0.0872856 -0.0793567 0.0214916 0.0162669 0.0456881 0.112974 0.128723 0.111511 0.112981 0.0978113
internal_weight=185.691 68.5918 31.9359 117.099 101.034 77.6195 63.1505 44.564 21.2214 20.7677 14.4689 23.4145 3.44857 12.2777 6.96095 10.7145 18.5865 0.876541 16.0653 17.0656 7.1273 2.99754 2.55269 1.05978 42.5325 15.0056 12.1371 7.87571 19.9659 18.6016 4.14108 16.6084 3.6193 9.93825 2.19119 4.40826 3.74644 3.24811 2.58948 9.11501 4.9966 3.70217 36.6559 6.57346 29.1693 15.7631 3.71333
internal_count=1146 461 175 685 553 428 319 230 113 110 109 125 17 94 53 62 89 4 132 87 36 14 19 6 218 126 103 65 108 100 22 90 19 51 15 34 29 25 20 46 25 23 286 40 229 121 25
is_linear=0
shrinkage=0.1


Tree=15
num_leaves=43
num_cat=0
split_feature=10 10 0 7 8 10 6 2 0 8 7 7 8 8 2 7 8 1 3 1 7 1 2 0 8 7 1 7 7 7 8 0 8 0 8 8 7 7 8 8 8 8
split_gain=56.3709 30.3375 2.63732 6.06609 2.05112 2.01795 1.73532 2.60789 4.50885 2.57175 0.986487 2.48541 1.34304 0.827189 0.777787 0.776662 0.585045 0.489905 1.21131 0.567044 0.384806 0.375936 0.374361 0.975876 0.330393 0.278127 0.264828 0.175972 0.390487 0.134287 0.131746 1.64417 1.52844 0.12477 0.12328 0.118051 0.16197 1.02913 0.116177 0.333026 0.0684877 0.344142
threshold=1.9124500000000002 2.1754500000000001 92696.000000000015 0.98965000000000014 0.75900000000000012 1.8691500000000001 0.89760000000000006 490.70120000000003 74401.000000000015 0.73825000000000007 0.98665000000000014 0.98945000000000005 0.63335000000000008 0.73180000000000012 493.72855000000004 0.98865000000000014 0.70300000000000007 1124.2465000000004 239.06410000000002 1077.3195000000003 0.98775000000000013 1002.9355000000002 442.88430000000005 99500.000000000015 0.69955000000000012 0.98315000000000008 1270.9240000000002 0.9849500000000001 0.98360000000000014 0.99145000000000005 0.73535000000000006 103083.00000000001 0.72355000000000014 95329.000000000015 0.69415000000000016 0.72415000000000007 0.99055000000000015 0.98625000000000007 0.71605000000000008 0.74140000000000017 0.74515000000000009 0.72825000000000006
decision_type=2 2 2 2 2 2 2 2 2 2 2 2 2 2 2 2 2 2 2 2 2 2 2 2 2 2 2 2 2 2 2 2 2 2 2 2 2 2 2 2 2 2
left_child=5 2 3 24 10 17 7 8 35 16 -4 15 -13 29 22 -12 -10 19 -19 21 26 -1 -7 -24 27 -26 -8 28 -2 -14 31 33 -33 -20 -29 36 37 -3 -21 -40 41 -5
right_child=1 6 4 40 -6 14 20 -9 9 -11 11 12 13 -15 -16 -17 -18 18 30 38 -22 -23 23 -25 25 -27 -28 34 -30 -31 -32 32 -34 -35 -36 -37 -38 -39 39 -41 -42 -43
leaf_value=-0.096031412065970795 0.009582123363523716 -0.036383729462979124 0.14673273175422091 0.015862927234106993 -0.1400136305762337 -0.047160605975606354 0.09995305858549404 0.12314908517781249 -0.10603536541321097 0.13964095042324107 -0.02835449273239048 -0.01191907272360072 0.090723996869202073 0.14442999590414293 -0.163350857682349 -0.18604371721094251 -0.0039495945486740279 0.1006030266055936 -0.074810785970151686 -0.12106470033830229 0.11594189825601142 -0.072752575655584933 0.0048975832961095159 -0.14986037410106123 -0.13489293377033582 -0.063330631910604326 0.051743368608623747 -0.045179594165493414 -0.085636366756935769 0.048736843036725389 -0.087300414976047014 0.080425239087200506 -0.12704481788365743 -0.097558444051842927 -0.08536259181564243 0.12786022155606264 0.12448791255303249 0.13060048462984303 -0.11892712931506476 -0.063917033747256977 0.021699405870972539 -0.015346984194871916
leaf_weight=11.839699655771257 1.5465466082096129 0.56679119169711922 0.99487452208995542 21.814935415983204 0.58140136301517564 7.6792514324188197 4.8438453525304785 5.181971088051796 2.4542506933212289 0.61681669950485218 1.050760880112646 1.6746711134910581 1.1266341954469683 1.8636441826820371 0.47711117565631944 0.44106003642082203 0.72836752235889424 0.40428644418716686 8.502812787890436 5.0155327618122083 28.498046584427357 17.136359214782715 4.0258505195379257 0.44829313457012165 0.57683613896369834 9.4049892574548704 1.5154411718249319 9.486874565482136 0.5913659781217574 2.4417147040367126 5.098170354962348 1.2601680755615223 0.48871313035488118 3.4959448203444472 0.83500652015209276 1.4880646169185636 0.95220878720283497 1.0427842140197752 3.0191391929984093 1.7677684500813482 7.4365407079458228 4.2110289111733428
leaf_count=94 7 3 5 104 3 41 37 35 13 3 5 8 5 10 2 2 4 2 61 36 244 130 20 2 3 46 12 46 3 12 38 7 3 24 4 9 6 6 23 13 35 19
internal_value=-0.00480314 0.0387048 -0.00521817 -0.013742 0.0415974 -0.0749759 0.0993062 0.0681221 0.0317368 -0.0464807 0.0526728 0.0417089 0.0663412 0.0904602 -0.0387284 -0.0754521 -0.08272 -0.0828613 -0.0697657 -0.0893518 0.110952 -0.0822799 -0.0337696 -0.0107552 -0.0539601 -0.0675332 0.0885167 -0.0430624 -0.0168873 0.0621063 -0.073447 -0.0682786 0.0222432 -0.0814777 -0.0484716 0.105089 0.0916316 0.071859 -0.110202 -0.0987035 0.0132338 0.0108106
internal_weight=184.627 113.967 66.0789 55.9041 10.1748 70.6591 47.8886 13.0313 7.84928 3.79943 9.59336 8.59849 7.10666 5.43199 12.6305 1.49182 3.18262 58.0286 19.2501 38.7785 34.8573 28.9761 12.1534 4.47414 22.4416 9.98183 6.35929 12.4598 2.13791 3.56835 18.8458 13.7476 1.74888 11.9988 10.3219 4.04985 2.56178 1.60958 9.80244 4.78691 33.4625 26.026
internal_count=1185 689 317 267 50 496 372 79 44 20 47 42 35 27 65 7 17 431 135 296 293 224 63 22 109 49 49 60 10 17 133 95 10 85 50 24 15 9 72 36 158 123
is_linear=0
shrinkage=0.1


Tree=16
num_leaves=41
num_cat=0
split_feature=6 9 9 6 7 5 7 7 7 1 1 7 4 4 1 5 7 8 1 8 5 8 8 5 4 5 8 8 8 1 7 4 8 8 8 8 8 8 8 5
split_gain=56.2025 9.84095 3.52469 6.13334 2.02818 2.21974 4.69924 3.83136 7.33268 1.9349 1.29949 0.733225 0.541818 3.32588 0.419638 0.335829 4.34678 0.30966 0.293093 1.98348 0.853587 0.579865 0.1992 0.172719 0.159272 0.149568 0.78247 0.197647 1.00253 0.124965 0.199509 0.115091 0.0882195 0.0765886 1.05134 0.200355 1.87835 0.0575641 0.286068 0.0553856
threshold=0.86415000000000008 0.74975000000000014 0.75195000000000012 0.86145000000000016 0.98315000000000008 294.85805000000005 0.99265000000000014 0.98525000000000007 0.99115000000000009 1213.5870000000002 1336.7440000000004 0.98475000000000013 81617.500000000015 78428.000000000015 1130.3980000000004 318.56980000000004 0.98725000000000007 0.73180000000000012 1184.3970000000002 0.7541500000000001 315.82320000000004 0.72495000000000009 0.69055000000000011 280.93470000000008 56217.500000000007 341.6977500000001 0.69335000000000013 0.52110000000000012 0.7541500000000001 1078.4295000000002 0.98895000000000011 74405.500000000015 0.73330000000000017 0.73795000000000011 0.65720000000000012 0.7410500000000001 0.75295000000000012 0.74485000000000012 0.74375000000000013 354.75460000000004
decision_type=2 2 2 2 2 2 2 2 2 2 2 2 2 2 2 2 2 2 2 2 2 2 2 2 2 2 2 2 2 2 2 2 2 2 2 2 2 2 2 2
left_child=2 15 11 10 -3 24 7 -7 31 23 18 17 13 -10 -8 29 25 -1 20 21 22 -20 -4 -5 -6 27 -27 -17 -29 30 32 -9 -2 34 -22 -35 -37 38 -24 -11
right_child=1 4 3 9 5 6 14 8 12 39 -12 -13 -14 -15 -16 16 -18 -19 19 -21 33 -23 37 -25 -26 26 -28 28 -30 -31 -32 -33 -34 35 -36 36 -38 -39 -40 -41
leaf_value=-0.0063087249543805225 0.058030334875396827 -0.18602348054349752 -0.054701894079226654 0.049719418976579478 0.11943342871638206 -0.11535937356235917 0.16360270729302651 -0.026809892220092047 0.1023412947391405 0.12457965258021796 0.16136101858228025 0.16880052003383605 0.090422675100960248 -0.044272313080639156 0.097770014749344908 0.10791726241896936 0.11431680663009047 0.1059025869424296 -0.052384160562780113 0.10208557468277256 -0.017180542712244253 -0.099476369091278175 -0.069014481646226269 -0.0021381513948568352 0.074593842681996411 0.11480572807951091 -0.059194987334868492 -0.056662780866853626 0.12969924014966447 0.11610747926774495 0.11402266968335917 -0.010617136651499553 0.11424663386252523 -0.11885282674097558 -0.09873809582037324 -0.106697320365439 0.0025195660076860905 -0.06090166961772514 -0.12285682906483719 0.17273642893286278
leaf_weight=0.70348376035690197 1.4411392435431505 0.43427418172359367 15.051030188798903 0.72964726388454337 0.91719440370798011 2.2421588599681845 1.5593261867761601 5.6519765704870251 4.5466995388269416 0.69140565395355202 0.23860269784927268 0.62649740278720845 8.4257980883121473 2.3403375595808029 2.6647402495145798 0.1035154759883915 13.632435858249663 0.37249298393726349 9.2099378034472412 0.73968996107578355 1.7553363144397796 3.6664877980947503 19.575484961271293 5.1014034003019333 6.611198365688324 0.47480278462171532 0.55541901290416718 2.0228676497936253 0.3317049741744994 9.8670632764697057 2.3829837217926979 19.694364532828331 0.35374363511800755 1.1014148145914058 16.131847389042377 5.0727727338671684 2.2818204388022423 6.75504545867443 1.0448699221014965 0.48009400069713593
leaf_count=4 11 2 99 3 7 10 7 27 24 3 1 3 51 11 17 1 130 2 53 4 10 25 144 25 38 4 4 12 2 87 22 98 3 9 117 35 15 55 8 2
internal_value=-0.00446546 0.0534215 -0.0591354 -0.0618443 0.0280105 0.0297284 0.0216679 0.011752 0.0187753 0.027995 -0.0694597 0.0832256 0.0734 0.0525211 0.122241 0.0983253 0.0888365 0.0328337 -0.0701381 -0.0566709 -0.0728001 -0.065828 -0.0640011 0.00438525 0.0801345 -0.0107581 0.0211497 -0.0241532 -0.0301827 0.109855 0.0949639 -0.0142332 0.0694052 -0.0869555 -0.0907425 -0.0788941 -0.0728311 -0.0691024 -0.0717727 0.144979
internal_weight=177.583 86.2537 91.3294 89.6269 55.0881 54.6538 47.1254 42.9013 40.6592 7.00255 82.6243 1.70247 15.3128 6.88704 4.22407 31.1657 17.1207 1.07598 82.3857 13.6161 68.7696 12.8764 42.4264 5.83105 7.52839 3.48831 1.03022 2.45809 2.35457 14.0449 4.17787 25.3463 1.79488 26.3432 17.8872 8.45601 7.35459 27.3754 20.6204 1.1715
internal_count=1185 568 617 608 292 290 245 221 211 33 575 9 86 35 24 276 153 6 574 82 492 78 306 28 45 23 8 15 14 123 36 125 14 186 127 59 50 207 152 5
is_linear=0
shrinkage=0.1


Tree=17
num_leaves=33
num_cat=0
split_feature=6 8 10 9 9 1 9 5 5 5 5 5 1 1 1 9 0 5 0 1 9 0 0 1 8 8 1 0 1 1 0 5
split_gain=50.0434 5.88618 5.0267 5.0298 1.9447 1.09461 0.970642 0.915903 0.592882 0.526093 0.376133 0.829108 1.99159 0.282969 2.51688 2.36835 1.33694 1.76296 0.267105 1.09706 0.202132 0.169168 0.184273 0.098002 0.338528 0.551594 0.0816647 0.0585498 0.022317 0.0149437 0.00767748 0.00395852
threshold=0.86085000000000012 0.61135000000000017 2.4604500000000002 0.77015000000000011 0.75655000000000017 1305.8930000000003 0.81715000000000015 320.1207500000001 306.63170000000008 343.54650000000004 333.15095000000008 320.1207500000001 1035.8175000000003 1255.6365000000003 1246.4760000000003 0.76305000000000012 70166.000000000015 316.34185000000008 66619.000000000015 1092.5985000000003 0.81570000000000009 103083.00000000001 77815.500000000015 1244.6805000000002 0.73245000000000016 0.75385000000000013 1183.162 91156.500000000015 1096.4870000000003 1011.8140000000002 64740.500000000007 319.54655000000008
decision_type=2 2 2 2 2 2 2 2 2 2 2 2 2 2 2 2 2 2 2 2 2 2 2 2 2 2 2 2 2 2 2 2
left_child=1 -1 3 4 18 13 10 8 -6 26 11 12 29 14 15 16 -3 -18 -2 -20 -16 22 30 -4 -25 -26 -9 -21 -14 -5 -17 -24
right_child=2 5 23 6 7 -7 -8 9 -10 -11 -12 -13 28 -15 20 21 17 -19 19 27 -22 -23 31 24 25 -27 -28 -29 -30 -31 -32 -33
leaf_value=0.3003426554780142 0.11565059297039743 -0.12332297906354756 0.11211595377120254 0.04529580936515127 0.037591487304417408 0.15176987632722325 0.160678606739109 0.063240648350988207 -0.022834189680195349 0.11887650220234736 0.028579846859367521 0.047850017694684034 -0.009539802372943558 -0.023036483789259824 0.074527145023461402 -0.062565137128923351 0.17480941250267709 -0.11660699117228759 0.012911448870666122 0.08529227634601938 0.0059568105972791635 -0.11848496845505388 -0.072630304654529604 0.11223011991567369 0.0031568040303552643 0.11183000939991977 0.03163797036775888 0.098401988331524706 -0.016010414876593444 0.055397260117188291 -0.066657746841829499 -0.07661258333112976
leaf_weight=0.44024993479251762 2.574325859546664 0.31769184768199821 7.3820507600903493 4.3759219422936466 3.4709900021553022 0.22911201417446037 0.45322579145431419 1.4749994277954104 3.0424073934555054 1.3868857398629186 13.324552766978739 4.6351222842931739 10.679277434945108 1.5852414220571507 1.1671243011951435 7.431452013552188 0.88410069048404671 0.26690191030502319 2.0961561948061016 10.610741302371027 0.68117244541645039 0.75466771423816581 5.2715779766440383 3.4967507496476173 0.90687816590070702 0.95937557518482208 1.8823094964027403 5.5760849937796584 10.748163074254988 2.5086687952280045 31.132771521806717 29.180202446877956
leaf_count=2 23 2 77 23 23 1 2 9 16 11 69 22 51 8 5 55 4 2 15 85 4 6 35 37 9 10 12 55 48 12 239 213
internal_value=-0.00415252 -0.0622842 0.0462089 0.0367845 0.0672483 -0.0643267 0.0158409 0.0337297 0.0093684 0.0671274 0.0144047 0.00866801 0.00224543 -0.0649658 -0.0658263 -0.0686589 0.0569253 0.107008 0.0853265 0.0810254 0.0493489 -0.0711631 -0.0706657 0.104469 0.0938446 0.0591799 0.0456004 0.0898383 -0.0127892 0.0490165 -0.0658777 -0.0760143
internal_weight=170.927 79.3423 91.5849 78.8398 32.1149 78.902 46.7249 11.2576 6.5134 4.74419 46.2717 32.9472 28.312 78.6729 77.0877 75.2394 1.46869 1.151 20.8573 18.283 1.8483 73.7707 73.016 12.7451 5.363 1.86625 3.35731 16.1868 21.4274 6.88459 38.5642 34.4518
internal_count=1185 576 609 476 249 574 227 71 39 32 225 156 134 573 565 556 8 6 178 155 9 548 542 133 56 19 21 140 99 35 294 248
is_linear=0
shrinkage=0.1


Tree=18
num_leaves=30
num_cat=0
split_feature=11 11 1 7 2 7 3 7 3 3 4 1 0 3 2 2 0 3 3 4 1 1 1 1 7 7 4 3 7
split_gain=37.5075 7.88748 5.57483 2.67251 2.13491 5.02067 3.62813 1.94275 1.76213 1.61327 1.16404 1.01454 1.32101 0.752274 0.568099 0.327867 0.185205 0.306806 0.373549 0.137327 0.0827536 0.0683383 0.866801 0.0437629 0.0352444 0.152775 0.018672 0.0100211 0.00399598
threshold=0.70295000000000007 0.65075000000000005 1260.5905000000002 0.99295000000000011 502.30605000000008 0.98655000000000015 205.42635000000004 0.98945000000000005 235.02310000000003 244.67620000000002 63299.500000000007 1144.3055000000002 76315.500000000015 239.96345000000002 459.73525000000006 484.48475000000002 87171.000000000015 210.77350000000004 246.18545000000003 98231.500000000015 1022.6815000000001 996.49250000000018 1014.5675000000001 1096.4870000000003 0.98955000000000015 0.99185000000000012 75055.500000000015 250.69535000000002 0.98835000000000006
decision_type=2 2 2 2 2 2 2 2 2 2 2 2 2 2 2 2 2 2 2 2 2 2 2 2 2 2 2 2 2
left_child=1 19 3 7 5 8 -7 16 10 -6 -3 12 -5 20 -12 -8 17 -2 -19 26 21 -9 -23 -22 -11 -26 -1 -18 -4
right_child=2 4 28 11 9 6 15 13 -10 24 14 -13 -14 -15 -16 -17 27 18 -20 -21 23 22 -24 -25 25 -27 -28 -29 -30
leaf_value=0.11130795136413096 -0.042372803551253814 0.008448100414910115 0.089335907998235847 -0.11961630660207373 0.10210159483008248 0.084239050879278451 0.0077405383549318529 -0.046984327539884053 0.064382163264334477 -0.0031479232096605532 -0.098791337278287553 0.11042577609187446 0.044741315146044042 -0.058763960604264434 -0.18714244131012259 0.033346384184089299 -0.093677491031432802 -0.06944837454797731 -0.11321382454820419 0.084477863116054833 -0.025678561918528499 -0.014444875040391013 -0.11387751570932665 -0.035303273392337929 0.0010401716403176981 0.047309070659524145 0.10323034669121456 -0.084278715607239402 0.07865920635914822
leaf_weight=5.7397454530000749 3.6890911236405399 0.74809598177671377 0.92688177525997106 0.68799278885126103 6.1879165619611722 9.7123223096132261 22.177295707166198 6.3585795462131482 0.73303604125976551 0.67080102115869555 2.1119483113288884 1.1630316674709318 1.6564067453145979 17.922527179121971 1.1305326819419859 6.4543369263410559 2.3744480162858954 21.231720626354221 2.1610090956091872 3.7611880451440802 12.668566800653936 4.9644197672605515 1.0604391321539877 7.6708958223462096 1.5570907518267634 1.3138753175735471 10.999477103352545 4.8604406341910362 2.3343041241168976
leaf_count=63 20 5 4 6 54 68 103 55 3 4 10 7 12 138 5 39 13 153 21 43 85 35 10 42 10 10 119 37 11
internal_value=-0.00386697 0.0494636 -0.0464814 -0.0512158 0.0290172 0.0194542 0.0314404 -0.0547475 -0.077771 0.0713135 -0.103935 0.0342843 -0.00363683 -0.0422918 -0.129842 0.0135181 -0.0731206 -0.0692824 -0.0735154 0.102101 -0.0332617 -0.0397251 -0.0320286 -0.029317 0.0174504 0.0222657 0.106033 -0.0874281 0.0818307
internal_weight=165.028 73.2977 91.7308 88.4696 52.7973 43.0676 38.344 84.9621 4.72361 9.72968 3.99058 3.50743 2.3444 50.6454 3.24248 28.6316 34.3167 27.0818 23.3927 20.5004 32.7229 12.3834 6.02486 20.3395 3.54177 2.87097 16.7392 7.23489 3.26119
internal_count=1185 536 649 634 311 233 210 609 23 78 20 25 18 365 15 142 244 194 174 225 227 100 45 127 24 20 182 50 15
is_linear=0
shrinkage=0.1


Tree=19
num_leaves=25
num_cat=0
split_feature=3 10 10 3 9 5 10 11 3 2 9 1 4 9 3 9 4 4 4 5 9 3 3 5
split_gain=19.0466 20.2004 12.2358 3.02628 1.91532 1.61144 1.12162 0.827459 0.674528 0.352021 0.31473 1.1651 2.46147 0.740078 0.491654 1.34509 0.743982 1.80737 0.820978 0.453962 0.286913 0.148831 1.09264 0.125054
threshold=204.8357 2.2673000000000005 1.9985000000000002 223.47920000000002 0.76390000000000013 303.74680000000006 2.6906000000000003 0.66405000000000014 260.96035000000006 412.71660000000003 0.87900000000000011 1082.037 105492.50000000001 0.86370000000000013 239.06410000000002 0.79715000000000014 86995.500000000015 78314.500000000015 82925.000000000015 312.52540000000005 0.74825000000000008 241.32245000000003 246.98885000000004 351.75945000000007
decision_type=2 2 2 2 2 2 2 2 2 2 2 2 2 2 2 2 2 2 2 2 2 2 2 2
left_child=4 2 10 5 7 -4 -3 -1 -5 -6 11 13 14 19 16 -16 17 -13 -19 -2 -9 -12 -23 -17
right_child=1 6 3 8 9 -7 -8 20 -10 -11 21 12 -14 -15 15 23 -18 18 -20 -21 -22 22 -24 -25
leaf_value=0.11105856308374984 -0.058510800146925127 0.10438851226587674 -0.066195508524558702 0.04143819839462283 0.032811517539328969 0.0025424987725467013 -0.020655330596449945 -0.012374384678038194 0.12849927638169173 0.079370551026912095 -0.10959136567636321 0.047482260111430113 0.065997714960978254 -0.11085113218658278 0.0094091732491973622 -0.065543386422516933 -0.1297473415823277 -0.028064837467083128 -0.094084732658614709 -0.11628481438385929 0.067102955176335882 0.042735687455885657 -0.11084652675235958 -0.047444025520582141
leaf_weight=12.407093122601511 29.658655859529976 12.844818212091919 4.0856879055500057 15.595805548131466 7.3576823398470861 20.507013976573944 0.75792854279279787 0.62521925568580572 0.94056880474090654 2.086512453854084 1.3160143494606011 2.6877210438251469 2.0330777317285529 3.3271027430891982 2.9562286958098438 19.647307880222801 0.715084448456765 7.4092302843928319 2.5247859507799149 1.4271918311715115 1.639374606311321 0.64640396088361773 1.6088254451751707 4.8325705751776686
leaf_count=142 224 144 18 91 39 97 9 3 6 13 16 15 10 38 15 161 4 44 14 12 11 7 18 34
internal_value=-0.00357491 -0.0181466 -0.0310436 0.0133553 0.0782986 -0.00888774 0.097415 0.100909 0.0464284 0.0431361 -0.053646 -0.052296 -0.0412722 -0.066 -0.0466289 -0.0542883 -0.0308565 -0.0252034 -0.0448847 -0.0611821 0.0451747 -0.0827183 -0.066822 -0.0619815
internal_weight=159.638 135.522 121.919 41.1291 24.1159 24.5927 13.6027 14.6717 16.5364 9.44419 80.7902 77.219 42.806 34.413 40.7729 27.4361 13.3368 12.6217 9.93402 31.0858 2.26459 3.57124 2.25523 24.4799
internal_count=1185 977 824 212 208 115 153 156 97 52 612 571 297 274 287 210 77 73 58 236 14 41 25 195
is_linear=0
shrinkage=0.1


Tree=20
num_leaves=50
num_cat=0
split_feature=6 6 6 8 8 9 9 5 5 0 4 0 1 5 8 8 9 1 4 3 1 4 5 8 4 1 4 5 9 3 3 8 3 8 1 3 3 3 9 1 0 3 1 0 9 3 3 3 8
split_gain=17.4296 11.6345 7.57612 3.31375 3.89244 3.20502 9.13408 3.94376 3.25616 1.67299 1.61842 1.40311 1.53283 1.25716 1.261 1.71337 1.11832 0.894289 0.815919 2.21262 1.18992 1.07884 0.654713 0.331478 2.99405 0.328052 0.296565 0.28982 1.53927 0.243691 0.433079 0.228069 0.183415 0.165729 0.137297 0.13468 0.131578 0.288432 0.0884065 0.737996 0.211405 0.0796042 1.48346 2.50538 0.0705786 0.0455709 0.0286085 0.0173847 0.00291603
threshold=0.90590000000000015 0.86365000000000014 0.84815000000000007 0.6946500000000001 0.74735000000000007 0.77850000000000008 0.81025000000000014 339.26985000000008 301.62990000000008 81266.500000000015 105492.50000000001 78041.500000000015 1039.8740000000003 292.02465000000001 0.73935000000000006 0.73180000000000012 0.7470500000000001 1217.4130000000002 60135.000000000007 217.31085000000004 1018.3770000000001 80877.500000000015 345.22595000000007 0.73535000000000006 90066.000000000015 1180.8495000000003 71711.500000000015 326.50835000000006 0.81145000000000012 241.71155000000002 260.96035000000006 0.67395000000000016 247.32035000000005 0.73505000000000009 1102.1355000000001 222.76460000000003 230.42495000000002 220.53855000000001 0.83955000000000013 1006.1180000000001 74401.000000000015 199.31010000000001 1357.6015000000002 113593.00000000001 0.86910000000000009 217.12225000000004 241.14880000000002 248.82295000000002 0.68645000000000012
decision_type=2 2 2 2 2 2 2 2 2 2 2 2 2 2 2 2 2 2 2 2 2 2 2 2 2 2 2 2 2 2 2 2 2 2 2 2 2 2 2 2 2 2 2 2 2 2 2 2 2
left_child=1 2 10 18 9 8 23 13 -4 45 16 12 -6 -8 15 48 17 25 -3 20 -20 -21 36 24 31 -1 -25 38 -29 46 32 -7 -31 -2 -22 -33 37 -13 39 -18 -41 -35 -43 -44 -40 -5 -23 -24 -15
right_child=33 3 5 4 11 6 7 -9 -10 -11 -12 22 -14 14 -16 -17 27 -19 19 21 34 29 47 26 -26 -27 -28 28 -30 30 -32 35 -34 41 -36 -37 -38 -39 44 40 -42 42 43 -45 -46 -47 -48 -49 -50
leaf_value=0.027592567483112496 0.10941056608752182 0.12409159118128339 -0.12906133954759941 -0.036515605816384508 0.12071975957638306 -0.13361535094775348 0.098723948824095936 0.22475176986846868 0.21256377620788602 0.011315541736065166 0.050856836372161533 0.13765853140897394 -0.031295119400477502 0.02419014220236429 -0.043152273121088984 0.2109635597865186 -0.028001976136974457 0.20242074185048275 -0.1279218658344225 0.13569183596662479 0.028057960517160252 0.065609198928261198 0.03534057524635234 0.044441278864678975 0.015351366755286935 -0.11258550362564135 -0.048396170802235766 0.017992276399229661 -0.067588490213184804 0.047634646218564142 0.12392174580984586 -0.076998622400571107 -0.0072329677929554234 0.10823347408934814 0.0063128504406876982 -0.12653918449636545 0.14624208811309555 0.070295904796959338 -0.071250625878112081 -0.088644210301484755 -0.062099768023358093 0.10901247289807373 -0.32717837100618491 0.10769696435782528 -0.086572885356095045 -0.047844044915423767 0.10771994894217203 0.053712548381525643 0.029346498862213341
leaf_weight=0.58284311741590389 10.905679188668726 1.303162738680842 0.34929203987121837 8.2514524012804049 0.87731088697910165 3.1028889343142527 2.7057366520166379 1.2926656305789936 1.3260540068149564 10.110060282051561 1.2913672700524319 1.1871466860175139 2.6674154922366142 2.6012539714574814 2.2654614448547363 0.55619893968105305 4.1026447564363506 0.24974943697452545 0.56930883973837154 2.1300969421863547 7.2853565737605077 9.1494208425283396 1.225338973104954 0.381530880928039 2.5380906611680984 0.22820086032152176 3.1891090273857117 2.5264255329966536 12.433358505368231 1.0773122087121008 0.4407939389348029 1.7811375856399538 1.3904650583863256 1.1728111431002606 4.8350359797477722 0.82678771018981922 0.92228437215089787 1.4128081128001211 11.623203650116919 6.9219493642449361 5.4311290457844734 2.5187901183962826 0.22186105698347081 0.31417030096054077 4.29178413003683 6.4675102531909934 0.17335510253906328 0.98057763278484333 2.4428601562976837
leaf_count=4 142 11 2 48 7 18 12 6 6 67 7 7 16 16 13 3 28 1 3 9 41 62 12 2 12 2 17 16 118 8 3 11 8 16 32 5 5 9 116 57 46 33 2 4 53 28 2 5 15
internal_value=0.00097887 -0.0102332 -0.0367699 0.0216509 0.000645802 0.00770306 -0.00176441 0.0602076 0.141157 -0.0200009 -0.0594686 0.055912 0.00644092 0.0399891 0.0197331 0.0451904 -0.062418 0.0389681 0.0469087 0.0431677 0.0127329 0.0700449 0.0864909 -0.0639709 -0.0749975 -0.0122782 -0.0384236 -0.0646945 -0.0531333 0.0585603 0.0331917 -0.115133 0.0167612 0.10282 0.0193909 -0.0929226 0.113237 0.101265 -0.0700279 -0.0648009 -0.0770049 0.0857074 0.0768913 -0.0736284 -0.0754095 -0.0415089 0.0664513 0.0436175 0.0267171
internal_weight=152.631 137.498 75.0417 62.4562 34.1019 25.3591 23.6837 11.8642 1.67535 24.829 49.6827 9.27288 3.54473 10.5715 7.86577 5.60031 48.3913 1.06079 28.3543 27.0511 12.6897 14.3614 5.72816 11.8195 8.2489 0.811044 3.57064 47.3305 14.9598 12.2313 2.90857 5.71081 2.46778 15.1333 12.1204 2.60793 3.52224 2.59995 32.3707 16.4557 12.3531 4.22763 3.05482 0.536031 15.915 14.719 9.32278 2.20592 5.04411
internal_count=1166 969 586 383 204 138 130 65 8 143 448 61 23 59 47 34 441 7 179 168 76 92 38 65 46 6 19 434 134 83 19 34 16 197 73 16 21 16 300 131 103 55 39 6 169 76 64 17 31
is_linear=0
shrinkage=0.1


Tree=21
num_leaves=21
num_cat=0
split_feature=6 2 4 0 3 10 3 4 3 0 3 3 0 3 3 5 4 0 0 0
split_gain=15.6374 5.58488 4.58975 1.04257 1.83326 0.649029 0.331846 0.425349 0.297422 1.88226 4.73361 2.26643 1.00696 1.57664 0.588264 0.223358 0.126243 0.0853433 0.657272 0.433558
threshold=0.83640000000000014 424.14920000000001 65071.500000000007 103083.00000000001 190.21295000000001 1.8167500000000001 236.95195000000004 77215.500000000015 253.22410000000002 97002.500000000015 209.78835000000004 237.27830000000003 92696.000000000015 209.96985000000004 230.97715000000002 303.74680000000006 99508.500000000015 88812.000000000015 76495.000000000015 65928.000000000015
decision_type=2 2 2 2 2 2 2 2 2 2 2 2 2 2 2 2 2 2 2 2
left_child=5 2 -2 4 -3 6 15 -8 9 10 17 12 13 -12 -14 -1 -9 18 19 -6
right_child=1 3 -4 -5 8 -7 7 16 -10 -11 11 -13 14 -15 -16 -17 -18 -19 -20 -21
leaf_value=-0.053102037115123707 0.03911743848159735 0.10834567684289508 -0.057599504684000727 0.068443765783710475 -0.018424617800408046 -0.11611413756008915 -0.11009079893651962 -0.064403735506231005 0.00067355926563665829 0.08272668124414162 0.16800873775256159 -0.032687799482120312 0.10870698044541248 0.011804916368075569 0.012522576228134269 -0.023082161989066707 -0.035960152082856085 0.10898003975340925 0.10856177833855174 0.063341976161630828
leaf_weight=9.9506628587842041 7.2010118886828449 2.609149068593978 15.374819949269293 6.149305708706378 0.69218476116656802 2.0137179121375075 2.0064464583992985 12.770532146096228 5.4325188621878615 5.2461784891784182 0.65055407583713432 10.978455156087874 1.8435468226671212 45.415915235877037 0.97204698622226704 3.3183238431811324 1.8053781688213337 0.6141153536736973 3.4083161093294629 9.7572676129639131
leaf_count=109 51 37 98 53 5 17 24 144 27 55 3 64 25 261 9 32 15 8 48 81
internal_value=0.000900672 0.0179002 -0.0267472 0.0286505 0.0258539 -0.0611606 -0.0574342 -0.0668803 0.0233156 0.024861 0.0207715 0.00836076 0.0175826 0.0140292 0.0755872 -0.0456073 -0.0608953 0.0720845 0.0704096 0.0579179
internal_weight=148.21 116.345 22.5758 93.7696 87.6202 31.8651 29.8513 16.5824 85.0111 79.5786 74.3324 59.8605 48.8821 46.0665 2.81559 13.269 14.5759 14.4719 13.8578 10.4495
internal_count=1166 825 149 676 623 341 324 183 586 559 504 362 298 264 34 141 159 142 134 86
is_linear=0
shrinkage=0.1


Tree=22
num_leaves=59
num_cat=0
split_feature=9 7 7 7 0 3 7 11 11 8 3 3 1 11 2 3 0 3 8 8 1 0 1 8 11 1 8 8 2 8 3 0 3 8 0 3 8 0 8 8 8 1 3 3 8 0 0 8 3 8 8 3 0 0 0 3 3 3
split_gain=17.3408 8.79944 9.16044 3.81942 3.32354 2.98594 2.04432 1.67896 2.60222 2.69142 1.38404 4.10731 2.67881 1.21813 1.16404 2.56549 1.14999 1.07712 2.88295 1.05402 1.44582 1.68538 1.00972 2.91341 0.591136 0.585515 3.05437 0.347761 1.35759 1.72594 0.364358 0.272443 0.269184 0.249453 0.229404 1.70922 0.186306 0.269821 0.129193 0.149232 0.122087 0.943102 0.118545 0.0919612 0.0762098 0.0726958 0.068837 0.067216 0.0496981 0.0451794 0.0463945 0.0367553 0.0338549 0.0689677 0.0933709 0.0206886 0.681741 0.536042
threshold=0.77195000000000014 0.99235000000000007 0.99055000000000015 0.98955000000000015 71815.500000000015 200.61070000000004 0.98715000000000008 0.75910000000000011 0.68190000000000006 0.74655000000000016 224.83410000000001 215.62660000000002 1178.2235000000003 0.70735000000000015 401.61685000000006 234.77640000000005 97514.000000000015 232.29445000000001 0.68695000000000006 0.72415000000000007 1002.9355000000002 81266.500000000015 1077.3195000000003 0.75385000000000013 0.66825000000000012 1104.2615000000003 0.75900000000000012 0.72945000000000015 396.56195000000008 0.67745000000000011 221.39015000000003 91701.000000000015 222.23520000000002 0.74655000000000016 66619.000000000015 207.50500000000002 0.6946500000000001 83420.000000000015 0.68645000000000012 0.74935000000000007 0.74895000000000012 1130.3980000000004 262.68610000000007 267.48860000000008 0.70795000000000008 95329.000000000015 81551.000000000015 0.72910000000000008 247.86440000000002 0.57995000000000008 0.67640000000000011 222.61015 66250.500000000015 69980.500000000015 105383.00000000001 245.43410000000003 222.76460000000003 227.76290000000003
decision_type=2 2 2 2 2 2 2 2 2 2 2 2 2 2 2 2 2 2 2 2 2 2 2 2 2 2 2 2 2 2 2 2 2 2 2 2 2 2 2 2 2 2 2 2 2 2 2 2 2 2 2 2 2 2 2 2 2 2
left_child=3 2 6 7 34 -4 19 8 10 -10 11 40 -13 24 -7 38 31 33 -19 20 -2 -22 23 -21 36 27 55 28 51 30 -30 42 -29 -6 35 -3 37 46 -16 -40 41 49 -17 -18 -14 -28 -5 -36 -34 -1 -51 -8 -26 -54 -55 56 -27 -58
right_child=1 4 5 13 17 14 25 -9 9 -11 -12 12 44 -15 15 16 43 18 -20 22 21 -23 -24 -25 52 26 45 32 29 -31 -32 -33 48 -35 47 -37 -38 -39 39 -41 -42 -43 -44 -45 -46 -47 -48 -49 -50 50 -52 -53 53 54 -56 -57 57 -59
leaf_value=0.016128643598201684 0.02581329001331481 0.12513313850344629 0.14176154698277199 0.069356846655024437 0.12495177412999764 -0.047246515940640728 -0.13786528761630346 -0.11670714464646498 -0.057124057578744315 0.18717555612041584 0.11756404012461848 -0.18036209368047532 0.030579019191911989 -0.14502540304244774 0.045685822373114811 -0.031997688919876803 0.0078300456727236154 0.16410663028187236 0.020852289580281513 0.0091110164139053887 -0.10985037774288567 0.0083357610605089196 -0.025355170932049621 0.30866607534612595 0.10471355896961863 -0.0099713103799904217 0.087327944594893972 -0.11017740921670405 -0.0051192059878956602 -0.095772818574165822 -0.059750418112770168 -0.073713092812293809 -0.063228100469542928 0.19829588148633739 -0.06016197210102732 -0.12544617868518634 0.11025620450804817 0.10854031556697147 0.022397066632259918 0.050602527476304518 0.10970833947054622 0.11249880894374663 -0.10622550631264122 0.042168416156996298 -0.010410428625076764 0.14658382349060678 0.11103531812547629 -0.11341931242909638 -0.10723783550564668 0.055289017146382659 0.027007389754669348 -0.10757187326964422 0.11992153041821663 0.048446222402640605 0.11333842906290958 -0.067656468111348761 -0.02324274634265586 -0.085415135943243778
leaf_weight=0.91645593196154207 1.8613640367984752 0.47044351696968012 1.5991343408823002 4.6415076181292623 2.0754898115992533 4.1810695566236964 2.226433888077739 0.80029060691594978 4.3355486765503874 0.4983224868774413 2.7154688127338877 1.152805030345917 1.0793153643608091 0.21977198123931785 5.1606165468692842 5.2399672120809537 3.1073852181434622 2.0663521587848663 4.3722458928823471 2.3838876709342007 4.1266178339719772 1.7030601277947424 5.0168914869427681 0.37094785273075093 0.14384130388498206 2.1441969275474611 0.39394398033618827 4.8197691515088072 4.7370367199182493 5.4706665053963661 1.6405374631285665 2.7589671760797501 2.1176421679556374 0.62460297346115101 0.55144571512937524 0.63190301135182381 7.2463494241237631 3.8237311281263828 11.377417027950285 2.2491080462932578 1.0358311831951139 3.029484711587429 0.22078640013933171 1.0385139435529707 0.77564760297536839 0.53382432460784912 0.44826511293649662 0.4504692479968071 0.30430102348327626 1.2876669839024546 1.0903200358152387 0.63748368248343457 0.15560080111026753 3.8496570140123367 0.23435629904270161 7.6126982718706122 1.7396488040685634 6.9368434697389603
leaf_count=8 14 3 10 58 11 45 19 7 20 2 28 5 9 1 29 46 18 12 36 19 31 12 32 2 2 9 2 35 27 41 13 20 26 3 6 7 97 55 65 13 13 37 3 8 7 3 5 5 4 11 11 9 1 27 2 69 8 45
internal_value=0.000840554 -0.0204111 -0.0304412 0.0573314 0.0631656 0.0083236 -0.0556558 0.0245612 0.0309029 -0.0317685 0.054063 0.0373806 -0.0610051 0.0868587 0.00226482 0.00891685 -0.026448 0.0892479 0.0669213 -0.0246267 -0.0508591 -0.0753437 0.00134731 0.0499393 0.0893749 -0.0672641 -0.0545539 -0.0784575 -0.0695672 -0.0545883 -0.0192106 -0.0480969 -0.0964564 0.142259 -0.0500437 -0.0184112 0.0982206 0.088378 0.0321955 0.0270705 0.0776048 0.0722614 -0.0350962 0.0164758 0.0134491 0.122043 0.0731361 -0.084567 -0.0689738 0.0351409 0.0424122 -0.131327 0.0566863 0.0549316 0.0523079 -0.0634737 -0.0604997 -0.0729719
internal_weight=144.434 104.954 93.7108 39.4802 11.243 36.933 56.7778 18.7172 17.9169 4.83387 13.083 10.3675 3.00777 20.7631 35.3338 31.1528 12.3656 9.13869 6.4386 15.4628 7.69104 5.82968 7.77173 2.75484 20.5433 41.315 19.3612 21.9539 14.7122 11.8482 6.37757 8.21972 7.24171 2.70009 2.10426 1.10235 16.1599 8.9135 18.7871 13.6265 7.35976 6.32393 5.46075 4.1459 1.85496 0.927768 5.08977 1.00191 2.42194 3.29444 2.37799 2.86392 4.38346 4.23961 4.08401 18.4334 10.8207 8.67649
internal_count=1166 760 677 406 83 257 420 158 151 22 129 101 21 248 247 202 95 62 48 110 57 43 53 21 247 310 136 174 109 81 40 69 65 14 21 10 215 118 107 78 80 67 49 26 16 5 63 11 30 30 22 28 32 30 29 131 62 53
is_linear=0
shrinkage=0.1


Tree=23
num_leaves=51
num_cat=0
split_feature=6 10 11 11 4 4 5 5 0 8 8 4 8 8 5 5 4 0 5 8 8 5 5 0 8 8 3 0 0 5 8 8 0 0 0 8 8 8 8 8 5 4 4 4 8 8 8 0 8 4
split_gain=23.0908 4.02133 2.93125 2.17677 1.80122 2.23262 3.26335 2.21494 0.951735 0.65139 0.581956 0.456477 0.379794 3.20246 0.532715 0.464984 0.366615 0.385164 0.339132 0.715785 1.60276 0.199048 0.148339 1.26854 0.605061 0.155258 0.138744 0.122207 0.103917 1.26079 0.893445 0.186849 0.0943473 0.128262 0.316196 0.0898995 0.680525 0.249414 0.0681935 0.282967 0.0439969 0.0541511 0.0363841 0.15635 0.0133587 0.377336 0.0101559 0.00900324 0.00814924 0.00519395
threshold=0.88285000000000013 1.9274500000000001 0.65610000000000013 0.68425000000000014 63889.500000000007 76512.500000000015 307.20835000000005 292.02465000000001 104519.00000000001 0.61000000000000021 0.72745000000000015 103272.00000000001 0.68870000000000009 0.74060000000000015 359.02055000000007 312.08405000000005 76421.500000000015 105065.00000000001 288.69865000000004 0.75065000000000015 0.62200000000000011 301.84830000000005 344.43020000000007 96538.500000000015 0.69285000000000008 0.70155000000000012 220.68130000000005 99769.500000000015 86275.000000000015 340.68180000000001 0.70715000000000006 0.66900000000000015 85029.500000000015 72703.500000000015 74123.500000000015 0.7470500000000001 0.6251000000000001 0.64380000000000015 0.74865000000000015 0.58190000000000019 301.4378000000001 66684.000000000015 85539.000000000015 75627.500000000015 0.66705000000000014 0.73245000000000016 0.70030000000000014 68283.500000000015 0.71815000000000007 80183.500000000015
decision_type=2 2 2 2 2 2 2 2 2 2 2 2 2 2 2 2 2 2 2 2 2 2 2 2 2 2 2 2 2 2 2 2 2 2 2 2 2 2 2 2 2 2 2 2 2 2 2 2 2 2
left_child=1 8 11 -3 10 6 7 -6 12 -9 -5 -2 14 21 40 47 18 26 19 20 -4 -14 28 24 -24 -25 46 32 -7 31 -31 -30 33 -23 -35 36 -28 -38 39 -13 41 -1 43 -42 -11 -46 -18 -15 -33 -17
right_child=2 3 16 4 5 22 -8 9 -10 44 -12 38 13 15 -16 49 17 -19 -20 -21 -22 27 23 25 -26 -27 35 -29 29 30 -32 48 -34 34 -36 -37 37 -39 -40 -41 42 -43 -44 -45 45 -47 -48 -49 -50 -51
leaf_value=-0.026743792644076631 0.10779755426547361 -0.15337671839003128 0.11003760872918444 0.046550308011288649 0.015556522118264655 0.011221896503261478 0.066579512100452362 0.031264466008347092 0.041084391203605783 -0.082571890737443518 0.14580650820051758 0.10573325241671097 -0.087671100227397228 -0.025820691653776137 -0.13484710293976429 0.00015011321232680653 0.042146881415955753 0.11209973520259611 0.040873123359524852 0.11105178937989545 -0.083891407187090983 -0.11042714357954123 -0.15655389935668518 0.067130153354748132 -0.018071474061166128 0.033153386847719353 0.1217832797863127 -0.11305753008170814 -0.016573145881154175 0.018342894159943241 -0.14918443807919438 0.036711538319176139 -0.07422196324202604 -0.11326870876701958 -0.049432906893044658 0.033463934984850091 -0.0057959030436290516 0.054926285345911076 0.10652972493770119 0.016447675562523436 0.0078313929376517457 -0.045059949174757717 -0.032198240834511789 -0.030566613781727477 -0.071399239992934183 -0.12882852877739334 0.034040890283369776 -0.033467348396946324 0.026501723056404226 0.008759932932518642
leaf_weight=3.6919613480567905 12.871887251734732 0.94456231594085593 0.59421771764755504 1.8528075292706483 3.1215755194425574 15.040947750210767 2.5488601326942435 0.48265205323696037 1.2941254675388325 3.8572913408279401 0.86834973841905583 0.53042362630367179 6.76727241650224 2.9655907042324525 0.48527985066175539 0.80401454120874394 4.3771010711789158 1.0451372414827336 5.7880213931202888 0.44598849862813938 1.4716596603393552 0.4560956433415474 0.38914366066455741 2.338067851960659 1.5919212996959684 3.2136103734374046 1.5203637294471244 0.56769896298646827 1.1203607171773899 0.49663316458463647 0.87604491412639618 1.2050723284482958 7.188923053443431 0.86250830441713144 7.7470870241522789 1.2602929435670374 0.79116097837686528 4.6051828004419804 0.21497834846377362 1.0616650469601152 1.552010752260683 2.9280525520443916 3.150647945702076 3.32729572057724 3.3192583844065666 1.7711817398667333 2.7204149290919304 3.6217290051281452 2.6684443354606628 5.658162534236908
leaf_count=28 205 4 7 10 15 69 12 2 7 22 5 9 71 31 3 8 26 11 41 5 13 5 2 12 8 16 13 6 5 3 4 6 73 9 81 14 7 43 3 15 13 30 23 29 19 9 17 35 13 49
internal_value=0.000799819 -0.0245545 0.0658126 -0.0034847 -0.000440574 -0.00532302 -0.0364862 -0.0574347 -0.0434932 -0.0815928 0.0784392 0.101181 -0.0456113 -0.05112 -0.0322626 -0.0113627 0.044708 0.0534138 0.0275664 -0.00311012 -0.0279721 -0.0731055 0.0109407 0.0230067 -0.0456075 0.0475129 0.0493619 -0.0672208 0.00668985 -0.00401505 -0.0887154 0.0193291 -0.0655847 -0.0586967 -0.0558919 0.0582654 0.0627547 0.0460238 0.0538735 0.0464421 -0.0288186 -0.0348754 -0.0238047 -0.0183543 -0.0876963 -0.0914913 0.0390683 -0.0300494 0.0297253 0.00769207
internal_weight=140.074 100.775 39.2985 47.7068 46.7622 44.0411 15.1008 12.552 53.0685 9.43038 2.72116 14.679 51.7743 36.6391 15.1352 13.0495 24.6195 16.3197 8.29989 2.51187 2.06588 23.5896 28.9402 7.53274 1.98106 5.55168 15.2745 16.8223 21.4075 6.36656 1.37268 4.99388 16.2546 9.06569 8.6096 8.177 6.91671 5.39634 1.80707 1.59209 14.65 6.62001 8.02995 4.87931 8.94773 5.09044 7.09752 6.58732 3.87352 6.46218
internal_count=1166 737 429 236 232 217 79 67 501 52 15 232 494 368 126 123 197 131 66 25 20 245 138 38 10 28 120 174 100 31 7 24 168 95 90 77 63 50 27 24 123 58 65 42 50 28 43 66 19 57
is_linear=0
shrinkage=0.1


Tree=24
num_leaves=42
num_cat=0
split_feature=2 2 9 7 2 9 3 3 9 3 8 3 9 7 7 3 9 3 8 1 7 7 8 3 0 7 8 7 7 8 4 8 8 8 9 8 8 0 8 8 0
split_gain=9.16911 2.13235 3.18212 7.22247 2.26265 1.65286 1.69424 1.61806 1.67548 1.46864 1.86363 2.56974 1.27535 1.40103 1.90578 0.888217 0.861684 0.652819 0.531092 0.395826 0.322534 1.40686 0.418187 0.319454 1.49469 0.142576 0.0747009 0.0957143 0.202787 0.58801 0.0532462 0.0513048 0.205098 0.0353841 1.08091 0.0333668 0.296087 0.0271812 0.0251863 0.0157767 0.00447045
