{"learner":{"attributes":{"best_iteration":"139","best_score":"0.2252832000341732"},"feature_names":[],"feature_types":[],"gradient_booster":{"model":{"gbtree_model_param":{"num_parallel_tree":"1","num_trees":"190"},"iteration_indptr":[0,1,2,3,4,5,6,7,8,9,10,11,12,13,14,15,16,17,18,19,20,21,22,23,24,25,26,27,28,29,30,31,32,33,34,35,36,37,38,39,40,41,42,43,44,45,46,47,48,49,50,51,52,53,54,55,56,57,58,59,60,61,62,63,64,65,66,67,68,69,70,71,72,73,74,75,76,77,78,79,80,81,82,83,84,85,86,87,88,89,90,91,92,93,94,95,96,97,98,99,100,101,102,103,104,105,106,107,108,109,110,111,112,113,114,115,116,117,118,119,120,121,122,123,124,125,126,127,128,129,130,131,132,133,134,135,136,137,138,139,140,141,142,143,144,145,146,147,148,149,150,151,152,153,154,155,156,157,158,159,160,161,162,163,164,165,166,167,168,169,170,171,172,173,174,175,176,177,178,179,180,181,182,183,184,185,186,187,188,189,190],"tree_info":[0,0,0,0,0,0,0,0,0,0,0,0,0,0,0,0,0,0,0,0,0,0,0,0,0,0,0,0,0,0,0,0,0,0,0,0,0,0,0,0,0,0,0,0,0,0,0,0,0,0,0,0,0,0,0,0,0,0,0,0,0,0,0,0,0,0,0,0,0,0,0,0,0,0,0,0,0,0,0,0,0,0,0,0,0,0,0,0,0,0,0,0,0,0,0,0,0,0,0,0,0,0,0,0,0,0,0,0,0,0,0,0,0,0,0,0,0,0,0,0,0,0,0,0,0,0,0,0,0,0,0,0,0,0,0,0,0,0,0,0,0,0,0,0,0,0,0,0,0,0,0,0,0,0,0,0,0,0,0,0,0,0,0,0,0,0,0,0,0,0,0,0,0,0,0,0,0,0,0,0,0,0,0,0,0,0,0,0,0,0],"trees":[{"base_weights":[7.425193E-2,1.6137961E0,-3.2191104E-1,1.0597154E0,2.0082264E0,-1.3955445E0,2.159321E-1,1.8914207E0,-5.176566E-1,1.6645391E0,1.0550996E-1,-9.906941E-1,-1.7324479E0,1.1037092E0,-7.099917E-1,1.0550995E-1,1.6473984E0,-1.0563304E0,5.0582343E-1,1.0550994E-1,-1.4818134E-2,-1.4709955E0,1.6202919E-1,-1.8442467E0,-1.6222016E0,2.0176898E-1,1.8858112E0,-1.4658179E0,6.840879E-1,6.5400556E-2,1.055099E-1,-9.08824E-3,-7.832466E-2,6.5400474E-2,-1.4818134E-2,-6.0657468E-2,-8.275856E-2,5.537321E-2,-3.170633E-2,-6.638732E-2,-9.5036946E-2,-2.2110773E-2,-9.174929E-2,1.0550995E-1,-1.7742824E-2,7.127024E-2,1.0354382E-1,-8.517399E-2,-4.0342327E-2,6.8485916E-2,-5.4927554E-2],"categories":[],"categories_nodes":[],"categories_segments":[],"categories_sizes":[],"default_left":[0,0,0,0,0,0,0,0,0,0,0,0,0,0,0,0,0,0,0,0,0,0,0,0,0,0,0,0,0,0,0,0,0,0,0,0,0,0,0,0,0,0,0,0,0,0,0,0,0,0,0],"id":0,"left_children":[1,3,5,7,9,11,13,15,17,19,-1,21,23,25,27,-1,29,31,33,-1,-1,35,37,39,41,43,45,47,49,-1,-1,-1,-1,-1,-1,-1,-1,-1,-1,-1,-1,-1,-1,-1,-1,-1,-1,-1,-1,-1,-1],"loss_changes":[1.5008496E2,1.1006485E1,1.130148E2,2.7474953E1,1.0310516E0,8.909523E0,1.071852E2,7.3205566E-1,3.9861856E0,5.8827057E0,0E0,1.6426308E1,4.394226E-1,4.6957657E1,6.725174E1,0E0,1.0181541E0,2.1135302E0,1.6043712E0,0E0,0E0,9.945488E-1,6.568284E0,5.1649475E-1,4.50716E0,3.2840897E1,3.0377655E0,6.481682E0,2.7425213E1,0E0,0E0,0E0,0E0,0E0,0E0,0E0,0E0,0E0,0E0,0E0,0E0,0E0,0E0,0E0,0E0,0E0,0E0,0E0,0E0,0E0,0E0],"parents":[2147483647,0,0,1,1,2,2,3,3,4,4,5,5,6,6,7,7,8,8,9,9,11,11,12,12,13,13,14,14,16,16,17,17,18,18,21,21,22,22,23,23,24,24,25,25,26,26,27,27,28,28],"right_children":[2,4,6,8,10,12,14,16,18,20,-1,22,24,26,28,-1,30,32,34,-1,-1,36,38,40,42,44,46,48,50,-1,-1,-1,-1,-1,-1,-1,-1,-1,-1,-1,-1,-1,-1,-1,-1,-1,-1,-1,-1,-1,-1],"split_conditions":[2.071816E2,2.937711E2,7.6613E4,1.989139E2,3.023993E2,2.188709E2,2.361875E2,1.854874E2,2.868969E2,2.01582E2,1.0550996E-1,7.2035E4,3.014906E2,3.295737E2,3.514661E2,1.0550995E-1,2.80531E2,2.031549E2,6.7028E4,1.0550994E-1,-1.4818134E-2,6.6662E4,2.122168E2,2.862527E2,3.035529E2,2.161998E2,3.354058E2,3.432035E2,2.665459E2,6.5400556E-2,1.055099E-1,-9.08824E-3,-7.832466E-2,6.5400474E-2,-1.4818134E-2,-6.0657468E-2,-8.275856E-2,5.537321E-2,-3.170633E-2,-6.638732E-2,-9.5036946E-2,-2.2110773E-2,-9.174929E-2,1.0550995E-1,-1.7742824E-2,7.127024E-2,1.0354382E-1,-8.517399E-2,-4.0342327E-2,6.8485916E-2,-5.4927554E-2],"split_indices":[3,5,4,3,5,3,3,3,5,3,0,4,5,5,5,0,5,3,4,0,0,4,3,5,5,3,5,5,3,0,0,0,0,0,0,0,0,0,0,0,0,0,0,0,0,0,0,0,0,0,0],"split_type":[0,0,0,0,0,0,0,0,0,0,0,0,0,0,0,0,0,0,0,0,0,0,0,0,0,0,0,0,0,0,0,0,0,0,0,0,0,0,0,0,0,0,0,0,0,0,0,0,0,0,0],"sum_hessian":[2.4607706E2,5.0362274E1,1.9571478E2,2.0942728E1,2.9419548E1,6.5321365E1,1.3039342E2,1.3712501E1,7.230228E0,6.731591E0,2.2687956E1,2.9668865E1,3.5652504E1,6.6567955E1,6.382546E1,7.230228E0,6.482273E0,4.737046E0,2.493182E0,5.485E0,1.246591E0,2.0942728E1,8.726137E0,1.7701591E1,1.795091E1,3.0915457E1,3.5652504E1,4.138682E1,2.2438639E1,3.739773E0,2.7425E0,1.7452273E0,2.9918184E0,1.246591E0,1.246591E0,8.726137E0,1.2216592E1,3.9890912E0,4.737046E0,1.7452273E0,1.5956365E1,2.7425E0,1.520841E1,6.9809093E0,2.3934547E1,1.0222046E1,2.5430456E1,3.041682E1,1.097E1,1.6205683E1,6.232955E0],"tree_param":{"num_deleted":"0","num_feature":"12","num_nodes":"51","size_leaf_vector":"1"}},{"base_weights":[7.439611E-3,1.6872735E0,-1.2000389E0,1.8678634E0,8.855875E-1,-1.3458471E-1,-1.5058571E0,1.9301715E0,1.4637402E0,2.32312E-1,1.4917728E0,-3.0777448E-1,1.51871E0,-1.5274639E0,2.6863439E-2,5.9971064E-2,1.9421132E0,1.0939729E0,2.0274541E0,8.0663127E-1,-3.136503E-1,2.0296195E0,1.192469E0,-5.222845E-1,1.2451577E0,3.9760634E-2,1.0693448E-1,-1.3171333E0,-1.6978352E0,9.877555E-2,8.790165E-2,1.0125854E-1,3.6935005E-2,1.0049738E-1,1.0257723E-1,-1.6869204E-2,6.076936E-2,-4.229304E-2,6.41206E-2,1.0084871E-1,1.0220386E-1,2.4509413E-2,1.0347438E-1,1.2591538E-2,-3.8260564E-2,-1.6992582E-2,1.0183551E-1,5.525477E-3,-6.9402866E-2,-8.08573E-2,-9.028999E-2],"categories":[],"categories_nodes":[],"categories_segments":[],"categories_sizes":[],"default_left":[0,0,0,0,0,0,0,0,0,0,0,0,0,0,0,0,0,0,0,0,0,0,0,0,0,0,0,0,0,0,0,0,0,0,0,0,0,0,0,0,0,0,0,0,0,0,0,0,0,0,0],"id":1,"left_children":[1,3,5,7,9,11,13,15,17,19,21,23,25,27,-1,-1,29,31,33,35,37,39,41,43,45,-1,-1,47,49,-1,-1,-1,-1,-1,-1,-1,-1,-1,-1,-1,-1,-1,-1,-1,-1,-1,-1,-1,-1,-1,-1],"loss_changes":[5.332282E2,1.5916595E1,4.983542E1,2.2593384E0,8.00414E0,9.766795E0,5.2460938E0,6.7840576E-1,2.4984264E0,3.050352E0,1.6876945E0,1.0285231E1,1.4507704E0,4.2138977E0,0E0,0E0,4.7024536E-1,2.3946228E0,1.9931793E-3,2.2169998E0,4.2363663E0,6.752014E-4,4.1485767E0,5.1015515E0,4.701409E0,0E0,0E0,5.328514E0,5.659485E-1,0E0,0E0,0E0,0E0,0E0,0E0,0E0,0E0,0E0,0E0,0E0,0E0,0E0,0E0,0E0,0E0,0E0,0E0,0E0,0E0,0E0,0E0],"parents":[2147483647,0,0,1,1,2,2,3,3,4,4,5,5,6,6,7,7,8,8,9,9,10,10,11,11,12,12,13,13,16,16,17,17,18,18,19,19,20,20,21,21,22,22,23,23,24,24,27,27,28,28],"right_children":[2,4,6,8,10,12,14,16,18,20,22,24,26,28,-1,-1,30,32,34,36,38,40,42,44,46,-1,-1,48,50,-1,-1,-1,-1,-1,-1,-1,-1,-1,-1,-1,-1,-1,-1,-1,-1,-1,-1,-1,-1,-1,-1],"split_conditions":[6.924E-1,6.792E-1,7.133E-1,6.705E-1,7.796E-1,8.12E-1,1.05093E5,6.444E-1,8.5309E4,7.8119E4,6.873E-1,1.00064E5,6.8402E4,7.421E-1,2.6863439E-2,5.9971064E-2,6.627E-1,6.9181E4,9.5502E4,6.9598E4,9.4521E4,7.8483E4,7.917E-1,6.976E-1,7.009E-1,3.9760634E-2,1.0693448E-1,6.0897E4,7.8553E4,9.877555E-2,8.790165E-2,1.0125854E-1,3.6935005E-2,1.0049738E-1,1.0257723E-1,-1.6869204E-2,6.076936E-2,-4.229304E-2,6.41206E-2,1.0084871E-1,1.0220386E-1,2.4509413E-2,1.0347438E-1,1.2591538E-2,-3.8260564E-2,-1.6992582E-2,1.0183551E-1,5.525477E-3,-6.9402866E-2,-8.08573E-2,-9.028999E-2],"split_indices":[11,11,11,11,9,9,0,9,0,0,11,0,0,11,0,0,11,0,0,0,0,0,9,11,11,0,0,0,0,0,0,0,0,0,0,0,0,0,0,0,0,0,0,0,0,0,0,0,0,0,0],"split_type":[0,0,0,0,0,0,0,0,0,0,0,0,0,0,0,0,0,0,0,0,0,0,0,0,0,0,0,0,0,0,0,0,0,0,0,0,0,0,0,0,0,0,0,0,0,0,0,0,0,0,0],"sum_hessian":[2.6288593E2,1.099393E2,1.5294662E2,8.972713E1,2.0212172E1,3.4109833E1,1.1883679E2,7.774096E1,1.1986172E1,9.728229E0,1.0483942E1,3.0875492E1,3.2343395E0,1.1759321E2,1.2435881E0,1.2499998E0,7.649096E1,7.238256E0,4.7479157E0,4.7409925E0,4.9872365E0,3.7482877E0,6.735655E0,2.7128212E1,3.74728E0,1.4925654E0,1.741774E0,5.2625187E1,6.496802E1,6.4744316E1,1.1746642E1,1.99892E0,5.2393355E0,2.749792E0,1.998124E0,1.248032E0,3.4929605E0,3.740095E0,1.2471416E0,1.999602E0,1.7486856E0,3.7404547E0,2.9952002E0,6.4797397E0,2.0648472E1,1.2480924E0,2.4991875E0,2.4906373E0,5.013455E1,3.7180477E1,2.7787544E1],"tree_param":{"num_deleted":"0","num_feature":"12","num_nodes":"51","size_leaf_vector":"1"}},{"base_weights":[1.5798086E-2,-5.807334E-1,1.6965882E0,-9.8407E-1,-7.494865E-2,1.4136047E0,1.8557647E0,9.6609014E-1,-1.2486218E0,1.4628764E0,-9.0054756E-1,1.9213488E0,2.7413973E-1,6.7729175E-2,1.8776987E0,-1.1799382E0,1.7320802E0,-9.2615557E-1,-1.4317037E0,1.1005714E0,1.9103491E0,-1.3231184E0,-2.995054E-1,9.909933E-2,1.9151864E0,-6.8150304E-2,7.9491895E-1,1.7586545E0,1.92429E0,-7.6477127E-3,-9.0965435E-2,9.661178E-2,6.8907194E-2,-6.962301E-2,4.3389697E-2,-6.510132E-2,-8.5557595E-2,9.566776E-2,2.0359892E-2,9.534768E-2,9.613439E-2,-2.9976506E-2,-7.857146E-2,3.6496166E-2,-4.3149512E-2,9.525334E-2,9.624802E-2,2.0923465E-2,1.03702046E-1,9.13374E-2,6.0703624E-2,9.58935E-2,9.958358E-2],"categories":[],"categories_nodes":[],"categories_segments":[],"categories_sizes":[],"default_left":[0,0,0,0,0,0,0,0,0,0,0,0,0,0,0,0,0,0,0,0,0,0,0,0,0,0,0,0,0,0,0,0,0,0,0,0,0,0,0,0,0,0,0,0,0,0,0,0,0,0,0,0,0],"id":2,"left_children":[1,3,5,7,9,11,13,15,17,19,21,23,25,-1,27,29,31,33,35,37,39,41,43,-1,45,-1,47,49,51,-1,-1,-1,-1,-1,-1,-1,-1,-1,-1,-1,-1,-1,-1,-1,-1,-1,-1,-1,-1,-1,-1,-1,-1],"loss_changes":[2.492316E2,3.7426453E1,2.932953E0,5.26587E1,1.0333969E2,1.3561596E1,4.5806885E-1,2.0042015E1,5.306061E0,4.6095543E0,1.3451195E1,6.046295E-3,6.1603055E0,0E0,2.214508E-1,2.1058507E0,6.365204E-1,2.7227331E1,2.077446E0,8.85445E0,5.226135E-4,5.587433E0,1.268232E1,0E0,1.449585E-3,0E0,2.6395535E0,4.164467E-1,1.2413025E-2,0E0,0E0,0E0,0E0,0E0,0E0,0E0,0E0,0E0,0E0,0E0,0E0,0E0,0E0,0E0,0E0,0E0,0E0,0E0,0E0,0E0,0E0,0E0,0E0],"parents":[2147483647,0,0,1,1,2,2,3,3,4,4,5,5,6,6,7,7,8,8,9,9,10,10,11,11,12,12,14,14,15,15,16,16,17,17,18,18,19,19,20,20,21,21,22,22,24,24,26,26,27,27,28,28],"right_children":[2,4,6,8,10,12,14,16,18,20,22,24,26,-1,28,30,32,34,36,38,40,42,44,-1,46,-1,48,50,52,-1,-1,-1,-1,-1,-1,-1,-1,-1,-1,-1,-1,-1,-1,-1,-1,-1,-1,-1,-1,-1,-1,-1,-1],"split_conditions":[4.920282E2,4.395231E2,5.161685E2,6.0897E4,7.8483E4,9.3982E4,9.851E-1,3.714689E2,6.8983E4,4.606199E2,4.697542E2,9.862E-1,9.881E-1,6.7729175E-2,5.292401E2,9.865E-1,5.7677E4,4.074169E2,7.7928E4,7.1665E4,7.7116E4,8.2357E4,8.6416E4,9.909933E-2,8.3202E4,-6.8150304E-2,1.03614E5,1.03614E5,1.12682E5,-7.6477127E-3,-9.0965435E-2,9.661178E-2,6.8907194E-2,-6.962301E-2,4.3389697E-2,-6.510132E-2,-8.5557595E-2,9.566776E-2,2.0359892E-2,9.534768E-2,9.613439E-2,-2.9976506E-2,-7.857146E-2,3.6496166E-2,-4.3149512E-2,9.525334E-2,9.624802E-2,2.0923465E-2,1.03702046E-1,9.13374E-2,6.0703624E-2,9.58935E-2,9.958358E-2],"split_indices":[2,2,2,0,0,0,7,2,0,2,2,7,7,0,2,7,0,2,0,0,0,0,0,0,0,0,0,0,0,0,0,0,0,0,0,0,0,0,0,0,0,0,0,0,0,0,0,0,0,0,0,0,0],"split_type":[0,0,0,0,0,0,0,0,0,0,0,0,0,0,0,0,0,0,0,0,0,0,0,0,0,0,0,0,0,0,0,0,0,0,0,0,0,0,0,0,0,0,0,0,0,0,0,0,0,0,0,0,0],"sum_hessian":[2.4857428E2,1.8346165E2,6.5112625E1,1.0206791E2,8.1393745E1,2.344039E1,4.1672237E1,1.2192216E1,8.9875694E1,2.8432726E1,5.296102E1,1.6215004E1,7.2253857E0,1.7472986E0,3.992494E1,3.2070935E0,8.985122E0,3.2548073E1,5.7327618E1,1.5711558E1,1.27211685E1,3.10975E1,2.1863522E1,1.4958105E0,1.47191925E1,1.7437254E0,5.4816604E0,1.1230449E1,2.869449E1,1.2305441E0,1.9765493E0,5.7394085E0,3.2457137E0,2.5833202E1,6.7148695E0,3.9156944E1,1.8170675E1,7.23296E0,8.478598E0,9.9760685E0,2.7451005E0,7.9451113E0,2.315239E1,7.7341056E0,1.4129416E1,7.231997E0,7.487196E0,4.2352233E0,1.2464372E0,9.98228E0,1.2481691E0,2.6198412E1,2.4960775E0],"tree_param":{"num_deleted":"0","num_feature":"12","num_nodes":"53","size_leaf_vector":"1"}},{"base_weights":[5.4928992E-2,1.3642576E0,-9.113262E-1,1.6542094E0,6.774987E-1,-1.0491279E0,1.6881204E0,-2.4099907E-2,1.6956973E0,1.8021952E-1,1.1517553E0,1.0362579E0,-1.1695298E0,5.8031328E-2,1.9143765E0,1.7188398E0,1.5557787E-2,1.5095799E0,-3.8374013E-1,9.598136E-1,1.8775189E0,1.9620765E0,1.635513E-1,-7.3606575E-1,-1.4410292E0,1.8957529E0,9.8692976E-2,6.105534E-2,8.7712996E-2,9.454385E-2,5.4313887E-2,-8.769537E-2,-2.3119862E-3,6.172184E-2,-1.1498722E-2,9.2662245E-2,9.4548434E-2,9.377195E-2,1.0303958E-1,-2.3398152E-2,4.8453506E-2,-5.4927308E-2,-1.4319166E-2,-7.351182E-2,-4.243622E-3,9.5643334E-2,9.393037E-2],"categories":[],"categories_nodes":[],"categories_segments":[],"categories_sizes":[],"default_left":[0,0,0,0,0,0,0,0,0,0,0,0,0,0,0,0,0,0,0,0,0,0,0,0,0,0,0,0,0,0,0,0,0,0,0,0,0,0,0,0,0,0,0,0,0,0,0],"id":3,"left_children":[1,3,5,7,9,11,13,-1,15,17,19,21,23,-1,25,27,-1,29,31,33,35,37,39,41,43,45,-1,-1,-1,-1,-1,-1,-1,-1,-1,-1,-1,-1,-1,-1,-1,-1,-1,-1,-1,-1,-1],"loss_changes":[3.2658566E2,2.1826569E1,5.320446E1,6.8306274E0,7.6741314E0,3.5415955E1,8.92416E-1,0E0,2.4224243E0,1.1908611E1,2.320177E0,6.2207537E0,1.5693649E1,0E0,5.788803E-3,1.3109741E0,0E0,7.6366806E-1,5.15747E0,4.3038387E0,1.1281967E-3,3.1942368E-2,2.0161266E0,8.371328E0,3.2477722E0,1.1606216E-3,0E0,0E0,0E0,0E0,0E0,0E0,0E0,0E0,0E0,0E0,0E0,0E0,0E0,0E0,0E0,0E0,0E0,0E0,0E0,0E0,0E0],"parents":[2147483647,0,0,1,1,2,2,3,3,4,4,5,5,6,6,8,8,9,9,10,10,11,11,12,12,14,14,15,15,17,17,18,18,19,19,20,20,21,21,22,22,23,23,24,24,25,25],"right_children":[2,4,6,8,10,12,14,-1,16,18,20,22,24,-1,26,28,-1,30,32,34,36,38,40,42,44,46,-1,-1,-1,-1,-1,-1,-1,-1,-1,-1,-1,-1,-1,-1,-1,-1,-1,-1,-1,-1,-1],"split_conditions":[7.866E-1,7.635E-1,4.956879E2,3.936302E2,4.636531E2,2.046612E2,5.056816E2,-2.4099907E-2,2.508826E2,2.024611E2,5.121994E2,2.00431E2,8.233E-1,5.8031328E-2,2.646754E2,4.282503E2,1.5557787E-2,1.980569E2,4.299836E2,2.357103E2,7.686E-1,1.884542E2,3.972996E2,4.423018E2,4.804302E2,2.539534E2,9.8692976E-2,6.105534E-2,8.7712996E-2,9.454385E-2,5.4313887E-2,-8.769537E-2,-2.3119862E-3,6.172184E-2,-1.1498722E-2,9.2662245E-2,9.4548434E-2,9.377195E-2,1.0303958E-1,-2.3398152E-2,4.8453506E-2,-5.4927308E-2,-1.4319166E-2,-7.351182E-2,-4.243622E-3,9.5643334E-2,9.393037E-2],"split_indices":[9,9,2,2,2,3,2,0,3,3,2,3,9,0,3,2,0,3,2,3,9,3,2,2,2,3,0,0,0,0,0,0,0,0,0,0,0,0,0,0,0,0,0,0,0,0,0],"split_type":[0,0,0,0,0,0,0,0,0,0,0,0,0,0,0,0,0,0,0,0,0,0,0,0,0,0,0,0,0,0,0,0,0,0,0,0,0,0,0,0,0,0,0,0,0,0,0],"sum_hessian":[2.5814078E2,1.0961138E2,1.485294E2,7.707153E1,3.2539852E1,1.4105197E2,7.4774365E0,1.4683125E0,7.560322E1,1.5884379E1,1.6655474E1,7.699258E0,1.3335272E2,2.244536E0,5.2329006E0,7.43603E1,1.2429214E0,4.7314496E0,1.1152929E1,1.3171918E1,3.483556E0,3.7359443E0,3.9633136E0,5.1357525E1,8.199519E1,3.985224E0,1.2476765E0,4.94016E0,6.9420135E1,2.489226E0,2.2422235E0,2.2042437E0,8.948686E0,1.0701769E1,2.4701483E0,1.2421024E0,2.2414536E0,1.9897066E0,1.7462376E0,2.2216074E0,1.7417063E0,2.8435894E1,2.292163E1,8.026652E1,1.7286779E0,1.9943676E0,1.9908564E0],"tree_param":{"num_deleted":"0","num_feature":"12","num_nodes":"47","size_leaf_vector":"1"}},{"base_weights":[5.284651E-2,1.4457113E0,-1.1626911E0,1.7161041E0,9.257631E-1,-4.073918E-1,-1.3543116E0,1.7267478E0,6.7921564E-2,5.4853314E-1,1.4304099E0,-6.4868623E-1,8.156957E-1,-1.3845185E0,6.032765E-2,1.7666794E0,1.6992432E0,1.6714262E0,2.1772394E-1,1.7267244E0,1.0205581E0,3.750103E-2,-8.0207855E-1,4.1768798E-1,6.5777324E-2,-1.0644237E0,-1.4866595E0,8.8037714E-2,8.977959E-2,3.0491019E-2,8.716773E-2,7.261703E-2,9.556534E-2,2.330169E-2,-4.4978764E-2,7.286543E-2,1.01114504E-1,-2.2924067E-2,6.6442326E-2,-7.5081214E-2,-1.8311037E-2,2.6426423E-2,1.53563265E-2,3.2633543E-3,-5.9863742E-2,-4.793379E-2,-7.524299E-2],"categories":[],"categories_nodes":[],"categories_segments":[],"categories_sizes":[],"default_left":[0,0,0,0,0,0,0,0,0,0,0,0,0,0,0,0,0,0,0,0,0,0,0,0,0,0,0,0,0,0,0,0,0,0,0,0,0,0,0,0,0,0,0,0,0,0,0],"id":4,"left_children":[1,3,5,7,9,11,13,15,-1,17,19,21,23,25,-1,27,29,31,33,35,37,-1,39,41,-1,43,45,-1,-1,-1,-1,-1,-1,-1,-1,-1,-1,-1,-1,-1,-1,-1,-1,-1,-1,-1,-1],"loss_changes":[4.2456778E2,1.6429276E1,1.9380508E1,2.926941E-1,7.6109314E0,7.9971952E0,8.262344E0,8.1970215E-2,0E0,8.498453E0,2.0769272E0,4.8558636E0,8.882942E-1,3.4513855E0,0E0,5.2108765E-3,2.1244278E0,2.736044E-1,4.9028716E0,7.903786E-1,3.2720933E0,0E0,6.2187653E0,3.0461222E-2,0E0,3.8325462E0,7.6904297E-1,0E0,0E0,0E0,0E0,0E0,0E0,0E0,0E0,0E0,0E0,0E0,0E0,0E0,0E0,0E0,0E0,0E0,0E0,0E0,0E0],"parents":[2147483647,0,0,1,1,2,2,3,3,4,4,5,5,6,6,7,7,9,9,10,10,11,11,12,12,13,13,15,15,16,16,17,17,18,18,19,19,20,20,22,22,23,23,25,25,26,26],"right_children":[2,4,6,8,10,12,14,16,-1,18,20,22,24,26,-1,28,30,32,34,36,38,-1,40,42,-1,44,46,-1,-1,-1,-1,-1,-1,-1,-1,-1,-1,-1,-1,-1,-1,-1,-1,-1,-1,-1,-1],"split_conditions":[7.009E-1,6.705E-1,7.172E-1,1.416303E3,8.4253E4,9.3769E4,1.06188E5,7.9573E4,6.7921564E-2,6.8683E4,1.235253E3,1.00206E3,1.01155E5,7.323E-1,6.032765E-2,6.627E-1,8.0417E4,6.0501E4,6.93E-1,6.846E-1,1.244141E3,3.750103E-2,1.079812E3,9.9043E4,6.5777324E-2,1.010605E3,5.8889E4,8.8037714E-2,8.977959E-2,3.0491019E-2,8.716773E-2,7.261703E-2,9.556534E-2,2.330169E-2,-4.4978764E-2,7.286543E-2,1.01114504E-1,-2.2924067E-2,6.6442326E-2,-7.5081214E-2,-1.8311037E-2,2.6426423E-2,1.53563265E-2,3.2633543E-3,-5.9863742E-2,-4.793379E-2,-7.524299E-2],"split_indices":[11,11,11,1,0,0,0,0,0,0,1,1,0,11,0,11,0,0,11,11,1,0,1,0,0,1,0,0,0,0,0,0,0,0,0,0,0,0,0,0,0,0,0,0,0,0,0],"split_type":[0,0,0,0,0,0,0,0,0,0,0,0,0,0,0,0,0,0,0,0,0,0,0,0,0,0,0,0,0,0,0,0,0,0,0,0,0,0,0,0,0,0,0,0,0,0,0],"sum_hessian":[2.5076659E2,1.1685936E2,1.3390723E2,7.687922E1,3.998014E1,2.7097727E1,1.0680951E2,7.4657555E1,2.221662E0,2.2878315E1,1.7101828E1,2.2632683E1,4.465044E0,1.05564316E2,1.245191E0,3.0449886E1,4.420767E1,5.2062616E0,1.7672052E1,9.925725E0,7.176102E0,2.2367628E0,2.039592E1,2.4857569E0,1.9792869E0,2.5536541E1,8.002777E1,2.5271044E1,5.178843E0,1.7203393E0,4.2487328E1,2.721082E0,2.4851797E0,1.445873E1,3.2133234E0,5.192571E0,4.7331543E0,1.2377737E0,5.9383287E0,7.829568E0,1.2566352E1,1.2413058E0,1.244451E0,2.6870863E0,2.2849455E1,2.6667418E0,7.736103E1],"tree_param":{"num_deleted":"0","num_feature":"12","num_nodes":"47","size_leaf_vector":"1"}},{"base_weights":[-6.217495E-2,1.3430704E0,-1.1185992E0,1.5423895E0,2.9925653E-1,-7.444965E-1,-1.4157176E0,1.6322407E0,1.2131842E0,-5.1315063E-1,1.6418225E0,-1.0012609E0,4.669398E-1,-1.457391E0,-5.273528E-1,5.1931735E-2,1.6447989E0,7.729933E-1,1.8150785E0,5.8689635E-2,-8.894235E-1,2.7747065E-2,1.9673377E0,3.4097295E-2,-1.0417502E0,2.0553643E-1,1.08035445E-1,-8.7692404E-1,-1.4986802E0,2.1134613E-2,-8.0959216E-2,8.492931E-2,7.89012E-2,3.831824E-3,5.7839602E-2,9.1669925E-2,8.7319955E-2,-5.6958735E-2,7.0507064E-2,-9.519521E-2,-2.5711661E-2,9.443731E-2,1.022851E-1,-6.456035E-2,-3.5295427E-2,2.477122E-2,-5.684791E-2,-8.220749E-2,-3.1932812E-2,-6.92557E-2,-8.0761656E-2],"categories":[],"categories_nodes":[],"categories_segments":[],"categories_sizes":[],"default_left":[0,0,0,0,0,0,0,0,0,0,0,0,0,0,0,0,0,0,0,0,0,0,0,0,0,0,0,0,0,0,0,0,0,0,0,0,0,0,0,0,0,0,0,0,0,0,0,0,0,0,0],"id":5,"left_children":[1,3,5,7,9,11,13,15,17,19,21,23,25,27,29,-1,31,33,35,37,39,-1,41,-1,43,45,-1,47,49,-1,-1,-1,-1,-1,-1,-1,-1,-1,-1,-1,-1,-1,-1,-1,-1,-1,-1,-1,-1,-1,-1],"loss_changes":[3.6982318E2,2.2242523E1,1.5806885E1,2.6552582E0,1.8696178E1,1.9580566E1,2.9342804E0,5.2568054E-1,5.0995255E0,2.2978148E0,2.286274E0,3.5398445E0,4.8742123E0,1.8144989E0,3.6839283E0,0E0,2.4804688E-1,2.971126E0,1.0219574E-2,6.861015E0,2.451583E0,0E0,3.061676E-2,0E0,4.249241E0,3.7115147E0,0E0,9.190638E-1,9.355469E-1,0E0,0E0,0E0,0E0,0E0,0E0,0E0,0E0,0E0,0E0,0E0,0E0,0E0,0E0,0E0,0E0,0E0,0E0,0E0,0E0,0E0,0E0],"parents":[2147483647,0,0,1,1,2,2,3,3,4,4,5,5,6,6,7,7,8,8,9,9,10,10,11,11,12,12,13,13,14,14,16,16,17,17,18,18,19,19,20,20,22,22,24,24,25,25,27,27,28,28],"right_children":[2,4,6,8,10,12,14,16,18,20,22,24,26,28,30,-1,32,34,36,38,40,-1,42,-1,44,46,-1,48,50,-1,-1,-1,-1,-1,-1,-1,-1,-1,-1,-1,-1,-1,-1,-1,-1,-1,-1,-1,-1,-1,-1],"split_conditions":[6.976E-1,6.841E-1,7.323E-1,6.705E-1,9.91E-1,9.918E-1,9.932E-1,6.555E-1,9.91E-1,7.769E-1,6.879E-1,7.668E-1,9.935E-1,8.102E-1,9.934E-1,5.1931735E-2,6.46E-1,6.768E-1,7.84E-1,6.897E-1,7.813E-1,2.7747065E-2,6.918E-1,3.4097295E-2,9.895E-1,7.265E-1,1.08035445E-1,9.813E-1,7.592E-1,2.1134613E-2,-8.0959216E-2,8.492931E-2,7.89012E-2,3.831824E-3,5.7839602E-2,9.1669925E-2,8.7319955E-2,-5.6958735E-2,7.0507064E-2,-9.519521E-2,-2.5711661E-2,9.443731E-2,1.022851E-1,-6.456035E-2,-3.5295427E-2,2.477122E-2,-5.684791E-2,-8.220749E-2,-3.1932812E-2,-6.92557E-2,-8.0761656E-2],"split_indices":[11,11,11,11,7,7,7,9,7,9,11,9,7,9,7,0,11,11,9,11,9,0,11,0,7,11,0,7,11,0,0,0,0,0,0,0,0,0,0,0,0,0,0,0,0,0,0,0,0,0,0],"split_type":[0,0,0,0,0,0,0,0,0,0,0,0,0,0,0,0,0,0,0,0,0,0,0,0,0,0,0,0,0,0,0,0,0,0,0,0,0,0,0,0,0,0,0,0,0,0,0,0,0,0,0],"sum_hessian":[2.4911713E2,1.06908485E2,1.4220865E2,8.97672E1,1.7141289E1,6.2949158E1,7.925948E1,7.051994E1,1.9247255E1,1.0679164E1,6.462125E0,5.194038E1,1.1008779E1,7.570799E1,3.5514927E0,1.4610062E0,6.905894E1,1.1116956E1,8.1303005E0,4.2381854E0,6.440978E0,1.4893285E0,4.972796E0,1.2200716E0,5.0720306E1,9.536924E0,1.4718541E0,5.027574E0,7.068041E1,1.8990529E0,1.6524398E0,3.824912E1,3.0809814E1,3.9500566E0,7.1668997E0,6.4182086E0,1.7120913E0,2.2467604E0,1.991425E0,1.738965E0,4.702013E0,2.4828227E0,2.4899735E0,2.9103086E1,2.1617222E1,7.8433037E0,1.6936209E0,1.191361E0,3.8362134E0,3.5798866E1,3.488155E1],"tree_param":{"num_deleted":"0","num_feature":"12","num_nodes":"51","size_leaf_vector":"1"}},{"base_weights":[-1.1342059E-2,-1.0212767E0,1.3013812E0,-1.1164229E0,9.5167935E-1,8.6661816E-1,1.5596625E0,-1.3952705E0,-7.1675193E-1,1.566613E-3,1.3650955E0,6.6064465E-1,1.3991083E0,1.4901E0,1.6157215E0,-1.4761271E0,-1.3031491E0,9.7738616E-2,-8.176653E-1,1.8173469E0,9.493514E-3,1.1678121E0,3.1141612E-1,1.4271671E-2,1.5369418E0,1.5488415E0,8.0641687E-1,1.6399888E0,6.1087232E-2,-3.6549382E-2,-7.487302E-2,-6.683815E-2,-3.8272485E-2,-4.7001883E-2,-2.1103373E-2,9.420457E-2,8.7959975E-2,8.44759E-2,4.1155703E-2,-7.954304E-3,3.985561E-2,6.8640456E-2,8.5505396E-2,6.88474E-2,8.0194816E-2,8.197567E-2,-1.1751906E-3,8.266594E-2,8.197114E-2],"categories":[],"categories_nodes":[],"categories_segments":[],"categories_sizes":[],"default_left":[0,0,0,0,0,0,0,0,0,0,0,0,0,0,0,0,0,0,0,0,0,0,0,0,0,0,0,0,0,0,0,0,0,0,0,0,0,0,0,0,0,0,0,0,0,0,0,0,0],"id":6,"left_children":[1,3,5,7,9,11,13,15,17,-1,19,21,23,25,27,29,31,-1,33,35,-1,37,39,-1,41,43,45,47,-1,-1,-1,-1,-1,-1,-1,-1,-1,-1,-1,-1,-1,-1,-1,-1,-1,-1,-1,-1,-1],"loss_changes":[3.281111E2,2.6257355E1,1.2083893E1,1.4871582E1,2.448502E0,4.398628E0,2.632599E-1,5.854645E-1,1.4784302E1,0E0,2.3601265E0,5.1219788E0,1.7170753E0,1.2098541E0,3.57399E-1,6.6542053E-1,6.640549E-1,0E0,2.5581589E0,1.2436867E-2,0E0,2.1206818E0,3.9136324E0,0E0,2.829094E-1,2.625351E-1,1.6480136E0,2.5177002E-4,0E0,0E0,0E0,0E0,0E0,0E0,0E0,0E0,0E0,0E0,0E0,0E0,0E0,0E0,0E0,0E0,0E0,0E0,0E0,0E0,0E0],"parents":[2147483647,0,0,1,1,2,2,3,3,4,4,5,5,6,6,7,7,8,8,10,10,11,11,12,12,13,13,14,14,15,15,16,16,18,18,19,19,21,21,22,22,24,24,25,25,26,26,27,27],"right_children":[2,4,6,8,10,12,14,16,18,-1,20,22,24,26,28,30,32,-1,34,36,-1,38,40,-1,42,44,46,48,-1,-1,-1,-1,-1,-1,-1,-1,-1,-1,-1,-1,-1,-1,-1,-1,-1,-1,-1,-1,-1],"split_conditions":[8.722E-1,4.956879E2,8.937E-1,8.429E-1,5.056816E2,4.920282E2,9.085E-1,8.204E-1,9.7185E2,1.566613E-3,5.191311E2,1.092047E3,8.774E-1,9.079E-1,1.416303E3,3.50299E2,1.218625E3,9.7738616E-2,8.643E-1,5.136124E2,9.493514E-3,8.797E-1,8.831E-1,1.4271671E-2,1.244141E3,8.973E-1,1.154444E3,4.268217E2,6.1087232E-2,-3.6549382E-2,-7.487302E-2,-6.683815E-2,-3.8272485E-2,-4.7001883E-2,-2.1103373E-2,9.420457E-2,8.7959975E-2,8.44759E-2,4.1155703E-2,-7.954304E-3,3.985561E-2,6.8640456E-2,8.5505396E-2,6.88474E-2,8.0194816E-2,8.197567E-2,-1.1751906E-3,8.266594E-2,8.197114E-2],"split_indices":[6,2,6,6,2,2,6,6,1,0,2,1,6,6,1,2,1,0,6,2,0,6,6,0,1,6,1,2,0,0,0,0,0,0,0,0,0,0,0,0,0,0,0,0,0,0,0,0,0],"split_type":[0,0,0,0,0,0,0,0,0,0,0,0,0,0,0,0,0,0,0,0,0,0,0,0,0,0,0,0,0,0,0,0,0,0,0,0,0,0,0,0,0,0,0,0,0,0,0,0,0],"sum_hessian":[2.4748816E2,1.3987573E2,1.07612434E2,1.3344054E2,6.435193E0,4.0104614E1,6.750782E1,7.86011E1,5.483944E1,1.9946674E0,4.4405255E0,2.8918573E1,1.1186044E1,3.012562E1,3.73822E1,4.185986E1,3.6741238E1,1.9960879E0,5.284335E1,3.206569E0,1.2339568E0,1.1792663E1,1.712591E1,1.231964E0,9.95408E0,2.7742048E1,2.3835714E0,3.5213203E1,2.168993E0,1.1650935E0,4.0694767E1,3.4579517E1,2.1617188E0,4.035891E1,1.2484443E1,1.4928929E0,1.7136761E0,4.691697E0,7.1009655E0,8.699019E0,8.42689E0,5.1103406E0,4.843739E0,6.7298913E0,2.1012156E1,1.1895096E0,1.1940619E0,1.4339913E0,3.3779213E1],"tree_param":{"num_deleted":"0","num_feature":"12","num_nodes":"49","size_leaf_vector":"1"}},{"base_weights":[-7.019379E-2,1.0656865E0,-2.8209287E-1,1.3606249E0,4.7782815E-1,-3.619404E-1,1.5796338E0,-5.6561898E-3,1.4487346E0,2.3754606E-1,1.5030386E0,-5.908269E-1,8.534553E-2,5.9339013E-2,1.6778874E0,1.6772898E0,1.1856366E0,-1.3710274E-1,9.26789E-1,1.0062262E-1,4.9287565E-2,-6.713182E-1,6.217075E-1,1.2501268E0,-2.4981404E-2,1.6509748E0,1.7188487E0,7.9754226E-2,9.179854E-2,7.9835355E-2,4.2965673E-2,1.6572071E-2,-6.498105E-2,8.3648615E-2,2.8026674E-2,3.571451E-2,-3.6275193E-2,4.407537E-2,-2.9305458E-2,5.4022935E-3,8.153138E-2,-2.6085585E-2,1.0380485E-2,8.146291E-2,8.350328E-2,8.797576E-2,8.344532E-2],"categories":[],"categories_nodes":[],"categories_segments":[],"categories_sizes":[],"default_left":[0,0,0,0,0,0,0,0,0,0,0,0,0,0,0,0,0,0,0,0,0,0,0,0,0,0,0,0,0,0,0,0,0,0,0,0,0,0,0,0,0,0,0,0,0,0,0],"id":7,"left_children":[1,3,5,7,9,11,13,-1,15,17,19,21,23,-1,25,27,29,31,33,-1,-1,35,37,39,41,43,45,-1,-1,-1,-1,-1,-1,-1,-1,-1,-1,-1,-1,-1,-1,-1,-1,-1,-1,-1,-1],"loss_changes":[5.8183872E1,6.589546E0,3.0285324E1,3.2863197E0,3.127925E0,1.9999643E1,3.2339668E-1,0E0,1.4359932E0,2.6562715E0,6.353059E-1,1.2612087E1,8.497779E0,0E0,7.381439E-3,1.6669083E-1,1.4891577E0,3.6299534E0,9.899905E-1,0E0,0E0,9.098228E0,2.5242128E0,2.486373E0,6.978958E0,1.6698837E-3,5.3896904E-3,0E0,0E0,0E0,0E0,0E0,0E0,0E0,0E0,0E0,0E0,0E0,0E0,0E0,0E0,0E0,0E0,0E0,0E0,0E0,0E0],"parents":[2147483647,0,0,1,1,2,2,3,3,4,4,5,5,6,6,8,8,9,9,10,10,11,11,12,12,14,14,15,15,16,16,17,17,18,18,21,21,22,22,23,23,24,24,25,25,26,26],"right_children":[2,4,6,8,10,12,14,-1,16,18,20,22,24,-1,26,28,30,32,34,-1,-1,36,38,40,42,44,46,-1,-1,-1,-1,-1,-1,-1,-1,-1,-1,-1,-1,-1,-1,-1,-1,-1,-1,-1,-1],"split_conditions":[6.292E-1,6.041E-1,1.05614E5,9.853E-1,6.255E-1,9.91E-1,9.889E-1,-5.6561898E-3,9.907E-1,9.906E-1,9.903E-1,7.606E-1,6.623E-1,5.9339013E-2,1.12342E5,5.776E-1,5.658E-1,9.894E-1,9.918E-1,1.0062262E-1,4.9287565E-2,5.8772E4,9.2739E4,7.1028E4,7.5087E4,7.382E-1,6.94E-1,7.9754226E-2,9.179854E-2,7.9835355E-2,4.2965673E-2,1.6572071E-2,-6.498105E-2,8.3648615E-2,2.8026674E-2,3.571451E-2,-3.6275193E-2,4.407537E-2,-2.9305458E-2,5.4022935E-3,8.153138E-2,-2.6085585E-2,1.0380485E-2,8.146291E-2,8.350328E-2,8.797576E-2,8.344532E-2],"split_indices":[8,8,4,7,8,7,7,0,7,7,7,8,8,0,4,8,8,7,7,0,0,4,4,4,4,8,8,0,0,0,0,0,0,0,0,0,0,0,0,0,0,0,0,0,0,0,0],"split_type":[0,0,0,0,0,0,0,0,0,0,0,0,0,0,0,0,0,0,0,0,0,0,0,0,0,0,0,0,0,0,0,0,0,0,0,0,0,0,0,0,0,0,0,0,0,0,0],"sum_hessian":[2.4173582E2,3.8005924E1,2.037299E2,2.5308311E1,1.2697613E1,1.9535149E2,8.378422E0,1.4277261E0,2.3880585E1,1.0286689E1,2.410924E0,1.2922438E2,6.61271E1,1.6762371E0,6.702185E0,1.277919E1,1.1101395E1,6.664238E0,3.6224508E0,1.2147034E0,1.1962205E0,1.2118013E2,8.044252E0,5.7215524E0,6.0405544E1,4.0447593E0,2.6574259E0,8.418147E0,4.361043E0,4.912762E0,6.188632E0,4.749848E0,1.9143898E0,1.1926408E0,2.42981E0,4.560535E0,1.166196E2,6.6202464E0,1.424006E0,1.4298458E0,4.2917066E0,1.92642E1,4.1141346E1,1.8923345E0,2.1524248E0,1.4647015E0,1.1927242E0],"tree_param":{"num_deleted":"0","num_feature":"12","num_nodes":"47","size_leaf_vector":"1"}},{"base_weights":[-1.5630886E-2,-3.501964E-1,1.073377E0,1.1869056E0,-7.4388313E-1,1.516537E0,1.0775139E-1,1.4548765E0,5.818537E-1,-1.1689788E0,-4.285191E-1,1.3075045E0,1.5962385E0,-6.9495773E-1,1.1665747E0,1.2536568E-4,1.5556742E0,-5.4444104E-1,1.6435872E0,2.733081E-2,-1.2084455E0,3.194063E-1,-1.2503366E0,1.5964452E0,4.594912E-1,8.9223735E-2,1.5878963E0,-1.12354636E-1,-1.1481329E0,8.851603E-1,1.6971066E0,6.623595E-2,8.0950506E-2,-5.1851273E-2,4.1828062E-2,8.810298E-2,8.023229E-2,-3.5414007E-2,-6.343899E-2,-8.849697E-3,5.1917113E-2,-6.677533E-2,2.4842806E-4,8.089017E-2,7.92318E-2,-3.0510042E-2,8.819673E-2,8.086633E-2,7.8740574E-2,-5.3208966E-2,5.3675603E-2,-9.110172E-2,-4.586128E-2,7.937395E-2,2.3356497E-2,8.246968E-2,8.765475E-2],"categories":[],"categories_nodes":[],"categories_segments":[],"categories_sizes":[],"default_left":[0,0,0,0,0,0,0,0,0,0,0,0,0,0,0,0,0,0,0,0,0,0,0,0,0,0,0,0,0,0,0,0,0,0,0,0,0,0,0,0,0,0,0,0,0,0,0,0,0,0,0,0,0,0,0,0,0],"id":8,"left_children":[1,3,5,7,9,11,13,15,17,19,21,23,25,27,29,-1,31,33,35,-1,37,39,41,43,45,-1,47,49,51,53,55,-1,-1,-1,-1,-1,-1,-1,-1,-1,-1,-1,-1,-1,-1,-1,-1,-1,-1,-1,-1,-1,-1,-1,-1,-1,-1],"loss_changes":[8.731907E1,1.1094342E2,2.410279E1,6.0610046E0,1.9566574E1,6.431961E-1,1.5058983E1,3.7927895E0,1.3721262E1,4.208946E0,5.1503304E1,2.6112137E0,4.3884277E-2,2.6607585E0,1.1406631E0,0E0,3.5437012E-1,3.7876015E0,2.7243614E-2,0E0,1.8336945E0,1.5655625E1,4.2684135E0,1.9989014E-3,3.7790453E0,0E0,1.0299683E-2,4.9769053E0,8.8207245E-1,1.4656391E0,7.0667267E-3,0E0,0E0,0E0,0E0,0E0,0E0,0E0,0E0,0E0,0E0,0E0,0E0,0E0,0E0,0E0,0E0,0E0,0E0,0E0,0E0,0E0,0E0,0E0,0E0,0E0,0E0],"parents":[2147483647,0,0,1,1,2,2,3,3,4,4,5,5,6,6,7,7,8,8,9,9,10,10,11,11,12,12,13,13,14,14,16,16,17,17,18,18,20,20,21,21,22,22,23,23,24,24,26,26,27,27,28,28,29,29,30,30],"right_children":[2,4,6,8,10,12,14,16,18,20,22,24,26,28,30,-1,32,34,36,-1,38,40,42,44,46,-1,48,50,52,54,56,-1,-1,-1,-1,-1,-1,-1,-1,-1,-1,-1,-1,-1,-1,-1,-1,-1,-1,-1,-1,-1,-1,-1,-1,-1,-1],"split_conditions":[1.211226E3,2.090018E2,2.464886E2,2.02024E2,1.081043E3,1.240471E3,1.274989E3,9.831E-1,1.084958E3,9.816E-1,2.375696E2,2.310066E2,9.844E-1,2.560021E2,2.609647E2,1.2536568E-4,9.879E-1,9.905E-1,1.105997E3,2.733081E-2,2.126615E2,9.91E-1,9.926E-1,9.904E-1,9.91E-1,8.9223735E-2,1.267626E3,2.53535E2,2.617127E2,2.53535E2,2.665459E2,6.623595E-2,8.0950506E-2,-5.1851273E-2,4.1828062E-2,8.810298E-2,8.023229E-2,-3.5414007E-2,-6.343899E-2,-8.849697E-3,5.1917113E-2,-6.677533E-2,2.4842806E-4,8.089017E-2,7.92318E-2,-3.0510042E-2,8.819673E-2,8.086633E-2,7.8740574E-2,-5.3208966E-2,5.3675603E-2,-9.110172E-2,-4.586128E-2,7.937395E-2,2.3356497E-2,8.246968E-2,8.765475E-2],"split_indices":[1,3,3,3,1,1,1,7,1,7,3,3,7,3,3,0,7,7,1,0,3,7,7,7,7,0,1,3,3,3,3,0,0,0,0,0,0,0,0,0,0,0,0,0,0,0,0,0,0,0,0,0,0,0,0,0,0],"split_type":[0,0,0,0,0,0,0,0,0,0,0,0,0,0,0,0,0,0,0,0,0,0,0,0,0,0,0,0,0,0,0,0,0,0,0,0,0,0,0,0,0,0,0,0,0,0,0,0,0,0,0,0,0,0,0,0,0],"sum_hessian":[2.3966077E2,1.8333615E2,5.6324615E1,3.7382133E1,1.4595401E2,3.8606647E1,1.7717966E1,2.5907831E1,1.1474303E1,6.216225E1,8.379176E1,1.0656914E1,2.7949736E1,1.0077824E1,7.6401424E0,1.6813716E0,2.422646E1,5.5678678E0,5.9064355E0,1.3978665E0,6.0764385E1,4.386804E1,3.9923725E1,7.9486084E0,2.7083046E0,1.1860708E0,2.6763664E1,4.4092655E0,5.668558E0,4.9921308E0,2.6480114E0,5.213908E0,1.9012552E1,4.104021E0,1.4638466E0,1.4611292E0,4.4453063E0,6.5409055E0,5.422348E1,2.5950275E1,1.791776E1,3.738709E1,2.5366373E0,2.8300161E0,5.1185923E0,1.4880493E0,1.2202555E0,8.237054E0,1.852661E1,2.4460044E0,1.9632612E0,1.4466132E0,4.221945E0,1.8626876E0,3.1294434E0,1.4296935E0,1.218318E0],"tree_param":{"num_deleted":"0","num_feature":"12","num_nodes":"57","size_leaf_vector":"1"}},{"base_weights":[-2.9755558E-3,-9.261636E-1,1.2710977E0,-1.2763612E0,-4.2895737E-1,5.3805614E-1,1.4281977E0,-1.3229271E0,4.4890694E-2,9.294336E-2,-5.2067477E-1,1.6144133E-1,1.0017993E0,1.0730015E0,1.4937905E0,-1.3792365E0,-1.0518585E0,-9.538552E-1,-2.2476922E-1,1.2899395E0,-3.019826E-1,2.9670322E-1,1.3573321E0,-1.7957127E-2,1.2536387E0,1.5061078E0,5.4579284E-2,-6.417286E-2,-7.4911475E-2,-6.452064E-2,-2.532579E-4,-2.1580739E-2,-6.692169E-2,2.2877129E-2,-2.3605762E-2,8.240987E-2,3.9208367E-2,3.6020454E-2,-3.9441388E-2,5.4676767E-2,-3.2664802E-2,4.7777742E-2,8.2223706E-2,8.630147E-2,4.5381915E-2,6.9940895E-2,7.802384E-2],"categories":[],"categories_nodes":[],"categories_segments":[],"categories_sizes":[],"default_left":[0,0,0,0,0,0,0,0,0,0,0,0,0,0,0,0,0,0,0,0,0,0,0,0,0,0,0,0,0,0,0,0,0,0,0,0,0,0,0,0,0,0,0,0,0,0,0],"id":9,"left_children":[1,3,5,7,9,11,13,15,-1,-1,17,19,21,23,25,27,29,31,33,35,37,39,41,-1,43,45,-1,-1,-1,-1,-1,-1,-1,-1,-1,-1,-1,-1,-1,-1,-1,-1,-1,-1,-1,-1,-1],"loss_changes":[2.8168686E2,2.4179314E1,1.1587662E1,8.249054E0,1.2041818E1,3.1015778E0,1.9305573E0,1.2175598E0,0E0,0E0,7.0724306E0,5.1250806E0,1.9951158E0,3.3415318E0,3.4649658E-1,7.527695E-1,3.4262314E0,4.497555E0,5.5325427E0,5.16922E-1,3.4578698E0,2.019518E0,6.1038685E-1,0E0,1.874733E0,3.9588928E-1,0E0,0E0,0E0,0E0,0E0,0E0,0E0,0E0,0E0,0E0,0E0,0E0,0E0,0E0,0E0,0E0,0E0,0E0,0E0,0E0,0E0],"parents":[2147483647,0,0,1,1,2,2,3,3,4,4,5,5,6,6,7,7,10,10,11,11,12,12,13,13,14,14,15,15,16,16,17,17,18,18,19,19,20,20,21,21,22,22,24,24,25,25],"right_children":[2,4,6,8,10,12,14,16,-1,-1,18,20,22,24,26,28,30,32,34,36,38,40,42,-1,44,46,-1,-1,-1,-1,-1,-1,-1,-1,-1,-1,-1,-1,-1,-1,-1,-1,-1,-1,-1,-1,-1],"split_conditions":[8.741E-1,8.447E-1,8.863E-1,1.250073E3,9.7185E2,1.145159E3,8.918E-1,8.376E-1,4.4890694E-2,9.294336E-2,1.090481E3,1.030873E3,6.428E-1,5.888E-1,1.416303E3,1.077192E3,1.158544E3,1.033833E3,6.767E-1,8.787E-1,8.782E-1,6.041E-1,8.782E-1,-1.7957127E-2,1.143656E3,6.387E-1,5.4579284E-2,-6.417286E-2,-7.4911475E-2,-6.452064E-2,-2.532579E-4,-2.1580739E-2,-6.692169E-2,2.2877129E-2,-2.3605762E-2,8.240987E-2,3.9208367E-2,3.6020454E-2,-3.9441388E-2,5.4676767E-2,-3.2664802E-2,4.7777742E-2,8.2223706E-2,8.630147E-2,4.5381915E-2,6.9940895E-2,7.802384E-2],"split_indices":[6,6,6,1,1,1,6,6,0,0,1,1,8,8,1,1,1,1,8,6,6,8,6,0,1,8,0,0,0,0,0,0,0,0,0,0,0,0,0,0,0,0,0,0,0,0,0],"split_type":[0,0,0,0,0,0,0,0,0,0,0,0,0,0,0,0,0,0,0,0,0,0,0,0,0,0,0,0,0,0,0,0,0,0,0,0,0,0,0,0,0,0,0,0,0,0,0],"sum_hessian":[2.3948701E2,1.388656E2,1.0062142E2,8.147807E1,5.7387524E1,1.7758562E1,8.286286E1,7.976959E1,1.708482E0,2.2119513E0,5.517557E1,9.79989E0,7.958674E0,1.2916691E1,6.994617E1,6.604913E1,1.3720463E1,2.2393457E1,3.2782116E1,2.8528423E0,6.9470468E0,2.6678233E0,5.29085E0,1.4467151E0,1.1469975E1,6.7867744E1,2.0784254E0,3.6594055E1,2.9455076E1,1.1174011E1,2.5464518E0,9.496984E0,1.2896474E1,8.722053E0,2.4060062E1,1.6699483E0,1.1828939E0,2.240957E0,4.70609E0,1.4508733E0,1.2169502E0,2.2052343E0,3.085616E0,4.849288E0,6.6206875E0,2.282529E1,4.5042454E1],"tree_param":{"num_deleted":"0","num_feature":"12","num_nodes":"47","size_leaf_vector":"1"}},{"base_weights":[-5.7857927E-2,-4.9206805E-1,1.3045365E0,-8.581383E-1,-4.1885942E-2,1.4706318E0,1.1115328E0,8.005662E-1,-9.7614473E-1,1.0578849E0,-6.638026E-1,1.557524E0,1.416899E0,-3.4597144E-1,1.3202058E0,-5.1569797E-2,1.5435057E0,-6.919824E-1,-1.1941813E0,1.4050522E0,7.054843E-1,-7.210217E-1,8.4262826E-2,1.5294838E0,8.598974E-2,5.017242E-2,1.4513714E0,-8.948421E-2,2.736381E-2,3.260023E-2,1.3830268E0,8.2229614E-2,7.538825E-2,-5.472509E-2,2.7822379E-2,-4.0552028E-2,-6.282633E-2,5.673027E-2,7.6608114E-2,-1.5927121E-3,6.654202E-2,-5.810959E-2,-2.0927584E-2,7.533729E-2,7.899769E-2,7.5708374E-2,6.571051E-2,3.6634896E-2,7.109608E-2],"categories":[],"categories_nodes":[],"categories_segments":[],"categories_sizes":[],"default_left":[0,0,0,0,0,0,0,0,0,0,0,0,0,0,0,0,0,0,0,0,0,0,0,0,0,0,0,0,0,0,0,0,0,0,0,0,0,0,0,0,0,0,0,0,0,0,0,0,0],"id":10,"left_children":[1,3,5,7,9,11,13,15,17,19,21,23,25,27,29,-1,31,33,35,37,39,41,-1,43,-1,-1,45,-1,-1,-1,47,-1,-1,-1,-1,-1,-1,-1,-1,-1,-1,-1,-1,-1,-1,-1,-1,-1,-1],"loss_changes":[1.3555829E2,2.863692E1,1.775383E0,1.8759094E1,5.330256E1,1.3896942E-1,7.7909546E0,8.663557E0,5.543518E0,3.4440289E0,6.691078E0,5.1748276E-2,2.6213837E-1,4.137256E0,9.406166E-1,0E0,1.6355515E-2,1.9520647E1,1.2093201E0,4.8748016E-1,6.441617E0,6.4848175E0,0E0,1.1123657E-2,0E0,0E0,1.4622498E-1,0E0,0E0,0E0,5.1807785E-1,0E0,0E0,0E0,0E0,0E0,0E0,0E0,0E0,0E0,0E0,0E0,0E0,0E0,0E0,0E0,0E0,0E0,0E0],"parents":[2147483647,0,0,1,1,2,2,3,3,4,4,5,5,6,6,7,7,8,8,9,9,10,10,11,11,12,12,13,13,14,14,16,16,17,17,18,18,19,19,20,20,21,21,23,23,26,26,30,30],"right_children":[2,4,6,8,10,12,14,16,18,20,22,24,26,28,30,-1,32,34,36,38,40,42,-1,44,-1,-1,46,-1,-1,-1,48,-1,-1,-1,-1,-1,-1,-1,-1,-1,-1,-1,-1,-1,-1,-1,-1,-1,-1],"split_conditions":[4.920282E2,4.368538E2,9.6724E4,5.8404E4,7.9172E4,5.074736E2,5.056816E2,3.62656E2,6.9476E4,7.463E4,9.935E-1,9.1208E4,5.097596E2,9.88E-1,5.161685E2,-5.1569797E-2,3.869175E2,4.069337E2,9.869E-1,9.886E-1,4.565852E2,4.606199E2,8.4262826E-2,8.5055E4,8.598974E-2,5.017242E-2,9.914E-1,-8.948421E-2,2.736381E-2,3.260023E-2,9.865E-1,8.2229614E-2,7.538825E-2,-5.472509E-2,2.7822379E-2,-4.0552028E-2,-6.282633E-2,5.673027E-2,7.6608114E-2,-1.5927121E-3,6.654202E-2,-5.810959E-2,-2.0927584E-2,7.533729E-2,7.899769E-2,7.5708374E-2,6.571051E-2,3.6634896E-2,7.109608E-2],"split_indices":[2,2,4,4,4,2,2,2,4,4,7,4,2,7,2,0,2,2,7,7,2,2,0,4,0,0,7,0,0,0,7,0,0,0,0,0,0,0,0,0,0,0,0,0,0,0,0,0,0],"split_type":[0,0,0,0,0,0,0,0,0,0,0,0,0,0,0,0,0,0,0,0,0,0,0,0,0,0,0,0,0,0,0,0,0,0,0,0,0,0,0,0,0,0,0,0,0,0,0,0,0],"sum_hessian":[2.2915178E2,1.7376952E2,5.5382263E1,9.583791E1,7.79316E1,2.9766092E1,2.5616169E1,6.365405E0,8.947251E1,2.8150846E1,4.9780754E1,1.1373617E1,1.8392475E1,3.208185E0,2.2407986E1,1.8366176E0,4.528787E0,3.8845726E1,5.0626785E1,1.4180716E1,1.3970131E1,4.8597015E1,1.1837386E0,9.697857E0,1.6757601E0,1.4155023E0,1.6976974E1,1.2262523E0,1.9819325E0,1.9256501E0,2.0482334E1,1.1829413E0,3.345846E0,2.9374716E1,9.471008E0,7.0851583E0,4.3541626E1,4.533976E0,9.646739E0,6.411052E0,7.559079E0,1.976647E1,2.8830545E1,6.6858006E0,3.0120566E0,1.1645387E1,5.3315873E0,1.1558725E0,1.9326462E1],"tree_param":{"num_deleted":"0","num_feature":"12","num_nodes":"49","size_leaf_vector":"1"}},{"base_weights":[2.3304569E-2,1.1603347E0,-8.210129E-1,1.4130087E0,6.55876E-1,-6.798312E-2,-1.010843E0,1.1437025E0,1.4256032E0,4.3660283E-1,9.599297E-1,-2.1490529E-1,8.011549E-2,-7.888456E-1,-1.2208376E0,7.372516E-2,3.1472873E-2,1.4729022E0,1.3738309E0,7.757621E-1,-5.685527E-1,1.551827E0,5.5564153E-1,6.1346424E-1,-3.411717E-1,-9.588957E-1,-1.8730558E-2,-1.2446111E0,-9.870451E-3,7.337056E-2,7.544257E-2,3.3259194E-2,7.012324E-2,3.053498E-2,7.31076E-2,-7.256406E-2,3.643684E-3,8.193085E-2,7.5702555E-2,5.7252288E-2,-8.527605E-3,4.350476E-2,1.5605512E-2,-6.856E-2,-1.5155827E-3,3.0541284E-2,-5.0850756E-2,5.6771107E-2,-1.5596615E-2,-7.200151E-2,-5.9664816E-2],"categories":[],"categories_nodes":[],"categories_segments":[],"categories_sizes":[],"default_left":[0,0,0,0,0,0,0,0,0,0,0,0,0,0,0,0,0,0,0,0,0,0,0,0,0,0,0,0,0,0,0,0,0,0,0,0,0,0,0,0,0,0,0,0,0,0,0,0,0,0,0],"id":11,"left_children":[1,3,5,7,9,11,13,15,17,19,21,23,-1,25,27,-1,-1,29,31,33,35,37,39,41,43,45,47,49,-1,-1,-1,-1,-1,-1,-1,-1,-1,-1,-1,-1,-1,-1,-1,-1,-1,-1,-1,-1,-1,-1,-1],"loss_changes":[2.1666255E2,1.2258499E1,1.8513763E1,2.1734619E-1,2.1398096E0,6.3990464E0,4.8221207E0,4.869969E-1,1.4988708E-1,6.3570285E0,3.2180223E0,2.5068808E0,0E0,6.5848713E0,1.2933197E0,0E0,0E0,6.3095093E-3,5.9301376E-1,1.5796766E0,2.6637528E0,1.7887115E-2,3.4199848E0,2.451632E-1,6.6592E0,3.7575912E0,3.077637E0,5.209427E-1,0E0,0E0,0E0,0E0,0E0,0E0,0E0,0E0,0E0,0E0,0E0,0E0,0E0,0E0,0E0,0E0,0E0,0E0,0E0,0E0,0E0,0E0,0E0],"parents":[2147483647,0,0,1,1,2,2,3,3,4,4,5,5,6,6,7,7,8,8,9,9,10,10,11,11,13,13,14,14,17,17,18,18,19,19,20,20,21,21,22,22,23,23,24,24,25,25,26,26,27,27],"right_children":[2,4,6,8,10,12,14,16,18,20,22,24,-1,26,28,-1,-1,30,32,34,36,38,40,42,44,46,48,50,-1,-1,-1,-1,-1,-1,-1,-1,-1,-1,-1,-1,-1,-1,-1,-1,-1,-1,-1,-1,-1,-1,-1],"split_conditions":[6.961E-1,6.705E-1,7.122E-1,1.008319E3,2.233209E2,1.267626E3,7.421E-1,6.601E-1,2.112793E2,2.177632E2,6.828E-1,1.033833E3,8.011549E-2,2.496675E2,1.250073E3,7.372516E-2,3.1472873E-2,6.601E-1,1.172021E3,2.138361E2,2.194158E2,2.2891E2,1.228911E3,1.014274E3,2.177632E2,2.01582E2,2.532163E2,9.99813E2,-9.870451E-3,7.337056E-2,7.544257E-2,3.3259194E-2,7.012324E-2,3.053498E-2,7.31076E-2,-7.256406E-2,3.643684E-3,8.193085E-2,7.5702555E-2,5.7252288E-2,-8.527605E-3,4.350476E-2,1.5605512E-2,-6.856E-2,-1.5155827E-3,3.0541284E-2,-5.0850756E-2,5.6771107E-2,-1.5596615E-2,-7.200151E-2,-5.9664816E-2],"split_indices":[11,11,11,1,3,1,11,11,3,3,11,1,0,3,1,0,0,11,1,3,3,3,1,1,3,3,3,1,0,0,0,0,0,0,0,0,0,0,0,0,0,0,0,0,0,0,0,0,0,0,0],"split_type":[0,0,0,0,0,0,0,0,0,0,0,0,0,0,0,0,0,0,0,0,0,0,0,0,0,0,0,0,0,0,0,0,0,0,0,0,0,0,0,0,0,0,0,0,0,0,0,0,0,0,0],"sum_hessian":[2.2568677E2,9.617257E1,1.295142E2,6.407739E1,3.2095173E1,2.6075663E1,1.0343854E2,2.8628082E0,6.121459E1,1.864735E1,1.3447823E1,2.3967442E1,2.1082206E0,5.0282257E1,5.315628E1,1.7421339E0,1.1206744E0,3.1989265E1,2.922532E1,1.3942781E1,4.704568E0,5.457612E0,7.9902105E0,3.1700895E0,2.0797352E1,4.1187576E1,9.094683E0,5.1949528E1,1.2067553E0,2.7750599E1,4.238666E0,1.1350296E0,2.8090292E1,1.1239839E1,2.7029438E0,1.9798735E0,2.7246945E0,1.6550506E0,3.8025615E0,4.4104967E0,3.5797138E0,1.7120844E0,1.4580051E0,4.821478E0,1.5975874E1,1.4705344E0,3.971704E1,1.8423784E0,7.2523036E0,1.0804275E1,4.1145252E1],"tree_param":{"num_deleted":"0","num_feature":"12","num_nodes":"51","size_leaf_vector":"1"}},{"base_weights":[4.06821E-2,-8.142044E-1,1.1584951E0,-9.801803E-1,-8.1733845E-2,5.7332826E-1,1.3502082E0,-1.0237194E0,3.0696622E-1,-2.5220984E-1,8.76778E-1,7.740981E-2,4.824828E-1,1.1266785E0,1.4081091E0,-1.1688739E0,-7.32817E-1,-2.3644648E-3,4.8008E-2,6.3757546E-2,-3.9275447E-1,8.998981E-2,4.1171616E-1,1.0976407E-1,8.894999E-1,1.2369986E0,-1.18985735E-2,1.4236478E0,4.5214128E-2,-6.413845E-2,-5.5265307E-2,6.562612E-2,-4.35957E-2,-5.5692803E-2,7.6103734E-4,-3.54434E-2,7.890882E-2,2.1549907E-2,-1.44941015E-2,2.5678163E-2,6.404518E-2,5.1284302E-2,7.520032E-2,6.582208E-2,7.18789E-2],"categories":[],"categories_nodes":[],"categories_segments":[],"categories_sizes":[],"default_left":[0,0,0,0,0,0,0,0,0,0,0,0,0,0,0,0,0,0,0,0,0,0,0,0,0,0,0,0,0,0,0,0,0,0,0,0,0,0,0,0,0,0,0,0,0],"id":12,"left_children":[1,3,5,7,9,11,13,15,17,19,21,-1,23,25,27,29,31,-1,-1,-1,33,-1,35,37,39,41,-1,43,-1,-1,-1,-1,-1,-1,-1,-1,-1,-1,-1,-1,-1,-1,-1,-1,-1],"loss_changes":[2.1494429E2,1.5495003E1,1.0935226E1,5.823204E0,3.8474245E0,2.1303082E0,9.5025635E-1,4.244095E0,7.867157E-1,4.291148E0,1.5261719E0,0E0,3.3380532E0,2.2741146E0,4.565277E-1,4.8545074E-1,9.518705E0,0E0,0E0,0E0,5.3854036E0,0E0,3.090255E0,1.4745584E0,1.5476465E0,7.8853416E-1,0E0,8.4480286E-2,0E0,0E0,0E0,0E0,0E0,0E0,0E0,0E0,0E0,0E0,0E0,0E0,0E0,0E0,0E0,0E0,0E0],"parents":[2147483647,0,0,1,1,2,2,3,3,4,4,5,5,6,6,7,7,8,8,9,9,10,10,12,12,13,13,14,14,15,15,16,16,20,20,22,22,23,23,24,24,25,25,27,27],"right_children":[2,4,6,8,10,12,14,16,18,20,22,-1,24,26,28,30,32,-1,-1,-1,34,-1,36,38,40,42,-1,44,-1,-1,-1,-1,-1,-1,-1,-1,-1,-1,-1,-1,-1,-1,-1,-1,-1],"split_conditions":[8.737E-1,8.61E-1,8.867E-1,1.250073E3,1.224737E3,9.85188E2,8.937E-1,8.429E-1,1.280766E3,9.97908E2,1.9884E0,7.740981E-2,1.13523E3,8.932E-1,1.416303E3,8.067E-1,9.86926E2,-2.3644648E-3,4.8008E-2,6.3757546E-2,1.090481E3,8.998981E-2,1.284605E3,8.804E-1,8.815E-1,1.184422E3,-1.18985735E-2,8.973E-1,4.5214128E-2,-6.413845E-2,-5.5265307E-2,6.562612E-2,-4.35957E-2,-5.5692803E-2,7.6103734E-4,-3.54434E-2,7.890882E-2,2.1549907E-2,-1.44941015E-2,2.5678163E-2,6.404518E-2,5.1284302E-2,7.520032E-2,6.582208E-2,7.18789E-2],"split_indices":[6,6,6,1,1,1,6,6,1,1,10,0,1,6,1,6,1,0,0,0,1,0,1,6,6,1,0,6,0,0,0,0,0,0,0,0,0,0,0,0,0,0,0,0,0],"split_type":[0,0,0,0,0,0,0,0,0,0,0,0,0,0,0,0,0,0,0,0,0,0,0,0,0,0,0,0,0,0,0,0,0,0,0,0,0,0,0,0,0,0,0,0,0],"sum_hessian":[2.249305E2,1.274549E2,9.747559E1,1.03909325E2,2.3545578E1,2.4054369E1,7.342122E1,1.0050948E2,3.3998406E0,1.9990221E1,3.5553565E0,2.0504837E0,2.2003885E1,1.510553E1,5.8315693E1,6.705191E1,3.345757E1,2.204334E0,1.1955066E0,1.6844573E0,1.8305765E1,1.1911833E0,2.3641732E0,1.148589E1,1.0517996E1,1.3975717E1,1.1298138E0,5.6570965E1,1.7447263E0,2.4018217E1,4.3033695E1,2.130457E0,3.1327114E1,6.6145167E0,1.1691247E1,1.2057983E0,1.158375E0,6.3676214E0,5.1182685E0,5.365004E0,5.152992E0,7.8015256E0,6.1741905E0,6.5054626E0,5.0065502E1],"tree_param":{"num_deleted":"0","num_feature":"12","num_nodes":"45","size_leaf_vector":"1"}},{"base_weights":[3.7969653E-2,-8.0902714E-1,1.1101272E0,-9.9549097E-1,-5.8046676E-2,6.538879E-1,1.3680989E0,-1.098661E0,-7.159647E-1,-2.1248193E-1,8.9112914E-1,1.5326688E0,5.578727E-1,1.050579E0,1.3793164E0,-1.1355686E0,-5.197754E-1,-4.2462176E-1,-1.1625706E0,8.429028E-1,-3.713E-1,8.432949E-2,1.7987896E-2,7.3307015E-2,1.5612108E0,2.3607618E-1,9.9320245E-1,3.0815572E-2,7.449107E-2,1.3932385E0,1.2818094E0,-1.1088162E-2,-5.7799082E-2,-4.784023E-3,-7.084685E-2,-2.7700802E-2,4.026952E-2,-6.510337E-2,-1.7062196E-3,8.173368E-3,6.557592E-2,-3.995172E-2,4.4401293E-3,7.905217E-2,7.6843165E-2,1.7554557E-2,-4.628726E-2,2.337733E-2,5.9032153E-2,6.652109E-2,7.099786E-2,2.2095224E-2,7.046546E-2],"categories":[],"categories_nodes":[],"categories_segments":[],"categories_sizes":[],"default_left":[0,0,0,0,0,0,0,0,0,0,0,0,0,0,0,0,0,0,0,0,0,0,0,0,0,0,0,0,0,0,0,0,0,0,0,0,0,0,0,0,0,0,0,0,0,0,0,0,0,0,0,0,0],"id":13,"left_children":[1,3,5,7,9,11,13,15,17,19,21,23,25,27,29,31,33,35,37,39,41,-1,-1,-1,43,45,47,-1,-1,49,51,-1,-1,-1,-1,-1,-1,-1,-1,-1,-1,-1,-1,-1,-1,-1,-1,-1,-1,-1,-1,-1,-1],"loss_changes":[2.087424E2,1.7982178E1,1.1940071E1,2.9667282E0,3.7442186E0,3.0917768E0,2.308197E-1,1.6053925E0,3.6085262E0,3.6822186E0,1.5108268E0,6.8473816E-3,4.6275816E0,4.2181182E-1,8.496857E-2,1.3176193E0,1.7135086E0,2.6713085E0,1.7235508E0,9.148958E-1,3.7579176E0,0E0,0E0,0E0,1.2135506E-3,2.5380402E0,1.3833523E0,0E0,0E0,9.1926575E-2,8.3748055E-1,0E0,0E0,0E0,0E0,0E0,0E0,0E0,0E0,0E0,0E0,0E0,0E0,0E0,0E0,0E0,0E0,0E0,0E0,0E0,0E0,0E0,0E0],"parents":[2147483647,0,0,1,1,2,2,3,3,4,4,5,5,6,6,7,7,8,8,9,9,10,10,11,11,12,12,13,13,14,14,15,15,16,16,17,17,18,18,19,19,20,20,24,24,25,25,26,26,29,29,30,30],"right_children":[2,4,6,8,10,12,14,16,18,20,22,24,26,28,30,32,34,36,38,40,42,-1,-1,-1,44,46,48,-1,-1,50,52,-1,-1,-1,-1,-1,-1,-1,-1,-1,-1,-1,-1,-1,-1,-1,-1,-1,-1,-1,-1,-1,-1],"split_conditions":[2.0508E0,1.957E0,2.2135E0,1.8684E0,2.480882E2,1.984794E2,2.229E0,7.566E-1,1.9273E0,2.03772E2,1.9884E0,1.860777E2,2.233209E2,7.109E-1,2.326208E2,6.387E-1,2.623914E2,7.429E-1,2.491444E2,6.669E-1,2.231268E2,8.432949E-2,1.7987896E-2,7.3307015E-2,2.1493E0,2.208895E2,2.0909E0,3.0815572E-2,7.449107E-2,6.177E-1,2.340947E2,-1.1088162E-2,-5.7799082E-2,-4.784023E-3,-7.084685E-2,-2.7700802E-2,4.026952E-2,-6.510337E-2,-1.7062196E-3,8.173368E-3,6.557592E-2,-3.995172E-2,4.4401293E-3,7.905217E-2,7.6843165E-2,1.7554557E-2,-4.628726E-2,2.337733E-2,5.9032153E-2,6.652109E-2,7.099786E-2,2.2095224E-2,7.046546E-2],"split_indices":[10,10,10,10,3,3,10,8,10,3,10,3,3,8,3,8,3,8,3,8,3,0,0,0,10,3,10,0,0,8,3,0,0,0,0,0,0,0,0,0,0,0,0,0,0,0,0,0,0,0,0,0,0],"split_type":[0,0,0,0,0,0,0,0,0,0,0,0,0,0,0,0,0,0,0,0,0,0,0,0,0,0,0,0,0,0,0,0,0,0,0,0,0,0,0,0,0,0,0,0,0,0,0,0,0,0,0,0,0],"sum_hessian":[2.2986365E2,1.2841595E2,1.01447685E2,1.0287318E2,2.5542776E1,3.6642723E1,6.480496E1,7.513989E1,2.7733282E1,2.1968416E1,3.5743601E0,3.6092222E0,3.30335E1,2.2113628E0,6.25936E1,7.063637E1,4.503528E0,1.6784159E1,1.0949123E1,2.873474E0,1.9094942E1,1.431462E0,2.142898E0,1.0835866E0,2.5256357E0,1.8993486E1,1.4040015E1,1.1119812E0,1.0993816E0,5.477306E1,7.8205442E0,1.5434341E0,6.909293E1,3.0579941E0,1.4455341E0,1.5186569E1,1.5975888E0,9.744521E0,1.2046026E0,1.1729064E0,1.7005676E0,9.895548E0,9.199394E0,1.3918012E0,1.1338345E0,1.728259E1,1.7108954E0,3.690485E0,1.034953E1,1.6345E1,3.842806E1,1.0307152E0,6.7898293E0],"tree_param":{"num_deleted":"0","num_feature":"12","num_nodes":"53","size_leaf_vector":"1"}},{"base_weights":[-6.641162E-3,1.2351677E0,-2.4105416E-1,1.3413199E0,6.0928607E-1,-6.840544E-1,2.4902965E-1,9.1229486E-1,1.4304162E0,-3.0152446E-1,1.4205451E0,-3.0812493E-1,-1.0077105E0,1.0201507E0,-3.352455E-1,1.4097303E0,-3.5314385E-2,1.5426495E0,1.381978E0,-4.862993E-2,1.8987775E-2,7.434926E-2,6.878356E-2,-8.379588E-1,5.2338374E-1,-4.52037E-1,-1.087442E0,1.2668697E0,6.1783725E-1,-6.6968626E-1,1.4346129E0,6.9116995E-2,7.2675474E-2,7.11275E-2,8.941017E-2,7.031094E-2,6.8694815E-2,4.7191117E-2,-4.5835335E-2,4.6172433E-2,-1.4665206E-2,-5.4763734E-2,9.8254755E-3,-5.672988E-2,-1.1666934E-2,5.7739258E-2,7.329548E-2,-3.9715167E-2,6.2006623E-2,-1.4564096E-2,-5.6576263E-2,6.913292E-2,7.622886E-2],"categories":[],"categories_nodes":[],"categories_segments":[],"categories_sizes":[],"default_left":[0,0,0,0,0,0,0,0,0,0,0,0,0,0,0,0,0,0,0,0,0,0,0,0,0,0,0,0,0,0,0,0,0,0,0,0,0,0,0,0,0,0,0,0,0,0,0,0,0,0,0,0,0],"id":14,"left_children":[1,3,5,7,9,11,13,15,17,19,21,23,25,27,29,31,-1,33,35,-1,-1,-1,-1,37,39,41,43,45,47,49,51,-1,-1,-1,-1,-1,-1,-1,-1,-1,-1,-1,-1,-1,-1,-1,-1,-1,-1,-1,-1,-1,-1],"loss_changes":[6.353231E1,2.3025475E0,3.9859856E1,1.132637E0,3.7134185E0,1.173278E1,3.9272133E1,4.1025114E0,1.333847E-1,1.0824094E0,7.9193115E-3,1.9654427E1,2.2957573E0,3.729599E0,2.9353413E1,4.668236E-3,0E0,2.1813393E-1,3.353119E-3,0E0,0E0,0E0,0E0,3.823372E0,5.673E0,2.7124977E0,1.8251038E0,5.1961136E-1,1.2551813E1,7.289179E0,3.683281E-2,0E0,0E0,0E0,0E0,0E0,0E0,0E0,0E0,0E0,0E0,0E0,0E0,0E0,0E0,0E0,0E0,0E0,0E0,0E0,0E0,0E0,0E0],"parents":[2147483647,0,0,1,1,2,2,3,3,4,4,5,5,6,6,7,7,8,8,9,9,10,10,11,11,12,12,13,13,14,14,15,15,17,17,18,18,23,23,24,24,25,25,26,26,27,27,28,28,29,29,30,30],"right_children":[2,4,6,8,10,12,14,16,18,20,22,24,26,28,30,32,-1,34,36,-1,-1,-1,-1,38,40,42,44,46,48,50,52,-1,-1,-1,-1,-1,-1,-1,-1,-1,-1,-1,-1,-1,-1,-1,-1,-1,-1,-1,-1,-1,-1],"split_conditions":[2.03772E2,2.02024E2,3.253002E2,2.722973E2,3.002337E2,2.202388E2,2.375696E2,1.882279E2,2.895167E2,6.783E-1,3.084915E2,3.037793E2,6.649E-1,2.292326E2,3.676993E2,1.785525E2,-3.5314385E-2,1.921897E2,2.986988E2,-4.862993E-2,1.8987775E-2,7.434926E-2,6.878356E-2,6.177E-1,2.165399E2,3.10999E2,7.586E-1,2.228273E2,3.354058E2,2.547969E2,2.598848E2,6.9116995E-2,7.2675474E-2,7.11275E-2,8.941017E-2,7.031094E-2,6.8694815E-2,4.7191117E-2,-4.5835335E-2,4.6172433E-2,-1.4665206E-2,-5.4763734E-2,9.8254755E-3,-5.672988E-2,-1.1666934E-2,5.7739258E-2,7.329548E-2,-3.9715167E-2,6.2006623E-2,-1.4564096E-2,-5.6576263E-2,6.913292E-2,7.622886E-2],"split_indices":[3,3,5,5,5,3,3,3,5,8,5,5,8,3,5,3,0,3,5,0,0,0,0,8,3,5,8,3,5,3,3,0,0,0,0,0,0,0,0,0,0,0,0,0,0,0,0,0,0,0,0,0,0],"split_type":[0,0,0,0,0,0,0,0,0,0,0,0,0,0,0,0,0,0,0,0,0,0,0,0,0,0,0,0,0,0,0,0,0,0,0,0,0,0,0,0,0,0,0,0,0,0,0,0,0,0,0,0,0],"sum_hessian":[2.1825198E2,3.465678E1,1.835952E2,2.9631203E1,5.025578E0,9.6429726E1,8.716548E1,5.095394E0,2.4535809E1,2.3675265E0,2.6580515E0,4.461222E1,5.1817505E1,3.7574715E1,4.9590767E1,3.897565E0,1.1978294E0,7.3968725E0,1.7138935E1,1.192697E0,1.1748294E0,1.0715097E0,1.5865419E0,2.7249165E1,1.7363056E1,6.5021424E0,4.531536E1,2.3291302E1,1.4283412E1,4.1709198E1,7.881566E0,2.397582E0,1.499983E0,4.967364E0,2.4295084E0,4.2852616E0,1.2853674E1,1.1533341E0,2.609583E1,1.1654132E1,5.708924E0,3.264432E0,3.2377102E0,4.2944374E1,2.3709857E0,1.4900471E1,8.39083E0,4.3690233E0,9.914389E0,2.2925426E1,1.8783773E1,4.9962544E0,2.8853114E0],"tree_param":{"num_deleted":"0","num_feature":"12","num_nodes":"53","size_leaf_vector":"1"}},{"base_weights":[3.2869482E-3,1.0591404E0,-2.4488921E-1,1.2714632E0,5.99661E-1,-6.9270563E-1,2.714438E-1,-3.0346557E-3,1.3243024E0,-2.4977961E-1,1.3629745E0,-1.1708474E0,-4.4970572E-1,1.0993948E0,-2.6743078E-1,1.1190535E0,1.3938618E0,-8.2872003E-1,3.4991503E-1,1.351584E0,1.3729007E0,-7.2982275E-1,-1.2664026E0,3.3681506E-1,-7.153245E-1,1.3879856E0,6.3881826E-1,-6.1456966E-1,1.0911169E0,2.7907362E-2,7.167433E-2,7.889842E-2,6.821459E-2,-1.8527268E-2,-8.327985E-2,5.3438943E-2,-5.6923996E-3,6.803188E-2,6.732732E-2,6.914122E-2,6.794349E-2,-7.0972852E-3,-5.6129575E-2,-1.9907966E-2,-6.5021984E-2,-1.3224058E-2,4.784716E-2,-5.1013477E-2,-2.0160556E-2,7.637823E-2,6.836235E-2,-1.7536191E-2,6.537664E-2,-3.561706E-2,1.03210226E-1,7.129145E-3,6.877196E-2],"categories":[],"categories_nodes":[],"categories_segments":[],"categories_sizes":[],"default_left":[0,0,0,0,0,0,0,0,0,0,0,0,0,0,0,0,0,0,0,0,0,0,0,0,0,0,0,0,0,0,0,0,0,0,0,0,0,0,0,0,0,0,0,0,0,0,0,0,0,0,0,0,0,0,0,0,0],"id":15,"left_children":[1,3,5,7,9,11,13,-1,15,17,19,21,23,25,27,29,31,33,35,37,39,41,43,45,47,49,51,53,55,-1,-1,-1,-1,-1,-1,-1,-1,-1,-1,-1,-1,-1,-1,-1,-1,-1,-1,-1,-1,-1,-1,-1,-1,-1,-1,-1,-1],"loss_changes":[5.8052883E1,4.113346E0,4.147689E1,2.029869E0,8.640202E0,1.1161549E1,3.7172707E1,0E0,3.9600372E-1,2.1897116E0,7.8868866E-4,1.364151E0,1.3306595E1,4.3660736E0,2.3801348E1,1.2382488E0,1.1277771E-1,1.2304542E0,1.0328101E0,1.4448166E-4,5.173683E-4,1.3310382E0,7.862625E-1,5.9958854E0,4.5317783E0,5.844879E-2,8.373087E0,1.0528048E1,2.770071E0,0E0,0E0,0E0,0E0,0E0,0E0,0E0,0E0,0E0,0E0,0E0,0E0,0E0,0E0,0E0,0E0,0E0,0E0,0E0,0E0,0E0,0E0,0E0,0E0,0E0,0E0,0E0,0E0],"parents":[2147483647,0,0,1,1,2,2,3,3,4,4,5,5,6,6,8,8,9,9,10,10,11,11,12,12,13,13,14,14,15,15,16,16,17,17,18,18,19,19,20,20,21,21,22,22,23,23,24,24,25,25,26,26,27,27,28,28],"right_children":[2,4,6,8,10,12,14,-1,16,18,20,22,24,26,28,30,32,34,36,38,40,42,44,46,48,50,52,54,56,-1,-1,-1,-1,-1,-1,-1,-1,-1,-1,-1,-1,-1,-1,-1,-1,-1,-1,-1,-1,-1,-1,-1,-1,-1,-1,-1,-1],"split_conditions":[2.071816E2,2.02024E2,8.408E4,9.831E-1,7.1821E4,7.1141E4,2.375696E2,-3.0346557E-3,6.0501E4,9.892E-1,2.042834E2,9.867E-1,2.183103E2,2.292326E2,1.04566E5,9.888E-1,6.2922E4,9.885E-1,2.03772E2,9.906E-1,7.9573E4,6.5204E4,5.8889E4,7.6078E4,9.899E-1,8.5518E4,8.8355E4,9.935E-1,9.889E-1,2.7907362E-2,7.167433E-2,7.889842E-2,6.821459E-2,-1.8527268E-2,-8.327985E-2,5.3438943E-2,-5.6923996E-3,6.803188E-2,6.732732E-2,6.914122E-2,6.794349E-2,-7.0972852E-3,-5.6129575E-2,-1.9907966E-2,-6.5021984E-2,-1.3224058E-2,4.784716E-2,-5.1013477E-2,-2.0160556E-2,7.637823E-2,6.836235E-2,-1.7536191E-2,6.537664E-2,-3.561706E-2,1.03210226E-1,7.129145E-3,6.877196E-2],"split_indices":[3,3,0,7,0,0,3,0,0,7,3,7,3,3,0,7,0,7,3,7,0,0,0,0,7,0,0,7,7,0,0,0,0,0,0,0,0,0,0,0,0,0,0,0,0,0,0,0,0,0,0,0,0,0,0,0,0],"split_type":[0,0,0,0,0,0,0,0,0,0,0,0,0,0,0,0,0,0,0,0,0,0,0,0,0,0,0,0,0,0,0,0,0,0,0,0,0,0,0,0,0,0,0,0,0,0,0,0,0,0,0,0,0,0,0,0,0],"sum_hessian":[2.2154404E2,4.216311E1,1.7938092E2,2.8837479E1,1.3325631E1,9.6064255E1,8.3316666E1,1.1001828E0,2.7737295E1,6.306997E0,7.0186343E0,3.2370342E1,6.3693913E1,3.284782E1,5.046885E1,7.020858E0,2.0716438E1,3.2090278E0,3.097969E0,3.2683578E0,3.7502768E0,5.7645755E0,2.6605764E1,1.6079899E1,4.7614014E1,2.0194326E1,1.2653492E1,4.0197502E1,1.0271347E1,2.5219848E0,4.4988728E0,2.866873E0,1.7849566E1,2.0737119E0,1.1353159E0,1.2148577E0,1.8831112E0,1.1682184E0,2.1001394E0,2.1965373E0,1.5537395E0,2.3088322E0,3.4557433E0,1.0036623E0,2.5602102E1,8.163909E0,7.91599E0,2.4083567E1,2.3530445E1,2.6123137E0,1.7582012E1,5.1026926E0,7.5507994E0,3.8782013E1,1.4154886E0,2.3687873E0,7.90256E0],"tree_param":{"num_deleted":"0","num_feature":"12","num_nodes":"57","size_leaf_vector":"1"}},{"base_weights":[8.654975E-3,8.4327364E-1,-6.8820655E-1,1.1945181E0,4.179153E-1,-4.6386442E-1,-1.2279906E0,1.3265611E0,9.902423E-1,2.978684E-1,9.8268E-1,-5.046468E-1,7.905635E-2,-1.2689482E0,-2.737567E-3,1.1386888E0,1.3565679E0,1.3525714E0,6.826793E-1,3.905433E-1,-7.358812E-1,1.4971948E0,4.3463755E-1,9.341141E-1,-5.505044E-1,-1.3302495E0,-1.190829E0,6.637316E-2,2.5726339E-2,6.675161E-2,7.187434E-2,6.004429E-2,7.271697E-2,2.0756878E-2,6.6833094E-2,-6.0433645E-2,2.2299696E-2,4.5334317E-2,-8.2239054E-2,7.036801E-2,7.890403E-2,4.8967604E-2,-2.2356804E-2,-1.7137704E-2,9.5953956E-2,-4.264961E-2,-1.719463E-2,-6.743117E-2,-6.626655E-2,1.9637208E-2,-6.6492215E-2],"categories":[],"categories_nodes":[],"categories_segments":[],"categories_sizes":[],"default_left":[0,0,0,0,0,0,0,0,0,0,0,0,0,0,0,0,0,0,0,0,0,0,0,0,0,0,0,0,0,0,0,0,0,0,0,0,0,0,0,0,0,0,0,0,0,0,0,0,0,0,0],"id":16,"left_children":[1,3,5,7,9,11,13,15,17,19,21,23,-1,25,-1,27,29,31,33,35,37,39,41,43,45,47,49,-1,-1,-1,-1,-1,-1,-1,-1,-1,-1,-1,-1,-1,-1,-1,-1,-1,-1,-1,-1,-1,-1,-1,-1],"loss_changes":[1.2113308E2,1.4158844E1,1.3744713E1,1.4000702E0,2.9059758E0,6.686882E0,1.6012955E0,1.7772675E-1,2.2710152E0,3.3864748E0,2.1186786E0,5.186615E0,0E0,1.5419388E-1,0E0,5.1159716E-1,4.737091E-2,1.4443016E-1,1.9285884E0,2.8767166E0,4.3418007E0,2.8154373E-2,1.7475346E0,3.0538495E0,4.7612476E0,1.6212463E-3,3.1166859E0,0E0,0E0,0E0,0E0,0E0,0E0,0E0,0E0,0E0,0E0,0E0,0E0,0E0,0E0,0E0,0E0,0E0,0E0,0E0,0E0,0E0,0E0,0E0,0E0],"parents":[2147483647,0,0,1,1,2,2,3,3,4,4,5,5,6,6,7,7,8,8,9,9,10,10,11,11,13,13,15,15,16,16,17,17,18,18,19,19,20,20,21,21,22,22,23,23,24,24,25,25,26,26],"right_children":[2,4,6,8,10,12,14,16,18,20,22,24,-1,26,-1,28,30,32,34,36,38,40,42,44,46,48,50,-1,-1,-1,-1,-1,-1,-1,-1,-1,-1,-1,-1,-1,-1,-1,-1,-1,-1,-1,-1,-1,-1,-1,-1],"split_conditions":[7.908E-1,7.541E-1,8.456E-1,7.015E-1,9.4521E4,1.05093E5,9.9165E4,6.7781E4,7.28E-1,7.866E-1,9.959E4,6.1138E4,7.905635E-2,7.341E-1,-2.737567E-3,7.426E-1,7.426E-1,6.92E-1,7.532E-1,5.776E-1,6.9827E4,7.706E-1,7.807E-1,7.13E-1,7.5097E4,8.514E-1,7.375E-1,6.637316E-2,2.5726339E-2,6.675161E-2,7.187434E-2,6.004429E-2,7.271697E-2,2.0756878E-2,6.6833094E-2,-6.0433645E-2,2.2299696E-2,4.5334317E-2,-8.2239054E-2,7.036801E-2,7.890403E-2,4.8967604E-2,-2.2356804E-2,-1.7137704E-2,9.5953956E-2,-4.264961E-2,-1.719463E-2,-6.743117E-2,-6.626655E-2,1.9637208E-2,-6.6492215E-2],"split_indices":[9,9,9,8,0,0,0,0,9,9,0,0,0,8,0,9,9,9,8,8,0,9,9,8,0,9,8,0,0,0,0,0,0,0,0,0,0,0,0,0,0,0,0,0,0,0,0,0,0,0,0],"split_type":[0,0,0,0,0,0,0,0,0,0,0,0,0,0,0,0,0,0,0,0,0,0,0,0,0,0,0,0,0,0,0,0,0,0,0,0,0,0,0,0,0,0,0,0,0,0,0,0,0,0,0],"sum_hessian":[2.0827069E2,9.476834E1,1.1350236E2,5.1906204E1,4.2862137E1,8.0178856E1,3.3323498E1,3.152716E1,2.0379044E1,3.5348442E1,7.513694E0,7.861115E1,1.5677056E0,3.2199425E1,1.1240757E0,4.341999E0,2.7185162E1,9.356487E0,1.1022555E1,3.2440205E1,2.9082394E0,3.8753874E0,3.6383066E0,2.4281762E0,7.6182976E1,1.804173E1,1.4157693E1,3.3337283E0,1.0082707E0,2.1470911E1,5.714252E0,3.7568796E0,5.599608E0,7.822432E0,3.2001235E0,1.0871229E0,3.135308E1,1.0359911E0,1.8722482E0,1.8361402E0,2.0392473E0,2.248994E0,1.3893125E0,1.0574026E0,1.3707734E0,3.0917912E1,4.5265064E1,3.8097537E0,1.42319765E1,1.1425442E0,1.3015149E1],"tree_param":{"num_deleted":"0","num_feature":"12","num_nodes":"51","size_leaf_vector":"1"}},{"base_weights":[2.5012153E-3,-7.1480715E-1,1.018635E0,-3.9261797E-1,-1.1286709E0,6.402732E-1,1.2207412E0,-4.6040145E-1,1.4972359E0,-1.2394847E0,-1.0344516E0,1.4707873E0,4.9683532E-1,1.1195054E0,1.3089867E0,1.1151485E0,-5.3568524E-1,7.941034E-2,7.07359E-2,-1.047383E0,-1.3085613E0,7.068059E-2,-1.1658101E0,1.4059026E0,7.844139E-2,2.2501098E-1,1.0421579E0,1.1870688E0,6.8016774E-3,1.3077458E0,6.680498E-2,3.0244086E-2,9.709576E-2,-3.6938496E-2,-9.100183E-3,-3.6666967E-2,-6.8102255E-2,-6.517185E-2,-6.617134E-2,-6.1119374E-2,-3.8809936E-2,6.8391494E-2,7.2344415E-2,-5.6555986E-2,1.7434195E-2,8.597341E-2,4.515381E-2,3.686623E-2,6.0902663E-2,6.535145E-2,6.591213E-2],"categories":[],"categories_nodes":[],"categories_segments":[],"categories_sizes":[],"default_left":[0,0,0,0,0,0,0,0,0,0,0,0,0,0,0,0,0,0,0,0,0,0,0,0,0,0,0,0,0,0,0,0,0,0,0,0,0,0,0,0,0,0,0,0,0,0,0,0,0,0,0],"id":17,"left_children":[1,3,5,7,9,11,13,15,17,19,21,23,25,27,29,31,33,-1,-1,35,37,-1,39,41,-1,43,45,47,-1,49,-1,-1,-1,-1,-1,-1,-1,-1,-1,-1,-1,-1,-1,-1,-1,-1,-1,-1,-1,-1,-1],"loss_changes":[1.5106694E2,1.6200272E1,6.558365E0,8.750938E0,5.552521E-1,3.5573063E0,4.9941254E-1,7.82226E0,1.775074E-2,3.242874E-1,9.242878E0,2.796936E-2,3.7745204E0,1.7299652E0,1.0032654E-3,1.268749E0,4.520815E0,0E0,0E0,6.387024E-1,1.3656616E-3,0E0,6.0131073E-1,4.1241646E-3,0E0,2.8500314E0,7.979269E-1,3.3948135E-1,0E0,2.0599365E-4,0E0,0E0,0E0,0E0,0E0,0E0,0E0,0E0,0E0,0E0,0E0,0E0,0E0,0E0,0E0,0E0,0E0,0E0,0E0,0E0,0E0],"parents":[2147483647,0,0,1,1,2,2,3,3,4,4,5,5,6,6,7,7,8,8,9,9,10,10,11,11,12,12,13,13,14,14,15,15,16,16,19,19,20,20,22,22,23,23,25,25,26,26,27,27,29,29],"right_children":[2,4,6,8,10,12,14,16,18,20,22,24,26,28,30,32,34,-1,-1,36,38,-1,40,42,-1,44,46,48,-1,50,-1,-1,-1,-1,-1,-1,-1,-1,-1,-1,-1,-1,-1,-1,-1,-1,-1,-1,-1,-1,-1],"split_conditions":[2.0556E0,7.393E-1,2.2135E0,3.657985E2,3.079607E2,2.957193E2,2.3932E0,2.784537E2,1.9759E0,2.862527E2,3.103289E2,2.849889E2,3.354058E2,2.3854E0,3.75984E2,2.722973E2,1.957E0,7.941034E-2,7.07359E-2,1.6796E0,3.014082E2,7.068059E-2,1.7991E0,2.70992E2,7.844139E-2,6.734E-1,2.0702E0,2.756573E2,6.8016774E-3,2.7974E0,6.680498E-2,3.0244086E-2,9.709576E-2,-3.6938496E-2,-9.100183E-3,-3.6666967E-2,-6.8102255E-2,-6.517185E-2,-6.617134E-2,-6.1119374E-2,-3.8809936E-2,6.8391494E-2,7.2344415E-2,-5.6555986E-2,1.7434195E-2,8.597341E-2,4.515381E-2,3.686623E-2,6.0902663E-2,6.535145E-2,6.591213E-2],"split_indices":[10,11,10,5,5,5,10,5,10,5,5,5,5,10,5,5,10,0,0,10,5,0,10,5,0,11,10,5,0,10,0,0,0,0,0,0,0,0,0,0,0,0,0,0,0,0,0,0,0,0,0],"split_type":[0,0,0,0,0,0,0,0,0,0,0,0,0,0,0,0,0,0,0,0,0,0,0,0,0,0,0,0,0,0,0,0,0,0,0,0,0,0,0,0,0,0,0,0,0,0,0,0,0,0,0],"sum_hessian":[2.0725862E2,1.21493805E2,8.576482E1,6.831286E1,5.3180946E1,2.986143E1,5.590339E1,6.594752E1,2.3653414E0,2.4438337E1,2.8742607E1,4.3978114E0,2.5463617E1,2.6035406E1,2.9867981E1,3.007437E0,6.2940083E1,1.1250292E0,1.2403123E0,6.463476E0,1.7974861E1,1.4637322E0,2.7278875E1,2.6464086E0,1.751403E0,1.6993134E1,8.470484E0,2.4361778E1,1.6736286E0,2.8561008E1,1.3069736E0,1.8596778E0,1.1477591E0,3.998222E1,2.2957865E1,3.2349215E0,3.2285547E0,1.3367177E1,4.607685E0,2.3819876E1,3.4589999E0,1.371996E0,1.2744125E0,1.4201804E0,1.5572954E1,1.4430393E0,7.027444E0,1.5701903E0,2.2791588E1,2.6735647E1,1.8253607E0],"tree_param":{"num_deleted":"0","num_feature":"12","num_nodes":"51","size_leaf_vector":"1"}},{"base_weights":[2.4454232E-2,9.1689354E-1,-6.724202E-1,-7.537559E-3,1.069386E0,-7.754943E-1,4.7959748E-1,9.682652E-1,-8.326725E-1,1.2632433E0,7.6670104E-1,-5.37089E-1,-9.7386634E-1,1.3811973E0,-8.816329E-1,1.4185892E-2,1.3002765E0,-1.375068E0,4.9876496E-2,1.3035728E0,1.1917648E0,4.6525687E-1,1.270979E0,-8.199007E-1,2.8984952E-1,-5.5303884E-1,-1.0518619E0,1.8881602E0,7.8279877E-1,-6.6853836E-2,-2.5755325E-2,6.557965E-2,6.468096E-2,-1.1476102E-1,-4.2391084E-2,6.466539E-2,6.763332E-2,2.1581493E-2,6.559192E-2,6.974415E-2,1.4303808E-2,6.779711E-2,2.7721876E-2,4.3887008E-2,-4.4412475E-2,2.044823E-2,-4.1762285E-2,2.4689477E-2,-4.418372E-2,-6.295978E-2,-4.4159047E-2,1.0727507E-1,7.7615276E-2,-1.8054027E-3,9.001722E-2],"categories":[],"categories_nodes":[],"categories_segments":[],"categories_sizes":[],"default_left":[0,0,0,0,0,0,0,0,0,0,0,0,0,0,0,0,0,0,0,0,0,0,0,0,0,0,0,0,0,0,0,0,0,0,0,0,0,0,0,0,0,0,0,0,0,0,0,0,0,0,0,0,0,0,0],"id":18,"left_children":[1,3,5,7,9,11,13,15,17,19,21,23,25,27,29,-1,31,33,-1,35,37,39,41,43,45,47,49,51,53,-1,-1,-1,-1,-1,-1,-1,-1,-1,-1,-1,-1,-1,-1,-1,-1,-1,-1,-1,-1,-1,-1,-1,-1,-1,-1],"loss_changes":[1.2644159E2,1.2566803E1,1.35560875E1,1.0163712E1,4.4901733E0,4.9557076E0,1.1506553E1,1.3144603E0,6.7895985E0,1.3446808E-1,4.541445E0,1.1130137E1,1.8773308E0,1.7109804E0,6.235912E-1,0E0,2.8944016E-4,2.5596237E0,0E0,1.50260925E-2,1.5357246E0,3.114593E0,6.804695E-1,4.114855E0,1.6253922E0,3.095383E0,1.6875572E0,2.6388454E-1,2.1554632E0,0E0,0E0,0E0,0E0,0E0,0E0,0E0,0E0,0E0,0E0,0E0,0E0,0E0,0E0,0E0,0E0,0E0,0E0,0E0,0E0,0E0,0E0,0E0,0E0,0E0,0E0],"parents":[2147483647,0,0,1,1,2,2,3,3,4,4,5,5,6,6,7,7,8,8,9,9,10,10,11,11,12,12,13,13,14,14,16,16,17,17,19,19,20,20,21,21,22,22,23,23,24,24,25,25,26,26,27,27,28,28],"right_children":[2,4,6,8,10,12,14,16,18,20,22,24,26,28,30,-1,32,34,-1,36,38,40,42,44,46,48,50,52,54,-1,-1,-1,-1,-1,-1,-1,-1,-1,-1,-1,-1,-1,-1,-1,-1,-1,-1,-1,-1,-1,-1,-1,-1,-1,-1],"split_conditions":[6.976E-1,9.874E-1,9.926E-1,6.644E-1,6.705E-1,7.327E-1,7.366E-1,9.851E-1,8.8355E4,9.914E-1,9.913E-1,9.911E-1,9.867E-1,7.22E-1,9.932E-1,1.4185892E-2,9.86E-1,7.5097E4,4.9876496E-2,6.601E-1,9.916E-1,6.5336E4,9.9852E4,6.0897E4,9.4816E4,6.5204E4,9.904E-1,9.4983E4,8.4253E4,-6.6853836E-2,-2.5755325E-2,6.557965E-2,6.468096E-2,-1.1476102E-1,-4.2391084E-2,6.466539E-2,6.763332E-2,2.1581493E-2,6.559192E-2,6.974415E-2,1.4303808E-2,6.779711E-2,2.7721876E-2,4.3887008E-2,-4.4412475E-2,2.044823E-2,-4.1762285E-2,2.4689477E-2,-4.418372E-2,-6.295978E-2,-4.4159047E-2,1.0727507E-1,7.7615276E-2,-1.8054027E-3,9.001722E-2],"split_indices":[11,7,7,11,11,11,11,7,0,7,7,7,7,11,7,0,7,0,0,11,7,0,0,0,0,0,7,0,0,0,0,0,0,0,0,0,0,0,0,0,0,0,0,0,0,0,0,0,0,0,0,0,0,0,0],"split_type":[0,0,0,0,0,0,0,0,0,0,0,0,0,0,0,0,0,0,0,0,0,0,0,0,0,0,0,0,0,0,0,0,0,0,0,0,0,0,0,0,0,0,0,0,0,0,0,0,0,0,0,0,0,0,0],"sum_hessian":[2.0330907E2,8.914595E1,1.1416311E2,1.2623077E1,7.652287E1,1.047875E2,9.375612E0,5.78351E0,6.8395677E0,4.6647232E1,2.987564E1,4.7591557E1,5.719594E1,5.640003E0,3.7356093E0,1.8889151E0,3.8945951E0,5.2759867E0,1.563581E0,2.9821423E1,1.682581E1,1.8698296E1,1.1177347E1,3.54632E1,1.2128359E1,8.94312E0,4.825282E1,3.0532699E0,2.586733E0,1.6657507E0,2.0698586E0,1.4423668E0,2.4522283E0,1.9218898E0,3.354097E0,2.4664438E1,5.1569843E0,2.295291E0,1.4530519E1,3.0216002E0,1.5676695E1,9.992497E0,1.1848495E0,1.3725241E0,3.4090675E1,1.0967246E1,1.161113E0,2.146635E0,6.796485E0,2.164632E1,2.6606499E1,1.72869E0,1.3245798E0,1.4332633E0,1.1534699E0],"tree_param":{"num_deleted":"0","num_feature":"12","num_nodes":"55","size_leaf_vector":"1"}},{"base_weights":[6.127511E-3,7.513299E-1,-1.1742336E-1,1.5456795E0,5.97305E-1,-3.1552005E-1,3.85887E-1,1.3437655E0,9.7996205E-2,1.27768E0,3.6004356E-1,-4.7539854E-1,4.503268E-1,2.4988094E-1,1.3894343E0,6.380299E-2,6.895881E-2,1.2666696E0,6.5654166E-2,-1.624467E-1,5.944848E-1,9.5982474E-1,-5.225717E-1,2.7792662E-1,8.8661337E-1,8.467685E-1,1.4224514E-1,7.478141E-2,1.342915E0,6.3119456E-2,6.405721E-2,1.7642451E-2,-6.985337E-2,9.078958E-2,2.2315683E-2,6.814091E-2,2.9256864E-2,-4.433559E-2,-1.5485145E-2,3.1971935E-2,4.6712523E-3,2.4917342E-2,7.541004E-2,-2.4212614E-2,5.8069617E-2,-3.2181807E-2,1.0620995E-2,6.862133E-2,6.457406E-2],"categories":[],"categories_nodes":[],"categories_segments":[],"categories_sizes":[],"default_left":[0,0,0,0,0,0,0,0,0,0,0,0,0,0,0,0,0,0,0,0,0,0,0,0,0,0,0,0,0,0,0,0,0,0,0,0,0,0,0,0,0,0,0,0,0,0,0,0,0],"id":19,"left_children":[1,3,5,7,9,11,13,15,-1,17,19,21,23,25,27,-1,-1,29,-1,31,33,35,37,39,41,43,45,-1,47,-1,-1,-1,-1,-1,-1,-1,-1,-1,-1,-1,-1,-1,-1,-1,-1,-1,-1,-1,-1],"loss_changes":[1.7479973E1,3.303484E0,1.6237213E1,3.6677265E-1,3.6507082E0,1.4308572E1,6.2777123E0,7.063389E-3,0E0,2.2745132E-3,2.0539606E0,6.545431E0,1.5180326E0,2.6023028E0,2.711296E-2,0E0,0E0,2.7179718E-4,0E0,3.3040564E0,2.094542E0,4.645357E-1,7.2553673E0,9.648788E-1,1.3795815E0,2.5914736E0,1.8925346E0,0E0,5.789757E-3,0E0,0E0,0E0,0E0,0E0,0E0,0E0,0E0,0E0,0E0,0E0,0E0,0E0,0E0,0E0,0E0,0E0,0E0,0E0,0E0],"parents":[2147483647,0,0,1,1,2,2,3,3,4,4,5,5,6,6,7,7,9,9,10,10,11,11,12,12,13,13,14,14,17,17,19,19,20,20,21,21,22,22,23,23,24,24,25,25,26,26,28,28],"right_children":[2,4,6,8,10,12,14,16,-1,18,20,22,24,26,28,-1,-1,30,-1,32,34,36,38,40,42,44,46,-1,48,-1,-1,-1,-1,-1,-1,-1,-1,-1,-1,-1,-1,-1,-1,-1,-1,-1,-1,-1,-1],"split_conditions":[6.292E-1,6.8402E4,8.808E4,6.071E-1,5.658E-1,7.494E-1,1.05505E5,5.658E-1,9.7996205E-2,5.509E-1,7.5097E4,5.6867E4,7.649E-1,6.748E-1,6.94E-1,6.380299E-2,6.895881E-2,9.7349E4,6.5654166E-2,7.3128E4,7.6934E4,5.5082E4,7.1517E4,7.521E-1,7.6078E4,6.403E-1,6.9E-1,7.478141E-2,1.11027E5,6.3119456E-2,6.405721E-2,1.7642451E-2,-6.985337E-2,9.078958E-2,2.2315683E-2,6.814091E-2,2.9256864E-2,-4.433559E-2,-1.5485145E-2,3.1971935E-2,4.6712523E-3,2.4917342E-2,7.541004E-2,-2.4212614E-2,5.8069617E-2,-3.2181807E-2,1.0620995E-2,6.862133E-2,6.457406E-2],"split_indices":[8,0,0,8,8,8,0,8,0,8,0,0,8,8,8,0,0,0,0,0,0,0,0,8,0,8,8,0,0,0,0,0,0,0,0,0,0,0,0,0,0,0,0,0,0,0,0,0,0],"split_type":[0,0,0,0,0,0,0,0,0,0,0,0,0,0,0,0,0,0,0,0,0,0,0,0,0,0,0,0,0,0,0,0,0,0,0,0,0,0,0,0,0,0,0,0,0,0,0,0,0],"sum_hessian":[1.898544E2,2.7000391E1,1.62854E2,4.3851132E0,2.2615278E1,1.1685955E2,4.5994457E1,2.948126E0,1.436987E0,5.847338E0,1.6767939E1,9.667718E1,2.0182367E1,4.0505005E1,5.489451E0,1.0124285E0,1.9356974E0,4.4602757E0,1.3870625E0,5.193463E0,1.1574476E1,3.0764809E0,9.36007E1,1.4466057E1,5.71631E0,6.1882787E0,3.4316727E1,1.672169E0,3.8172817E0,3.4424207E0,1.0178549E0,3.6641505E0,1.5293123E0,1.2523022E0,1.0322174E1,1.4822488E0,1.594232E0,3.4530952E1,5.9069748E1,4.8881726E0,9.577884E0,3.5185173E0,2.1977925E0,1.1831102E0,5.0051684E0,2.813095E0,3.1503632E1,2.4255176E0,1.3917642E0],"tree_param":{"num_deleted":"0","num_feature":"12","num_nodes":"49","size_leaf_vector":"1"}},{"base_weights":[8.332238E-3,-6.668694E-1,9.2534846E-1,-9.6318007E-1,-2.947996E-1,4.9702078E-1,1.2066373E0,-1.0125601E0,8.30602E-2,-3.6990464E-1,1.4475403E0,6.157212E-1,-1.20409675E-1,1.1396782E0,1.2670503E0,-1.0330467E0,-9.726639E-3,1.2884314E0,-4.4850916E-1,7.474639E-2,6.9829464E-2,3.1300792E-1,1.1688993E0,-7.895077E-1,6.694091E-2,1.1746761E0,2.4712583E-2,1.2657276E0,6.4552575E-2,-5.0236322E-2,-6.721717E-2,7.47414E-2,5.420487E-2,-1.869599E-2,-5.367887E-2,7.1279444E-2,8.491634E-3,4.4923455E-2,7.413033E-2,1.5174842E-2,-7.8573115E-2,5.2840836E-2,6.1310153E-2,6.380645E-2,6.3134074E-2],"categories":[],"categories_nodes":[],"categories_segments":[],"categories_sizes":[],"default_left":[0,0,0,0,0,0,0,0,0,0,0,0,0,0,0,0,0,0,0,0,0,0,0,0,0,0,0,0,0,0,0,0,0,0,0,0,0,0,0,0,0,0,0,0,0],"id":20,"left_children":[1,3,5,7,9,11,13,15,-1,17,19,21,23,25,27,29,-1,31,33,-1,-1,35,37,39,-1,41,-1,43,-1,-1,-1,-1,-1,-1,-1,-1,-1,-1,-1,-1,-1,-1,-1,-1,-1],"loss_changes":[1.2264557E2,1.2577305E1,1.0120476E1,8.229923E0,6.618222E0,2.4402914E0,2.0509338E-1,1.0446205E0,0E0,6.3202047E0,5.0411224E-3,4.6766024E0,5.242174E0,5.43211E-1,8.392334E-4,5.361023E-1,0E0,9.2532635E-2,2.1582556E0,0E0,0E0,2.8752778E0,8.3796215E-1,3.1462078E0,0E0,1.3852882E-1,0E0,7.972717E-4,0E0,0E0,0E0,0E0,0E0,0E0,0E0,0E0,0E0,0E0,0E0,0E0,0E0,0E0,0E0,0E0,0E0],"parents":[2147483647,0,0,1,1,2,2,3,3,4,4,5,5,6,6,7,7,9,9,10,10,11,11,12,12,13,13,14,14,15,15,17,17,18,18,21,21,22,22,23,23,25,25,27,27],"right_children":[2,4,6,8,10,12,14,16,-1,18,20,22,24,26,28,30,-1,32,34,-1,-1,36,38,40,-1,42,-1,44,-1,-1,-1,-1,-1,-1,-1,-1,-1,-1,-1,-1,-1,-1,-1,-1,-1],"split_conditions":[8.705E-1,8.429E-1,8.921E-1,1.07268E5,1.03614E5,8.886E-1,9.085E-1,4.814847E2,8.30602E-2,3.845763E2,1.05505E5,8.831E-1,8.5686E4,9.079E-1,1.16243E5,8.39E-1,-9.726639E-3,3.780646E2,4.822321E2,7.474639E-2,6.9829464E-2,6.6107E4,8.1348E4,7.4336E4,6.694091E-2,8.973E-1,2.4712583E-2,7.2664E4,6.4552575E-2,-5.0236322E-2,-6.721717E-2,7.47414E-2,5.420487E-2,-1.869599E-2,-5.367887E-2,7.1279444E-2,8.491634E-3,4.4923455E-2,7.413033E-2,1.5174842E-2,-7.8573115E-2,5.2840836E-2,6.1310153E-2,6.380645E-2,6.3134074E-2],"split_indices":[6,6,6,0,0,6,6,2,0,2,0,6,0,6,0,6,0,2,2,0,0,0,0,0,0,6,0,0,0,0,0,0,0,0,0,0,0,0,0,0,0,0,0,0,0],"split_type":[0,0,0,0,0,0,0,0,0,0,0,0,0,0,0,0,0,0,0,0,0,0,0,0,0,0,0,0,0,0,0,0,0,0,0,0,0,0,0,0,0,0,0,0,0],"sum_hessian":[1.9808032E2,1.14081665E2,8.399865E1,6.3506256E1,5.057541E1,3.329669E1,5.0701958E1,6.23334E1,1.1728565E0,4.8485405E1,2.0900028E0,2.7927631E1,5.369061E0,2.4048111E1,2.6653849E1,6.0810467E1,1.5229343E0,2.1941855E0,4.6291218E1,1.0828393E0,1.0071635E0,1.8050135E1,9.877497E0,3.6811495E0,1.6879117E0,2.2811186E1,1.2369256E0,2.526192E1,1.391927E0,5.5739536E1,5.070931E0,1.091577E0,1.1026084E0,4.135619E1,4.93503E0,2.0579867E0,1.5992148E1,5.304651E0,4.572846E0,1.535229E0,2.1459205E0,6.9391255E0,1.587206E1,5.722257E0,1.9539663E1],"tree_param":{"num_deleted":"0","num_feature":"12","num_nodes":"45","size_leaf_vector":"1"}},{"base_weights":[1.4755314E-2,-8.105847E-1,7.7107936E-1,-5.8893925E-1,-9.9688405E-1,3.2900178E-1,1.1341442E0,2.4386777E-2,-6.1574525E-1,-1.0571296E0,-2.3704147E-1,8.151073E-2,2.769061E-1,9.5519733E-1,1.1905891E0,-1.4301771E0,-5.704014E-1,-9.8491293E-1,-1.2309905E0,-6.452971E-2,1.7223038E-1,6.312639E-3,4.362642E-1,-6.1561745E-3,1.1483086E0,1.2587451E0,9.835446E-1,-7.502319E-2,-6.831905E-2,3.697316E-2,-3.0931873E-2,2.8926505E-2,-5.2527744E-2,-6.5237075E-2,-1.5469509E-2,2.8364131E-2,-2.0310173E-2,-8.7843366E-2,7.208694E-3,4.3694086E-2,5.2653537E-3,6.845742E-2,4.51638E-2,6.247806E-2,6.374734E-2,9.400566E-3,6.305016E-2],"categories":[],"categories_nodes":[],"categories_segments":[],"categories_sizes":[],"default_left":[0,0,0,0,0,0,0,0,0,0,0,0,0,0,0,0,0,0,0,0,0,0,0,0,0,0,0,0,0,0,0,0,0,0,0,0,0,0,0,0,0,0,0,0,0,0,0],"id":21,"left_children":[1,3,5,7,9,11,13,-1,15,17,19,-1,21,23,25,27,29,31,33,-1,35,37,39,-1,41,43,45,-1,-1,-1,-1,-1,-1,-1,-1,-1,-1,-1,-1,-1,-1,-1,-1,-1,-1,-1,-1],"loss_changes":[1.222971E2,3.8684692E0,1.6408787E1,1.2347965E0,2.3300972E0,3.1250381E0,5.6697845E-1,0E0,1.5415964E0,5.921478E-1,1.6123517E0,0E0,1.9113858E0,2.8029099E0,6.0216904E-1,9.866238E-3,2.4984283E0,3.4196587E0,9.4072723E-1,0E0,6.1540926E-1,3.99347E0,4.040369E0,0E0,6.177397E-1,4.7683716E-3,2.3327293E0,0E0,0E0,0E0,0E0,0E0,0E0,0E0,0E0,0E0,0E0,0E0,0E0,0E0,0E0,0E0,0E0,0E0,0E0,0E0,0E0],"parents":[2147483647,0,0,1,1,2,2,3,3,4,4,5,5,6,6,8,8,9,9,10,10,12,12,13,13,14,14,15,15,16,16,17,17,18,18,20,20,21,21,22,22,24,24,25,25,26,26],"right_children":[2,4,6,8,10,12,14,-1,16,18,20,-1,22,24,26,28,30,32,34,-1,36,38,40,-1,42,44,46,-1,-1,-1,-1,-1,-1,-1,-1,-1,-1,-1,-1,-1,-1,-1,-1,-1,-1,-1,-1],"split_conditions":[1.9659E0,7.393E-1,2.18E0,6.226E-1,7.566E-1,1.9731E0,2.2659E0,2.4386777E-2,6.362E-1,1.7676E0,1.6002E0,8.151073E-2,2.0321E0,6.652E-1,7.441E-1,6.292E-1,6.396E-1,7.51E-1,7.464E-1,-6.452971E-2,1.6946E0,6.226E-1,6.913E-1,-6.1561745E-3,7.189E-1,6.735E-1,7.532E-1,-7.502319E-2,-6.831905E-2,3.697316E-2,-3.0931873E-2,2.8926505E-2,-5.2527744E-2,-6.5237075E-2,-1.5469509E-2,2.8364131E-2,-2.0310173E-2,-8.7843366E-2,7.208694E-3,4.3694086E-2,5.2653537E-3,6.845742E-2,4.51638E-2,6.247806E-2,6.374734E-2,9.400566E-3,6.305016E-2],"split_indices":[10,11,10,8,8,10,10,0,8,10,10,0,10,11,8,8,8,11,8,0,10,8,8,0,8,8,8,0,0,0,0,0,0,0,0,0,0,0,0,0,0,0,0,0,0,0,0],"split_type":[0,0,0,0,0,0,0,0,0,0,0,0,0,0,0,0,0,0,0,0,0,0,0,0,0,0,0,0,0,0,0,0,0,0,0,0,0,0,0,0,0,0,0,0,0,0,0],"sum_hessian":[1.9591844E2,9.368477E1,1.0223368E2,4.2783764E1,5.0901005E1,4.6100483E1,5.6133194E1,1.0393107E0,4.1744453E1,4.7161697E1,3.7393072E0,1.7746388E0,4.4325844E1,1.3460253E1,4.2672943E1,2.201564E0,3.954289E1,3.3321106E1,1.3840592E1,1.0461903E0,2.693117E0,1.642902E1,2.7896822E1,2.044408E0,1.1415845E1,3.2104572E1,1.0568372E1,1.0474737E0,1.1540904E0,1.4044552E0,3.8138435E1,1.3426311E0,3.1978476E1,1.2815066E1,1.025526E0,1.6002189E0,1.0928981E0,1.1914114E0,1.523761E1,1.2012692E1,1.588413E1,6.004332E0,5.411513E0,2.0490065E1,1.1614506E1,2.7328136E0,7.835558E0],"tree_param":{"num_deleted":"0","num_feature":"12","num_nodes":"47","size_leaf_vector":"1"}},{"base_weights":[2.1292683E-2,1.135339E0,-1.0282293E-1,1.4646657E0,9.6085215E-1,-2.3954742E-1,8.94624E-1,1.2452643E0,1.730899E0,-2.1753302E-2,1.0977477E0,-3.2037902E-1,3.0209237E-1,1.2598181E0,6.264597E-1,1.2213359E0,6.4634405E-2,9.460981E-2,8.020235E-2,1.2374747E0,5.962372E-1,-4.683699E-1,5.8255125E-2,5.720167E-1,-1.4089446E0,3.635572E-2,1.3454125E0,-3.368068E-2,1.2449602E0,6.0464706E-2,6.150958E-2,6.0943313E-2,6.295987E-2,3.460905E-2,2.3951551E-2,4.0130626E-2,-2.6239568E-2,3.9171766E-2,-1.23711135E-2,-2.9563732E-3,5.1734727E-2,-3.670083E-2,-1.1087308E-1,8.587942E-2,6.2526606E-2,1.6594762E-2,-4.976296E-2,6.6735685E-2,4.158173E-2],"categories":[],"categories_nodes":[],"categories_segments":[],"categories_sizes":[],"default_left":[0,0,0,0,0,0,0,0,0,0,0,0,0,0,0,0,0,0,0,0,0,0,0,0,0,0,0,0,0,0,0,0,0,0,0,0,0,0,0,0,0,0,0,0,0,0,0,0,0],"id":22,"left_children":[1,3,5,7,9,11,13,15,17,-1,19,21,23,25,27,29,-1,-1,-1,31,33,35,37,39,41,-1,43,45,47,-1,-1,-1,-1,-1,-1,-1,-1,-1,-1,-1,-1,-1,-1,-1,-1,-1,-1,-1,-1],"loss_changes":[2.5832197E1,1.0761414E0,2.2924166E1,3.7885094E-1,2.3393087E0,6.4723253E0,1.9844913E0,4.0311813E-3,5.9947968E-2,0E0,7.8120995E-1,7.2079954E0,8.866082E0,3.9120483E-1,4.770632E0,2.4795532E-4,0E0,0E0,0E0,3.520012E-3,2.7315855E-2,6.632265E0,8.013136E0,4.8419585E0,1.4273863E0,0E0,2.6102257E-1,1.9867967E0,2.2378063E-1,0E0,0E0,0E0,0E0,0E0,0E0,0E0,0E0,0E0,0E0,0E0,0E0,0E0,0E0,0E0,0E0,0E0,0E0,0E0,0E0],"parents":[2147483647,0,0,1,1,2,2,3,3,4,4,5,5,6,6,7,7,8,8,10,10,11,11,12,12,13,13,14,14,15,15,19,19,20,20,21,21,22,22,23,23,24,24,26,26,27,27,28,28],"right_children":[2,4,6,8,10,12,14,16,18,-1,20,22,24,26,28,30,-1,-1,-1,32,34,36,38,40,42,-1,44,46,48,-1,-1,-1,-1,-1,-1,-1,-1,-1,-1,-1,-1,-1,-1,-1,-1,-1,-1,-1,-1],"split_conditions":[6.041E-1,1.142486E3,1.240471E3,5.741E-1,1.154444E3,7.502E-1,3.560926E2,5.658E-1,5.888E-1,-2.1753302E-2,5.905E-1,1.147309E3,3.317051E2,6.585E-1,3.648802E2,5.476E-1,6.4634405E-2,9.460981E-2,8.020235E-2,5.553E-1,1.222611E3,2.70992E2,6.748E-1,1.062117E3,1.218625E3,3.635572E-2,1.246736E3,7.445E-1,7.48E-1,6.0464706E-2,6.150958E-2,6.0943313E-2,6.295987E-2,3.460905E-2,2.3951551E-2,4.0130626E-2,-2.6239568E-2,3.9171766E-2,-1.23711135E-2,-2.9563732E-3,5.1734727E-2,-3.670083E-2,-1.1087308E-1,8.587942E-2,6.2526606E-2,1.6594762E-2,-4.976296E-2,6.6735685E-2,4.158173E-2],"split_indices":[8,1,1,8,1,8,5,8,8,0,8,1,5,8,5,8,0,0,0,8,1,5,8,1,1,0,1,8,8,0,0,0,0,0,0,0,0,0,0,0,0,0,0,0,0,0,0,0,0],"split_type":[0,0,0,0,0,0,0,0,0,0,0,0,0,0,0,0,0,0,0,0,0,0,0,0,0,0,0,0,0,0,0,0,0,0,0,0,0,0,0,0,0,0,0,0,0,0,0,0,0],"sum_hessian":[1.8682356E2,1.8727535E1,1.6809604E2,6.485944E0,1.2241591E1,1.4783205E2,2.0263992E1,3.5557117E0,2.930232E0,1.0932958E0,1.1148296E1,1.2863518E2,1.9196863E1,8.579783E0,1.168421E1,2.3633204E0,1.1923916E0,1.289965E0,1.6402669E0,8.719056E0,2.42924E0,9.248643E1,3.6148746E1,1.6581114E1,2.6157491E0,1.1877501E0,7.392033E0,5.651852E0,6.032357E0,1.0016258E0,1.3616946E0,4.6962233E0,4.022833E0,1.3357744E0,1.0934656E0,3.9311438E0,8.855529E1,1.07190895E1,2.5429657E1,7.0136766E0,9.567438E0,1.4256549E0,1.1900941E0,1.5016507E0,5.8903823E0,4.0950017E0,1.5568504E0,4.956131E0,1.0762261E0],"tree_param":{"num_deleted":"0","num_feature":"12","num_nodes":"49","size_leaf_vector":"1"}},{"base_weights":[1.6065726E-2,5.656012E-1,-6.5264404E-1,9.937727E-1,1.4565806E-1,-3.4824684E-1,-1.0308875E0,4.405187E-1,1.0242243E0,7.91128E-2,8.6622E-2,-5.0481355E-1,2.02054E-2,-1.0919446E0,1.7287487E-2,6.1983645E-2,-1.2788074E-2,9.3330556E-1,1.2352848E0,2.0117274E-2,9.023527E-1,-6.7362076E-1,-5.5379156E-2,1.3455656E0,-2.788348E-1,-1.2543468E0,-8.652527E-1,5.10284E-2,-2.5691614E-3,6.1427128E-2,6.587252E-2,3.8592618E-2,-2.4296131E-3,7.265764E-2,2.9616265E-2,3.738946E-2,-3.6973234E-2,8.698125E-2,-1.5846485E-2,2.936399E-2,1.154423E-1,2.2219634E-2,-3.4159105E-2,-6.233942E-2,-6.515222E-2,2.5924642E-2,-4.871376E-2],"categories":[],"categories_nodes":[],"categories_segments":[],"categories_sizes":[],"default_left":[0,0,0,0,0,0,0,0,0,0,0,0,0,0,0,0,0,0,0,0,0,0,0,0,0,0,0,0,0,0,0,0,0,0,0,0,0,0,0,0,0,0,0,0,0,0,0],"id":23,"left_children":[1,3,5,7,9,11,13,15,17,-1,19,21,23,25,-1,-1,-1,27,29,31,33,35,37,39,41,43,45,-1,-1,-1,-1,-1,-1,-1,-1,-1,-1,-1,-1,-1,-1,-1,-1,-1,-1,-1,-1],"loss_changes":[6.787188E1,1.8229198E1,9.592445E0,8.457222E-1,4.340852E0,2.6630392E0,3.1226387E0,1.4572289E0,9.130287E-1,0E0,2.6670527E0,2.4578762E0,5.45613E0,1.3096161E0,0E0,0E0,0E0,2.8574772E0,7.930756E-3,2.3478847E0,6.328378E-1,2.2041779E0,4.1529536E0,1.8511534E0,3.2846684E0,7.62558E-3,2.2399015E0,0E0,0E0,0E0,0E0,0E0,0E0,0E0,0E0,0E0,0E0,0E0,0E0,0E0,0E0,0E0,0E0,0E0,0E0,0E0,0E0],"parents":[2147483647,0,0,1,1,2,2,3,3,4,4,5,5,6,6,7,7,8,8,10,10,11,11,12,12,13,13,17,17,18,18,19,19,20,20,21,21,22,22,23,23,24,24,25,25,26,26],"right_children":[2,4,6,8,10,12,14,16,18,-1,20,22,24,26,-1,-1,-1,28,30,32,34,36,38,40,42,44,46,-1,-1,-1,-1,-1,-1,-1,-1,-1,-1,-1,-1,-1,-1,-1,-1,-1,-1,-1,-1],"split_conditions":[8.024E-1,7.635E-1,8.388E-1,6.68E-1,6.0303E4,7.312E-1,1.052E5,6.925E-1,9.0999E4,7.91128E-2,1.00197E5,8.8036E4,7.37E-1,7.346E-1,1.7287487E-2,6.1983645E-2,-1.2788074E-2,8.8802E4,7.573E-1,6.071E-1,1.03318E5,6.1146E4,8.9761E4,8.2454E4,8.153E-1,9.6002E4,7.354E-1,5.10284E-2,-2.5691614E-3,6.1427128E-2,6.587252E-2,3.8592618E-2,-2.4296131E-3,7.265764E-2,2.9616265E-2,3.738946E-2,-3.6973234E-2,8.698125E-2,-1.5846485E-2,2.936399E-2,1.154423E-1,2.2219634E-2,-3.4159105E-2,-6.233942E-2,-6.515222E-2,2.5924642E-2,-4.871376E-2],"split_indices":[9,9,9,9,4,8,4,8,4,0,4,4,8,8,0,0,0,4,9,8,4,4,4,4,9,4,8,0,0,0,0,0,0,0,0,0,0,0,0,0,0,0,0,0,0,0,0],"split_type":[0,0,0,0,0,0,0,0,0,0,0,0,0,0,0,0,0,0,0,0,0,0,0,0,0,0,0,0,0,0,0,0,0,0,0,0,0,0,0,0,0,0,0,0,0,0,0],"sum_hessian":[1.8469554E2,1.01381645E2,8.3313896E1,5.0199028E1,5.1182617E1,4.6163292E1,3.7150604E1,2.6188612E0,4.7580166E1,2.020292E0,4.9162327E1,3.239687E1,1.3766423E1,3.5572865E1,1.5777388E0,1.2193522E0,1.3995091E0,3.3254925E1,1.4325241E1,4.545637E1,3.7059555E0,2.3551094E1,8.845777E0,2.5342972E0,1.1232126E1,2.0725264E1,1.48476E1,3.0547802E1,2.707125E0,1.3238923E1,1.0863178E0,3.806821E0,4.1649548E1,1.3346984E0,2.371257E0,1.0426567E0,2.2508436E1,1.1249955E0,7.720781E0,1.4180356E0,1.1162616E0,4.027829E0,7.2042966E0,1.7940712E1,2.7845511E0,1.0843756E0,1.3763225E1],"tree_param":{"num_deleted":"0","num_feature":"12","num_nodes":"47","size_leaf_vector":"1"}},{"base_weights":[-6.806169E-2,-5.7319826E-1,1.021361E0,-1.7604539E-1,-9.1995037E-1,2.6950404E-1,1.114409E0,-5.444725E-1,7.755585E-1,-9.5504254E-1,2.9422695E-2,-5.424683E-2,8.1456083E-1,1.0322844E0,1.3050493E0,-7.162781E-1,-1.9037102E-1,4.0441278E-1,1.6278132E0,-8.896137E-1,-1.2411255E0,4.2738986E-1,1.2377195E0,5.862288E-1,1.1336212E0,1.2466123E0,1.4747639E0,-5.9360176E-2,-2.3054808E-2,-2.3750031E-2,6.446738E-2,9.506252E-2,1.216266E-2,9.093823E-2,5.4991987E-2,-8.971585E-4,-4.5894977E-2,-6.389098E-2,-6.1888464E-2,1.6526867E-2,2.5227929E-2,6.248594E-2,6.1247963E-2,7.1711E-2,1.6038934E-2,5.994455E-2,1.3119884E-2,6.553766E-2,6.1195295E-2,7.6516196E-2,6.9391385E-2],"categories":[],"categories_nodes":[],"categories_segments":[],"categories_sizes":[],"default_left":[0,0,0,0,0,0,0,0,0,0,0,0,0,0,0,0,0,0,0,0,0,0,0,0,0,0,0,0,0,0,0,0,0,0,0,0,0,0,0,0,0,0,0,0,0,0,0,0,0,0,0],"id":24,"left_children":[1,3,5,7,9,11,13,15,17,19,-1,-1,21,23,25,27,29,31,33,35,37,39,41,43,45,47,49,-1,-1,-1,-1,-1,-1,-1,-1,-1,-1,-1,-1,-1,-1,-1,-1,-1,-1,-1,-1,-1,-1,-1,-1],"loss_changes":[9.959885E1,1.7028702E1,4.0110664E0,2.0207582E1,3.4944038E0,4.6614223E0,7.9878235E-1,2.5278025E0,5.0884733E0,1.2075882E0,0E0,0E0,7.3763704E-1,1.6118584E0,1.5234375E-1,3.362011E0,5.716974E0,2.7033687E0,4.9201775E-1,1.2945862E0,1.4762878E-3,1.7571539E-2,3.2520294E-4,1.4859812E0,1.6523514E0,1.6635895E-2,1.89991E-2,0E0,0E0,0E0,0E0,0E0,0E0,0E0,0E0,0E0,0E0,0E0,0E0,0E0,0E0,0E0,0E0,0E0,0E0,0E0,0E0,0E0,0E0,0E0,0E0],"parents":[2147483647,0,0,1,1,2,2,3,3,4,4,5,5,6,6,7,7,8,8,9,9,12,12,13,13,14,14,15,15,16,16,17,17,18,18,19,19,20,20,21,21,22,22,23,23,24,24,25,25,26,26],"right_children":[2,4,6,8,10,12,14,16,18,20,-1,-1,22,24,26,28,30,32,34,36,38,40,42,44,46,48,50,-1,-1,-1,-1,-1,-1,-1,-1,-1,-1,-1,-1,-1,-1,-1,-1,-1,-1,-1,-1,-1,-1,-1,-1],"split_conditions":[2.1313E0,7.255E-1,9.867E-1,9.911E-1,9.935E-1,2.229E0,9.916E-1,9.898E-1,9.924E-1,7.77E-1,2.9422695E-2,-5.424683E-2,9.851E-1,2.1938E0,6.726E-1,1.9659E0,7.205E-1,1.911E0,9.933E-1,1.6617E0,1.4924E0,9.806E-1,9.862E-1,9.885E-1,9.914E-1,2.2763E0,9.922E-1,-5.9360176E-2,-2.3054808E-2,-2.3750031E-2,6.446738E-2,9.506252E-2,1.216266E-2,9.093823E-2,5.4991987E-2,-8.971585E-4,-4.5894977E-2,-6.389098E-2,-6.1888464E-2,1.6526867E-2,2.5227929E-2,6.248594E-2,6.1247963E-2,7.1711E-2,1.6038934E-2,5.994455E-2,1.3119884E-2,6.553766E-2,6.1195295E-2,7.6516196E-2,6.9391385E-2],"split_indices":[10,11,7,7,7,10,7,7,7,11,0,0,7,10,11,10,11,10,7,10,10,7,7,7,7,10,7,0,0,0,0,0,0,0,0,0,0,0,0,0,0,0,0,0,0,0,0,0,0,0,0],"split_type":[0,0,0,0,0,0,0,0,0,0,0,0,0,0,0,0,0,0,0,0,0,0,0,0,0,0,0,0,0,0,0,0,0,0,0,0,0,0,0,0,0,0,0,0,0,0,0,0,0,0,0],"sum_hessian":[1.8098772E2,1.2365306E2,5.7334656E1,5.7637688E1,6.601537E1,6.314173E0,5.1020485E1,4.1550728E1,1.608696E1,6.451448E1,1.5008914E0,1.8118379E0,4.5023355E0,3.5659134E1,1.5361349E1,2.7976755E1,1.3573972E1,1.1206625E1,4.8803344E0,5.2506046E1,1.20084305E1,2.3511472E0,2.1511884E0,6.6014547E0,2.905768E1,1.1426825E1,3.934525E0,9.832098E0,1.8144657E1,1.1384182E1,2.18979E0,1.0892973E0,1.0117328E1,3.5840802E0,1.2962539E0,1.650282E0,5.0855766E1,1.0062547E0,1.1002176E1,1.0426106E0,1.3085365E0,1.1085418E0,1.0426464E0,1.5738184E0,5.0276365E0,2.7032475E1,2.0252051E0,2.9875305E0,8.439294E0,2.400414E0,1.534111E0],"tree_param":{"num_deleted":"0","num_feature":"12","num_nodes":"51","size_leaf_vector":"1"}},{"base_weights":[-2.2275787E-2,7.729125E-1,-2.515033E-1,4.4273993E-1,1.1915867E0,-7.8429294E-1,-1.9482387E-2,8.665247E-1,-3.8013554E-1,1.2614425E0,9.922297E-1,-6.324529E-1,-1.2579411E0,4.929321E-1,-5.528432E-1,5.441864E-1,1.1230294E0,-2.1461879E-1,-7.174947E-2,1.23334E0,7.220545E-2,1.2042129E0,1.1416956E-2,-8.977889E-1,2.6396248E-1,-1.0770249E0,-1.5459235E0,8.717373E-2,9.0871584E-1,-1.0298228E0,4.0478376E-1,4.625706E-2,-4.4852566E-2,6.29349E-2,3.7364256E-2,-3.243551E-2,1.8489122E-2,6.71571E-2,6.112331E-2,5.9794325E-2,6.042212E-2,-5.6276865E-2,-2.4614511E-2,1.0107012E-1,-1.2628329E-2,-6.5976225E-2,-2.0848026E-3,-1.041654E-1,-6.545883E-2,4.8834525E-2,-9.665717E-3,5.0833054E-2,1.7085202E-2,-6.639435E-2,-4.630643E-2,5.6331396E-2,-1.3619103E-2],"categories":[],"categories_nodes":[],"categories_segments":[],"categories_sizes":[],"default_left":[0,0,0,0,0,0,0,0,0,0,0,0,0,0,0,0,0,0,0,0,0,0,0,0,0,0,0,0,0,0,0,0,0,0,0,0,0,0,0,0,0,0,0,0,0,0,0,0,0,0,0,0,0,0,0,0,0],"id":25,"left_children":[1,3,5,7,9,11,13,15,17,19,21,23,25,27,29,31,33,35,-1,37,-1,39,-1,41,43,45,47,49,51,53,55,-1,-1,-1,-1,-1,-1,-1,-1,-1,-1,-1,-1,-1,-1,-1,-1,-1,-1,-1,-1,-1,-1,-1,-1,-1,-1],"loss_changes":[3.311371E1,5.619253E0,1.7432018E1,7.925458E0,2.4959564E-1,3.076664E0,2.6847834E1,1.2403297E0,1.3488876E0,6.812668E-2,7.5309324E-1,7.7051353E0,5.410595E-1,8.452485E0,2.1985985E1,3.649848E0,4.2584324E-1,1.6940854E0,0E0,1.3729095E-2,0E0,1.2397766E-4,0E0,2.308422E0,6.7163467E0,1.6013327E0,5.0976086E-1,6.3263865E0,1.5145454E0,9.9306107E-1,7.8226748E0,0E0,0E0,0E0,0E0,0E0,0E0,0E0,0E0,0E0,0E0,0E0,0E0,0E0,0E0,0E0,0E0,0E0,0E0,0E0,0E0,0E0,0E0,0E0,0E0,0E0,0E0],"parents":[2147483647,0,0,1,1,2,2,3,3,4,4,5,5,6,6,7,7,8,8,9,9,10,10,11,11,12,12,13,13,14,14,15,15,16,16,17,17,19,19,21,21,23,23,24,24,25,25,26,26,27,27,28,28,29,29,30,30],"right_children":[2,4,6,8,10,12,14,16,18,20,22,24,26,28,30,32,34,36,-1,38,-1,40,-1,42,44,46,48,50,52,54,56,-1,-1,-1,-1,-1,-1,-1,-1,-1,-1,-1,-1,-1,-1,-1,-1,-1,-1,-1,-1,-1,-1,-1,-1,-1,-1],"split_conditions":[2.095989E2,7.0796E4,7.5482E4,2.02024E2,8.2645E4,7.3128E4,2.375696E2,6.0501E4,2.078547E2,2.07549E2,2.07549E2,7.2035E4,7.538E4,8.408E4,9.7019E4,1.912462E2,1.989139E2,6.5691E4,-7.174947E-2,7.1517E4,7.220545E-2,2.007066E2,1.1416956E-2,6.8402E4,2.138361E2,7.5087E4,2.163525E2,2.178894E2,2.351941E2,2.427739E2,2.566827E2,4.625706E-2,-4.4852566E-2,6.29349E-2,3.7364256E-2,-3.243551E-2,1.8489122E-2,6.71571E-2,6.112331E-2,5.9794325E-2,6.042212E-2,-5.6276865E-2,-2.4614511E-2,1.0107012E-1,-1.2628329E-2,-6.5976225E-2,-2.0848026E-3,-1.041654E-1,-6.545883E-2,4.8834525E-2,-9.665717E-3,5.0833054E-2,1.7085202E-2,-6.639435E-2,-4.630643E-2,5.6331396E-2,-1.3619103E-2],"split_indices":[3,0,0,3,4,0,3,0,3,3,3,4,4,0,0,3,3,0,0,0,0,3,0,0,3,4,3,3,3,3,3,0,0,0,0,0,0,0,0,0,0,0,0,0,0,0,0,0,0,0,0,0,0,0,0,0,0],"split_type":[0,0,0,0,0,0,0,0,0,0,0,0,0,0,0,0,0,0,0,0,0,0,0,0,0,0,0,0,0,0,0,0,0,0,0,0,0,0,0,0,0,0,0,0,0,0,0,0,0,0,0,0,0,0,0,0,0],"sum_hessian":[1.8166493E2,4.065009E1,1.4101483E2,2.272714E1,1.792295E1,4.2779728E1,9.823511E1,1.5001367E1,7.7257743E0,1.3272266E1,4.650684E0,3.2394764E1,1.0384965E1,5.0101353E1,4.8133755E1,6.6476097E0,8.353757E0,6.677943E0,1.0478312E0,1.1502649E1,1.7696171E0,3.6404421E0,1.0102417E0,2.4996025E1,7.398738E0,6.378117E0,4.006848E0,2.5356373E1,2.4744978E1,3.213019E1,1.6003565E1,5.257835E0,1.3897748E0,6.1376514E0,2.2161055E0,3.83174E0,2.8462033E0,1.0364591E0,1.046619E1,1.226478E0,2.4139643E0,1.6006157E1,8.989869E0,1.6806132E0,5.718125E0,5.167711E0,1.2104064E0,1.2253807E0,2.7814672E0,6.078744E0,1.9277628E1,2.0787537E1,3.9574423E0,8.292821E0,2.3837372E1,7.7462406E0,8.257324E0],"tree_param":{"num_deleted":"0","num_feature":"12","num_nodes":"57","size_leaf_vector":"1"}},{"base_weights":[1.4131152E-2,-6.3304013E-1,8.699968E-1,-4.0285638E-1,-9.8433834E-1,3.96333E-1,1.0408463E0,-5.1458913E-1,8.9562553E-1,-5.023107E-1,-1.0189614E0,1.3683966E0,2.3855041E-1,8.328696E-1,1.1013174E0,7.6875204E-1,-5.848611E-1,6.831665E-2,5.6991804E-1,5.9009227E-3,-6.1901458E-2,-9.4224745E-1,-1.2136154E0,6.394086E-2,7.2521105E-2,-3.8301047E-2,3.6207697E-1,2.2515939E-1,1.2002577E0,2.4767172E-2,1.1216018E0,1.2826604E-2,5.4170705E-2,-2.7258912E-2,-6.311141E-2,4.5055427E-2,9.250331E-3,-4.3472394E-2,-6.328034E-2,-6.0417276E-2,-6.260055E-2,-3.254904E-2,2.4985647E-2,-2.750781E-2,3.532493E-2,5.07262E-2,7.0965305E-2,5.9814095E-2,5.2650172E-2],"categories":[],"categories_nodes":[],"categories_segments":[],"categories_sizes":[],"default_left":[0,0,0,0,0,0,0,0,0,0,0,0,0,0,0,0,0,0,0,0,0,0,0,0,0,0,0,0,0,0,0,0,0,0,0,0,0,0,0,0,0,0,0,0,0,0,0,0,0],"id":26,"left_children":[1,3,5,7,9,11,13,15,17,19,21,23,25,27,29,31,33,-1,35,-1,-1,37,39,-1,-1,-1,41,43,45,-1,47,-1,-1,-1,-1,-1,-1,-1,-1,-1,-1,-1,-1,-1,-1,-1,-1,-1,-1],"loss_changes":[9.7389404E1,8.096054E0,6.1266136E0,8.775642E0,6.6144943E-1,3.078024E0,6.9973755E-1,5.022702E0,7.347424E-1,1.2121763E0,5.521698E-1,2.0587921E-2,2.1425705E0,2.7982368E0,5.2983856E-1,4.6601522E-1,1.4193401E0,0E0,3.6108303E-1,0E0,0E0,6.243839E-1,2.1104813E-3,0E0,0E0,0E0,2.1438482E0,1.7622595E0,3.1778622E-1,0E0,2.1366501E-1,0E0,0E0,0E0,0E0,0E0,0E0,0E0,0E0,0E0,0E0,0E0,0E0,0E0,0E0,0E0,0E0,0E0,0E0],"parents":[2147483647,0,0,1,1,2,2,3,3,4,4,5,5,6,6,7,7,8,8,9,9,10,10,11,11,12,12,13,13,14,14,15,15,16,16,18,18,21,21,22,22,26,26,27,27,28,28,30,30],"right_children":[2,4,6,8,10,12,14,16,18,20,22,24,26,28,30,32,34,-1,36,-1,-1,38,40,-1,-1,-1,42,44,46,-1,48,-1,-1,-1,-1,-1,-1,-1,-1,-1,-1,-1,-1,-1,-1,-1,-1,-1,-1],"split_conditions":[8.705E-1,7.421E-1,8.831E-1,1.00429E5,6.0897E4,6.6107E4,8.914E-1,6.1138E4,8.587E-1,8.034E-1,7.77E-1,6.1567E4,6.846E-1,6.768E-1,5.948E-1,8.376E-1,8.664E-1,6.831665E-2,7.066E-1,5.9009227E-3,-6.1901458E-2,8.286E-1,9.6325E4,6.394086E-2,7.2521105E-2,-3.8301047E-2,7.1141E4,8.1348E4,8.0847E4,2.4767172E-2,6.46E-1,1.2826604E-2,5.4170705E-2,-2.7258912E-2,-6.311141E-2,4.5055427E-2,9.250331E-3,-4.3472394E-2,-6.328034E-2,-6.0417276E-2,-6.260055E-2,-3.254904E-2,2.4985647E-2,-2.750781E-2,3.532493E-2,5.07262E-2,7.0965305E-2,5.9814095E-2,5.2650172E-2],"split_indices":[6,11,6,0,0,0,6,0,6,6,11,0,11,11,11,6,6,0,11,0,0,6,0,0,0,0,0,0,0,0,11,0,0,0,0,0,0,0,0,0,0,0,0,0,0,0,0,0,0],"split_type":[0,0,0,0,0,0,0,0,0,0,0,0,0,0,0,0,0,0,0,0,0,0,0,0,0,0,0,0,0,0,0,0,0,0,0,0,0,0,0,0,0,0,0,0,0,0,0,0,0],"sum_hessian":[1.7582753E2,1.0012046E2,7.570708E1,6.0487072E1,3.963339E1,2.006866E1,5.5638416E1,5.5694622E1,4.7924504E0,2.6560197E0,3.6977367E1,2.8025787E0,1.7266083E1,1.2533229E1,4.3105186E1,2.891349E0,5.2803272E1,1.9599514E0,2.832499E0,1.4410135E0,1.2150064E0,2.6524103E1,1.0453266E1,1.3396202E0,1.4629586E0,1.8906322E0,1.5375451E1,4.72215E0,7.8110785E0,1.396174E0,4.170901E1,1.1002773E0,1.7910718E0,4.988105E1,2.9222236E0,1.5224924E0,1.3100067E0,2.1649946E1,4.874156E0,9.191764E0,1.2615024E0,1.8390758E0,1.3536375E1,1.8087348E0,2.9134152E0,4.226983E0,3.5840955E0,1.9969296E1,2.1739717E1],"tree_param":{"num_deleted":"0","num_feature":"12","num_nodes":"49","size_leaf_vector":"1"}},{"base_weights":[-2.652975E-2,7.743611E-1,-6.094052E-1,1.1064738E0,3.7511778E-1,-3.740105E-1,-9.2689586E-1,7.848918E-1,1.1459857E0,1.9949695E-1,1.4649515E0,-6.377628E-1,-8.408985E-2,-4.4107127E-1,-9.714365E-1,1.20425E0,-2.4347648E-2,1.0988117E0,1.2267945E0,4.9453452E-1,-3.973039E-1,4.656283E-2,1.697374E0,-7.570319E-1,2.6851955E-1,-3.324474E-1,1.0493592E0,-1.2743812E0,3.9869785E-2,-1.2026812E0,-8.704256E-1,5.9382927E-2,6.1655056E-2,5.698471E-2,1.9452453E-2,6.058256E-2,6.3916795E-2,1.5970996E-2,6.851986E-2,6.615764E-2,-3.767805E-2,7.172949E-2,9.272244E-2,2.9370347E-2,-4.602195E-2,3.4668833E-2,-3.25461E-2,-3.0028315E-3,-4.984269E-2,1.6697824E-1,1.3966793E-2,-6.460528E-2,-6.291615E-2,-6.3103095E-2,-5.966688E-2,-1.97618E-2,-5.2169364E-2],"categories":[],"categories_nodes":[],"categories_segments":[],"categories_sizes":[],"default_left":[0,0,0,0,0,0,0,0,0,0,0,0,0,0,0,0,0,0,0,0,0,0,0,0,0,0,0,0,0,0,0,0,0,0,0,0,0,0,0,0,0,0,0,0,0,0,0,0,0,0,0,0,0,0,0,0,0],"id":27,"left_children":[1,3,5,7,9,11,13,15,17,19,21,23,25,27,29,31,-1,33,35,37,39,-1,41,43,45,47,49,51,-1,53,55,-1,-1,-1,-1,-1,-1,-1,-1,-1,-1,-1,-1,-1,-1,-1,-1,-1,-1,-1,-1,-1,-1,-1,-1,-1,-1],"loss_changes":[8.162748E1,9.766151E0,7.5635414E0,5.1088715E-1,6.401667E0,4.4439487E0,9.323883E-1,2.346591E0,1.364975E-1,5.0719795E0,5.757761E-1,3.289359E0,7.7932053E0,3.7345042E0,9.2193604E-1,1.5797615E-3,0E0,6.5605164E-1,1.0297775E-2,2.956461E0,5.8407583E0,0E0,1.3346481E-1,5.90796E0,1.382475E0,4.1097717E0,8.774958E0,6.110668E-4,0E0,6.652832E-3,2.2577744E0,0E0,0E0,0E0,0E0,0E0,0E0,0E0,0E0,0E0,0E0,0E0,0E0,0E0,0E0,0E0,0E0,0E0,0E0,0E0,0E0,0E0,0E0,0E0,0E0,0E0,0E0],"parents":[2147483647,0,0,1,1,2,2,3,3,4,4,5,5,6,6,7,7,8,8,9,9,10,10,11,11,12,12,13,13,14,14,15,15,17,17,18,18,19,19,20,20,22,22,23,23,24,24,25,25,26,26,27,27,29,29,30,30],"right_children":[2,4,6,8,10,12,14,16,18,20,22,24,26,28,30,32,-1,34,36,38,40,-1,42,44,46,48,50,52,-1,54,56,-1,-1,-1,-1,-1,-1,-1,-1,-1,-1,-1,-1,-1,-1,-1,-1,-1,-1,-1,-1,-1,-1,-1,-1,-1,-1],"split_conditions":[6.976E-1,6.713E-1,7.389E-1,6.4922E4,7.917E-1,8.113E-1,8.171E-1,6.644E-1,6.524E-1,6.862E-1,7.935E-1,9.8628E4,9.061E4,8.078E-1,6.9827E4,6.405E-1,-2.4347648E-2,6.514E-1,6.674E-1,7.83E-1,6.5336E4,4.656283E-2,6.924E-1,7.769E-1,7.133E-1,7.304E-1,9.3769E4,7.574E-1,3.9869785E-2,5.8889E4,7.5637E4,5.9382927E-2,6.1655056E-2,5.698471E-2,1.9452453E-2,6.058256E-2,6.3916795E-2,1.5970996E-2,6.851986E-2,6.615764E-2,-3.767805E-2,7.172949E-2,9.272244E-2,2.9370347E-2,-4.602195E-2,3.4668833E-2,-3.25461E-2,-3.0028315E-3,-4.984269E-2,1.6697824E-1,1.3966793E-2,-6.460528E-2,-6.291615E-2,-6.3103095E-2,-5.966688E-2,-1.97618E-2,-5.2169364E-2],"split_indices":[11,11,11,0,9,9,9,11,11,11,9,0,0,9,0,11,0,11,11,9,0,0,11,9,11,11,0,11,0,0,0,0,0,0,0,0,0,0,0,0,0,0,0,0,0,0,0,0,0,0,0,0,0,0,0,0,0],"split_type":[0,0,0,0,0,0,0,0,0,0,0,0,0,0,0,0,0,0,0,0,0,0,0,0,0,0,0,0,0,0,0,0,0,0,0,0,0,0,0,0,0,0,0,0,0,0,0,0,0,0,0,0,0,0,0,0,0],"sum_hessian":[1.7485872E2,7.365467E1,1.0120404E2,4.0207684E1,3.3446987E1,5.8115734E1,4.3088306E1,4.399646E0,3.5808037E1,2.880519E1,4.6417975E0,3.0431232E1,2.7684502E1,3.6186087E0,3.94697E1,3.3086905E0,1.0909553E0,2.2609335E1,1.3198703E1,1.9275871E1,9.529318E0,1.4082179E0,3.2335794E0,2.6892157E1,3.5390766E0,2.2708658E1,4.9758434E0,2.1631327E0,1.455476E0,1.1999402E1,2.7470297E1,2.1007175E0,1.207973E0,2.1377958E1,1.2313764E0,1.0201473E1,2.997229E0,1.6064114E1,3.2117572E0,1.6347389E0,7.8945785E0,1.2097322E0,2.0238473E0,2.914334E0,2.3977821E1,2.4205747E0,1.118502E0,1.6105707E1,6.6029525E0,1.2520341E0,3.7238092E0,1.028143E0,1.1349896E0,1.6313791E0,1.0368023E1,7.3305607E0,2.0139736E1],"tree_param":{"num_deleted":"0","num_feature":"12","num_nodes":"57","size_leaf_vector":"1"}},{"base_weights":[2.251251E-2,-2.7741465E-1,4.8236662E-1,8.892622E-1,-3.3381352E-1,3.112124E-1,1.0016094E0,1.2458322E0,4.5861885E-1,-5.4886603E-1,-4.364162E-2,1.084039E0,1.501908E-1,1.6734741E0,8.6241424E-1,6.574866E-2,5.9385996E-2,6.0856217E-3,4.0950116E-2,-9.0448296E-1,-3.0631396E-1,-1.0930672E0,4.8157725E-2,1.2279774E0,7.9805905E-1,-7.4540174E-1,4.402556E-1,9.731891E-2,6.0616016E-2,2.3393184E-1,1.2153746E0,-2.1600092E-2,-5.963366E-2,3.893427E-2,-2.2095157E-2,-5.9674192E-2,-4.2671196E-2,1.4052235E-2,-2.8585931E-2,6.933119E-2,5.9526574E-2,1.9780051E-2,6.3441046E-2,-4.9543936E-2,2.630487E-2,5.965325E-2,1.1162779E-2,-3.7162986E-2,2.7769268E-2,7.863913E-2,3.7766647E-2],"categories":[],"categories_nodes":[],"categories_segments":[],"categories_sizes":[],"default_left":[0,0,0,0,0,0,0,0,0,0,0,0,0,0,0,0,0,0,0,0,0,0,0,0,0,0,0,0,0,0,0,0,0,0,0,0,0,0,0,0,0,0,0,0,0,0,0,0,0,0,0],"id":28,"left_children":[1,3,5,7,9,11,13,15,17,19,21,23,25,27,29,-1,-1,-1,-1,31,33,35,37,39,41,43,45,-1,-1,47,49,-1,-1,-1,-1,-1,-1,-1,-1,-1,-1,-1,-1,-1,-1,-1,-1,-1,-1,-1,-1],"loss_changes":[2.3746431E1,6.856697E0,6.0401525E0,7.3785686E-1,6.2028475E0,6.3610287E0,1.5757332E0,1.05576515E-2,2.6426318E-1,4.9243565E0,4.07608E0,3.6280823E-1,1.0989367E1,3.639145E-1,3.09618E0,0E0,0E0,0E0,0E0,3.152151E0,4.9931593E0,8.189821E-2,5.6167107E0,3.482628E-2,5.590892E-1,3.230205E0,5.2199116E0,0E0,0E0,1.5767636E0,1.4695873E0,0E0,0E0,0E0,0E0,0E0,0E0,0E0,0E0,0E0,0E0,0E0,0E0,0E0,0E0,0E0,0E0,0E0,0E0,0E0,0E0],"parents":[2147483647,0,0,1,1,2,2,3,3,4,4,5,5,6,6,7,7,8,8,9,9,10,10,11,11,12,12,13,13,14,14,19,19,20,20,21,21,22,22,23,23,24,24,25,25,26,26,29,29,30,30],"right_children":[2,4,6,8,10,12,14,16,18,20,22,24,26,28,30,-1,-1,-1,-1,32,34,36,38,40,42,44,46,-1,-1,48,50,-1,-1,-1,-1,-1,-1,-1,-1,-1,-1,-1,-1,-1,-1,-1,-1,-1,-1,-1,-1],"split_conditions":[1.143656E3,5.8404E4,9.918E-1,5.6414E4,9.906E-1,8.3448E4,9.919E-1,9.2423E2,9.889E-1,1.055062E3,9.751E2,8.1652E4,1.187038E3,1.184422E3,9.924E-1,6.574866E-2,5.9385996E-2,6.0856217E-3,4.0950116E-2,6.6003E4,7.0637E4,9.63377E2,7.9172E4,9.854E-1,8.2454E4,9.912E-1,9.0865E4,9.731891E-2,6.0616016E-2,1.169304E3,9.8178E4,-2.1600092E-2,-5.963366E-2,3.893427E-2,-2.2095157E-2,-5.9674192E-2,-4.2671196E-2,1.4052235E-2,-2.8585931E-2,6.933119E-2,5.9526574E-2,1.9780051E-2,6.3441046E-2,-4.9543936E-2,2.630487E-2,5.965325E-2,1.1162779E-2,-3.7162986E-2,2.7769268E-2,7.863913E-2,3.7766647E-2],"split_indices":[1,4,7,4,7,4,7,1,7,1,1,4,1,1,7,0,0,0,0,4,4,1,4,7,4,7,4,0,0,1,4,0,0,0,0,0,0,0,0,0,0,0,0,0,0,0,0,0,0,0,0],"split_type":[0,0,0,0,0,0,0,0,0,0,0,0,0,0,0,0,0,0,0,0,0,0,0,0,0,0,0,0,0,0,0,0,0,0,0,0,0,0,0,0,0,0,0,0,0,0,0,0,0,0,0],"sum_hessian":[1.7217198E2,1.042063E2,6.796569E1,4.805194E0,9.940111E1,5.1116524E1,1.6849165E1,2.6286685E0,2.1765254E0,5.709029E1,4.2310814E1,8.813917E0,4.2302605E1,2.8916738E0,1.3957491E1,1.2004025E0,1.428266E0,1.1249056E0,1.0516198E0,2.3149588E1,3.3940704E1,3.4034522E0,3.890736E1,5.8629766E0,2.9509413E0,1.0349108E1,3.1953497E1,1.8166186E0,1.0750551E0,5.0195923E0,8.937899E0,8.770527E0,1.4379062E1,3.7703044E0,3.0170399E1,2.398436E0,1.0050162E0,2.8281885E1,1.0625476E1,1.119586E0,4.7433906E0,1.5908852E0,1.360056E0,8.674417E0,1.6746911E0,7.1497636E0,2.4803734E1,1.2424983E0,3.7770941E0,5.030039E0,3.9078593E0],"tree_param":{"num_deleted":"0","num_feature":"12","num_nodes":"51","size_leaf_vector":"1"}},{"base_weights":[3.2396436E-2,-7.0436347E-1,6.556586E-1,-8.410883E-1,-2.730268E-1,3.094131E-1,1.0366348E0,-1.2375761E0,-7.5322956E-1,6.4163536E-1,-5.171896E-1,1.1275234E0,2.1215683E-1,8.654072E-1,1.104417E0,-1.192752E0,-1.3991193E0,1.7167805E-2,-7.985836E-1,8.09001E-3,1.1387902E-1,-8.500766E-1,2.0742466E-1,1.5455438E0,2.5639249E-2,-5.001338E-1,3.3655605E-1,-1.2435538E-2,1.0671529E0,1.1660584E0,6.549249E-1,-6.1251402E-2,-5.907726E-2,-7.8859515E-2,-6.1544295E-2,-4.163934E-2,-2.2992718E-3,4.5185503E-2,-6.372332E-2,-1.7722052E-2,-5.804171E-2,-4.811732E-2,8.030437E-2,5.1116776E-2,9.207417E-2,-3.949141E-2,3.3940133E-2,3.8095564E-2,5.00651E-3,5.8001913E-2,9.498942E-3,6.0595006E-2,5.2042313E-2,5.8277763E-2,-1.573606E-3],"categories":[],"categories_nodes":[],"categories_segments":[],"categories_sizes":[],"default_left":[0,0,0,0,0,0,0,0,0,0,0,0,0,0,0,0,0,0,0,0,0,0,0,0,0,0,0,0,0,0,0,0,0,0,0,0,0,0,0,0,0,0,0,0,0,0,0,0,0,0,0,0,0,0,0],"id":29,"left_children":[1,3,5,7,9,11,13,15,17,19,21,23,25,27,29,31,33,-1,35,37,-1,39,41,43,-1,45,47,-1,49,51,53,-1,-1,-1,-1,-1,-1,-1,-1,-1,-1,-1,-1,-1,-1,-1,-1,-1,-1,-1,-1,-1,-1,-1,-1],"loss_changes":[7.831478E1,4.6093025E0,1.218734E1,2.067318E0,4.201112E0,3.8511224E0,5.1054E-1,7.794762E-2,2.4161568E0,4.108012E0,3.5815465E0,1.3215008E0,3.8330967E0,2.8040133E0,8.7316513E-1,3.0431747E-3,7.004309E-2,0E0,1.2008667E0,3.28191E0,0E0,1.5670266E0,7.6470985E0,4.7396374E-1,0E0,2.1966386E0,3.703517E0,0E0,8.605919E-1,1.5906906E-1,1.3320584E0,0E0,0E0,0E0,0E0,0E0,0E0,0E0,0E0,0E0,0E0,0E0,0E0,0E0,0E0,0E0,0E0,0E0,0E0,0E0,0E0,0E0,0E0,0E0,0E0],"parents":[2147483647,0,0,1,1,2,2,3,3,4,4,5,5,6,6,7,7,8,8,9,9,10,10,11,11,12,12,13,13,14,14,15,15,16,16,18,18,19,19,21,21,22,22,23,23,25,25,26,26,28,28,29,29,30,30],"right_children":[2,4,6,8,10,12,14,16,18,20,22,24,26,28,30,32,34,-1,36,38,-1,40,42,44,-1,46,48,-1,50,52,54,-1,-1,-1,-1,-1,-1,-1,-1,-1,-1,-1,-1,-1,-1,-1,-1,-1,-1,-1,-1,-1,-1,-1,-1],"split_conditions":[8.596E-1,8.482E-1,8.903E-1,9.99813E2,1.029435E3,1.030873E3,6.177E-1,8.321E-1,1.007041E3,1.02306E3,1.183556E3,7.329E-1,1.079812E3,8.973E-1,1.313851E3,9.47474E2,9.65767E2,1.7167805E-2,1.250073E3,1.000908E3,1.1387902E-1,6.833E-1,6.964E-1,6.639E-1,2.5639249E-2,8.824E-1,6.833E-1,-1.2435538E-2,6.017E-1,1.233913E3,7.441E-1,-6.1251402E-2,-5.907726E-2,-7.8859515E-2,-6.1544295E-2,-4.163934E-2,-2.2992718E-3,4.5185503E-2,-6.372332E-2,-1.7722052E-2,-5.804171E-2,-4.811732E-2,8.030437E-2,5.1116776E-2,9.207417E-2,-3.949141E-2,3.3940133E-2,3.8095564E-2,5.00651E-3,5.8001913E-2,9.498942E-3,6.0595006E-2,5.2042313E-2,5.8277763E-2,-1.573606E-3],"split_indices":[6,6,6,1,1,1,8,6,1,1,1,8,1,6,1,1,1,0,1,1,0,8,8,8,0,6,8,0,8,1,8,0,0,0,0,0,0,0,0,0,0,0,0,0,0,0,0,0,0,0,0,0,0,0,0],"split_type":[0,0,0,0,0,0,0,0,0,0,0,0,0,0,0,0,0,0,0,0,0,0,0,0,0,0,0,0,0,0,0,0,0,0,0,0,0,0,0,0,0,0,0,0,0,0,0,0,0,0,0,0,0,0,0],"sum_hessian":[1.7054814E2,7.81577E1,9.2390434E1,5.934618E1,1.8811518E1,4.8401417E1,4.3989017E1,1.07651825E1,4.8580997E1,