{"learner":{"attributes":{"best_iteration":"143","best_score":"0.22738990628975445"},"feature_names":[],"feature_types":[],"gradient_booster":{"model":{"gbtree_model_param":{"num_parallel_tree":"1","num_trees":"194"},"iteration_indptr":[0,1,2,3,4,5,6,7,8,9,10,11,12,13,14,15,16,17,18,19,20,21,22,23,24,25,26,27,28,29,30,31,32,33,34,35,36,37,38,39,40,41,42,43,44,45,46,47,48,49,50,51,52,53,54,55,56,57,58,59,60,61,62,63,64,65,66,67,68,69,70,71,72,73,74,75,76,77,78,79,80,81,82,83,84,85,86,87,88,89,90,91,92,93,94,95,96,97,98,99,100,101,102,103,104,105,106,107,108,109,110,111,112,113,114,115,116,117,118,119,120,121,122,123,124,125,126,127,128,129,130,131,132,133,134,135,136,137,138,139,140,141,142,143,144,145,146,147,148,149,150,151,152,153,154,155,156,157,158,159,160,161,162,163,164,165,166,167,168,169,170,171,172,173,174,175,176,177,178,179,180,181,182,183,184,185,186,187,188,189,190,191,192,193,194],"tree_info":[0,0,0,0,0,0,0,0,0,0,0,0,0,0,0,0,0,0,0,0,0,0,0,0,0,0,0,0,0,0,0,0,0,0,0,0,0,0,0,0,0,0,0,0,0,0,0,0,0,0,0,0,0,0,0,0,0,0,0,0,0,0,0,0,0,0,0,0,0,0,0,0,0,0,0,0,0,0,0,0,0,0,0,0,0,0,0,0,0,0,0,0,0,0,0,0,0,0,0,0,0,0,0,0,0,0,0,0,0,0,0,0,0,0,0,0,0,0,0,0,0,0,0,0,0,0,0,0,0,0,0,0,0,0,0,0,0,0,0,0,0,0,0,0,0,0,0,0,0,0,0,0,0,0,0,0,0,0,0,0,0,0,0,0,0,0,0,0,0,0,0,0,0,0,0,0,0,0,0,0,0,0,0,0,0,0,0,0,0,0,0,0,0,0],"trees":[{"base_weights":[-1.9214721E-2,1.8172656E0,-4.232858E-1,1.9133435E0,7.732194E-1,-1.0460876E0,4.579322E-1,1.4931318E0,1.0550996E-1,-1.9831821E-2,1.0550987E-1,-3.1199068E-1,-1.3993717E0,1.617628E0,-7.512627E-1,1.9145435E0,-7.758486E-2,-1.1579726E0,1.6742276E0,-1.6989307E0,-1.1035339E0,1.846707E0,6.945739E-1,-1.3789909E0,1.1319215E0,1.0550995E-1,6.904685E-2,-2.8187925E-2,2.529114E-2,-8.045171E-2,-3.449448E-2,9.9939205E-2,2.5291173E-2,-9.253011E-2,-7.726697E-2,-1.48181785E-2,-7.3356204E-2,7.3422454E-2,1.03204824E-1,-5.4927535E-2,1.0550994E-1,-5.977595E-2,-9.503693E-2,9.065462E-2,-9.088255E-3],"categories":[],"categories_nodes":[],"categories_segments":[],"categories_sizes":[],"default_left":[0,0,0,0,0,0,0,0,0,0,0,0,0,0,0,0,0,0,0,0,0,0,0,0,0,0,0,0,0,0,0,0,0,0,0,0,0,0,0,0,0,0,0,0,0],"id":0,"left_children":[1,3,5,7,9,11,13,15,-1,-1,-1,17,19,21,23,25,27,29,31,33,35,37,39,41,43,-1,-1,-1,-1,-1,-1,-1,-1,-1,-1,-1,-1,-1,-1,-1,-1,-1,-1,-1,-1],"loss_changes":[1.8260608E2,4.451599E0,1.1069696E2,3.361679E0,5.8492765E0,3.0648544E1,1.17122185E2,8.581478E0,0E0,0E0,0E0,6.451531E1,7.070343E0,9.014931E0,4.833506E1,1.0672073E0,7.778765E-1,5.6850777E0,4.3490562E0,9.2346954E-1,1.1780319E1,2.8086624E0,2.1517492E1,2.9355469E0,9.147153E0,0E0,0E0,0E0,0E0,0E0,0E0,0E0,0E0,0E0,0E0,0E0,0E0,0E0,0E0,0E0,0E0,0E0,0E0,0E0,0E0],"parents":[2147483647,0,0,1,1,2,2,3,3,4,4,5,5,6,6,7,7,11,11,12,12,13,13,14,14,15,15,16,16,17,17,18,18,19,19,20,20,21,21,22,22,23,23,24,24],"right_children":[2,4,6,8,10,12,14,16,-1,-1,-1,18,20,22,24,26,28,30,32,34,36,38,40,42,44,-1,-1,-1,-1,-1,-1,-1,-1,-1,-1,-1,-1,-1,-1,-1,-1,-1,-1,-1,-1],"split_conditions":[2.058875E2,2.039508E2,3.290807E2,6.3512E4,7.2691E4,2.183521E2,2.443227E2,1.989794E2,1.0550996E-1,-1.9831821E-2,1.0550987E-1,7.6819E4,7.6592E4,2.385428E2,3.636761E2,1.902431E2,2.789174E2,2.936562E2,2.166459E2,3.014526E2,2.302194E2,9.0132E4,9.65E4,2.649041E2,2.665459E2,1.0550995E-1,6.904685E-2,-2.8187925E-2,2.529114E-2,-8.045171E-2,-3.449448E-2,9.9939205E-2,2.5291173E-2,-9.253011E-2,-7.726697E-2,-1.48181785E-2,-7.3356204E-2,7.3422454E-2,1.03204824E-1,-5.4927535E-2,1.0550994E-1,-5.977595E-2,-9.503693E-2,9.065462E-2,-9.088255E-3],"split_indices":[3,3,5,4,4,3,3,3,0,0,0,4,4,3,5,3,5,5,3,5,3,4,4,3,3,0,0,0,0,0,0,0,0,0,0,0,0,0,0,0,0,0,0,0,0],"split_type":[0,0,0,0,0,0,0,0,0,0,0,0,0,0,0,0,0,0,0,0,0,0,0,0,0,0,0,0,0,0,0,0,0,0,0,0,0,0,0,0,0,0,0,0,0],"sum_hessian":[2.4607706E2,4.437864E1,2.0169843E2,4.0638866E1,3.739773E0,1.1817683E2,8.35216E1,1.2964546E1,2.767432E1,1.9945456E0,1.7452273E0,3.8395004E1,7.978182E1,4.263341E1,4.0888184E1,1.0222046E1,2.7425E0,2.6926365E1,1.1468637E1,3.9641594E1,4.014023E1,3.4156593E1,8.476819E0,3.0666138E1,1.0222046E1,7.479546E0,2.7425E0,1.4959092E0,1.246591E0,1.3712501E1,1.3213864E1,8.975455E0,2.493182E0,1.9945456E1,1.9696138E1,1.246591E1,2.767432E1,1.246591E1,2.1690683E1,3.739773E0,4.737046E0,2.2687956E1,7.9781823E0,6.731591E0,3.4904547E0],"tree_param":{"num_deleted":"0","num_feature":"12","num_nodes":"45","size_leaf_vector":"1"}},{"base_weights":[8.898507E-3,1.7222596E0,-1.1756223E0,1.9408102E0,1.1696718E0,-4.953863E-1,-1.5969285E0,7.141292E-2,1.9527309E0,-9.2684366E-2,1.3201933E0,2.0355327E0,-6.064324E-1,-1.6332189E0,5.693603E-3,1.9881108E0,1.7871389E0,6.7929976E-2,-6.696709E-2,1.0214566E0,1.7610953E0,1.00693226E-1,1.0286099E-1,-8.018044E-1,7.396756E-1,-1.12111205E-2,-1.6520602E0,1.002123E-1,9.4654754E-2,4.5523945E-2,1.0084104E-1,7.16526E-2,4.7256374E-3,7.7352814E-2,1.0214217E-1,-1.8234296E-2,-5.8005966E-2,-4.9545962E-2,7.590404E-2,-8.778837E-2,-7.8601204E-2],"categories":[],"categories_nodes":[],"categories_segments":[],"categories_sizes":[],"default_left":[0,0,0,0,0,0,0,0,0,0,0,0,0,0,0,0,0,0,0,0,0,0,0,0,0,0,0,0,0,0,0,0,0,0,0,0,0,0,0,0,0],"id":1,"left_children":[1,3,5,7,9,11,13,-1,15,17,19,21,23,25,-1,27,29,-1,-1,31,33,-1,-1,35,37,-1,39,-1,-1,-1,-1,-1,-1,-1,-1,-1,-1,-1,-1,-1,-1],"loss_changes":[5.334798E2,1.2976044E1,4.4540207E1,4.7039795E-1,5.786133E0,1.6706013E1,5.9585724E0,0E0,4.4082642E-1,5.8695083E0,3.5835686E0,1.1644363E-3,1.4975615E1,2.4949188E0,0E0,9.503174E-2,2.6671753E0,0E0,0E0,6.1877365E0,6.6267776E-1,0E0,0E0,7.7884007E0,9.7222805E0,0E0,7.6976013E-1,0E0,0E0,0E0,0E0,0E0,0E0,0E0,0E0,0E0,0E0,0E0,0E0,0E0,0E0],"parents":[2147483647,0,0,1,1,2,2,3,3,4,4,5,5,6,6,8,8,9,9,10,10,11,11,12,12,13,13,15,15,16,16,19,19,20,20,23,23,24,24,26,26],"right_children":[2,4,6,8,10,12,14,-1,16,18,20,22,24,26,-1,28,30,-1,-1,32,34,-1,-1,36,38,-1,40,-1,-1,-1,-1,-1,-1,-1,-1,-1,-1,-1,-1,-1,-1],"split_conditions":[6.937E-1,6.718E-1,7.279E-1,6.53E-1,7.596E-1,6.0805E4,1.05706E5,7.141292E-2,6.632E-1,6.742E-1,8.6075E4,5.7677E4,9.3857E4,7.62E-1,5.693603E-3,1.00766E5,6.649E-1,6.7929976E-2,-6.696709E-2,7.8435E4,7.78E-1,1.00693226E-1,1.0286099E-1,7.102E-1,7.947E-1,-1.12111205E-2,7.4744E4,1.002123E-1,9.4654754E-2,4.5523945E-2,1.0084104E-1,7.16526E-2,4.7256374E-3,7.7352814E-2,1.0214217E-1,-1.8234296E-2,-5.8005966E-2,-4.9545962E-2,7.590404E-2,-8.778837E-2,-7.8601204E-2],"split_indices":[11,11,11,9,9,0,0,0,11,11,0,0,0,9,0,0,11,0,0,0,9,0,0,11,9,0,0,0,0,0,0,0,0,0,0,0,0,0,0,0,0],"split_type":[0,0,0,0,0,0,0,0,0,0,0,0,0,0,0,0,0,0,0,0,0,0,0,0,0,0,0,0,0,0,0,0,0,0,0,0,0,0,0,0,0],"sum_hessian":[2.628611E2,1.0744553E2,1.5541557E2,7.699408E1,3.045145E1,5.94417E1,9.597388E1,1.7499995E0,7.524408E1,3.2441568E0,2.7207294E1,2.4984298E0,5.694327E1,9.398032E1,1.9935583E0,6.199778E1,1.3246302E1,1.499051E0,1.745106E0,1.6218397E1,1.0988896E1,1.2498424E0,1.2485873E0,4.9726105E1,7.217168E0,1.2401315E0,9.274019E1,5.2997902E1,8.999877E0,2.7499952E0,1.0496306E1,1.1231304E1,4.987093E0,6.2448263E0,4.7440705E0,2.2399868E1,2.7326235E1,2.2390912E0,4.978077E0,4.039633E1,5.2343857E1],"tree_param":{"num_deleted":"0","num_feature":"12","num_nodes":"41","size_leaf_vector":"1"}},{"base_weights":[-5.1717213E-3,-5.54022E-1,1.6865628E0,-1.0115874E0,5.994239E-2,1.4256395E0,1.8647034E0,3.4881264E-1,-1.2429057E0,1.3311386E0,-9.3361324E-1,1.8070112E0,4.07931E-1,6.699327E-2,1.891324E0,-1.3246084E0,1.5088489E0,-1.7157605E0,-1.09332E0,1.8019942E0,9.280113E-1,-1.4510481E0,-1.8367255E-1,1.8588545E0,6.1818745E-2,-3.508655E-1,1.3551303E0,1.7627007E0,1.917054E0,-8.811202E-2,-4.0832594E-2,8.930321E-2,1.5873337E-2,-8.7880135E-2,-8.035796E-2,2.6818609E-2,-6.229907E-2,5.5393685E-2,9.299191E-2,1.399152E-2,7.706464E-2,-7.5664505E-2,-8.453376E-3,5.8312435E-2,-4.8286844E-2,6.214879E-2,9.602103E-2,-7.007973E-2,2.842399E-2,1.00183964E-1,3.530628E-2,9.57708E-2,6.066489E-2,9.5577985E-2,9.689399E-2],"categories":[],"categories_nodes":[],"categories_segments":[],"categories_sizes":[],"default_left":[0,0,0,0,0,0,0,0,0,0,0,0,0,0,0,0,0,0,0,0,0,0,0,0,0,0,0,0,0,0,0,0,0,0,0,0,0,0,0,0,0,0,0,0,0,0,0,0,0,0,0,0,0,0,0],"id":2,"left_children":[1,3,5,7,9,11,13,15,17,19,21,23,25,-1,27,29,31,33,35,37,39,41,43,45,-1,47,49,51,53,-1,-1,-1,-1,-1,-1,-1,-1,-1,-1,-1,-1,-1,-1,-1,-1,-1,-1,-1,-1,-1,-1,-1,-1,-1,-1],"loss_changes":[2.3073413E2,5.2709988E1,2.8293915E0,3.3830795E1,1.0119294E2,9.585735E0,5.0540924E-1,3.032886E1,6.4990997E0,6.6718636E0,1.7450993E1,5.3146744E-1,4.8386774E0,0E0,1.1392975E-1,1.4218979E0,3.0474434E0,1.0033417E-1,1.7366028E1,6.509476E-1,7.527624E0,2.1233635E0,1.9383797E1,6.244545E-1,0E0,3.610713E0,1.260365E0,4.8151588E-1,3.2653809E-3,0E0,0E0,0E0,0E0,0E0,0E0,0E0,0E0,0E0,0E0,0E0,0E0,0E0,0E0,0E0,0E0,0E0,0E0,0E0,0E0,0E0,0E0,0E0,0E0,0E0,0E0],"parents":[2147483647,0,0,1,1,2,2,3,3,4,4,5,5,6,6,7,7,8,8,9,9,10,10,11,11,12,12,14,14,15,15,16,16,17,17,18,18,19,19,20,20,21,21,22,22,23,23,25,25,26,26,27,27,28,28],"right_children":[2,4,6,8,10,12,14,16,18,20,22,24,26,-1,28,30,32,34,36,38,40,42,44,46,-1,48,50,52,54,-1,-1,-1,-1,-1,-1,-1,-1,-1,-1,-1,-1,-1,-1,-1,-1,-1,-1,-1,-1,-1,-1,-1,-1,-1,-1],"split_conditions":[4.916035E2,4.398699E2,5.203233E2,6.11E4,8.1198E4,9.4129E4,9.851E-1,3.693241E2,3.965692E2,7.4371E4,4.726102E2,5.168186E2,9.918E-1,6.699327E-2,5.288004E2,3.605674E2,6.0409E4,3.914556E2,6.6107E4,9.864E-1,4.627871E2,9.927E-1,8.9332E4,4.932531E2,6.1818745E-2,5.081608E2,9.927E-1,9.7403E4,1.08803E5,-8.811202E-2,-4.0832594E-2,8.930321E-2,1.5873337E-2,-8.7880135E-2,-8.035796E-2,2.6818609E-2,-6.229907E-2,5.5393685E-2,9.299191E-2,1.399152E-2,7.706464E-2,-7.5664505E-2,-8.453376E-3,5.8312435E-2,-4.8286844E-2,6.214879E-2,9.602103E-2,-7.007973E-2,2.842399E-2,1.00183964E-1,3.530628E-2,9.57708E-2,6.066489E-2,9.5577985E-2,9.689399E-2],"split_indices":[2,2,2,0,0,0,7,2,2,0,2,2,7,0,2,2,0,2,0,7,2,7,0,2,0,2,7,0,0,0,0,0,0,0,0,0,0,0,0,0,0,0,0,0,0,0,0,0,0,0,0,0,0,0,0],"split_type":[0,0,0,0,0,0,0,0,0,0,0,0,0,0,0,0,0,0,0,0,0,0,0,0,0,0,0,0,0,0,0,0,0,0,0,0,0,0,0,0,0,0,0,0,0,0,0,0,0,0,0,0,0,0,0],"sum_hessian":[2.4849962E2,1.8762753E2,6.0872093E1,1.0750669E2,8.012084E1,2.4697544E1,3.6174553E1,1.5623531E1,9.1883156E1,3.514933E1,4.4971508E1,1.79653E1,6.7322426E0,1.7462584E0,3.442829E1,6.3963776E0,9.227154E0,2.2081469E1,6.980169E1,1.6212732E1,1.8936598E1,2.6610867E1,1.8360641E1,1.6469055E1,1.4962457E0,3.7378614E0,2.9943814E0,5.7390795E0,2.8689213E1,3.4360394E0,2.9603379E0,7.485418E0,1.7417365E0,1.5940024E1,6.141444E0,5.978619E0,6.382307E1,1.2471484E0,1.4965585E1,9.206352E0,9.730246E0,2.5378693E1,1.2321728E0,6.735131E0,1.1625511E1,1.4967074E0,1.4972347E1,1.7442923E0,1.9935691E0,1.4977143E0,1.4966671E0,4.490788E0,1.2482914E0,2.2700382E1,5.988831E0],"tree_param":{"num_deleted":"0","num_feature":"12","num_nodes":"55","size_leaf_vector":"1"}},{"base_weights":[6.314605E-2,1.4437767E0,-9.130617E-1,1.6333648E0,8.417274E-1,-1.0830598E0,1.4977039E0,1.3850403E0,1.7767627E0,1.5668069E0,4.674633E-1,9.552188E-1,-1.2126386E0,9.345783E-1,1.8006243E0,1.6544197E0,-9.6068144E-2,1.793809E0,5.4361403E-2,1.2367077E0,1.9160268E0,-5.648867E-1,9.286029E-1,1.8803151E0,3.8137916E-1,-7.4272174E-1,-1.4496335E0,1.0068796E-1,6.233846E-3,1.9641669E0,7.45589E-2,5.5988457E-2,9.048329E-2,8.374182E-2,9.045165E-2,9.4231024E-2,-2.2150813E-2,9.4060466E-2,9.674867E-2,-3.090287E-3,-4.0692776E-2,-3.806452E-2,5.8838934E-2,9.22214E-2,9.687071E-2,-1.6503982E-3,7.0564695E-2,-3.0972024E-2,-6.392541E-2,-5.9060168E-2,-7.8417376E-2,1.0214976E-1,9.605821E-2],"categories":[],"categories_nodes":[],"categories_segments":[],"categories_sizes":[],"default_left":[0,0,0,0,0,0,0,0,0,0,0,0,0,0,0,0,0,0,0,0,0,0,0,0,0,0,0,0,0,0,0,0,0,0,0,0,0,0,0,0,0,0,0,0,0,0,0,0,0,0,0,0,0],"id":3,"left_children":[1,3,5,7,9,11,13,15,17,19,21,23,25,27,29,31,-1,33,-1,35,37,39,41,43,45,47,49,-1,-1,51,-1,-1,-1,-1,-1,-1,-1,-1,-1,-1,-1,-1,-1,-1,-1,-1,-1,-1,-1,-1,-1,-1,-1],"loss_changes":[3.4805228E2,1.2209E1,6.1997124E1,2.896698E0,6.9516125E0,3.732303E1,1.6998138E0,2.6523293E1,6.061249E-1,1.0053272E0,8.043289E0,4.4839373E0,1.4796936E1,3.0463676E0,3.2789803E-1,2.2854996E0,0E0,9.114075E-2,0E0,4.8791823E0,2.7885437E-3,6.534115E-1,4.8979893E0,6.617546E-3,2.2248158E0,2.942215E0,2.8144684E0,0E0,0E0,1.43585205E-2,0E0,0E0,0E0,0E0,0E0,0E0,0E0,0E0,0E0,0E0,0E0,0E0,0E0,0E0,0E0,0E0,0E0,0E0,0E0,0E0,0E0,0E0,0E0],"parents":[2147483647,0,0,1,1,2,2,3,3,4,4,5,5,6,6,7,7,8,8,9,9,10,10,11,11,12,12,13,13,14,14,15,15,17,17,19,19,20,20,21,21,22,22,23,23,24,24,25,25,26,26,29,29],"right_children":[2,4,6,8,10,12,14,16,18,20,22,24,26,28,30,32,-1,34,-1,36,38,40,42,44,46,48,50,-1,-1,52,-1,-1,-1,-1,-1,-1,-1,-1,-1,-1,-1,-1,-1,-1,-1,-1,-1,-1,-1,-1,-1,-1,-1],"split_conditions":[7.859E-1,7.669E-1,4.932531E2,4.864598E2,2.142205E2,2.046764E2,5.052826E2,2.189118E2,2.522188E2,7.78E-1,4.678854E2,1.953044E2,8.169E-1,8.056E-1,5.194742E2,4.305646E2,-9.6068144E-2,4.966674E2,5.4361403E-2,7.769E-1,4.218169E2,4.410742E2,7.692E-1,1.902431E2,4.012946E2,2.404489E2,8.358E-1,1.0068796E-1,6.233846E-3,5.126586E2,7.45589E-2,5.5988457E-2,9.048329E-2,8.374182E-2,9.045165E-2,9.4231024E-2,-2.2150813E-2,9.4060466E-2,9.674867E-2,-3.090287E-3,-4.0692776E-2,-3.806452E-2,5.8838934E-2,9.22214E-2,9.687071E-2,-1.6503982E-3,7.0564695E-2,-3.0972024E-2,-6.392541E-2,-5.9060168E-2,-7.8417376E-2,1.0214976E-1,9.605821E-2],"split_indices":[9,9,2,2,3,3,2,3,3,9,2,3,9,9,2,2,0,2,0,9,2,2,9,3,2,3,9,0,0,2,0,0,0,0,0,0,0,0,0,0,0,0,0,0,0,0,0,0,0,0,0,0,0],"split_type":[0,0,0,0,0,0,0,0,0,0,0,0,0,0,0,0,0,0,0,0,0,0,0,0,0,0,0,0,0,0,0,0,0,0,0,0,0,0,0,0,0,0,0,0,0,0,0,0,0,0,0,0,0],"sum_hessian":[2.5824072E2,1.0696388E2,1.5127684E2,8.134725E1,2.5616627E1,1.4131204E2,9.964792E0,2.9778809E1,5.1568447E1,8.7210045E0,1.6895622E1,8.446606E0,1.3286543E2,3.4854276E0,6.479365E0,2.753544E1,2.2433665E0,5.0324352E1,1.2440952E0,4.483242E0,4.237763E0,5.2168016E0,1.1678821E1,3.2336235E0,5.212982E0,4.4543655E1,8.832178E1,1.4942969E0,1.9911306E0,4.239025E0,2.2403398E0,6.196252E0,2.133919E1,5.709112E0,4.461524E1,3.2353027E0,1.2479392E0,1.4934666E0,2.744296E0,1.727043E0,3.4897587E0,1.4955087E0,1.0183311E1,1.9856794E0,1.2479442E0,3.7173169E0,1.4956654E0,3.621159E1,8.332067E0,2.7083014E1,6.1238766E1,1.4962201E0,2.7428052E0],"tree_param":{"num_deleted":"0","num_feature":"12","num_nodes":"53","size_leaf_vector":"1"}},{"base_weights":[-4.104778E-2,1.4679437E0,-1.0978042E0,1.6844797E0,9.339801E-1,-4.6118465E-1,-1.496981E0,1.6960324E0,6.324098E-2,6.376063E-1,1.6888348E0,-5.450239E-1,9.268443E-2,-1.5341485E0,2.0100674E-2,1.7596047E0,1.6227163E0,1.5290899E0,2.5320354E-1,1.3744224E0,1.8192677E0,1.5517687E0,-6.4434195E-1,-1.2458631E0,-1.5578965E0,8.867295E-2,8.79427E-2,5.426361E-2,8.3754025E-2,5.9918847E-2,9.070164E-2,2.5084427E-2,-2.8220195E-2,4.9007412E-2,8.849653E-2,8.960032E-2,9.1522306E-2,5.147014E-2,1.03689454E-1,-3.0822481E-3,-4.3266114E-2,-8.46419E-2,-2.1977736E-2,-4.2961676E-2,-7.841542E-2],"categories":[],"categories_nodes":[],"categories_segments":[],"categories_sizes":[],"default_left":[0,0,0,0,0,0,0,0,0,0,0,0,0,0,0,0,0,0,0,0,0,0,0,0,0,0,0,0,0,0,0,0,0,0,0,0,0,0,0,0,0,0,0,0,0],"id":4,"left_children":[1,3,5,7,9,11,13,15,-1,17,19,21,-1,23,-1,25,27,29,31,33,35,37,39,41,43,-1,-1,-1,-1,-1,-1,-1,-1,-1,-1,-1,-1,-1,-1,-1,-1,-1,-1,-1,-1],"loss_changes":[3.995259E2,1.1931244E1,3.744565E1,3.5594177E-1,6.6608105E0,1.1021018E1,6.392166E0,3.330078E-1,0E0,7.326393E0,3.4422684E-1,1.1412468E1,0E0,6.081238E-1,0E0,3.9672852E-4,9.3385315E-1,6.069727E-1,3.034848E0,3.837905E-1,1.8005371E-3,6.7581606E-1,6.737425E0,2.436432E0,5.969696E-1,0E0,0E0,0E0,0E0,0E0,0E0,0E0,0E0,0E0,0E0,0E0,0E0,0E0,0E0,0E0,0E0,0E0,0E0,0E0,0E0],"parents":[2147483647,0,0,1,1,2,2,3,3,4,4,5,5,6,6,7,7,9,9,10,10,11,11,13,13,15,15,16,16,17,17,18,18,19,19,20,20,21,21,22,22,23,23,24,24],"right_children":[2,4,6,8,10,12,14,16,-1,18,20,22,-1,24,-1,26,28,30,32,34,36,38,40,42,44,-1,-1,-1,-1,-1,-1,-1,-1,-1,-1,-1,-1,-1,-1,-1,-1,-1,-1,-1,-1],"split_conditions":[6.928E-1,6.708E-1,7.289E-1,1.416303E3,8.8385E4,1.03877E5,1.05706E5,6.443E-1,6.324098E-2,1.05577E3,6.767E-1,9.75628E2,9.268443E-2,7.323E-1,2.0100674E-2,6.2573E4,6.464E-1,6.829E-1,1.170052E3,9.4386E4,1.224636E3,5.8234E4,7.06E-1,7.307E-1,5.8234E4,8.867295E-2,8.79427E-2,5.426361E-2,8.3754025E-2,5.9918847E-2,9.070164E-2,2.5084427E-2,-2.8220195E-2,4.9007412E-2,8.849653E-2,8.960032E-2,9.1522306E-2,5.147014E-2,1.03689454E-1,-3.0822481E-3,-4.3266114E-2,-8.46419E-2,-2.1977736E-2,-4.2961676E-2,-7.841542E-2],"split_indices":[11,11,11,1,0,0,0,11,0,1,11,1,0,11,0,0,11,11,1,0,1,0,11,11,0,0,0,0,0,0,0,0,0,0,0,0,0,0,0,0,0,0,0,0,0],"split_type":[0,0,0,0,0,0,0,0,0,0,0,0,0,0,0,0,0,0,0,0,0,0,0,0,0,0,0,0,0,0,0,0,0,0,0,0,0,0,0,0,0,0,0,0,0],"sum_hessian":[2.505436E2,1.0319157E2,1.4735202E2,7.3418465E1,2.9773102E1,5.6786762E1,9.056526E1,7.145149E1,1.9669709E0,2.1379148E1,8.393954E0,5.4801964E1,1.9847966E0,8.882673E1,1.7385309E0,3.826872E1,3.3182774E1,6.4411707E0,1.4937977E1,2.4611952E0,5.9327593E0,2.4783897E0,5.2323574E1,6.760368E0,8.206636E1,1.9670897E0,3.630163E1,2.946029E0,3.0236744E1,2.98116E0,3.4600108E0,1.1456232E1,3.4817455E0,1.2325236E0,1.2286717E0,1.725349E0,4.2074103E0,1.238788E0,1.2396019E0,1.4386971E1,3.7936604E1,4.349327E0,2.411041E0,1.2050612E0,8.0861305E1],"tree_param":{"num_deleted":"0","num_feature":"12","num_nodes":"45","size_leaf_vector":"1"}},{"base_weights":[8.416255E-3,1.4708714E0,-1.0414677E0,1.6426399E0,9.6045816E-1,-2.3636603E-1,-1.2441401E0,1.6730561E0,1.4661956E0,5.2345896E-1,1.814518E0,-1.0323572E0,5.606488E-1,1.7694587E-2,-1.2713517E0,1.6985186E0,1.6315446E0,2.7988154E-2,1.6250746E0,-4.662164E-2,6.84947E-1,1.8032895E0,9.268117E-2,-1.2193493E0,1.7335752E-2,1.0550314E-1,2.7924216E-1,-1.4210168E0,-1.0266252E0,8.486556E-2,8.614082E-2,5.216477E-2,8.338571E-2,8.646287E-2,4.4730928E-2,6.597534E-2,1.9506946E-2,9.162896E-2,8.819396E-2,-8.4498346E-2,-4.0649768E-2,-2.4995392E-2,4.198466E-2,-5.8431935E-2,-7.4881665E-2,-1.301246E-2,-6.9168754E-2],"categories":[],"categories_nodes":[],"categories_segments":[],"categories_sizes":[],"default_left":[0,0,0,0,0,0,0,0,0,0,0,0,0,0,0,0,0,0,0,0,0,0,0,0,0,0,0,0,0,0,0,0,0,0,0,0,0,0,0,0,0,0,0,0,0,0,0],"id":5,"left_children":[1,3,5,7,9,11,13,15,17,19,21,23,25,-1,27,29,31,-1,33,-1,35,37,-1,39,-1,-1,41,43,45,-1,-1,-1,-1,-1,-1,-1,-1,-1,-1,-1,-1,-1,-1,-1,-1,-1,-1],"loss_changes":[3.822726E2,9.121719E0,2.3648224E1,4.177704E-1,9.77743E0,1.8490976E1,5.03479E0,7.017517E-2,1.6483994E0,4.0744386E0,3.8871765E-3,3.7604866E0,6.350056E0,0E0,4.169739E0,1.1901855E-3,5.371094E-1,0E0,7.411537E-1,0E0,2.9182787E0,7.946014E-3,0E0,2.4557457E0,0E0,0E0,5.382159E0,1.3659515E0,1.1811546E1,0E0,0E0,0E0,0E0,0E0,0E0,0E0,0E0,0E0,0E0,0E0,0E0,0E0,0E0,0E0,0E0,0E0,0E0],"parents":[2147483647,0,0,1,1,2,2,3,3,4,4,5,5,6,6,7,7,8,8,9,9,10,10,11,11,12,12,14,14,15,15,16,16,18,18,20,20,21,21,23,23,26,26,27,27,28,28],"right_children":[2,4,6,8,10,12,14,16,18,20,22,24,26,-1,28,30,32,-1,34,-1,36,38,-1,40,-1,-1,42,44,46,-1,-1,-1,-1,-1,-1,-1,-1,-1,-1,-1,-1,-1,-1,-1,-1,-1,-1],"split_conditions":[6.928E-1,6.718E-1,7.122E-1,6.638E-1,9.91E-1,7.983E-1,7.713E-1,6.46E-1,9.867E-1,9.848E-1,6.883E-1,9.913E-1,7.007E-1,1.7694587E-2,9.908E-1,6.443E-1,6.464E-1,2.7988154E-2,9.925E-1,-4.662164E-2,9.88E-1,6.811E-1,9.268117E-2,7.019E-1,1.7335752E-2,1.0550314E-1,9.91E-1,9.867E-1,8.383E-1,8.486556E-2,8.614082E-2,5.216477E-2,8.338571E-2,8.646287E-2,4.4730928E-2,6.597534E-2,1.9506946E-2,9.162896E-2,8.819396E-2,-8.4498346E-2,-4.0649768E-2,-2.4995392E-2,4.198466E-2,-5.8431935E-2,-7.4881665E-2,-1.301246E-2,-6.9168754E-2],"split_indices":[11,11,11,11,7,9,9,11,7,7,11,7,11,0,7,11,11,0,7,0,7,11,0,11,0,0,7,7,9,0,0,0,0,0,0,0,0,0,0,0,0,0,0,0,0,0,0],"split_type":[0,0,0,0,0,0,0,0,0,0,0,0,0,0,0,0,0,0,0,0,0,0,0,0,0,0,0,0,0,0,0,0,0,0,0,0,0,0,0,0,0,0,0,0,0,0,0],"sum_hessian":[2.4897131E2,1.0404288E2,1.4492844E2,7.784562E1,2.6197262E1,2.914641E1,1.1578203E2,6.639941E1,1.1446207E1,1.7329985E1,8.867278E0,1.458257E1,1.4563841E1,1.938551E0,1.13843475E2,4.1155304E1,2.5244106E1,1.7070726E0,9.739135E0,1.7303191E0,1.5599665E1,6.889234E0,1.9780439E0,1.2841375E1,1.7411942E0,2.238536E0,1.2325305E1,7.064176E1,4.3201717E1,3.9207214E1,1.9480869E0,1.4622777E0,2.3781828E1,8.523457E0,1.215678E0,4.948423E0,1.0651242E1,3.952014E0,2.93722E0,5.9501815E0,6.8911943E0,5.156557E0,7.1687484E0,1.6451105E1,5.4190655E1,1.3722601E1,2.9479118E1],"tree_param":{"num_deleted":"0","num_feature":"12","num_nodes":"47","size_leaf_vector":"1"}},{"base_weights":[2.801211E-2,-1.0169852E0,1.3778791E0,-1.1419725E0,9.876833E-1,8.313701E-1,1.5677779E0,-1.3617707E0,-6.833545E-1,4.2611906E-1,1.8541896E0,1.5504599E0,5.722261E-1,1.2717259E0,1.5839721E0,-1.3877074E0,-4.2865598E-1,1.6566125E0,-8.428933E-1,6.783038E-2,2.4156248E-2,9.745581E-2,8.970549E-2,1.2355223E0,1.8612317E0,-6.82372E-2,7.8011596E-1,9.6066594E-1,8.6068936E-2,1.5950148E0,1.324746E0,-7.3459595E-2,-6.145903E-2,-8.396268E-2,4.1152947E-2,6.326947E-2,1.0600916E-1,1.0500018E-2,-4.515172E-2,-3.3898555E-2,3.6275607E-2,8.678985E-2,3.3555925E-2,9.9724226E-2,8.969526E-2,2.8604506E-2,7.50541E-2,8.664965E-2,9.929592E-3,7.751311E-2,8.207434E-2,4.039507E-2,8.237976E-2],"categories":[],"categories_nodes":[],"categories_segments":[],"categories_sizes":[],"default_left":[0,0,0,0,0,0,0,0,0,0,0,0,0,0,0,0,0,0,0,0,0,0,0,0,0,0,0,0,0,0,0,0,0,0,0,0,0,0,0,0,0,0,0,0,0,0,0,0,0,0,0,0,0],"id":6,"left_children":[1,3,5,7,9,11,13,15,17,19,21,23,25,27,29,31,33,35,37,-1,39,-1,-1,41,43,-1,45,47,-1,49,51,-1,-1,-1,-1,-1,-1,-1,-1,-1,-1,-1,-1,-1,-1,-1,-1,-1,-1,-1,-1,-1,-1],"loss_changes":[3.486169E2,3.4902878E1,1.1191681E1,1.321785E1,3.9781408E0,5.1820793E0,3.836975E-1,2.1453094E0,1.5859503E1,1.8553598E0,1.8325806E-2,7.210102E-1,8.2314625E0,5.8054924E-1,2.171936E-1,1.1140442E0,3.7526293E0,4.917674E-1,2.518402E0,0E0,1.7058703E0,0E0,0E0,1.0331068E0,3.325653E-2,0E0,2.7687054E0,1.4440298E0,0E0,1.5135193E-1,5.173254E-1,0E0,0E0,0E0,0E0,0E0,0E0,0E0,0E0,0E0,0E0,0E0,0E0,0E0,0E0,0E0,0E0,0E0,0E0,0E0,0E0,0E0,0E0],"parents":[2147483647,0,0,1,1,2,2,3,3,4,4,5,5,6,6,7,7,8,8,9,9,10,10,11,11,12,12,13,13,14,14,15,15,16,16,17,17,18,18,20,20,23,23,24,24,26,26,27,27,29,29,30,30],"right_children":[2,4,6,8,10,12,14,16,18,20,22,24,26,28,30,32,34,36,38,-1,40,-1,-1,42,44,-1,46,48,-1,50,52,-1,-1,-1,-1,-1,-1,-1,-1,-1,-1,-1,-1,-1,-1,-1,-1,-1,-1,-1,-1,-1,-1],"split_conditions":[8.725E-1,4.956879E2,8.902E-1,8.48E-1,1.283419E3,1.101577E3,8.92E-1,4.809564E2,1.003365E3,1.253242E3,8.543E-1,4.182706E2,4.566792E2,1.184418E3,9.339E-1,8.314E-1,8.302E-1,3.941106E2,8.49E-1,6.783038E-2,5.060224E2,9.745581E-2,8.970549E-2,4.05569E2,8.785E-1,-6.82372E-2,1.244141E3,1.066322E3,8.6068936E-2,9.085E-1,9.366E-1,-7.3459595E-2,-6.145903E-2,-8.396268E-2,4.1152947E-2,6.326947E-2,1.0600916E-1,1.0500018E-2,-4.515172E-2,-3.3898555E-2,3.6275607E-2,8.678985E-2,3.3555925E-2,9.9724226E-2,8.969526E-2,2.8604506E-2,7.50541E-2,8.664965E-2,9.929592E-3,7.751311E-2,8.207434E-2,4.039507E-2,8.237976E-2],"split_indices":[6,2,6,6,1,1,6,2,1,1,6,2,2,1,6,6,6,2,6,0,2,0,0,2,6,0,1,1,0,6,6,0,0,0,0,0,0,0,0,0,0,0,0,0,0,0,0,0,0,0,0,0,0],"split_type":[0,0,0,0,0,0,0,0,0,0,0,0,0,0,0,0,0,0,0,0,0,0,0,0,0,0,0,0,0,0,0,0,0,0,0,0,0,0,0,0,0,0,0,0,0,0,0,0,0,0,0,0,0],"sum_hessian":[2.471396E2,1.3930042E2,1.0783918E2,1.3112502E2,8.175403E0,2.780867E1,8.003051E1,8.864219E1,4.248283E1,4.9605684E0,3.2148347E0,7.366795E0,2.0441875E1,4.1506953E0,7.5879814E1,8.624494E1,2.3972428E0,2.7115989E0,3.9771233E1,1.4964612E0,3.464107E0,1.246036E0,1.9687988E0,3.6588802E0,3.7079146E0,1.9813211E0,1.8460554E1,2.4534552E0,1.69724E0,7.277949E1,3.1003282E0,5.69645E1,2.9280443E1,1.1991566E0,1.1980861E0,1.4705546E0,1.2410443E0,2.1489768E0,3.7622253E1,1.7311009E0,1.7330061E0,1.9396311E0,1.7192492E0,1.2445829E0,2.4633317E0,1.4326751E1,4.1338034E0,1.218529E0,1.2349261E0,3.707559E1,3.57039E1,1.1920305E0,1.9082977E0],"tree_param":{"num_deleted":"0","num_feature":"12","num_nodes":"53","size_leaf_vector":"1"}},{"base_weights":[-1.3501893E-2,1.140332E0,-2.4513876E-1,-6.3422725E-2,1.2141454E0,-3.139318E-1,1.6850324E0,1.535993E0,8.492436E-1,-4.309147E-1,6.552409E-1,1.7805489E0,1.6334028E0,1.6032077E0,1.2952865E0,4.913666E-1,1.470396E0,-7.3380685E-1,-1.1741464E-1,7.349849E-1,-2.343464E-2,8.555617E-2,9.244401E-2,1.656349E0,8.00676E-2,9.946429E-2,7.71814E-2,2.9895326E-2,8.516123E-2,3.3863984E-2,-5.610626E-2,5.850267E-2,8.4758095E-2,-4.231939E-2,-7.511342E-4,-2.4782216E-2,7.6581365E-3,2.6087097E-3,4.4281553E-2,8.4281296E-2,8.1032835E-2],"categories":[],"categories_nodes":[],"categories_segments":[],"categories_sizes":[],"default_left":[0,0,0,0,0,0,0,0,0,0,0,0,0,0,0,0,0,0,0,0,0,0,0,0,0,0,0,0,0,0,0,0,0,0,0,0,0,0,0,0,0],"id":7,"left_children":[1,3,5,-1,7,9,11,13,15,17,19,21,23,25,27,29,31,33,35,37,-1,-1,-1,39,-1,-1,-1,-1,-1,-1,-1,-1,-1,-1,-1,-1,-1,-1,-1,-1,-1],"loss_changes":[6.458634E1,7.183464E0,2.6722424E1,0E0,4.6038055E0,2.2031801E1,3.4147263E-2,3.3698654E-1,4.0839024E0,1.6464981E1,1.8758392E0,1.1520863E-2,3.3006668E-3,3.745308E-1,1.2934747E0,3.4964154E0,4.5333958E-1,7.1364098E0,8.719941E0,2.0102282E0,0E0,0E0,0E0,2.7303696E-3,0E0,0E0,0E0,0E0,0E0,0E0,0E0,0E0,0E0,0E0,0E0,0E0,0E0,0E0,0E0,0E0,0E0],"parents":[2147483647,0,0,1,1,2,2,4,4,5,5,6,6,7,7,8,8,9,9,10,10,11,11,12,12,13,13,14,14,15,15,16,16,17,17,18,18,19,19,23,23],"right_children":[2,4,6,-1,8,10,12,14,16,18,20,22,24,26,28,30,32,34,36,38,-1,-1,-1,40,-1,-1,-1,-1,-1,-1,-1,-1,-1,-1,-1,-1,-1,-1,-1,-1,-1],"split_conditions":[6.373E-1,9.831E-1,1.06746E5,-6.3422725E-2,6.071E-1,7.532E-1,6.936E-1,5.905E-1,9.906E-1,9.903E-1,9.931E-1,9.915E-1,7.402E-1,9.87E-1,5.952E-1,9.901E-1,8.3456E4,7.428E-1,7.6819E4,9.886E-1,-2.343464E-2,8.555617E-2,9.244401E-2,1.10312E5,8.00676E-2,9.946429E-2,7.71814E-2,2.9895326E-2,8.516123E-2,3.3863984E-2,-5.610626E-2,5.850267E-2,8.4758095E-2,-4.231939E-2,-7.511342E-4,-2.4782216E-2,7.6581365E-3,2.6087097E-3,4.4281553E-2,8.4281296E-2,8.1032835E-2],"split_indices":[8,7,4,0,8,8,8,8,7,7,7,7,8,7,8,7,4,8,4,7,0,0,0,4,0,0,0,0,0,0,0,0,0,0,0,0,0,0,0,0,0],"split_type":[0,0,0,0,0,0,0,0,0,0,0,0,0,0,0,0,0,0,0,0,0,0,0,0,0,0,0,0,0,0,0,0,0,0,0,0,0,0,0,0,0],"sum_hessian":[2.4165161E2,4.0401737E1,2.0124988E2,1.2012354E0,3.92005E1,1.94324E2,6.9258785E0,2.0829042E1,1.8371458E1,1.733946E2,2.0929401E1,2.4300816E0,4.495797E0,1.6282352E1,4.5466895E0,1.165591E1,6.7155476E0,8.818933E1,8.520528E1,1.9542824E1,1.3865776E0,1.205416E0,1.2246656E0,2.6199775E0,1.8758194E0,2.1767707E0,1.4105582E1,1.678042E0,2.8686476E0,1.0451632E1,1.2042782E0,2.8745074E0,3.8410404E0,7.6246994E1,1.1942335E1,3.553386E1,4.9671413E1,3.5323389E0,1.6010485E1,1.4392899E0,1.1806875E0],"tree_param":{"num_deleted":"0","num_feature":"12","num_nodes":"41","size_leaf_vector":"1"}},{"base_weights":[5.9200726E-2,1.2740606E0,-3.2530907E-1,7.453135E-1,1.571744E0,-8.293768E-1,9.8472965E-1,1.4714565E0,-6.245602E-1,1.5898696E0,1.3566544E0,-5.9268796E-1,-1.319747E0,1.272935E0,-1.2670965E-1,1.2079221E0,1.6514179E0,-8.30517E-2,-2.531779E-1,8.5212074E-2,1.5856742E0,8.597306E-2,4.9799595E-2,-1.1549467E0,1.0881704E-1,-1.5053147E0,-1.1248791E0,1.396998E0,7.4695677E-1,-1.1622591E0,1.4819514E0,8.181845E-2,3.310583E-2,7.990574E-2,8.868365E-2,4.4798523E-2,-2.921387E-2,8.264134E-2,7.890476E-2,-7.539057E-2,-5.0991733E-2,-1.9359985E-2,4.0987622E-2,-6.316509E-2,-7.7675216E-2,-3.77589E-2,-7.710472E-2,3.894203E-2,7.456822E-2,1.4318417E-2,7.812581E-2,-4.832886E-2,-8.55627E-2,5.350375E-2,8.286215E-2],"categories":[],"categories_nodes":[],"categories_segments":[],"categories_sizes":[],"default_left":[0,0,0,0,0,0,0,0,0,0,0,0,0,0,0,0,0,0,0,0,0,0,0,0,0,0,0,0,0,0,0,0,0,0,0,0,0,0,0,0,0,0,0,0,0,0,0,0,0,0,0,0,0,0,0],"id":8,"left_children":[1,3,5,7,9,11,13,15,17,19,21,23,25,27,29,31,33,-1,35,-1,37,-1,-1,39,41,43,45,47,49,51,53,-1,-1,-1,-1,-1,-1,-1,-1,-1,-1,-1,-1,-1,-1,-1,-1,-1,-1,-1,-1,-1,-1,-1,-1],"loss_changes":[1.11855644E2,9.061195E0,1.20108765E2,2.0626896E1,1.435852E-1,1.5244904E1,1.6188839E1,6.427326E-1,2.7652717E0,1.6296387E-2,3.7457037E-1,3.4941727E1,1.5462265E0,2.6188202E0,1.733595E1,1.2859993E0,5.2469254E-2,0E0,2.0123043E0,0E0,1.6677856E-2,0E0,0E0,2.3444672E0,1.38987E1,2.554283E-1,3.2170887E0,1.8942566E0,2.8771687E0,6.8013763E-1,2.942438E-1,0E0,0E0,0E0,0E0,0E0,0E0,0E0,0E0,0E0,0E0,0E0,0E0,0E0,0E0,0E0,0E0,0E0,0E0,0E0,0E0,0E0,0E0,0E0,0E0],"parents":[2147483647,0,0,1,1,2,2,3,3,4,4,5,5,6,6,7,7,8,8,9,9,10,10,11,11,12,12,13,13,14,14,15,15,16,16,18,18,20,20,23,23,24,24,25,25,26,26,27,27,28,28,29,29,30,30],"right_children":[2,4,6,8,10,12,14,16,18,20,22,24,26,28,30,32,34,-1,36,-1,38,-1,-1,40,42,44,46,48,50,52,54,-1,-1,-1,-1,-1,-1,-1,-1,-1,-1,-1,-1,-1,-1,-1,-1,-1,-1,-1,-1,-1,-1,-1,-1],"split_conditions":[2.107109E2,1.050083E3,1.206002E3,2.02024E2,2.091058E2,2.374613E2,2.568931E2,9.888E-1,9.884E-1,1.056941E3,9.906E-1,1.087467E3,9.904E-1,2.470603E2,1.275261E3,1.902431E2,1.899325E2,-8.30517E-2,9.889E-1,8.5212074E-2,9.858E-1,8.597306E-2,4.9799595E-2,1.000166E3,9.906E-1,9.861E-1,2.532163E2,9.867E-1,1.305855E3,9.91E-1,1.305855E3,8.181845E-2,3.310583E-2,7.990574E-2,8.868365E-2,4.4798523E-2,-2.921387E-2,8.264134E-2,7.890476E-2,-7.539057E-2,-5.0991733E-2,-1.9359985E-2,4.0987622E-2,-6.316509E-2,-7.7675216E-2,-3.77589E-2,-7.710472E-2,3.894203E-2,7.456822E-2,1.4318417E-2,7.812581E-2,-4.832886E-2,-8.55627E-2,5.350375E-2,8.286215E-2],"split_indices":[3,1,1,3,3,3,3,7,7,1,7,1,7,3,1,3,3,0,7,0,7,0,0,1,7,7,3,7,1,7,1,0,0,0,0,0,0,0,0,0,0,0,0,0,0,0,0,0,0,0,0,0,0,0,0],"split_type":[0,0,0,0,0,0,0,0,0,0,0,0,0,0,0,0,0,0,0,0,0,0,0,0,0,0,0,0,0,0,0,0,0,0,0,0,0,0,0,0,0,0,0,0,0,0,0,0,0,0,0,0,0,0,0],"sum_hessian":[2.394552E2,5.7568226E1,1.8188698E2,2.0736294E1,3.6831932E1,1.3134785E2,5.053913E1,1.3552423E1,7.1838717E0,3.3969315E1,2.8626142E0,8.85885E1,4.275935E1,4.013245E1,1.0406678E1,5.4992967E0,8.053126E0,1.8950517E0,5.28882E0,1.2019788E0,3.2767338E1,1.427061E0,1.4355532E0,4.9174763E1,3.9413742E1,2.1902315E1,2.0857037E1,3.247301E1,7.6594386E0,6.3311224E0,4.0755563E0,3.0808692E0,2.4184272E0,5.60805E0,2.4450762E0,1.1829938E0,4.1058264E0,3.3230581E0,2.9444279E1,1.3615607E1,3.5559155E1,2.3216019E1,1.6197721E1,3.6369944E0,1.826532E1,1.1058197E1,9.798839E0,4.300716E0,2.8172297E1,4.894989E0,2.7644494E0,4.667471E0,1.6636516E0,1.2167109E0,2.8588455E0],"tree_param":{"num_deleted":"0","num_feature":"12","num_nodes":"55","size_leaf_vector":"1"}},{"base_weights":[5.0384864E-2,-9.7199166E-1,1.2633157E0,-1.0761307E0,4.8410183E-1,5.393191E-1,1.4133116E0,-1.1727132E0,-3.2540184E-1,1.2403484E-1,7.791578E-2,1.6574476E0,2.7804542E-1,1.1009098E0,1.4883598E0,7.650183E-2,-1.2038326E0,5.3511985E-2,-5.1818997E-1,-6.475443E-1,1.0733584E0,7.922734E-2,8.6847894E-2,5.147279E-1,-9.5223105E-1,1.5251073E0,8.5455424E-1,1.5008742E0,5.2709647E-2,-6.629019E-2,-5.0928634E-2,-6.366166E-2,-3.1026376E-3,4.4634924E-3,-8.643994E-2,8.478754E-2,1.1682689E-2,1.16198035E-2,5.7665374E-2,-1.0111582E-1,7.6026293E-3,8.464434E-2,3.8627278E-2,2.3144247E-2,7.151528E-2,7.05796E-2,7.665606E-2],"categories":[],"categories_nodes":[],"categories_segments":[],"categories_sizes":[],"default_left":[0,0,0,0,0,0,0,0,0,0,0,0,0,0,0,0,0,0,0,0,0,0,0,0,0,0,0,0,0,0,0,0,0,0,0,0,0,0,0,0,0,0,0,0,0,0,0],"id":9,"left_children":[1,3,5,7,9,11,13,15,17,19,-1,21,23,25,27,-1,29,-1,31,33,35,-1,-1,37,39,41,43,45,-1,-1,-1,-1,-1,-1,-1,-1,-1,-1,-1,-1,-1,-1,-1,-1,-1,-1,-1],"loss_changes":[2.9673285E2,1.9688866E1,1.1885239E1,8.786148E0,3.3520908E0,5.4872065E0,2.125595E0,9.030151E0,3.716435E0,4.7543764E0,0E0,2.0614624E-2,4.4333687E0,1.835165E0,3.9717102E-1,0E0,2.398407E0,0E0,4.1797037E0,2.8526125E0,1.5209444E0,0E0,0E0,2.3021016E0,2.9027693E0,8.1462E-1,2.5051584E0,2.0454407E-1,0E0,0E0,0E0,0E0,0E0,0E0,0E0,0E0,0E0,0E0,0E0,0E0,0E0,0E0,0E0,0E0,0E0,0E0,0E0],"parents":[2147483647,0,0,1,1,2,2,3,3,4,4,5,5,6,6,7,7,8,8,9,9,11,11,12,12,13,13,14,14,16,16,18,18,19,19,20,20,23,23,24,24,25,25,26,26,27,27],"right_children":[2,4,6,8,10,12,14,16,18,20,-1,22,24,26,28,-1,30,-1,32,34,36,-1,-1,38,40,42,44,46,-1,-1,-1,-1,-1,-1,-1,-1,-1,-1,-1,-1,-1,-1,-1,-1,-1,-1,-1],"split_conditions":[8.708E-1,1.235576E3,8.829E-1,8.617E-1,7.377E-1,1.051752E3,8.92E-1,6.128E-1,9.75628E2,8.567E-1,7.791578E-2,9.84754E2,8.815E-1,6.633E-1,1.416303E3,7.650183E-2,8.382E-1,5.3511985E-2,1.098521E3,8.401E-1,6.936E-1,7.922734E-2,8.6847894E-2,7.336E-1,1.129951E3,8.914E-1,1.184418E3,6.071E-1,5.2709647E-2,-6.629019E-2,-5.0928634E-2,-6.366166E-2,-3.1026376E-3,4.4634924E-3,-8.643994E-2,8.478754E-2,1.1682689E-2,1.16198035E-2,5.7665374E-2,-1.0111582E-1,7.6026293E-3,8.464434E-2,3.8627278E-2,2.3144247E-2,7.151528E-2,7.05796E-2,7.665606E-2],"split_indices":[6,1,6,6,8,1,6,8,1,6,0,1,6,8,1,0,6,0,1,6,8,0,0,8,1,6,1,8,0,0,0,0,0,0,0,0,0,0,0,0,0,0,0,0,0,0,0],"split_type":[0,0,0,0,0,0,0,0,0,0,0,0,0,0,0,0,0,0,0,0,0,0,0,0,0,0,0,0,0,0,0,0,0,0,0,0,0,0,0,0,0,0,0,0,0,0,0],"sum_hessian":[2.3928679E2,1.298427E2,1.0944409E2,1.2117622E2,8.666465E0,1.8782963E1,9.066113E1,1.0736372E2,1.3812502E1,6.4908056E0,2.1756587E0,3.5576937E0,1.5225269E1,1.7560871E1,7.310026E1,1.222113E0,1.0614161E2,1.6764255E0,1.2136076E1,3.580606E0,2.9101999E0,1.8560082E0,1.7016855E0,1.2768791E1,2.4564779E0,6.4517136E0,1.1109158E1,7.105225E1,2.0480044E0,6.4003235E1,4.213838E1,4.570512E0,7.5655646E0,2.1294832E0,1.4511228E0,1.6713707E0,1.2388291E0,8.854154E0,3.914637E0,1.2475563E0,1.2089217E0,5.275555E0,1.1761585E0,6.6115136E0,4.4976444E0,1.8853247E1,5.219901E1],"tree_param":{"num_deleted":"0","num_feature":"12","num_nodes":"47","size_leaf_vector":"1"}},{"base_weights":[3.968118E-2,-4.8059183E-1,1.1672807E0,-2.1475773E-1,-9.6883816E-1,5.7509905E-1,1.3634466E0,-6.628399E-1,1.2187464E0,-1.1323353E0,-4.177302E-2,1.2723726E0,-3.5126105E-1,1.5087873E0,1.2216442E0,9.713175E-1,-8.631051E-1,1.5462935E0,8.429147E-1,-1.2978731E0,-4.5103166E-1,-9.963888E-1,7.694833E-1,6.054708E-3,1.4499316E0,-8.870178E-1,6.820762E-1,1.4958698E0,1.5199233E0,6.157496E-1,1.5057102E0,-7.486422E-2,7.154178E-2,-1.8790534E-2,-5.2741837E-2,8.338519E-2,7.627153E-2,-8.638404E-3,6.8962E-2,-6.169762E-2,-7.790584E-2,3.2212783E-2,-5.476134E-2,9.123485E-3,-7.5068586E-2,7.451546E-2,1.2228849E-2,4.568265E-2,7.7506386E-2,-6.6449635E-2,-2.7606452E-2,9.2464216E-2,-1.4829193E-2,7.618629E-2,7.4556604E-2,7.923182E-2,7.5582705E-2,-5.153442E-3,6.968182E-2,7.784669E-2,7.475633E-2],"categories":[],"categories_nodes":[],"categories_segments":[],"categories_sizes":[],"default_left":[0,0,0,0,0,0,0,0,0,0,0,0,0,0,0,0,0,0,0,0,0,0,0,0,0,0,0,0,0,0,0,0,0,0,0,0,0,0,0,0,0,0,0,0,0,0,0,0,0,0,0,0,0,0,0,0,0,0,0,0,0],"id":10,"left_children":[1,3,5,7,9,11,13,15,17,19,21,23,25,27,29,31,33,35,37,39,41,43,45,-1,47,49,51,53,55,57,59,-1,-1,-1,-1,-1,-1,-1,-1,-1,-1,-1,-1,-1,-1,-1,-1,-1,-1,-1,-1,-1,-1,-1,-1,-1,-1,-1,-1,-1,-1],"loss_changes":[1.341101E2,2.0302814E1,8.384186E0,6.5055565E1,8.358341E0,1.160037E1,1.1173477E0,2.5252369E1,2.96912E0,5.286854E0,6.402452E0,2.0946102E0,4.2698627E0,3.8528442E-3,4.7230835E0,9.5557E0,6.4221764E0,3.2636642E-2,6.118325E0,6.2735367E-1,6.465472E0,2.2609823E0,1.6909883E0,0E0,4.7700882E-1,7.5178456E-1,3.0081766E0,1.6288757E-3,7.6904297E-3,4.8977146E0,1.0120392E-2,0E0,0E0,0E0,0E0,0E0,0E0,0E0,0E0,0E0,0E0,0E0,0E0,0E0,0E0,0E0,0E0,0E0,0E0,0E0,0E0,0E0,0E0,0E0,0E0,0E0,0E0,0E0,0E0,0E0,0E0],"parents":[2147483647,0,0,1,1,2,2,3,3,4,4,5,5,6,6,7,7,8,8,9,9,10,10,11,11,12,12,13,13,14,14,15,15,16,16,17,17,18,18,19,19,20,20,21,21,22,22,24,24,25,25,26,26,27,27,28,28,29,29,30,30],"right_children":[2,4,6,8,10,12,14,16,18,20,22,24,26,28,30,32,34,36,38,40,42,44,46,-1,48,50,52,54,56,58,60,-1,-1,-1,-1,-1,-1,-1,-1,-1,-1,-1,-1,-1,-1,-1,-1,-1,-1,-1,-1,-1,-1,-1,-1,-1,-1,-1,-1,-1,-1],"split_conditions":[4.809564E2,7.9262E4,4.966674E2,4.35476E2,9.921E-1,8.7352E4,9.5364E4,5.9542E4,7.426E4,4.693919E2,4.533595E2,9.871E-1,9.909E-1,8.6355E4,5.288004E2,3.640242E2,6.6827E4,4.396744E2,4.453776E2,9.91E-1,8.6983E4,8.0558E4,4.668338E2,6.054708E-3,4.827527E2,4.869531E2,9.5993E4,9.866E-1,5.014018E2,9.917E-1,5.377672E2,-7.486422E-2,7.154178E-2,-1.8790534E-2,-5.2741837E-2,8.338519E-2,7.627153E-2,-8.638404E-3,6.8962E-2,-6.169762E-2,-7.790584E-2,3.2212783E-2,-5.476134E-2,9.123485E-3,-7.5068586E-2,7.451546E-2,1.2228849E-2,4.568265E-2,7.7506386E-2,-6.6449635E-2,-2.7606452E-2,9.2464216E-2,-1.4829193E-2,7.618629E-2,7.4556604E-2,7.923182E-2,7.5582705E-2,-5.153442E-3,6.968182E-2,7.784669E-2,7.475633E-2],"split_indices":[2,4,2,2,7,4,4,4,4,2,2,7,7,4,2,2,4,2,2,7,4,4,2,0,2,2,4,7,2,7,2,0,0,0,0,0,0,0,0,0,0,0,0,0,0,0,0,0,0,0,0,0,0,0,0,0,0,0,0,0,0],"split_type":[0,0,0,0,0,0,0,0,0,0,0,0,0,0,0,0,0,0,0,0,0,0,0,0,0,0,0,0,0,0,0,0,0,0,0,0,0,0,0,0,0,0,0,0,0,0,0,0,0,0,0,0,0,0,0,0,0,0,0,0,0],"sum_hessian":[2.285995E2,1.5642514E2,7.217436E1,1.0128097E2,5.514417E1,1.7959276E1,5.4215088E1,7.716186E1,2.4119114E1,4.6876945E1,8.26722E0,1.0246619E1,7.712656E0,2.6773516E1,2.7441574E1,8.423815E0,6.8738045E1,1.2887401E1,1.1231712E1,3.7713593E1,9.163356E0,3.79803E0,4.46919E0,1.369152E0,8.877467E0,5.0792212E0,2.6334348E0,1.2395473E1,1.4378043E1,8.759064E0,1.868251E1,1.3219715E0,7.101843E0,1.9409061E1,4.932898E1,1.8897846E0,1.0997616E1,3.881327E0,7.3503857E0,3.0276999E1,7.4365935E0,3.3935316E0,5.769824E0,1.1390264E0,2.6590037E0,1.8831525E0,2.5860374E0,1.3975254E0,7.4799423E0,2.1895375E0,2.8896837E0,1.201023E0,1.4324117E0,1.8016999E0,1.0593772E1,1.6290388E0,1.2749004E1,4.5523725E0,4.206691E0,3.1990592E0,1.5483451E1],"tree_param":{"num_deleted":"0","num_feature":"12","num_nodes":"61","size_leaf_vector":"1"}},{"base_weights":[3.8972832E-2,1.0833589E0,-9.5603544E-1,1.4417081E0,5.1448965E-1,-4.106051E-1,-1.2261733E0,1.1000128E0,1.4684668E0,3.9455414E-1,1.4369735E0,8.5141945E-1,-5.959254E-1,-1.2524475E0,-1.5087544E-3,1.4778829E0,1.6679907E-2,1.4617455E0,1.5066634E0,8.689624E-1,9.670408E-2,1.661613E0,3.5353955E-2,8.7422006E-2,5.546889E-1,-9.610604E-1,-3.3558175E-1,-1.0617405E0,-1.3736818E0,7.305853E-2,7.511181E-2,7.3399834E-2,7.26768E-2,7.417095E-2,7.573777E-2,7.740856E-2,3.635235E-2,2.3473468E-2,-1.8471956E-2,7.56984E-2,8.72245E-2,4.2699266E-2,1.4508097E-2,-4.017145E-2,-7.706152E-2,2.4584038E-2,-3.179169E-2,-5.5520948E-2,-1.3706679E-2,-6.566241E-2,-7.1623154E-2],"categories":[],"categories_nodes":[],"categories_segments":[],"categories_sizes":[],"default_left":[0,0,0,0,0,0,0,0,0,0,0,0,0,0,0,0,0,0,0,0,0,0,0,0,0,0,0,0,0,0,0,0,0,0,0,0,0,0,0,0,0,0,0,0,0,0,0,0,0,0,0],"id":11,"left_children":[1,3,5,7,9,11,13,15,17,19,21,23,25,27,-1,29,-1,31,33,35,37,39,-1,-1,41,43,45,47,49,-1,-1,-1,-1,-1,-1,-1,-1,-1,-1,-1,-1,-1,-1,-1,-1,-1,-1,-1,-1,-1,-1],"loss_changes":[2.3373163E2,2.2370407E1,1.6971283E1,6.1557007E-1,4.6923018E0,8.92289E0,2.4206085E0,1.4160357E0,1.6021729E-2,5.303294E0,8.000717E-1,1.3002572E0,3.1623573E0,1.7426987E0,0E0,1.3275146E-3,0E0,2.7160645E-3,1.7528534E-3,1.3952837E0,4.0062714E0,4.564953E-2,0E0,0E0,2.9061913E-1,1.2663155E0,4.8237076E0,1.1231308E0,1.6368866E-1,0E0,0E0,0E0,0E0,0E0,0E0,0E0,0E0,0E0,0E0,0E0,0E0,0E0,0E0,0E0,0E0,0E0,0E0,0E0,0E0,0E0,0E0],"parents":[2147483647,0,0,1,1,2,2,3,3,4,4,5,5,6,6,7,7,8,8,9,9,10,10,11,11,12,12,13,13,15,15,17,17,18,18,19,19,20,20,21,21,24,24,25,25,26,26,27,27,28,28],"right_children":[2,4,6,8,10,12,14,16,18,20,22,24,26,28,-1,30,-1,32,34,36,38,40,-1,-1,42,44,46,48,50,-1,-1,-1,-1,-1,-1,-1,-1,-1,-1,-1,-1,-1,-1,-1,-1,-1,-1,-1,-1,-1,-1],"split_conditions":[7.054E-1,6.713E-1,7.284E-1,1.039375E3,2.422911E2,1.003365E3,1.254278E3,1.84398E2,6.626E-1,2.142205E2,1.321708E3,9.3894E2,1.080253E3,7.458E-1,-1.5087544E-3,6.432E-1,1.6679907E-2,1.242438E3,1.136232E3,1.884084E2,6.903E-1,6.906E-1,3.5353955E-2,8.7422006E-2,2.031583E2,1.069486E3,1.113974E3,7.454E-1,7.668E-1,7.305853E-2,7.511181E-2,7.3399834E-2,7.26768E-2,7.417095E-2,7.573777E-2,7.740856E-2,3.635235E-2,2.3473468E-2,-1.8471956E-2,7.56984E-2,8.72245E-2,4.2699266E-2,1.4508097E-2,-4.017145E-2,-7.706152E-2,2.4584038E-2,-3.179169E-2,-5.5520948E-2,-1.3706679E-2,-6.566241E-2,-7.1623154E-2],"split_indices":[11,11,11,1,3,1,1,3,11,3,1,1,1,11,0,11,0,1,1,3,11,11,0,0,3,1,1,11,11,0,0,0,0,0,0,0,0,0,0,0,0,0,0,0,0,0,0,0,0,0,0],"split_type":[0,0,0,0,0,0,0,0,0,0,0,0,0,0,0,0,0,0,0,0,0,0,0,0,0,0,0,0,0,0,0,0,0,0,0,0,0,0,0,0,0,0,0,0,0,0,0,0,0,0,0],"sum_hessian":[2.2492084E2,1.09737526E2,1.1518331E2,6.732643E1,4.2411095E1,3.8151775E1,7.703153E1,4.889546E0,6.2436886E1,3.753149E1,4.879605E0,4.8850117E0,3.326676E1,7.5375656E1,1.6558803E0,3.2748997E0,1.6146463E0,5.309422E1,9.342668E0,1.44754095E1,2.3056082E1,3.7312393E0,1.1483657E0,1.2142642E0,3.6707475E0,1.3846658E1,1.9420105E1,2.9294361E1,4.6081295E1,1.9421974E0,1.3327022E0,3.0142242E1,2.2951975E1,2.4126263E0,6.9300413E0,2.5017896E0,1.197362E1,1.2811214E1,1.0244866E1,1.3414639E0,2.3897753E0,1.7221882E0,1.9485594E0,1.0888319E1,2.9583383E0,5.1714854E0,1.424862E1,2.7589195E1,1.7051659E0,2.2721308E1,2.3359985E1],"tree_param":{"num_deleted":"0","num_feature":"12","num_nodes":"51","size_leaf_vector":"1"}},{"base_weights":[-3.8742255E-3,-8.692451E-1,1.1528786E0,-1.0332909E0,-3.772174E-2,4.7050375E-1,1.3156602E0,-1.0646576E0,8.5575E-2,-2.1877825E-1,1.0251065E0,1.5583758E0,2.9988077E-1,1.025669E0,1.3702035E0,-1.1923198E0,-8.479843E-1,2.1952745E-3,-1.3019925E0,6.1454207E-2,3.3991702E-2,7.4670896E-2,8.157458E-2,8.7249935E-2,1.0205572E0,7.434246E-1,1.5489632E0,1.3832988E0,9.85473E-1,-2.1384804E-2,-6.021422E-2,-5.037257E-2,-1.1567543E-2,1.1667282E-2,-5.4590773E-2,-3.608401E-2,-8.273088E-2,1.9672126E-2,-4.9406495E-2,-4.9063214E-4,7.56532E-2,6.1758906E-2,-6.992285E-2,8.096944E-2,7.616039E-2,5.7695772E-2,7.035732E-2,7.30213E-2,2.5157047E-2],"categories":[],"categories_nodes":[],"categories_segments":[],"categories_sizes":[],"default_left":[0,0,0,0,0,0,0,0,0,0,0,0,0,0,0,0,0,0,0,0,0,0,0,0,0,0,0,0,0,0,0,0,0,0,0,0,0,0,0,0,0,0,0,0,0,0,0,0,0],"id":12,"left_children":[1,3,5,7,9,11,13,15,-1,17,19,21,23,25,27,29,31,33,35,-1,-1,-1,-1,37,39,41,43,45,47,-1,-1,-1,-1,-1,-1,-1,-1,-1,-1,-1,-1,-1,-1,-1,-1,-1,-1,-1,-1],"loss_changes":[2.2379242E2,1.7445145E1,1.06273575E1,9.1964035E0,4.0551424E0,3.4204254E0,1.221817E0,2.9212646E0,0E0,4.309894E0,2.1602368E-1,1.1859894E-2,2.4409451E0,1.8061819E0,3.2756805E-1,6.0796356E-1,3.8501892E0,3.7818325E0,6.2428665E-1,0E0,0E0,0E0,0E0,4.050082E0,1.841615E0,8.367466E0,7.76577E-3,3.4394836E-1,4.9029088E-1,0E0,0E0,0E0,0E0,0E0,0E0,0E0,0E0,0E0,0E0,0E0,0E0,0E0,0E0,0E0,0E0,0E0,0E0,0E0,0E0],"parents":[2147483647,0,0,1,1,2,2,3,3,4,4,5,5,6,6,7,7,9,9,10,10,11,11,12,12,13,13,14,14,15,15,16,16,17,17,18,18,23,23,24,24,25,25,26,26,27,27,28,28],"right_children":[2,4,6,8,10,12,14,16,-1,18,20,22,24,26,28,30,32,34,36,-1,-1,-1,-1,38,40,42,44,46,48,-1,-1,-1,-1,-1,-1,-1,-1,-1,-1,-1,-1,-1,-1,-1,-1,-1,-1,-1,-1],"split_conditions":[8.7E-1,8.597E-1,8.829E-1,1.280766E3,1.228611E3,1.027706E3,8.902E-1,8.375E-1,8.5575E-2,1.171369E3,1.278435E3,9.7333E2,1.206002E3,1.194821E3,1.416303E3,9.14675E2,1.165646E3,8.681E-1,8.629E-1,6.1454207E-2,3.3991702E-2,7.4670896E-2,8.157458E-2,8.81E-1,8.772E-1,1.170052E3,1.214057E3,1.039375E3,9.155E-1,-2.1384804E-2,-6.021422E-2,-5.037257E-2,-1.1567543E-2,1.1667282E-2,-5.4590773E-2,-3.608401E-2,-8.273088E-2,1.9672126E-2,-4.9406495E-2,-4.9063214E-4,7.56532E-2,6.1758906E-2,-6.992285E-2,8.096944E-2,7.616039E-2,5.7695772E-2,7.035732E-2,7.30213E-2,2.5157047E-2],"split_indices":[6,6,6,1,1,1,6,6,0,1,1,1,1,1,1,1,1,6,6,0,0,0,0,6,6,1,1,1,6,0,0,0,0,0,0,0,0,0,0,0,0,0,0,0,0,0,0,0,0],"split_type":[0,0,0,0,0,0,0,0,0,0,0,0,0,0,0,0,0,0,0,0,0,0,0,0,0,0,0,0,0,0,0,0,0,0,0,0,0,0,0,0,0,0,0,0,0,0,0,0,0],"sum_hessian":[2.2356432E2,1.2788964E2,9.567468E1,1.0681652E2,2.1073122E1,1.8427446E1,7.724724E1,1.05609634E2,1.20688E0,1.8005775E1,3.0673451E0,2.4983351E0,1.59291115E1,1.2229004E1,6.5018234E1,6.645492E1,3.9154724E1,1.4954989E1,3.050787E0,1.9282069E0,1.1391382E0,1.3229951E0,1.1753402E0,1.2300061E1,3.6290498E0,7.944213E0,4.284791E0,6.287801E1,2.1402235E0,1.0238476E0,6.543107E1,3.1109512E1,8.045211E0,1.2346364E1,2.6086257E0,1.1531175E0,1.8976694E0,9.574047E0,2.726014E0,1.173655E0,2.4553947E0,6.4608665E0,1.4833461E0,1.1473522E0,3.1374388E0,5.921476E0,5.695653E1,1.0783582E0,1.0618653E0],"tree_param":{"num_deleted":"0","num_feature":"12","num_nodes":"49","size_leaf_vector":"1"}},{"base_weights":[-9.277448E-3,-8.9897317E-1,9.598667E-1,-1.1214511E0,-3.3521408E-1,4.1182363E-1,1.3090007E0,-1.177387E0,-9.477103E-2,7.204728E-2,-4.4563073E-1,8.6628E-1,9.462403E-2,1.1801287E0,1.374775E0,-1.2543198E0,-9.790003E-1,-7.4258393E-1,6.779502E-2,-6.5851843E-1,7.490003E-1,4.7364503E-1,1.1762638E0,-6.4909106E-1,4.06345E-1,1.4608808E-1,1.3394449E0,1.3962423E0,4.1405067E-2,-6.783019E-2,-5.6453794E-2,-3.9662056E-2,-7.415578E-2,-9.51743E-3,-6.9355555E-2,6.402344E-2,-3.820699E-2,5.6432933E-2,-1.9185003E-2,1.01821326E-1,8.980755E-3,1.9312773E-2,6.664448E-2,-6.829649E-2,6.243572E-3,5.961588E-2,1.2535455E-2,-2.7920334E-2,7.2586656E-2,6.931136E-2,6.0692288E-2,7.121543E-2,6.5817244E-2],"categories":[],"categories_nodes":[],"categories_segments":[],"categories_sizes":[],"default_left":[0,0,0,0,0,0,0,0,0,0,0,0,0,0,0,0,0,0,0,0,0,0,0,0,0,0,0,0,0,0,0,0,0,0,0,0,0,0,0,0,0,0,0,0,0,0,0,0,0,0,0,0,0],"id":13,"left_children":[1,3,5,7,9,11,13,15,17,-1,19,21,23,25,27,29,31,33,-1,35,37,39,41,43,45,47,49,51,-1,-1,-1,-1,-1,-1,-1,-1,-1,-1,-1,-1,-1,-1,-1,-1,-1,-1,-1,-1,-1,-1,-1,-1,-1],"loss_changes":[1.9702115E2,1.49420395E1,2.0926147E1,4.9056396E0,6.611188E0,6.1350946E0,5.6627655E-1,1.2363815E0,4.1476765E0,0E0,8.071512E0,2.12928E0,5.8108234E0,3.7189999E0,5.1908875E-1,7.477646E-1,2.1197472E0,1.0859613E0,0E0,5.516674E0,2.0643115E0,3.546617E0,1.2096767E0,4.1071506E0,2.1605117E0,2.7721853E0,1.14933014E-1,9.542847E-2,0E0,0E0,0E0,0E0,0E0,0E0,0E0,0E0,0E0,0E0,0E0,0E0,0E0,0E0,0E0,0E0,0E0,0E0,0E0,0E0,0E0,0E0,0E0,0E0,0E0],"parents":[2147483647,0,0,1,1,2,2,3,3,4,4,5,5,6,6,7,7,8,8,10,10,11,11,12,12,13,13,14,14,15,15,16,16,17,17,19,19,20,20,21,21,22,22,23,23,24,24,25,25,26,26,27,27],"right_children":[2,4,6,8,10,12,14,16,18,-1,20,22,24,26,28,30,32,34,-1,36,38,40,42,44,46,48,50,52,-1,-1,-1,-1,-1,-1,-1,-1,-1,-1,-1,-1,-1,-1,-1,-1,-1,-1,-1,-1,-1,-1,-1,-1,-1],"split_conditions":[1.9965E0,1.8905E0,2.2019E0,7.57E-1,2.029007E2,6.897E-1,6.382E-1,1.8281E0,1.806E0,7.204728E-2,2.49006E2,2.0828E0,7.235E-1,2.2664E0,2.7974E0,7.281E-1,1.8709E0,2.522188E2,6.779502E-2,1.8923E0,7.392E-1,2.0067E0,5.905E-1,2.220801E2,2.03556E2,2.123324E2,6.041E-1,7.523E-1,4.1405067E-2,-6.783019E-2,-5.6453794E-2,-3.9662056E-2,-7.415578E-2,-9.51743E-3,-6.9355555E-2,6.402344E-2,-3.820699E-2,5.6432933E-2,-1.9185003E-2,1.01821326E-1,8.980755E-3,1.9312773E-2,6.664448E-2,-6.829649E-2,6.243572E-3,5.961588E-2,1.2535455E-2,-2.7920334E-2,7.2586656E-2,6.931136E-2,6.0692288E-2,7.121543E-2,6.5817244E-2],"split_indices":[10,10,10,8,3,8,8,10,10,0,3,10,8,10,10,8,10,3,0,10,8,10,8,3,3,3,8,8,0,0,0,0,0,0,0,0,0,0,0,0,0,0,0,0,0,0,0,0,0,0,0,0,0],"split_type":[0,0,0,0,0,0,0,0,0,0,0,0,0,0,0,0,0,0,0,0,0,0,0,0,0,0,0,0,0,0,0,0,0,0,0,0,0,0,0,0,0,0,0,0,0,0,0,0,0,0,0,0,0],"sum_hessian":[2.2849829E2,1.19132256E2,1.09366035E2,8.5421936E1,3.3710323E1,4.2559494E1,6.680654E1,8.100841E1,4.413529E0,1.9729805E0,3.173734E1,1.7494652E1,2.5064842E1,2.2575066E1,4.4231476E1,5.8372154E1,2.2636253E1,3.051051E0,1.3624783E0,2.693706E1,4.8002825E0,7.718354E0,9.776298E0,7.402851E0,1.7661991E1,3.013831E0,1.9561235E1,4.2560177E1,1.6712974E0,3.2131256E1,2.6240898E1,1.6541101E1,6.095152E0,1.6431726E0,1.4078784E0,1.391527E0,2.5545532E1,3.5952334E0,1.2050492E0,1.2222157E0,6.4961386E0,1.6175447E0,8.158753E0,3.8432548E0,3.559596E0,2.9193006E0,1.4742691E1,1.9575721E0,1.0562588E0,1.4252542E1,5.308694E0,3.1496222E1,1.1063954E1],"tree_param":{"num_deleted":"0","num_feature":"12","num_nodes":"53","size_leaf_vector":"1"}},{"base_weights":[3.2161165E-2,1.2568997E0,-2.301801E-1,1.3130805E0,8.578566E-1,-6.367788E-1,3.2869455E-1,1.1322489E0,1.3771092E0,6.087061E-3,1.3675628E0,-7.363028E-2,-9.304946E-1,9.4150215E-1,-3.5263374E-1,1.4202616E0,5.2037686E-1,1.5203271E0,1.33685E0,9.489032E-2,5.015282E-2,-6.26563E-1,1.0357106E0,-9.838083E-1,5.178531E-2,1.2607201E0,5.413218E-1,-7.541135E-1,1.1322969E0,6.986355E-2,7.3844664E-2,6.208196E-2,-1.345098E-4,7.316222E-2,8.61395E-2,3.4539383E-2,6.912141E-2,-6.705007E-2,-1.2020741E-2,1.7730765E-2,6.545577E-2,5.6056827E-2,-5.113498E-2,7.0882395E-2,5.381901E-2,-8.708309E-3,6.338328E-2,-2.2772804E-2,-6.4935185E-2,7.242199E-2,1.7223913E-2],"categories":[],"categories_nodes":[],"categories_segments":[],"categories_sizes":[],"default_left":[0,0,0,0,0,0,0,0,0,0,0,0,0,0,0,0,0,0,0,0,0,0,0,0,0,0,0,0,0,0,0,0,0,0,0,0,0,0,0,0,0,0,0,0,0,0,0,0,0,0,0],"id":14,"left_children":[1,3,5,7,9,11,13,15,17,-1,19,21,23,25,27,29,31,33,35,-1,-1,37,39,41,-1,43,45,47,49,-1,-1,-1,-1,-1,-1,-1,-1,-1,-1,-1,-1,-1,-1,-1,-1,-1,-1,-1,-1,-1,-1],"loss_changes":[7.0044426E1,8.621979E-1,4.079933E1,3.9033127E-1,1.7808414E0,1.7190842E1,3.157032E1,1.5535259E0,1.4354706E-1,0E0,5.420332E-1,2.185242E1,7.160187E0,5.085312E0,2.1345802E1,7.8001022E-3,1.0644449E0,6.3129425E-2,5.722542E-1,0E0,0E0,6.5590887E0,2.2067118E0,5.4441757E0,0E0,6.4058685E-1,9.1798935E0,4.584114E0,1.8979254E0,0E0,0E0,0E0,0E0,0E0,0E0,0E0,0E0,0E0,0E0,0E0,0E0,0E0,0E0,0E0,0E0,0E0,0E0,0E0,0E0,0E0,0E0],"parents":[2147483647,0,0,1,1,2,2,3,3,4,4,5,5,6,6,7,7,8,8,10,10,11,11,12,12,13,13,14,14,15,15,16,16,17,17,18,18,21,21,22,22,23,23,25,25,26,26,27,27,28,28],"right_children":[2,4,6,8,10,12,14,16,18,-1,20,22,24,26,28,30,32,34,36,-1,-1,38,40,42,-1,44,46,48,50,-1,-1,-1,-1,-1,-1,-1,-1,-1,-1,-1,-1,-1,-1,-1,-1,-1,-1,-1,-1,-1,-1],"split_conditions":[2.039508E2,2.02024E2,3.296316E2,2.782433E2,6.643E-1,2.179278E2,2.443227E2,1.902431E2,2.895167E2,6.087061E-3,7.205E-1,3.091924E2,7.651E-1,2.322267E2,3.650267E2,1.830501E2,2.70992E2,1.979687E2,2.903423E2,9.489032E-2,5.015282E-2,2.892681E2,6.382E-1,6.015E-1,5.178531E-2,7.23E-1,3.487075E2,2.614076E2,7.332E-1,6.986355E-2,7.3844664E-2,6.208196E-2,-1.345098E-4,7.316222E-2,8.61395E-2,3.4539383E-2,6.912141E-2,-6.705007E-2,-1.2020741E-2,1.7730765E-2,6.545577E-2,5.6056827E-2,-5.113498E-2,7.0882395E-2,5.381901E-2,-8.708309E-3,6.338328E-2,-2.2772804E-2,-6.4935185E-2,7.242199E-2,1.7223913E-2],"split_indices":[3,3,5,5,8,3,3,3,5,0,8,5,8,3,5,3,5,3,5,0,0,5,8,8,0,8,5,3,8,0,0,0,0,0,0,0,0,0,0,0,0,0,0,0,0,0,0,0,0,0,0],"split_type":[0,0,0,0,0,0,0,0,0,0,0,0,0,0,0,0,0,0,0,0,0,0,0,0,0,0,0,0,0,0,0,0,0,0,0,0,0,0,0,0,0,0,0,0,0,0,0,0,0,0,0],"sum_hessian":[2.1800357E2,3.8458817E1,1.7954475E2,3.3712467E1,4.74635E0,1.0393142E2,7.561333E1,8.815497E0,2.4896969E1,1.9418879E0,2.804462E0,3.56256E1,6.830582E1,3.980842E1,3.5804913E1,5.994051E0,2.8214471E0,5.4629593E0,1.943401E1,1.142488E0,1.6619741E0,2.3775229E1,1.1850372E1,6.6502594E1,1.8032204E0,2.214426E1,1.7664156E1,2.818465E1,7.6202636E0,4.2633348E0,1.7307159E0,1.186025E0,1.635422E0,4.261485E0,1.2014744E0,1.2806786E0,1.8153332E1,8.341698E0,1.5433531E1,3.3943956E0,8.4559765E0,1.2064215E0,6.529617E1,1.1961494E1,1.0182767E1,8.898577E0,8.765579E0,1.8202349E1,9.982301E0,5.4380383E0,2.1822255E0],"tree_param":{"num_deleted":"0","num_feature":"12","num_nodes":"51","size_leaf_vector":"1"}},{"base_weights":[-3.389534E-2,1.0877802E0,-2.5145265E-1,-4.964221E-2,1.1684874E0,-5.9270895E-1,4.4309476E-1,8.526324E-1,1.3350226E0,-3.4525472E-1,-1.034887E0,1.1851115E0,-2.2492263E-1,1.2543416E0,3.3769593E-1,1.3754661E0,9.9447083E-1,-8.4421134E-1,4.6225566E-1,-1.1230745E0,-4.8119867E-1,-6.56986E-3,1.2691619E0,-5.941482E-1,1.4647337E0,2.6263416E-2,6.964516E-2,-1.2578886E-3,8.10491E-2,7.17682E-2,6.7437164E-2,2.6491264E-2,6.77291E-2,-2.642749E-2,-4.930781E-2,7.0013746E-4,5.6250006E-2,-3.0720893E-2,-5.860765E-2,4.8891537E-2,-4.0392425E-2,5.2776217E-2,6.841258E-2,-4.139327E-2,6.3806675E-2,6.926654E-2,8.8328026E-2],"categories":[],"categories_nodes":[],"categories_segments":[],"categories_sizes":[],"default_left":[0,0,0,0,0,0,0,0,0,0,0,0,0,0,0,0,0,0,0,0,0,0,0,0,0,0,0,0,0,0,0,0,0,0,0,0,0,0,0,0,0,0,0,0,0,0,0],"id":15,"left_children":[1,3,5,-1,7,9,11,13,15,17,19,21,23,25,27,29,31,33,35,37,39,-1,41,43,45,-1,-1,-1,-1,-1,-1,-1,-1,-1,-1,-1,-1,-1,-1,-1,-1,-1,-1,-1,-1,-1,-1],"loss_changes":[5.3878777E1,6.0228233E0,4.3829906E1,0E0,1.8161812E0,1.3567642E1,3.0199003E1,2.4656954E0,3.1137085E-1,3.2033386E1,2.1725082E0,3.1938438E0,2.000163E1,6.764555E-1,2.4324288E0,3.2341003E-2,4.0155196E-1,2.2018242E0,9.020395E0,9.5811844E-1,2.9133534E0,0E0,5.7434464E-1,1.1501115E1,1.3778973E-1,0E0,0E0,0E0,0E0,0E0,0E0,0E0,0E0,0E0,0E0,0E0,0E0,0E0,0E0,0E0,0E0,0E0,0E0,0E0,0E0,0E0,0E0],"parents":[2147483647,0,0,1,1,2,2,4,4,5,5,6,6,7,7,8,8,9,9,10,10,11,11,12,12,13,13,14,14,15,15,16,16,17,17,18,18,19,19,20,20,22,22,23,23,24,24],"right_children":[2,4,6,-1,8,10,12,14,16,18,20,22,24,26,28,30,32,34,36,38,40,-1,42,44,46,-1,-1,-1,-1,-1,-1,-1,-1,-1,-1,-1,-1,-1,-1,-1,-1,-1,-1,-1,-1,-1,-1],"split_conditions":[2.039508E2,9.831E-1,8.8385E4,-4.964221E-2,6.3404E4,2.291451E2,2.443227E2,1.902431E2,2.025157E2,7.5413E4,9.924E-1,9.851E-1,1.06232E5,9.884E-1,9.914E-1,6.9184E4,2.031583E2,2.123324E2,8.1267E4,9.855E-1,2.322267E2,-6.56986E-3,9.2679E4,9.928E-1,2.707833E2,2.6263416E-2,6.964516E-2,-1.2578886E-3,8.10491E-2,7.17682E-2,6.7437164E-2,2.6491264E-2,6.77291E-2,-2.642749E-2,-4.930781E-2,7.0013746E-4,5.6250006E-2,-3.0720893E-2,-5.860765E-2,4.8891537E-2,-4.0392425E-2,5.2776217E-2,6.841258E-2,-4.139327E-2,6.3806675E-2,6.926654E-2,8.8328026E-2],"split_indices":[3,7,0,0,0,3,3,3,3,0,7,7,0,7,7,0,3,3,0,7,3,0,0,7,3,0,0,0,0,0,0,0,0,0,0,0,0,0,0,0,0,0,0,0,0,0,0],"split_type":[0,0,0,0,0,0,0,0,0,0,0,0,0,0,0,0,0,0,0,0,0,0,0,0,0,0,0,0,0,0,0,0,0,0,0,0,0,0,0,0,0,0,0,0,0,0,0],"sum_hessian":[2.2078867E2,3.586694E1,1.8492172E2,1.3393205E0,3.452762E1,1.23997345E2,6.0924385E1,1.1919948E1,2.2607672E1,7.950455E1,4.4492794E1,2.886352E1,3.2060863E1,6.6961684E0,5.223779E0,2.020781E1,2.3998609E0,4.914074E1,3.0363813E1,3.83799E1,6.1128883E0,1.7321596E0,2.713136E1,2.6311293E1,5.7495713E0,1.069382E0,5.626786E0,4.0723176E0,1.1514616E0,6.234137E0,1.3973673E1,1.0478468E0,1.3520141E0,1.524296E1,3.3897778E1,1.811296E1,1.2250853E1,3.3772814E0,3.500262E1,1.1182141E0,4.994674E0,8.596749E0,1.853461E1,2.3388573E1,2.9227195E0,4.5520525E0,1.1975188E0],"tree_param":{"num_deleted":"0","num_feature":"12","num_nodes":"47","size_leaf_vector":"1"}},{"base_weights":[1.6996875E-2,1.0806096E0,-6.245803E-1,-2.0382693E-2,1.1127814E0,-3.655576E-1,-1.093771E0,1.277587E0,7.802898E-1,-4.6488133E-1,8.2722956E-1,-1.136811E0,1.2096725E-2,1.381341E0,1.178174E0,5.308961E-1,1.2860126E0,9.566076E-1,-5.403212E-1,4.7686258E-1,1.4510157E0,3.901573E-3,-1.1704481E0,4.5098253E-2,7.0638224E-2,6.382089E-3,6.1913233E-2,1.0539857E-2,6.549495E-2,5.416595E-2,8.895867E-2,6.958956E-2,8.922846E-3,-3.464308E-2,-1.206218E-2,6.3630156E-2,4.976596E-3,7.038712E-2,7.497575E-2,-5.3647537E-2,-6.70025E-2],"categories":[],"categories_nodes":[],"categories_segments":[],"categories_sizes":[],"default_left":[0,0,0,0,0,0,0,0,0,0,0,0,0,0,0,0,0,0,0,0,0,0,0,0,0,0,0,0,0,0,0,0,0,0,0,0,0,0,0,0,0],"id":16,"left_children":[1,3,5,-1,7,9,11,13,15,17,19,21,-1,23,25,27,29,31,33,35,37,-1,39,-1,-1,-1,-1,-1,-1,-1,-1,-1,-1,-1,-1,-1,-1,-1,-1,-1,-1],"loss_changes":[1.4169078E2,3.7406006E0,1.5740078E1,0E0,4.190338E0,9.886132E0,2.648388E0,5.27359E-1,3.1963253E0,8.260719E0,1.4019151E0,1.8237419E0,0E0,3.7685776E-1,1.6482773E0,4.232289E0,8.3666325E-1,1.3146465E0,3.3372211E0,1.2332911E0,4.8360825E-3,0E0,7.181053E-1,0E0,0E0,0E0,0E0,0E0,0E0,0E0,0E0,0E0,0E0,0E0,0E0,0E0,0E0,0E0,0E0,0E0,0E0],"parents":[2147483647,0,0,1,1,2,2,4,4,5,5,6,6,7,7,8,8,9,9,10,10,11,11,13,13,14,14,15,15,16,16,17,17,18,18,19,19,20,20,22,22],"right_children":[2,4,6,-1,8,10,12,14,16,18,20,22,-1,24,26,28,30,32,34,36,38,-1,40,-1,-1,-1,-1,-1,-1,-1,-1,-1,-1,-1,-1,-1,-1,-1,-1,-1,-1],"split_conditions":[7.769E-1,6.53E-1,8.366E-1,-2.0382693E-2,7.542E-1,1.0128E5,1.0465E5,8.0151E4,8.8385E4,6.0409E4,1.05706E5,6.571E-1,1.2096725E-2,6.705E-1,8.1267E4,7.326E-1,7.746E-1,8E-1,7.306E-1,6.728E-1,7.969E-1,3.901573E-3,7.363E-1,4.5098253E-2,7.0638224E-2,6.382089E-3,6.1913233E-2,1.0539857E-2,6.549495E-2,5.416595E-2,8.895867E-2,6.958956E-2,8.922846E-3,-3.464308E-2,-1.206218E-2,6.3630156E-2,4.976596E-3,7.038712E-2,7.497575E-2,-5.3647537E-2,-6.70025E-2],"split_indices":[9,9,9,0,9,0,0,0,0,0,0,8,0,9,0,8,9,9,8,8,9,0,8,0,0,0,0,0,0,0,0,0,0,0,0,0,0,0,0,0,0],"split_type":[0,0,0,0,0,0,0,0,0,0,0,0,0,0,0,0,0,0,0,0,0,0,0,0,0,0,0,0,0,0,0,0,0,0,0,0,0,0,0,0,0],"sum_hessian":[2.0763908E2,7.8124146E1,1.2951494E2,1.6530766E0,7.647107E1,8.344697E1,4.606797E1,5.1128345E1,2.5342724E1,7.703246E1,6.4145117E0,4.4629875E1,1.4380932E0,2.501795E1,2.6110395E1,1.6972742E1,8.369983E0,3.882157E0,7.315031E1,4.1074505E0,2.3070612E0,1.2024353E0,4.342744E1,1.5390607E0,2.347889E1,1.4127122E0,2.4697683E1,1.20296545E1,4.943087E0,5.9319167E0,2.4380665E0,2.489752E0,1.392405E0,4.8442734E1,2.4707571E1,1.3212028E0,2.786248E0,1.2192497E0,1.0878115E0,2.7575436E1,1.5852005E1],"tree_param":{"num_deleted":"0","num_feature":"12","num_nodes":"41","size_leaf_vector":"1"}},{"base_weights":[-1.0793727E-2,9.1947514E-1,-8.344577E-1,4.131135E-1,1.2386051E0,-4.4290817E-1,-1.0718291E0,2.6783E-1,1.2029642E0,4.1147716E-2,1.2524197E0,8.009892E-1,-6.0828525E-1,-1.0878204E0,-7.1572773E-3,8.461716E-2,6.6780645E-1,3.9567713E-2,1.4404231E0,1.3268877E0,1.2022133E0,2.4178506E-1,8.721053E-2,-7.710114E-1,3.251947E-1,-8.84383E-1,-1.1190776E0,-4.7434453E-2,1.2208997E-2,5.568563E-3,7.736733E-2,7.631425E-2,6.70074E-2,6.930523E-2,6.572227E-2,2.3558233E-2,6.272261E-2,-6.966975E-2,5.2727263E-2,-6.909431E-2,-3.504244E-2,4.273747E-2,-3.5589706E-2,-5.3090066E-2,-5.358555E-3,-5.804909E-2,-4.1120518E-2],"categories":[],"categories_nodes":[],"categories_segments":[],"categories_sizes":[],"default_left":[0,0,0,0,0,0,0,0,0,0,0,0,0,0,0,0,0,0,0,0,0,0,0,0,0,0,0,0,0,0,0,0,0,0,0,0,0,0,0,0,0,0,0,0,0,0,0],"id":17,"left_children":[1,3,5,7,9,11,13,15,17,-1,19,21,23,25,-1,27,29,-1,31,33,35,37,-1,39,41,43,45,-1,-1,-1,-1,-1,-1,-1,-1,-1,-1,-1,-1,-1,-1,-1,-1,-1,-1,-1,-1],"loss_changes":[1.5719357E2,1.5568314E1,1.0113152E1,4.273948E0,3.393402E-1,8.448197E0,1.0060349E0,2.3053112E0,5.655651E-1,0E0,2.1382904E-1,2.5419533E0,5.5062447E0,4.2347717E-1,0E0,3.557336E0,4.8367743E0,0E0,3.1588554E-2,1.6967773E-2,1.3046532E0,4.0209904E0,0E0,1.3230114E0,2.954904E0,1.2230163E0,7.176285E-1,0E0,0E0,0E0,0E0,0E0,0E0,0E0,0E0,0E0,0E0,0E0,0E0,0E0,0E0,0E0,0E0,0E0,0E0,0E0,0E0],"parents":[2147483647,0,0,1,1,2,2,3,3,4,4,5,5,6,6,7,7,8,8,10,10,11,11,12,12,13,13,15,15,16,16,18,18,19,19,20,20,21,21,23,23,24,24,25,25,26,26],"right_children":[2,4,6,8,10,12,14,16,18,-1,20,22,24,26,-1,28,30,-1,32,34,36,38,-1,40,42,44,46,-1,-1,-1,-1,-1,-1,-1,-1,-1,-1,-1,-1,-1,-1,-1,-1,-1,-1,-1,-1],"split_conditions":[7.054E-1,2.2124E0,7.327E-1,3.487075E2,2.752089E2,1.8709E0,3.650267E2,2.1401E0,2.0608E0,4.1147716E-2,3.173595E2,3.290807E2,3.456913E2,2.882716E2,-7.1572773E-3,6.847E-1,6.767E-1,3.9567713E-2,2.1378E0,2.2612E0,3.201118E2,1.8595E0,8.721053E-2,1.8905E0,7.176E-1,2.861103E2,1.8298E0,-4.7434453E-2,1.2208997E-2,5.568563E-3,7.736733E-2,7.631425E-2,6.70074E-2,6.930523E-2,6.572227E-2,2.3558233E-2,6.272261E-2,-6.966975E-2,5.2727263E-2,-6.909431E-2,-3.504244E-2,4.273747E-2,-3.5589706E-2,-5.3090066E-2,-5.358555E-3,-5.804909E-2,-4.1120518E-2],"split_indices":[11,10,11,5,5,10,5,10,10,0,5,5,5,5,0,11,11,0,10,10,5,10,0,10,11,5,10,0,0,0,0,0,0,0,0,0,0,0,0,0,0,0,0,0,0,0,0],"split_type":[0,0,0,0,0,0,0,0,0,0,0,0,0,0,0,0,0,0,0,0,0,0,0,0,0,0,0,0,0,0,0,0,0,0,0,0,0,0,0,0,0,0,0,0,0,0,0],"sum_hessian":[2.051522E2,9.634148E1,1.0881073E2,3.7245018E1,5.909646E1,4.1068054E1,6.7742676E1,3.1458595E1,5.786425E0,1.9009618E0,5.7195496E1,4.8192973E0,3.6248756E1,6.659594E1,1.1467352E0,2.1575666E1,9.882927E0,2.1169417E0,3.6694837E0,2.3032618E1,3.4162876E1,3.025552E0,1.7937452E0,3.0867815E1,5.380941E0,8.869412E0,5.7726532E1,2.8860433E0,1.8689625E1,6.053331E0,3.8295963E0,1.9767985E0,1.692685E0,3.99916E0,1.9033457E1,2.278384E0,3.1884493E1,1.004537E0,2.0210152E0,3.1800966E0,2.768772E1,3.5619671E0,1.8189738E0,7.221029E0,1.6483841E0,5.058184E1,7.144691E0],"tree_param":{"num_deleted":"0","num_feature":"12","num_nodes":"47","size_leaf_vector":"1"}},{"base_weights":[-2.5515785E-3,1.0018303E0,-6.8517286E-1,1.1321367E0,4.289635E-1,-3.076301E-1,-9.93979E-1,7.9330724E-1,1.178717E0,1.4113525E-1,1.2743146E0,-5.831896E-1,6.937719E-1,-1.0392658E0,-3.771625E-1,1.0294719E0,-9.459416E-3,1.2454083E0,1.0325862E0,-1.10076085E-1,1.1621833E0,5.1091887E-2,7.6048635E-2,-6.528184E-1,6.1665095E-2,3.37738E-1,1.5411451E0,-1.5119444E-2,-1.0626652E0,5.4546215E-2,-1.0829002E0,6.670689E-2,3.1333957E-2,6.496454E-2,5.7306465E-2,-1.683648E-2,5.6278463E-2,-6.1004203E-2,1.1825065E-2,4.185619E-2,7.5787805E-2,-4.2462677E-2,8.399185E-5,1.0022837E-1,3.4965363E-3,2.805156E-2,1.0832714E-1,-6.5572605E-2,-5.149691E-2,-2.8764604E-2,-6.7271724E-2],"categories":[],"categories_nodes":[],"categories_segments":[],"categories_sizes":[],"default_left":[0,0,0,0,0,0,0,0,0,0,0,0,0,0,0,0,0,0,0,0,0,0,0,0,0,0,0,0,0,0,0,0,0,0,0,0,0,0,0,0,0,0,0,0,0,0,0,0,0,0,0],"id":18,"left_children":[1,3,5,7,9,11,13,15,17,19,21,23,25,27,29,31,-1,33,35,37,39,-1,-1,41,-1,43,45,-1,47,-1,49,-1,-1,-1,-1,-1,-1,-1,-1,-1,-1,-1,-1,-1,-1,-1,-1,-1,-1,-1,-1],"loss_changes":[1.3898376E2,6.1230545E0,1.4070847E1,1.0546875E0,3.698479E0,1.4984184E1,1.8544617E0,1.8739824E0,5.725479E-1,2.9085522E0,2.4043417E-1,5.38595E0,3.5351892E0,1.0663986E0,4.704685E0,7.9904604E-1,0E0,2.1578217E-1,2.3440094E0,3.5009692E0,2.573297E-1,0E0,0E0,5.272684E0,0E0,3.6831765E0,2.1249924E0,0E0,4.8806E-1,0E0,4.0867186E-1,0E0,0E0,0E0,0E0,0E0,0E0,0E0,0E0,0E0,0E0,0E0,0E0,0E0,0E0,0E0,0E0,0E0,0E0,0E0,0E0],"parents":[2147483647,0,0,1,1,2,2,3,3,4,4,5,5,6,6,7,7,8,8,9,9,10,10,11,11,12,12,13,13,14,14,15,15,17,17,18,18,19,19,20,20,23,23,25,25,26,26,28,28,30,30],"right_children":[2,4,6,8,10,12,14,16,18,20,22,24,26,28,30,32,-1,34,36,38,40,-1,-1,42,-1,44,46,-1,48,-1,50,-1,-1,-1,-1,-1,-1,-1,-1,-1,-1,-1,-1,-1,-1,-1,-1,-1,-1,-1,-1],"split_conditions":[6.937E-1,6.801E-1,7.289E-1,9.867E-1,9.91E-1,9.914E-1,9.6554E4,6.641E-1,6.632E-1,8.7913E4,9.92E-1,1.0128E5,9.924E-1,9.816E-1,7.484E-1,8.0151E4,-9.459416E-3,8.9332E4,6.641E-1,9.874E-1,9.871E-1,5.1091887E-2,7.6048635E-2,7.205E-1,6.1665095E-2,6.6107E4,8.2134E4,-1.5119444E-2,6.4555E4,5.4546215E-2,7.555E-1,6.670689E-2,3.1333957E-2,6.496454E-2,5.7306465E-2,-1.683648E-2,5.6278463E-2,-6.1004203E-2,1.1825065E-2,4.185619E-2,7.5787805E-2,-4.2462677E-2,8.399185E-5,1.0022837E-1,3.4965363E-3,2.805156E-2,1.0832714E-1,-6.5572605E-2,-5.149691E-2,-2.8764604E-2,-6.7271724E-2],"split_indices":[11,11,11,7,7,7,0,11,11,0,7,0,7,7,11,0,0,0,11,7,7,0,0,11,0,0,0,0,0,0,11,0,0,0,0,0,0,0,0,0,0,0,0,0,0,0,0,0,0,0,0],"split_type":[0,0,0,0,0,0,0,0,0,0,0,0,0,0,0,0,0,0,0,0,0,0,0,0,0,0,0,0,0,0,0,0,0,0,0,0,0,0,0,0,0,0,0,0,0,0,0,0,0,0,0],"sum_hessian":[2.0271475E2,8.2025566E1,1.2068918E2,6.682525E1,1.5200316E1,5.4301186E1,6.638799E1,8.076439E0,5.8748814E1,1.1339429E1,3.860888E0,4.2583363E1,1.171782E1,6.1847164E1,4.54083E0,6.5113034E0,1.5651354E0,4.0338886E1,1.8409925E1,9.100426E0,2.239003E0,1.907945E0,1.952943E0,4.101134E1,1.5720239E0,8.251048E0,3.4667726E0,1.9035116E0,5.9943653E1,1.4741915E0,3.0666387E0,3.7072182E0,2.8040853E0,2.614758E1,1.4191308E1,1.1706287E0,1.7239296E1,2.165339E0,6.9350867E0,1.1665418E0,1.0724611E0,3.154401E1,9.467331E0,1.1421717E0,7.108876E0,1.3504193E0,2.116353E0,6.968655E0,5.2975E1,1.0453908E0,2.0212479E0],"tree_param":{"num_deleted":"0","num_feature":"12","num_nodes":"51","size_leaf_vector":"1"}},{"base_weights":[-2.4544787E-2,8.3771235E-1,-2.0101766E-1,1.2805686E0,6.259981E-1,-3.2497054E-1,3.1266317E-1,1.265334E0,1.3021963E0,3.321495E-1,8.2269156E-1,-3.6302128E-1,1.3665247E0,1.4100449E-1,7.6947063E-1,6.4078085E-2,1.260708E0,1.2821474E0,6.8141095E-2,6.4439654E-1,-7.398888E-2,1.437701E0,6.2190413E-1,9.797065E-1,-3.9505103E-1,7.236158E-2,6.529501E-2,6.892407E-1,-5.74325E-2,7.84196E-2,5.547277E-1,6.259467E-2,6.317209E-2,6.361491E-2,6.463551E-2,2.4951598E-2,6.6984326E-2,8.29817E-2,4.8745375E-2,-2.6761234E-2,3.8335364E-2,3.621004E-2,6.432466E-2,-3.3393394E-2,-9.245402E-3,2.0598054E-3,5.47554E-2,-4.5812096E-2,7.2218473E-3,-9.0091474E-2,4.9816888E-2],"categories":[],"categories_nodes":[],"categories_segments":[],"categories_sizes":[],"default_left":[0,0,0,0,0,0,0,0,0,0,0,0,0,0,0,0,0,0,0,0,0,0,0,0,0,0,0,0,0,0,0,0,0,0,0,0,0,0,0,0,0,0,0,0,0,0,0,0,0,0,0],"id":19,"left_children":[1,3,5,7,9,11,13,15,17,19,21,23,25,27,29,-1,31,33,-1,35,-1,37,39,41,43,-1,-1,45,47,-1,49,-1,-1,-1,-1,-1,-1,-1,-1,-1,-1,-1,-1,-1,-1,-1,-1,-1,-1,-1,-1],"loss_changes":[2.8815207E1,3.0164375E0,1.0009009E1,3.4255981E-3,1.2580614E0,8.150741E0,2.3962111E0,4.5394897E-4,5.2218437E-3,4.937893E0,1.6101017E0,5.326521E0,1.3627052E-2,2.4163966E0,1.4319654E0,0E0,1.0919571E-4,3.3187866E-4,0E0,7.5244784E-1,0E0,3.2960463E-1,1.6470087E0,2.2618365E-1,6.935053E0,0E0,0E0,1.5525966E0,2.8273685E0,0E0,6.8460083E0,0E0,0E0,0E0,0E0,0E0,0E0,0E0,0E0,0E0,0E0,0E0,0E0,0E0,0E0,0E0,0E0,0E0,0E0,0E0,0E0],"parents":[2147483647,0,0,1,1,2,2,3,3,4,4,5,5,6,6,7,7,8,8,9,9,10,10,11,11,12,12,13,13,14,14,16,16,17,17,19,19,21,21,22,22,23,23,24,24,27,27,28,28,30,30],"right_children":[2,4,6,8,10,12,14,16,18,20,22,24,26,28,30,-1,32,34,-1,36,-1,38,40,42,44,-1,-1,46,48,-1,50,-1,-1,-1,-1,-1,-1,-1,-1,-1,-1,-1,-1,-1,-1,-1,-1,-1,-1,-1,-1],"split_conditions":[6.373E-1,5.741E-1,7.475E-1,5.509E-1,7.5084E4,1.07323E5,7.641E-1,7.2184E4,8.8901E4,7.3152E4,8.0252E4,5.8234E4,6.857E-1,7.506E-1,6.7859E4,6.4078085E-2,7.8149E4,5.648E-1,6.8141095E-2,7.0661E4,-7.398888E-2,6.277E-1,8.1583E4,5.6561E4,7.6262E4,7.236158E-2,6.529501E-2,7.3611E4,7.523E-1,7.84196E-2,7.3346E4,6.259467E-2,6.317209E-2,6.361491E-2,6.463551E-2,2.4951598E-2,6.6984326E-2,8.29817E-2,4.8745375E-2,-2.6761234E-2,3.8335364E-2,3.621004E-2,6.432466E-2,-3.3393394E-2,-9.245402E-3,2.0598054E-3,5.47554E-2,-4.5812096E-2,7.2218473E-3,-9.0091474E-2,4.9816888E-2],"split_indices":[8,8,8,8,0,0,8,0,0,0,0,0,8,8,0,0,0,8,0,0,0,8,0,0,0,0,0,0,8,0,0,0,0,0,0,0,0,0,0,0,0,0,0,0,0,0,0,0,0,0,0],"split_type":[0,0,0,0,0,0,0,0,0,0,0,0,0,0,0,0,0,0,0,0,0,0,0,0,0,0,0,0,0,0,0,0,0,0,0,0,0,0,0,0,0,0,0,0,0,0,0,0,0,0,0],"sum_hessian":[1.8936816E2,3.217231E1,1.5719585E2,1.0405807E1,2.1766504E1,1.2663775E2,3.0558102E1,6.105326E0,4.3004804E0,8.727755E0,1.3038749E1,1.2385167E2,2.7860825E0,2.2211493E1,8.34661E0,1.3542172E0,4.7511086E0,3.231781E0,1.0686996E0,7.444803E0,1.2829518E0,3.2091491E0,9.829599E0,2.8855538E0,1.2096611E2,1.1950785E0,1.591004E0,5.9029593E0,1.6308533E1,1.7682115E0,6.578399E0,1.1248848E0,3.626224E0,1.6724988E0,1.5592821E0,6.1574636E0,1.2873398E0,2.1689992E0,1.04015E0,1.0932643E0,8.736336E0,1.5743619E0,1.3111919E0,5.2634148E1,6.833196E1,2.273264E0,3.6296954E0,3.1038556E0,1.3204677E1,1.0382098E0,5.5401893E0],"tree_param":{"num_deleted":"0","num_feature":"12","num_nodes":"51","size_leaf_vector":"1"}},{"base_weights":[-1.5120306E-2,-6.694711E-1,1.0326831E0,-1.0108073E0,-2.9504877E-1,7.109074E-1,1.2011006E0,-1.067535E0,4.903534E-1,-3.4131506E-1,4.8857987E-2,4.5391187E-1,1.2709725E0,1.2379183E0,9.510934E-1,-9.734652E-1,-1.2600392E0,5.210307E-2,-1.5446638E-3,5.5701274E-2,-3.8383844E-1,9.694722E-1,8.52109E-2,1.427173E0,1.0435704E0,1.1794577E0,1.2738471E0,-4.739045E-4,1.2557445E0,-5.1194936E-2,-1.8730847E-2,-6.502317E-2,-5.3815432E-2,1.5420354E-2,-2.162045E-2,5.9977382E-2,-1.0182296E-2,-7.907693E-2,2.0725613E-2,7.854218E-2,6.926964E-2,2.5320066E-2,6.639521E-2,6.184805E-2,3.3221778E-2,6.357061E-2,6.52469E-2,6.2487345E-2,6.391526E-2],"categories":[],"categories_nodes":[],"categories_segments":[],"categories_sizes":[],"default_left":[0,0,0,0,0,0,0,0,0,0,0,0,0,0,0,0,0,0,0,0,0,0,0,0,0,0,0,0,0,0,0,0,0,0,0,0,0,0,0,0,0,0,0,0,0,0,0,0,0],"id":20,"left_children":[1,3,5,7,9,11,13,15,17,19,-1,21,23,25,27,29,31,-1,-1,-1,33,35,37,39,41,43,45,-1,47,-1,-1,-1,-1,-1,-1,-1,-1,-1,-1,-1,-1,-1,-1,-1,-1,-1,-1,-1,-1],"loss_changes":[1.3526076E2,1.5520527E1,4.1099167E0,5.4097977E0,3.4087968E0,3.750391E0,4.582367E-1,1.1084976E0,6.6522735E-1,3.4582543E0,0E0,3.3950863E0,2.9110909E-1,9.114075E-2,1.8700485E0,1.2419052E0,1.4923668E-1,0E0,0E0,0E0,1.8255358E0,2.0100317E0,5.715576E0,2.9157639E-2,5.097101E-1,4.8916054E-1,2.0332336E-3,0E0,6.5231323E-4,0E0,0E0,0E0,0E0,0E0,0E0,0E0,0E0,0E0,0E0,0E0,0E0,0E0,0E0,0E0,0E0,0E0,0E0,0E0,0E0],"parents":[2147483647,0,0,1,1,2,2,3,3,4,4,5,5,6,6,7,7,8,8,9,9,11,11,12,12,13,13,14,14,15,15,16,16,20,20,21,21,22,22,23,23,24,24,25,25,26,26,28,28],"right_children":[2,4,6,8,10,12,14,16,18,20,-1,22,24,26,28,30,32,-1,-1,-1,34,36,38,40,42,44,46,-1,48,-1,-1,-1,-1,-1,-1,-1,-1,-1,-1,-1,-1,-1,-1,-1,-1,-1,-1,-1,-1],"split_conditions":[8.765E-1,8.433E-1,8.94E-1,4.816156E2,1.05143E5,4.882974E2,1.0128E5,4.299511E2,4.905406E2,3.842489E2,4.8857987E-2,7.4371E4,5.126586E2,9.049E-1,1.03877E5,4.243977E2,8.375E-1,5.210307E-2,-1.5446638E-3,5.5701274E-2,8.452E-1,8.915E-1,4.600186E2,4.948013E2,5.214462E2,9.039E-1,9.366E-1,-4.739045E-4,6.212633E2,-5.1194936E-2,-1.8730847E-2,-6.502317E-2,-5.3815432E-2,1.5420354E-2,-2.162045E-2,5.9977382E-2,-1.0182296E-2,-7.907693E-2,2.0725613E-2,7.854218E-2,6.926964E-2,2.5320066E-2,6.639521E-2,6.184805E-2,3.3221778E-2,6.357061E-2,6.52469E-2,6.2487345E-2,6.391526E-2],"split_indices":[6,6,6,2,0,2,0,2,2,2,0,0,2,6,0,2,6,0,0,0,6,6,2,2,2,6,6,0,2,0,0,0,0,0,0,0,0,0,0,0,0,0,0,0,0,0,0,0,0],"split_type":[0,0,0,0,0,0,0,0,0,0,0,0,0,0,0,0,0,0,0,0,0,0,0,0,0,0,0,0,0,0,0,0,0,0,0,0,0,0,0,0,0,0,0,0,0,0,0,0,0],"sum_hessian":[1.9727924E2,1.21440155E2,7.583909E1,6.352688E1,5.7913273E1,2.6056305E1,4.9782784E1,6.121366E1,2.313219E0,5.5881054E1,2.0322194E0,1.7860643E1,8.195661E0,4.3392498E1,6.390284E0,4.111988E1,2.0093779E1,1.1237733E0,1.1894457E0,1.5864251E0,5.429463E1,7.447159E0,1.0413485E1,4.8584337E0,3.3372269E0,1.651714E1,2.6875359E1,1.5387069E0,4.8515773E0,3.792586E1,3.1940217E0,1.647005E1,3.623728E0,3.5597496E0,5.073488E1,6.226082E0,1.2210768E0,1.7179784E0,8.695506E0,1.0945392E0,3.7638946E0,1.1550636E0,2.1821632E0,1.4858187E1,1.6589528E0,2.4923544E1,1.9518131E0,3.832771E0,1.0188061E0],"tree_param":{"num_deleted":"0","num_feature":"12","num_nodes":"49","size_leaf_vector":"1"}},{"base_weights":[-1.3176915E-2,9.280836E-1,-6.6454947E-1,4.5680133E-1,1.2039804E0,-2.244708E-1,-9.939948E-1,-5.282526E-2,5.159892E-1,1.1151572E0,1.2412107E0,1.24675214E-1,-2.9107973E-1,-1.0182334E0,1.8634386E-2,1.1042235E0,3.5593885E-1,1.2453676E0,-1.2423479E-3,1.2730747E0,1.1443158E0,4.1384664E-3,-5.6588733E-1,-6.7605203E-1,-1.1285226E0,1.000148E-2,7.168747E-2,8.443434E-2,1.34551525E-2,6.611814E-2,6.192534E-2,6.327469E-2,6.475706E-2,2.564993E-2,6.2843956E-2,6.892449E-2,-1.0705099E-2,-4.625849E-2,-5.2823867E-3,-6.1962934E-4,-4.6048746E-2,-5.7272922E-2,-2.2966068E-2],"categories":[],"categories_nodes":[],"categories_segments":[],"categories_sizes":[],"default_left":[0,0,0,0,0,0,0,0,0,0,0,0,0,0,0,0,0,0,0,0,0,0,0,0,0,0,0,0,0,0,0,0,0,0,0,0,0,0,0,0,0,0,0],"id":21,"left_children":[1,3,5,7,9,11,13,-1,15,17,19,-1,21,23,-1,25,27,29,-1,31,33,35,37,39,41,-1,-1,-1,-1,-1,-1,-1,-1,-1,-1,-1,-1,-1,-1,-1,-1,-1,-1],"loss_changes":[1.1944261E2,1.0360046E1,1.6692738E1,2.635212E0,1.6618347E-1,8.92387E0,2.1812286E0,0E0,2.6656327E0,2.2033577E0,1.0933685E-1,0E0,3.903304E0,2.4416046E0,0E0,1.8044043E0,2.575868E0,7.0323944E-3,0E0,4.4517517E-3,6.227722E-1,6.9570923E0,4.1203012E0,2.5633302E0,5.5451965E-1,0E0,0E0,0E0,0E0,0E0,0E0,0E0,0E0,0E0,0E0,0E0,0E0,0E0,0E0,0E0,0E0,0E0,0E0],"parents":[2147483647,0,0,1,1,2,2,3,3,4,4,5,5,6,6,8,8,9,9,10,10,12,12,13,13,15,15,16,16,17,17,19,19,20,20,21,21,22,22,23,23,24,24],"right_children":[2,4,6,8,10,12,14,-1,16,18,20,-1,22,24,-1,26,28,30,-1,32,34,36,38,40,42,-1,-1,-1,-1,-1,-1,-1,-1,-1,-1,-1,-1,-1,-1,-1,-1,-1,-1],"split_conditions":[6.928E-1,2.2318E0,7.289E-1,5.881E-1,6.187E-1,1.8709E0,7.641E-1,-5.282526E-2,6.373E-1,6.041E-1,7.499E-1,1.24675214E-1,7.108E-1,7.386E-1,1.8634386E-2,5.952E-1,2.0828E0,2.2496E0,-1.2423479E-3,6.573E-1,7.556E-1,1.9764E0,7.173E-1,1.8397E0,7.607E-1,1.000148E-2,7.168747E-2,8.443434E-2,1.34551525E-2,6.611814E-2,6.192534E-2,6.327469E-2,6.475706E-2,2.564993E-2,6.2843956E-2,6.892449E-2,-1.0705099E-2,-4.625849E-2,-5.2823867E-3,-6.1962934E-4,-4.6048746E-2,-5.7272922E-2,-2.2966068E-2],"split_indices":[11,10,11,8,8,10,8,0,8,8,8,0,11,11,0,8,10,10,0,11,8,10,8,10,8,0,0,0,0,0,0,0,0,0,0,0,0,0,0,0,0,0,0],"split_type":[0,0,0,0,0,0,0,0,0,0,0,0,0,0,0,0,0,0,0,0,0,0,0,0,0,0,0,0,0,0,0,0,0,0,0,0,0,0,0,0,0,0,0],"sum_hessian":[1.9481393E2,7.967714E1,1.15136795E2,2.9420889E1,5.0256252E1,4.929187E1,6.584492E1,1.1073856E0,2.8313503E1,1.4843349E1,3.5412903E1,1.1790899E0,4.811278E1,6.469749E1,1.1474372E0,6.055963E0,2.2257542E1,1.3321749E1,1.5216005E0,2.6649237E1,8.763666E0,2.3195017E1,2.4917765E1,1.5769936E1,4.8927547E1,1.6175455E0,4.4384174E0,1.3614893E0,2.0896051E1,1.0899305E0,1.2231818E1,1.9835037E1,6.814199E0,1.326112E0,7.4375544E0,3.1785233E0,2.0016493E1,1.3993694E1,1.0924071E1,4.251039E0,1.1518896E1,4.7719868E1,1.2076811E0],"tree_param":{"num_deleted":"0","num_feature":"12","num_nodes":"43","size_leaf_vector":"1"}},{"base_weights":[7.510882E-4,-1.815502E-1,1.0409062E0,1.1629592E0,-2.95984E-1,1.2522358E0,8.6673224E-1,1.4031389E0,9.7434574E-1,-3.7788776E-1,4.7122553E-1,1.1475174E0,1.3248851E0,8.679635E-2,1.1100355E0,1.2517129E0,1.6063575E0,-2.8469232E-3,1.1643497E0,1.3031404E0,-4.1073683E-1,6.874988E-1,-8.3946995E-2,1.2562219E0,3.5089683E-2,7.507781E-2,1.2577517E0,3.7690956E-2,-2.0898451E-1,9.400588E-1,1.336839E0,6.0956836E-2,6.469759E-2,9.3724675E-2,6.7890964E-2,6.578442E-2,3.636041E-2,4.431938E-2,9.130519E-2,-2.8555045E-2,-7.115169E-3,-8.997558E-3,5.904878E-2,6.172208E-2,6.598295E-2,6.3317925E-2,6.251725E-2,2.0572118E-2,-3.848332E-2,6.3606866E-2,3.3814523E-2,8.304991E-2,6.194904E-2],"categories":[],"categories_nodes":[],"categories_segments":[],"categories_sizes":[],"default_left":[0,0,0,0,0,0,0,0,0,0,0,0,0,0,0,0,0,0,0,0,0,0,0,0,0,0,0,0,0,0,0,0,0,0,0,0,0,0,0,0,0,0,0,0,0,0,0,0,0,0,0,0,0],"id":22,"left_children":[1,3,5,7,9,11,13,15,17,19,21,23,25,27,29,31,33,-1,35,37,39,41,-1,43,-1,-1,45,-1,47,49,51,-1,-1,-1,-1,-1,-1,-1,-1,-1,-1,-1,-1,-1,-1,-1,-1,-1,-1,-1,-1,-1,-1],"loss_changes":[3.513699E1,2.4258251E1,1.0171261E0,5.6022644E-1,9.130294E0,9.497833E-2,2.8745623E0,1.6739082E-1,1.3573365E0,7.249586E0,6.517482E0,2.4777365E-1,8.742142E-2,7.1063596E-1,4.4512558E-1,4.284382E-3,1.5478182E-1,0E0,3.869686E-1,5.4840946E-1,5.5431156E0,5.451209E0,0E0,5.6757927E-3,0E0,0E0,3.3569336E-4,0E0,8.680537E-1,5.781069E-1,1.5690136E-1,0E0,0E0,0E0,0E0,0E0,0E0,0E0,0E0,0E0,0E0,0E0,0E0,0E0,0E0,0E0,0E0,0E0,0E0,0E0,0E0,0E0,0E0],"parents":[2147483647,0,0,1,1,2,2,3,3,4,4,5,5,6,6,7,7,8,8,9,9,10,10,11,11,12,12,13,13,14,14,15,15,16,16,18,18,19,19,20,20,21,21,23,23,26,26,28,28,29,29,30,30],"right_children":[2,4,6,8,10,12,14,16,18,20,22,24,26,28,30,32,34,-1,36,38,40,42,-1,44,-1,-1,46,-1,48,50,52,-1,-1,-1,-1,-1,-1,-1,-1,-1,-1,-1,-1,-1,-1,-1,-1,-1,-1,-1,-1,-1,-1],"split_conditions":[1.244141E3,6.041E-1,3.567588E2,3.055929E2,7.532E-1,6.88E-1,1.275261E3,5.828E-1,3.096512E2,2.665842E2,3.417145E2,6.674E-1,1.253242E3,6.674E-1,3.714956E2,5.648E-1,5.905E-1,-2.8469232E-3,1.20821E3,6.546E-1,1.131803E3,1.064926E3,-8.3946995E-2,3.527426E2,3.5089683E-2,7.507781E-2,7.343E-1,3.7690956E-2,3.609632E2,6.728E-1,1.327523E3,6.0956836E-2,6.469759E-2,9.3724675E-2,6.7890964E-2,6.578442E-2,3.636041E-2,4.431938E-2,9.130519E-2,-2.8555045E-2,-7.115169E-3,-8.997558E-3,5.904878E-2,6.172208E-2,6.598295E-2,6.3317925E-2,6.251725E-2,2.0572118E-2,-3.848332E-2,6.3606866E-2,3.3814523E-2,8.304991E-2,6.194904E-2],"split_indices":[1,8,5,5,8,8,1,8,5,5,5,8,1,8,5,8,8,0,1,8,1,1,0,5,0,0,8,0,5,8,1,0,0,0,0,0,0,0,0,0,0,0,0,0,0,0,0,0,0,0,0,0,0],"split_type":[0,0,0,0,0,0,0,0,0,0,0,0,0,0,0,0,0,0,0,0,0,0,0,0,0,0,0,0,0,0,0,0,0,0,0,0,0,0,0,0,0,0,0,0,0,0,0,0,0,0,0,0,0],"sum_hessian":[1.8530052E2,1.576672E2,2.7633314E1,1.23667965E1,1.453004E2,1.2484977E1,1.5148336E1,5.439782E0,6.9270144E0,1.3128502E2,1.4015383E1,5.1138315E0,7.3711457E0,3.6019351E0,1.1546402E1,3.1171143E0,2.3226676E0,1.0776812E0,5.8493333E0,2.5162764E0,1.2876875E2,1.2734492E1,1.280891E0,4.111181E0,1.0026507E0,2.0296888E0,5.341457E0,1.1065431E0,2.495392E0,6.600044E0,4.9463577E0,1.7598877E0,1.3572267E0,1.1172773E0,1.2053903E0,4.345064E0,1.5042692E0,1.4003413E0,1.1159351E0,8.06111E1,4.815765E1,4.617571E0,8.11692E0,3.0604587E0,1.0507221E0,2.470408E0,2.871049E0,1.1845824E0,1.3108097E0,2.9216914E0,3.6783526E0,1.1469629E0,3.7993948E0],"tree_param":{"num_deleted":"0","num_feature":"12","num_nodes":"53","size_leaf_vector":"1"}},{"base_weights":[-2.007115E-2,9.4193053E-1,-5.277147E-1,1.1210632E0,5.501911E-1,-2.224359E-1,-9.3656623E-1,1.2884984E0,9.5363164E-1,-4.416592E-2,6.527207E-1,8.998806E-2,-2.8553495E-1,-9.729376E-1,2.9811535E-2,1.2734109E0,7.743249E-2,7.1027327E-1,1.3167884E0,5.2164394E-1,1.4208499E0,-3.4051973E-1,6.656169E-2,-6.274144E-1,-1.109248E0,6.20447E-2,6.769665E-2,4.3583494E-2,-2.2814313E-2,7.3916845E-2,6.131592E-2,3.1562958E-2,-2.208533E-2,6.282125E-2,8.337494E-2,-2.1035096E-2,9.651727E-3,-3.9540373E-2,5.0329205E-2,-6.1869778E-2,-5.1392455E-2],"categories":[],"categories_nodes":[],"categories_segments":[],"categories_sizes":[],"default_left":[0,0,0,0,0,0,0,0,0,0,0,0,0,0,0,0,0,0,0,0,0,0,0,0,0,0,0,0,0,0,0,0,0,0,0,0,0,0,0,0,0],"id":23,"left_children":[1,3,5,7,9,11,13,15,17,-1,19,-1,21,23,-1,25,-1,27,29,31,33,35,-1,37,39,-1,-1,-1,-1,-1,-1,-1,-1,-1,-1,-1,-1,-1,-1,-1,-1],"loss_changes":[8.894637E1,4.4148064E0,1.4880554E1,1.2102699E0,2.901523E0,8.709459E0,2.84132E0,8.472061E-2,1.907711E0,0E0,1.8549571E0,0E0,5.884248E0,2.3447533E0,0E0,5.3409576E-2,0E0,2.433477E0,1.2658119E-1,1.6618991E0,1.0890913E-1,2.7386265E0,0E0,3.7601786E0,3.7238693E-1,0E0,0E0,0E0,0E0,0E0,0E0,0E0,0E0,0E0,0E0,0E0,0E0,0E0,0E0,0E0,0E0],"parents":[2147483647,0,0,1,1,2,2,3,3,4,4,5,5,6,6,7,7,8,8,10,10,12,12,13,13,15,15,17,17,18,18,19,19,20,20,21,21,23,23,24,24],"right_children":[2,4,6,8,10,12,14,16,18,-1,20,-1,22,24,-1,26,-1,28,30,32,34,36,-1,38,40,-1,-1,-1,-1,-1,-1,-1,-1,-1,-1,-1,-1,-1,-1,-1,-1],"split_conditions":[7.76E-1,7.542E-1,8.282E-1,6.897E-1,7.565E-1,6.2227E4,1.07392E5,7.513E-1,7.475E-1,-4.416592E-2,9.65E4,8.998806E-2,1.06746E5,8.387E-1,2.9811535E-2,6.373E-1,7.743249E-2,7.441E-1,7.7175E4,9.4916E4,7.412E-1,7.472E-1,6.656169E-2,7.501E-1,7.3086E4,6.20447E-2,6.769665E-2,4.3583494E-2,-2.2814313E-2,7.3916845E-2,6.131592E-2,3.1562958E-2,-2.208533E-2,6.282125E-2,8.337494E-2,-2.1035096E-2,9.651727E-3,-3.9540373E-2,5.0329205E-2,-6.1869778E-2,-5.1392455E-2],"split_indices":[9,9,9,8,9,4,4,9,8,0,4,0,4,9,0,8,0,8,4,4,8,8,0,8,4,0,0,0,0,0,0,0,0,0,0,0,0,0,0,0,0],"split_type":[0,0,0,0,0,0,0,0,0,0,0,0,0,0,0,0,0,0,0,0,0,0,0,0,0,0,0,0,0,0,0,0,0,0,0,0,0,0,0,0,0],"sum_hessian":[1.8213504E2,6.2912926E1,1.19222115E2,4.3171616E1,1.974131E1,6.8256645E1,5.096547E1,2.1585567E1,2.158605E1,1.3177184E0,1.8423592E1,2.0653784E0,6.619127E1,4.9784153E1,1.1813153E0,2.0402342E1,1.1832249E0,1.2924859E1,8.66119E0,1.5737998E1,2.6855938E0,6.4014206E1,2.1770606E0,1.4083911E1,3.570024E1,1.4533407E1,5.8689356E0,1.1354004E1,1.5708551E0,3.109198E0,5.551992E0,1.413019E1,1.6078075E0,1.6113932E0,1.0742006E0,5.5651016E1,8.363194E0,1.2803605E1,1.2803056E0,1.386785E1,2.1832392E1],"tree_param":{"num_deleted":"0","num_feature":"12","num_nodes":"41","size_leaf_vector":"1"}},{"base_weights":[-7.770475E-2,9.055478E-1,-6.533168E-1,4.941873E-1,1.1587915E0,-2.752464E-1,-9.649539E-1,-8.434571E-2,1.1090771E0,1.2203531E0,1.0874425E0,-4.228808E-1,1.5195789E0,-8.6821824E-1,-1.1810668E0,-3.3184066E-1,9.664861E-1,8.8875604E-1,1.3768419E0,1.2365336E0,1.2162846E0,1.1335664E0,2.0265158E-2,-7.6514095E-1,-2.9195717E-2,4.8728105E-2,9.890646E-2,1.9736538E-2,-9.017396E-1,-1.0321325E0,-1.234706E0,-2.5937778E-3,-7.8192204E-2,4.134956E-2,5.4296043E-2,5.3946216E-2,4.904141E-3,7.643113E-2,6.540226E-2,6.1527796E-2,6.271546E-2,6.0721543E-2,6.162398E-2,6.2367626E-2,4.8330624E-2,4.8566204E-2,-4.2173292E-2,-6.0665376E-2,3.0263502E-3,-4.6608057E-2,1.5179575E-3,-1.746244E-2,-6.1616268E-2,-6.2892064E-2,-6.119145E-2],"categories":[],"categories_nodes":[],"categories_segments":[],"categories_sizes":[],"default_left":[0,0,0,0,0,0,0,0,0,0,0,0,0,0,0,0,0,0,0,0,0,0,0,0,0,0,0,0,0,0,0,0,0,0,0,0,0,0,0,0,0,0,0,0,0,0,0,0,0,0,0,0,0,0,0],"id":24,"left_children":[1,3,5,7,9,11,13,15,17,19,21,23,25,27,29,31,33,35,37,39,41,43,-1,45,47,-1,-1,-1,49,51,53,-1,-1,-1,-1,-1,-1,-1,-1,-1,-1,-1,-1,-1,-1,-1,-1,-1,-1,-1,-1,-1,-1,-1,-1],"loss_changes":[1.02094345E2,6.9388847E0,1.3405563E1,9.028786E0,1.8107986E-1,1.36225195E1,1.3038826E0,3.4009986E0,7.258463E-1,1.4533997E-3,6.008072E-1,6.4006357E0,9.7651196E-1,1.8240051E0,1.5406227E-1,3.6506634E0,4.15287E-2,1.014916E0,5.7990074E-2,4.6873093E-4,5.264282E-4,3.3978653E-1,0E0,3.456111E0,2.3470595E0,0E0,0E0,0E0,1.1901054E0,6.98102E-1,3.5648346E-3,0E0,0E0,0E0,0E0,0E0,0E0,0E0,0E0,0E0,0E0,0E0,0E0,0E0,0E0,0E0,0E0,0E0,0E0,0E0,0E0,0E0,0E0,0E0,0E0],"parents":[2147483647,0,0,1,1,2,2,3,3,4,4,5,5,6,6,7,7,8,8,9,9,10,10,11,11,12,12,13,13,14,14,15,15,16,16,17,17,18,18,19,19,20,20,21,21,23,23,24,24,28,28,29,29,30,30],"right_children":[2,4,6,8,10,12,14,16,18,20,22,24,26,28,30,32,34,36,38,40,42,44,-1,46,48,-1,-1,-1,50,52,54,-1,-1,-1,-1,-1,-1,-1,-1,-1,-1,-1,-1,-1,-1,-1,-1,-1,-1,-1,-1,-1,-1,-1,-1],"split_conditions":[6.928E-1,2.2318E0,7.276E-1,9.902E-1,6.46E-1,9.924E-1,7.636E-1,6.891E-1,9.92E-1,9.881E-1,2.3757E0,9.899E-1,1.9422E0,9.817E-1,1.579E0,6.836E-1,9.89E-1,6.874E-1,2.1137E0,2.7342E0,6.44E-1,9.914E-1,2.0265158E-2,1.8812E0,6.955E-1,4.8728105E-2,9.890646E-2,1.9736538E-2,9.931E-1,7.995E-1,9.889E-1,-2.5937778E-3,-7.8192204E-2,4.134956E-2,5.4296043E-2,5.3946216E-2,4.904141E-3,7.643113E-2,6.540226E-2,6.1527796E-2,6.271546E-2,6.0721543E-2,6.162398E-2,6.2367626E-2,4.8330624E-2,4.8566204E-2,-4.2173292E-2,-6.0665376E-2,3.0263502E-3,-4.6608057E-2,1.5179575E-3,-1.746244E-2,-6.1616268E-2,-6.2892064E-2,-6.119145E-2],"split_indices":[11,10,11,7,11,7,11,11,7,7,10,7,10,7,10,11,7,11,10,10,11,7,0,10,11,0,0,0,7,11,7,0,0,0,0,0,0,0,0,0,0,0,0,0,0,0,0,0,0,0,0,0,0,0,0],"split_type":[0,0,0,0,0,0,0,0,0,0,0,0,0,0,0,0,0,0,0,0,0,0,0,0,0,0,0,0,0,0,0,0,0,0,0,0,0,0,0,0,0,0,0,0,0,0,0,0,0,0,0,0,0,0,0],"sum_hessian":[1.8038763E2,6.6608284E1,1.1377935E2,2.5380718E1,4.1227562E1,5.141001E1,6.236934E1,1.30769615E1,1.2303757E1,2.2131771E1,1.909579E1,4.7502655E1,3.9073565E0,4.3084167E1,1.9285172E1,1.0584153E1,2.4928086E0,6.7498703E0,5.553887E0,4.4466553E0,1.7685118E1,1.7886374E1,1.2094172E0,2.5410975E1,2.209168E1,1.7853534E0,2.122003E0,1.1139779E0,4.1970192E1,5.1065173E0,1.4178655E1,8.62433E0,1.9598231E0,1.1498498E0,1.3429588E0,5.4411855E0,1.3086847E0,1.7322091E0,3.8216777E0,3.327713E0,1.118942E0,1.586886E1,1.8162569E0,1.0636878E1,7.2494946E0,1.0967172E0,2.4314259E1,1.55603E0,2.053565E1,4.0643677E1,1.3265152E0,1.1576457E0,3.9488716E0,4.5342E0,9.644454E0],"tree_param":{"num_deleted":"0","num_feature":"12","num_nodes":"55","size_leaf_vector":"1"}},{"base_weights":[-4.8028644E-2,8.782389E-1,-2.7784425E-1,6.6637546E-1,1.2203721E0,-9.0858936E-1,-1.0012392E-1,8.623494E-1,-1.1450584E0,1.2568337E0,1.2059323E0,-8.091122E-1,-1.2077817E0,2.364699E-1,-5.0738287E-1,9.586955E-1,7.521942E-2,-6.511239E-2,-5.0285257E-2,1.2168825E0,6.7719884E-2,1.2033887E0,1.2125697E0,-8.7329423E-1,1.3764324E-2,-1.2128527E0,-1.1989781E0,-1.5568013E-1,8.6791945E-1,-6.787197E-1,1.2742765E0,4.4148043E-2,8.9235365E-2,-1.6869416E-2,2.5759554E-2,6.1234623E-2,6.0547102E-2,6.0543228E-2,5.9873678E-2,6.1184753E-2,5.9797596E-2,-4.000403E-2,-7.2639905E-2,-6.0433578E-2,-6.1314154E-2,-5.982534E-2,-6.014495E-2,2.7036203E-2,-2.7253723E-2,3.2455444E-2,5.413407E-2,-4.7981698E-2,-1.0202306E-2,6.060365E-2,7.3417015E-2],"categories":[],"categories_nodes":[],"categories_segments":[],"categories_sizes":[],"default_left":[0,0,0,0,0,0,0,0,0,0,0,0,0,0,0,0,0,0,0,0,0,0,0,0,0,0,0,0,0,0,0,0,0,0,0,0,0,0,0,0,0,0,0,0,0,0,0,0,0,0,0,0,0,0,0],"id":25,"left_children":[1,3,5,7,9,11,13,15,17,19,21,23,25,27,29,31,33,-1,-1,35,-1,37,39,41,-1,43,45,47,49,51,53,-1,-1,-1,-1,-1,-1,-1,-1,-1,-1,-1,-1,-1,-1,-1,-1,-1,-1,-1,-1,-1,-1,-1,-1],"loss_changes":[3.8450256E1,2.6027012E0,1.6222645E1,7.871954E0,7.2250366E-3,9.468422E-1,1.5477465E1,1.5175018E0,4.741645E-2,1.517868E-2,1.6212463E-4,1.6616774E0,3.4999847E-4,1.5307265E1,1.5596154E1,1.1152687E0,3.9614213E-1,0E0,0E0,1.2397766E-4,0E0,3.1089783E-4,4.9972534E-4,9.5635223E-1,0E0,2.7894974E-4,2.4318695E-5,1.0341088E1,1.112894E0,6.214901E0,5.4101944E-2,0E0,0E0,0E0,0E0,0E0,0E0,0E0,0E0,0E0,0E0,0E0,0E0,0E0,0E0,0E0,0E0,0E0,0E0,0E0,0E0,0E0,0E0,0E0,0E0],"parents":[2147483647,0,0,1,1,2,2,3,3,4,4,5,5,6,6,7,7,8,8,9,9,10,10,11,11,12,12,13,13,14,14,15,15,16,16,19,19,21,21,22,22,23,23,25,25,26,26,27,27,28,28,29,29,30,30],"right_children":[2,4,6,8,10,12,14,16,18,20,22,24,26,28,30,32,34,-1,-1,36,-1,38,40,42,-1,44,46,48,50,52,54,-1,-1,-1,-1,-1,-1,-1,-1,-1,-1,-1,-1,-1,-1,-1,-1,-1,-1,-1,-1,-1,-1,-1,-1],"split_conditions":[2.069386E2,7.2691E4,7.2792E4,2.042927E2,7.4525E4,2.251284E2,2.374613E2,2.02024E2,6.4858E4,2.039508E2,2.039508E2,2.234677E2,2.309119E2,8.4329E4,1.07323E5,1.997867E2,2.031583E2,-6.511239E-2,-5.0285257E-2,7.2636E4,6.7719884E-2,1.968519E2,8.3429E4,7.259E4,1.3764324E-2,2.297254E2,7.1768E4,2.183521E2,9.0161E4,9.4624E4,2.660874E2,4.4148043E-2,8.9235365E-2,-1.6869416E-2,2.5759554E-2,6.1234623E-2,6.0547102E-2,6.0543228E-2,5.9873678E-2,6.1184753E-2,5.9797596E-2,-4.000403E-2,-7.2639905E-2,-6.0433578E-2,-6.1314154E-2,-5.982534E-2,-6.014495E-2,2.7036203E-2,-2.7253723E-2,3.2455444E-2,5.413407E-2,-4.7981698E-2,-1.0202306E-2,6.060365E-2,7.3417015E-2],"split_indices":[3,4,0,3,0,3,3,3,0,3,3,3,3,0,0,3,3,0,0,0,0,3,0,4,0,3,4,3,0,0,3,0,0,0,0,0,0,0,0,0,0,0,0,0,0,0,0,0,0,0,0,0,0,0,0],"split_type":[0,0,0,0,0,0,0,0,0,0,0,0,0,0,0,0,0,0,0,0,0,0,0,0,0,0,0,0,0,0,0,0,0,0,0,0,0,0,0,0,0,0,0,0,0,0,0,0,0,0,0,0,0,0,0],"sum_hessian":[1.8062723E2,3.5906548E1,1.4472069E2,2.2174906E1,1.3731643E1,3.1813118E1,1.1290756E2,2.0010073E1,2.1648324E0,3.8953452E0,9.836297E0,2.3875023E1,7.938095E0,6.1816826E1,5.109074E1,1.7827904E1,2.182168E0,1.0173036E0,1.1475286E0,2.7636807E0,1.1316645E0,7.1114655E0,2.7248318E0,2.2540901E1,1.3341222E0,5.036607E0,2.9014885E0,3.8134254E1,2.3682571E1,4.660854E1,4.4822006E0,1.6330603E1,1.4973018E0,1.126102E0,1.0560659E0,1.1937742E0,1.5699066E0,3.1411214E0,3.970344E0,1.6320496E0,1.0927821E0,2.001255E1,2.5283504E0,3.84101E0,1.1955967E0,1.7801148E0,1.1213738E0,1.367589E1,2.4458364E1,1.1730723E1,1.1951849E1,2.92803E1,1.7328238E1,3.3942506E0,1.0879498E0],"tree_param":{"num_deleted":"0","num_feature":"12","num_nodes":"55","size_leaf_vector":"1"}},{"base_weights":[-4.3636084E-2,8.7311924E-1,-5.84602E-1,3.4121546E-1,1.1256409E0,-2.1501902E-1,-8.8729787E-1,1.1004957E0,1.1557349E-1,8.9008296E-1,1.1759508E0,1.02377474E-1,-2.9001936E-1,-9.3353194E-1,4.2559277E-2,5.8417344E-1,1.6436042E0,-1.12455115E-1,1.3060176E0,3.9235476E-4,1.2758242E0,3.4162562E-2,1.2026261E0,7.7937834E-2,-3.598448E-1,-7.199366E-1,-1.2089385E0,6.416373E-2,-3.0640808E-3,7.6428086E-2,8.749571E-2,-6.613747E-2,2.1765842E-4,6.8070725E-2,6.313177E-2,2.3809807E-2,-2.5694186E-2,6.5162234E-2,6.0916808E-2,5.985694E-2,6.1009314E-2,-2.1915406E-2,3.0852014E-2,-4.4857617E-2,-2.110987E-2,-6.1906558E-2,-5.0267573E-2],"categories":[],"categories_nodes":[],"categories_segments":[],"categories_sizes":[],"default_left":[0,0,0,0,0,0,0,0,0,0,0,0,0,0,0,0,0,0,0,0,0,0,0,0,0,0,0,0,0,0,0,0,0,0,0,0,0,0,0,0,0,0,0,0,0,0,0],"id":26,"left_children":[1,3,5,7,9,11,13,15,17,19,21,-1,23,25,-1,27,29,31,33,35,37,-1,39,-1,41,43,45,-1,-1,-1,-1,-1,-1,-1,-1,-1,-1,-1,-1,-1,-1,-1,-1,-1,-1,-1,-1],"loss_changes":[8.663128E1,8.707195E0,1.2289913E1,3.5753272E0,5.2093124E-1,8.393679E0,4.8542786E0,1.3406582E0,4.3670945E0,2.654921E0,4.7604752E-1,0E0,6.180489E0,3.4606667E0,0E0,1.1059431E0,2.8490067E-2,1.908741E0,6.210327E-3,5.725063E-1,8.501053E-3,0E0,3.3035278E-3,0E0,3.536182E0,1.7482185E0,1.527214E-1,0E0,0E0,0E0,0E0,0E0,0E0,0E0,0E0,0E0,0E0,0E0,0E0,0E0,0E0,0E0,0E0,0E0,0E0,0E0,0E0],"parents":[2147483647,0,0,1,1,2,2,3,3,4,4,5,5,6,6,7,7,8,8,9,9,10,10,12,12,13,13,15,15,16,16,17,17,18,18,19,19,20,20,22,22,24,24,25,25,26,26],"right_children":[2,4,6,8,10,12,14,16,18,20,22,-1,24,26,-1,28,30,32,34,36,38,-1,40,-1,42,44,46,-1,-1,-1,-1,-1,-1,-1,-1,-1,-1,-1,-1,-1,-1,-1,-1,-1,-1,-1,-1],"split_conditions":[6.928E-1,8.914E-1,7.289E-1,7.4371E4,8.974E-1,8.456E-1,1.05706E5,6.7342E4,9.4624E4,6.649E-1,5.932E-1,1.02377474E-1,6.0805E4,7.7516E4,4.2559277E-2,5.9868E4,6.847E-1,7.6372E4,8.81E-1,8.969E-1,8.6855E4,3.4162562E-2,6.533E-1,7.7937834E-2,1.0128E5,7.1372E4,8.416E-1,6.416373E-2,-3.0640808E-3,7.6428086E-2,8.749571E-2,-6.613747E-2,2.1765842E-4,6.8070725E-2,6.313177E-2,2.3809807E-2,-2.5694186E-2,6.5162234E-2,6.0916808E-2,5.985694E-2,6.1009314E-2,-2.1915406E-2,3.0852014E-2,-4.4857617E-2,-2.110987E-2,-6.1906558E-2,-5.0267573E-2],"split_indices":[11,6,11,0,6,6,0,0,0,11,11,0,0,0,0,0,11,0,6,6,0,0,11,0,0,0,6,0,0,0,0,0,0,0,0,0,0,0,0,0,0,0,0,0,0,0,0],"split_type":[0,0,0,0,0,0,0,0,0,0,0,0,0,0,0,0,0,0,0,0,0,0,0,0,0,0,0,0,0,0,0,0,0,0,0,0,0,0,0,0,0,0,0,0,0,0,0],"sum_hessian":[1.7468329E2,6.482564E1,1.0985766E2,2.0868626E1,4.3957012E1,4.9463795E1,6.0393864E1,4.7809215E0,1.6087704E1,7.7360005E0,3.6221012E1,1.5870326E0,4.7876762E1,5.882933E1,1.5645326E0,2.4509025E0,2.330019E0,1.3501503E1,2.5862012E0,2.3396752E0,5.3963256E0,1.8603368E0,3.4360676E1,1.7424221E0,4.613434E1,3.313277E1,2.569656E1,1.1765574E0,1.2743452E0,1.119064E0,1.2109551E0,1.1883681E0,1.2313134E1,1.1357911E0,1.45041E0,1.2152957E0,1.1243794E0,3.6536074E0,1.7427182E0,2.6179892E1,8.180784E0,4.2704334E1,3.4300065E0,2.077023E1,1.2362541E1,2.2473972E1,3.222589E0],"tree_param":{"num_deleted":"0","num_feature":"12","num_nodes":"47","size_leaf_vector":"1"}},{"base_weights":[2.0735389E-2,8.4715647E-1,-5.138136E-1,1.0636759E0,4.6785584E-1,-2.7148086E-1,-9.2062545E-1,2.1238644E-2,1.0823177E0,1.3135481E-1,1.1821392E0,1.2926433E0,-3.4759617E-1,-8.199889E-1,-1.1229639E0,1.1322151E0,8.2785255E-1,4.996221E-1,-3.2582992E-1,1.3869691E0,9.3577915E-1,9.25687E-2,1.8721271E-2,-6.4709747E-1,6.610667E-2,-8.8373303E-1,3.853463E-2,-1.2130444E0,-8.162215E-3,5.9770893E-2,5.1105727E-2,-1.1585895E-2,5.4076344E-2,1.6134162E-2,6.9846116E-2,-5.217306E-2,3.216825E-2,7.171167E-2,6.2465377E-2,-9.975169E-3,7.049312E-2,-2.8144388E-2,-7.2113656E-2,-7.241507E-4,1.0316523E-1,-2.443107E-2,-4.9595684E-2,-6.0290392E-2,-6.357544E-2],"categories":[],"categories_nodes":[],"categories_segments":[],"categories_sizes":[],"default_left":[0,0,0,0,0,0,0,0,0,0,0,0,0,0,0,0,0,0,0,0,0,0,0,0,0,0,0,0,0,0,0,0,0,0,0,0,0,0,0,0,0,0,0,0,0,0,0,0,0],"id":27,"left_children":[1,3,5,7,9,11,13,-1,15,17,19,21,23,25,27,29,31,33,35,37,39,-1,-1,41,43,45,-1,47,-1,-1,-1,-1,-1,-1,-1,-1,-1,-1,-1,-1,-1,-1,-1,-1,-1,-1,-1,-1,-1],"loss_changes":[7.616612E1,5.561508E0,1.0321228E1,5.134506E-1,5.9149413E0,7.8112636E0,7.9584885E-1,0E0,5.3185654E-1,2.8164737E0,3.9767265E-1,1.5620332E0,7.752275E0,2.6466217E0,1.1223278E0,2.4369812E-1,1.8457956E0,1.4709947E0,5.1908045E0,2.7994156E-2,1.9255736E0,0E0,0E0,2.4301968E0,4.2289014E0,1.0726852E0,0E0,5.016327E-3,0E0,0E0,0E0,0E0,0E0,0E0,0E0,0E0,0E0,0E0,0E0,0E0,0E0,0E0,0E0,0E0,0E0,0E0,0E0,0E0,0E0],"parents":[2147483647,0,0,1,1,2,2,3,3,4,4,5,5,6,6,8,8,9,9,10,10,11,11,12,12,13,13,14,14,15,15,16,16,17,17,18,18,19,19,20,20,23,23,24,24,25,25,27,27],"right_children":[2,4,6,8,10,12,14,-1,16,18,20,22,24,26,28,30,32,34,36,38,40,-1,-1,42,44,46,-1,48,-1,-1,-1,-1,-1,-1,-1,-1,-1,-1,-1,-1,-1,-1,-1,-1,-1,-1,-1,-1,-1],"split_conditions":[6.928E-1,6.708E-1,7.419E-1,6.53E-1,7.811E-1,6.0805E4,8.4842E4,2.1238644E-2,6.632E-1,6.801E-1,6.874E-1,8.216E-1,8.1583E4,8.3762E4,1.0465E5,8.9885E4,6.641E-1,7.758E-1,8.0839E4,7.866E-1,7.906E-1,9.25687E-2,1.8721271E-2,7.9459E4,8.413E-1,8.358E-1,3.853463E-2,9.8701E4,-8.162215E-3,5.9770893E-2,5.1105727E-2,-1.1585895E-2,5.4076344E-2,1.6134162E-2,6.9846116E-2,-5.217306E-2,3.216825E-2,7.171167E-2,6.2465377E-2,-9.975169E-3,7.049312E-2,-2.8144388E-2,-7.2113656E-2,-7.241507E-4,1.0316523E-1,-2.443107E-2,-4.9595684E-2,-6.0290392E-2,-6.357544E-2],"split_indices":[11,11,11,9,9,0,0,0,11,11,11,9,0,0,0,0,11,9,0,9,9,0,0,0,9,9,0,0,0,0,0,0,0,0,0,0,0,0,0,0,0,0,0,0,0,0,0,0,0],"split_type":[0,0,0,0,0,0,0,0,0,0,0,0,0,0,0,0,0,0,0,0,0,0,0,0,0,0,0,0,0,0,0,0,0,0,0,0,0,0,0,0,0,0,0,0,0,0,0,0,0],"sum_hessian":[1.7241417E2,6.771921E1,1.0469496E2,4.3110226E1,2.4608986E1,6.56112E1,3.9083763E1,1.2222052E0,4.188802E1,1.6728256E1,7.8807297E0,3.0446863E0,6.256651E1,2.6101658E1,1.2982104E1,3.5020863E1,6.867158E0,9.26511E0,7.4631457E0,4.303053E0,3.5776768E0,1.8928779E0,1.1518084E0,3.6292477E1,2.6274035E1,2.5095976E1,1.0056818E0,1.1868145E1,1.1139593E0,2.2248945E1,1.2771918E1,1.326501E0,5.5406566E0,7.7390475E0,1.5260623E0,4.288079E0,3.175067E0,3.2032425E0,1.0998102E0,1.0539033E0,2.5237734E0,3.281712E1,3.4753556E0,2.5254963E1,1.0190715E0,5.3942823E0,1.9701694E1,1.0560988E1,1.3071569E0],"tree_param":{"num_deleted":"0","num_feature":"12","num_nodes":"49","size_leaf_vector":"1"}},{"base_weights":[3.644324E-2,-1.3139644E-1,5.995022E-1,9.055151E-4,-4.9851334E-1,1.2039471E0,3.8591895E-1,-2.2013864E-1,7.278708E-1,-1.0091885E0,5.1888004E-2,6.387084E-2,1.1927031E0,-1.2821541E0,5.190849E-1,1.1151005E0,-2.7837E-1,1.2313474E0,2.3774861E-1,-1.2213973E0,-5.585085E-1,-6.2998855E-1,7.137733E-1,1.2147653E0,1.1737667E0,-6.1002642E-2,-6.69712E-2,3.3427304E-1,1.4699036E0,7.907612E-2,3.1072257E-2,-6.930298E-2,-1.0414191E-2,8.4890895E-2,5.8211405E-2,-7.5945253E-3,4.695518E-2,-5.8145713E-2,-7.86464E-2,3.5169523E-2,-6.5528445E-2,8.4024325E-2,-4.76332E-2,5.520925E-2,-6.0890146E-2,5.914175E-2,6.315036E-2,5.925398E-2,5.8502715E-2,-2.3810854E-2,3.3278774E-2,9.611775E-2,6.5419905E-2],"categories":[],"categories_nodes":[],"categories_segments":[],"categories_sizes":[],"default_left":[0,0,0,0,0,0,0,0,0,0,0,0,0,0,0,0,0,0,0,0,0,0,0,0,0,0,0,0,0,0,0,0,0,0,0,0,0,0,0,0,0,0,0,0,0,0,0,0,0,0,0,0,0],"id":28,"left_children":[1,3,5,7,9,11,13,15,17,19,21,-1,23,25,27,29,31,33,35,37,39,41,43,45,47,-1,-1,49,51,-1,-1,-1,-1,-1,-1,-1,-1,-1,-1,-1,-1,-1,-1,-1,-1,-1,-1,-1,-1,-1,-1,-1,-1],"loss_changes":[1.6089329E1,6.3702555E0,5.047203E0,1.5492387E1,9.765887E0,8.428574E-3,6.416876E0,5.748342E0,5.547223E0,1.7236595E0,7.5469956E0,0E0,3.6935806E-3,7.591009E-3,4.700959E0,7.113552E-1,5.4996905E0,3.471756E-1,3.1128688E0,2.5190163E-1,5.4754615E0,6.1406355E0,6.3988776E0,6.295204E-3,1.9598007E-4,0E0,0E0,6.0144005E0,3.1812954E-1,0E0,0E0,0E0,0E0,0E0,0E0,0E0,0E0,0E0,0E0,0E0,0E0,0E0,0E0,0E0,0E0,0E0,0E0,0E0,0E0,0E0,0E0,0E0,0E0],"parents":[2147483647,0,0,1,1,2,2,3,3,4,4,5,5,6,6,7,7,8,8,9,9,10,10,12,12,13,13,14,14,15,15,16,16,17,17,18,18,19,19,20,20,21,21,22,22,23,23,24,24,27,27,28,28],"right_children":[2,4,6,8,10,12,14,16,18,20,22,-1,24,26,28,30,32,34,36,38,40,42,44,46,48,-1,-1,50,52,-1,-1,-1,-1,-1,-1,-1,-1,-1,-1,-1,-1,-1,-1,-1,-1,-1,-1,-1,-1,-1,-1,-1,-1],"split_conditions":[1.20821E3,8.2471E4,9.4143E4,1.110093E3,9.904E-1,9.875E-1,1.221667E3,5.8404E4,7.9428E4,1.189632E3,1.16101E3,6.387084E-2,1.230347E3,1.214057E3,9.926E-1,5.6514E4,9.6185E2,1.113974E3,1.146454E3,9.901E-1,9.0921E4,9.909E-1,9.5572E4,8.7474E4,9.897E-1,-6.1002642E-2,-6.69712E-2,1.256403E3,1.240607E3,7.907612E-2,3.1072257E-2,-6.930298E-2,-1.0414191E-2,8.4890895E-2,5.8211405E-2,-7.5945253E-3,4.695518E-2,-5.8145713E-2,-7.86464E-2,3.5169523E-2,-6.5528445E-2,8.4024325E-2,-4.76332E-2,5.520925E-2,-6.0890146E-2,5.914175E-2,6.315036E-2,5.925398E-2,5.8502715E-2,-2.3810854E-2,3.3278774E-2,9.611775E-2,6.5419905E-2],"split_indices":[1,4,4,1,7,7,1,4,4,1,1,0,1,1,7,4,1,1,1,7,4,7,4,4,7,0,0,1,1,0,0,0,0,0,0,0,0,0,0,0,0,0,0,0,0,0,0,0,0,0,0,0,0],"split_type":[0,0,0,0,0,0,0,0,0,0,0,0,0,0,0,0,0,0,0,0,0,0,0,0,0,0,0,0,0,0,0,0,0,0,0,0,0,0,0,0,0,0,0,0,0,0,0,0,0,0,0,0,0],"sum_hessian":[1.702509E2,1.311554E2,3.9095512E1,9.6410774E1,3.4744614E1,1.020765E1,2.8887863E1,7.3931E1,2.2479774E1,1.8022718E1,1.6721895E1,1.3548071E0,8.852843E0,2.1356835E0,2.675218E1,3.0894806E0,7.084152E1,1.1088817E1,1.1390957E1,1.2253151E1,5.7695665E0,8.236561E0,8.485334E0,4.088901E0,4.7639422E0,1.0246434E0,1.1110401E0,2.2398548E1,4.353632E0,1.5885562E0,1.5009246E0,4.215581E0,6.662594E1,1.3948362E0,9.69398E0,7.3227754E0,4.068182E0,1.0505408E1,1.747743E0,2.154493E0,3.6150734E0,1.0093359E0,7.2272253E0,7.0586386E0,1.4266963E0,2.460441E0,1.6284597E0,1.1768782E0,3.5870643E0,6.49916E0,1.5899388E1,1.145247E0,3.2083848E0],"tree_param":{"num_deleted":"0","num_feature":"12","num_nodes":"53","size_leaf_vector":"1"}},{"base_weights":[-6.335467E-2,-6.648701E-1,7.644296E-1,-7.3467827E-1,7.087196E-2,4.180837E-1,1.0564271E0,-7.703187E-1,4.4018306E-2,-7.03572E-2,3.355348E-1,1.1898224E0,3.131636E-1,1.1201189E0,8.336725E-1,-8.8374954E-1,-5.318876E-1,6.544933E-2,1.0568886E-1,1.4769608E0,2.9196188E-2,-1.0109375E-1,5.6301075E-1,9.072694E-1,1.1729378E0,9.914405E-3,1.1709303E0,-8.786633E-3,-4.5110602E-2,3.0056348E-2,-3.276896E-2,1.8003255E-2,-4.5852333E-2,6.357189E-2,8.360252E-2,-1.5008675E-2,8.104318E-2,3.406908E-2,-8.9052785E-3,1.0952319E-2,6.1651915E-2,5.765242E-2,5.914834E-2,6.000456E-2,-5.789363E-2,6.0591664E-2,5.793562E-2],"categories":[],"categories_nodes":[],"categories_segments":[],"categories_sizes":[],"default_left":[0,0,0,0,0,0,0,0,0,0,0,0,0,0,0,0,0,0,0,0,0,0,0,0,0,0,0,0,0,0,0,0,0,0,0,0,0,0,0,0,0,0,0,0,0,0,0],"id":29,"left_children":[1,3,5,7,9,11,13,15,-1,-1,17,19,21,23,25,27,29,-1,31,33,-1,35,37,39,41,43,45,-1,-1,-1,-1,-1,-1,-1,-1,-1,-1,-1,-1,-1,-1,-1,-1,-1,-1,-1,-1],"loss_changes":[8.463937E1,5.056324E0,7.234703E0,5.1756134E0,3.3372457E0,2.649632E0,5.5067444E-1,2.3792992E0,0E0,0E0,1.618933E0,6.81355E-1,2.981544E0,3.393364E-1,2.3976674E0,7.792549E-1,3.9681473E0,0E0,1.5228579E0,1.0653353E-1,0E0,3.7152147E0,1.5763822E0,1.3454242E0,4.8217773E-3,3.4843931E0,3.0565262E-3,0E0,0E0,0E0,0E0,0E0,0E0,0E0,0E0,0E0,0E0,0E0,0E0,0E0,0E0,0E0,0E0,0E0,0E0,0E0,0E0],"parents":[2147483647,0,0,1,1,2,2,3,3,4,4,5,5,6,6,7,7,10,10,11,11,12,12,13,13,14,14,15,15,16,16,18,18,19,19,21,21,22,22,23,23,24,24,25,25,26,26],"right_children":[2,4,6,8,10,12,14,16,-1,-1,18,20,22,24,26,28,30,-1,32,34,-1,36,38,40,42,44,46,-1,-1,-1,-1,-1,-1,-1,-1,-1,-1,-1,-1,-1,-1,-1,-1,-1,-1,-1,-1],"split_conditions":[8.711E-1,1.224636E3,8.92E-1,7.664E-1,8.264E-1,1.029917E3,7.444E-1,8.513E-1,4.4018306E-2,-7.03572E-2,8.401E-1,8.834E-1,8.81E-1,8.974E-1,7.532E-1,6.382E-1,8.535E-1,6.544933E-2,7.392E-1,9.84754E2,2.9196188E-2,7.499E-1,7.565E-1,6.382E-1,6.041E-1,1.234263E3,9.035E-1,-8.786633E-3,-4.5110602E-2,3.0056348E-2,-3.276896E-2,1.8003255E-2,-4.5852333E-2,6.357189E-2,8.360252E-2,-1.5008675E-2,8.104318E-2,3.406908E-2,-8.9052785E-3,1.0952319E-2,6.1651915E-2,5.765242E-2,5.914834E-2,6.000456E-2,-5.789363E-2,6.0591664E-2,5.793562E-2],"split_indices":[6,1,6,8,6,1,8,6,0,0,6,6,6,6,8,8,6,0,8,1,0,8,8,8,8,1,6,0,0,0,0,0,0,0,0,0,0,0,0,0,0,0,0,0,0,0,0],"split_type":[0,0,0,0,0,0,0,0,0,0,0,0,0,0,0,0,0,0,0,0,0,0,0,0,0,0,0,0,0,0,0,0,0,0,0,0,0,0,0,0,0,0,0,0,0,0,0],"sum_hessian":[1.6998416E2,9.844697E1,7.15372E1,8.991565E1,8.531317E0,3.2723274E1,3.8813923E1,8.797426E1,1.9413913E0,1.2956604E0,7.2356563E0,3.9163768E0,2.8806896E1,3.018359E1,8.630335E0,5.96137E1,2.8360558E1,1.382105E0,5.8535514E0,2.6571414E0,1.2592354E0,1.0837633E1,1.7969263E1,6.000961E0,2.4182629E1,2.506984E0,6.1233506E0,1.5149994E0,5.80987E1,2.7873247E0,2.5573233E1,4.6876373E0,1.165914E0,1.2939773E0,1.3631642E0,9.714516E0,1.1231174E0,1.5494491E1,2.4747725E0,1.9279524E0,4.0730085E0,8.106469E0,1.607616E1,1.2415899E0,1.2653941E0,1.4083333E0,4.7150173E0],"tree_param":{"num_deleted":"0","num_feature":"12","num_nodes":"47","size_leaf_vector":"1"}},{"base_weights":[1.9398257E-2,6.794379E-1,-4.6883154E-1,1.0375805E0,3.8330162E-1,-1.63404E-1,-8.178976E-1,1.120135E0,8.150031E-1,3.0862227E-1,8.8512085E-2,-2.9793954E-1,5.688432E-1,-8.532967E-1,3.2387365E-2,1.0192266E0,1.1733738E0,-9.19322E-2,1.1565505E0,7.599584E-1,1.2017063E-1,-3.5218322E-1,7.0394926E-2,8.380382E-2,3.026753E-1,-9.511332E-3,-8.8086975E-1,5.713609E-2,1.5007505E-2,5.896731E-2,5.7671368E-2,2.0024806E-2,-3.274113E-2,5.7412047E-2,5.8454372E-2,2.9134462E-2,7.842685E-2,-1.2608235E-2,2.3870224E-2,-6.0643226E-2,-1.3434109E-2,6.925774E-2,-7.211935E-3,-6.1683394E-2,-4.235915E-2],"categories":[],"categories_nodes":[],"categories_segments":[],"categories_sizes":[],"default_left":[0,0,0,0,0,0,0,0,0,0,0,0,0,0,0,0,0,0,0,0,0,0,0,0,0,0,0,0,0,0,0,0,0,0,0,0,0,0,0,0,0,0,0,0,0],"id":30,"left_children":[1,3,5,7,9,11,13,15,17,19,-1,21,23,25,-1,27,29,31,33,35,37,39,-1,-1,41,-1,43,-1,-1,-1,-1,-1,-1,-1,-1,-1,-1,-1,-1,-1,-1,-1,-1,-1,-1],"loss_changes":[5.2421295E1,7.335701E0,9.9690895E0,5.7522583E-1,3.9214363E0,4.9128857E0,2.2639294E0,1.2267685E-1,2.623632E0,3.0556986E0,0E0,3.89831E0,2.2811973E0,7.789707E-1,0E0,7.003813E-1,1.7757416E-3,6.422609E-1,6.3705444E-4,1.5168023E0,3.3710225E0,2.934461E0,0E0,0E0,3.0189395E0,0E0,4.8614502E-1,0E0,0E0,0E0,0E0,0E0,0E0,0E0,0E0,0E0,0E0,0E0,0E0,0E0,0E0,0E0,0E0,0E0,0E0],"parents":[2147483647,0,0,1,1,2,2,3,3,4,4,5,5,6,6,7,7,8,8,9,9,11,11,12,12,13,13,15,15,16,16,17,17,18,18,19,19,20,20,21,21,24,24,26,26],"right_children":[2,4,6,8,10,12,14,16,18,20,-1,22,24,26,-1,28,30,32,34,36,38,40,-1,-1,42,-1,44,-1,-1,-1,-1,-1,-1,-1,-1,-1,-1,-1,-1,-1,-1,-1,-1,-1,-1],"split_conditions":[7.007E-1,6.632E-1,7.346E-1,7.441E-1,6.99E-1,2.49006E2,7.641E-1,6.071E-1,7.532E-1,2.115168E2,8.8512085E-2,7.651E-1,2.522188E2,2.080628E2,3.2387365E-2,5.881E-1,2.251284E2,6.366E-1,6.455E-1,2.080628E2,2.232066E2,7.038E-1,7.0394926E-2,8.380382E-2,6.823E-1,-9.511332E-3,6.679E-1,5.713609E-2,1.5007505E-2,5.896731E-2,5.7671368E-2,2.0024806E-2,-3.274113E-2,5.7412047E-2,5.8454372E-2,2.9134462E-2,7.842685E-2,-1.2608235E-2,2.3870224E-2,-6.0643226E-2,-1.3434109E-2,6.925774E-2,-7.211935E-3,-6.1683394E-2,