{"learner":{"attributes":{"best_iteration":"49","best_score":"0.32630236169323323"},"feature_names":[],"feature_types":[],"gradient_booster":{"model":{"gbtree_model_param":{"num_parallel_tree":"1","num_trees":"100"},"iteration_indptr":[0,1,2,3,4,5,6,7,8,9,10,11,12,13,14,15,16,17,18,19,20,21,22,23,24,25,26,27,28,29,30,31,32,33,34,35,36,37,38,39,40,41,42,43,44,45,46,47,48,49,50,51,52,53,54,55,56,57,58,59,60,61,62,63,64,65,66,67,68,69,70,71,72,73,74,75,76,77,78,79,80,81,82,83,84,85,86,87,88,89,90,91,92,93,94,95,96,97,98,99,100],"tree_info":[0,0,0,0,0,0,0,0,0,0,0,0,0,0,0,0,0,0,0,0,0,0,0,0,0,0,0,0,0,0,0,0,0,0,0,0,0,0,0,0,0,0,0,0,0,0,0,0,0,0,0,0,0,0,0,0,0,0,0,0,0,0,0,0,0,0,0,0,0,0,0,0,0,0,0,0,0,0,0,0,0,0,0,0,0,0,0,0,0,0,0,0,0,0,0,0,0,0,0,0],"trees":[{"base_weights":[-4.3597326E-2,1.8202521E0,-4.204536E-1,2.0210674E0,9.4573313E-1,-1.0715113E0,3.5008013E-1,1.0550996E-1,1.8486162E0,-4.6826062E-1,1.0550993E-1,-1.4911113E0,-6.0195893E-1,1.794186E0,-7.79197E-1,2.529114E-2,2.0123713E0,-9.08824E-3,-3.773778E-2,-1.1808269E0,-1.6452652E0,7.237021E-1,-1.4343508E0,2.0169218E0,9.960496E-1,-1.2944343E0,1.4931316E0,7.686033E-2,1.0550995E-1,-7.244011E-2,7.686033E-2,-7.873233E-2,-9.503694E-2,7.912221E-2,-1.7593097E-3,-3.4872867E-2,-8.8276945E-2,8.641024E-2,1.0365305E-1,-4.490019E-2,9.715382E-2,-8.539527E-2,-3.310334E-2,3.0304855E-2,1.0550994E-1],"categories":[],"categories_nodes":[],"categories_segments":[],"categories_sizes":[],"default_left":[0,0,0,0,0,0,0,0,0,0,0,0,0,0,0,0,0,0,0,0,0,0,0,0,0,0,0,0,0,0,0,0,0,0,0,0,0,0,0,0,0,0,0,0,0],"id":0,"left_children":[1,3,5,7,9,11,13,-1,15,17,-1,19,21,23,25,-1,27,-1,-1,29,31,33,35,37,39,41,43,-1,-1,-1,-1,-1,-1,-1,-1,-1,-1,-1,-1,-1,-1,-1,-1,-1,-1],"loss_changes":[1.7284535E2,7.2682037E0,1.026853E2,5.1734924E-1,1.2725941E1,2.1859161E1,1.5287674E2,0E0,2.521824E0,2.864943E-1,0E0,2.8024445E0,5.7774162E1,7.313141E0,6.1590668E1,0E0,4.751625E-1,0E0,0E0,1.4164404E1,7.061844E-1,1.3160717E1,7.8491516E0,5.21286E-1,1.6099453E1,1.1212357E1,5.3222027E0,0E0,0E0,0E0,0E0,0E0,0E0,0E0,0E0,0E0,0E0,0E0,0E0,0E0,0E0,0E0,0E0,0E0,0E0],"parents":[2147483647,0,0,1,1,2,2,3,3,4,4,5,5,6,6,8,8,9,9,11,11,12,12,13,13,14,14,16,16,19,19,20,20,21,21,22,22,23,23,24,24,25,25,26,26],"right_children":[2,4,6,8,10,12,14,-1,16,18,-1,20,22,24,26,-1,28,-1,-1,30,32,34,36,38,40,42,44,-1,-1,-1,-1,-1,-1,-1,-1,-1,-1,-1,-1,-1,-1,-1,-1,-1,-1],"split_conditions":[2.053545E2,2.020976E2,3.271054E2,1.964288E2,7.2691E4,7.481E4,2.383155E2,1.0550996E-1,6.1359E4,6.349E4,1.0550993E-1,2.146288E2,2.251701E2,2.324347E2,1.0456E5,2.529114E-2,2.902107E2,-9.08824E-3,-3.773778E-2,7.1757E4,3.042212E2,2.164382E2,2.321742E2,3.301199E2,3.358345E2,3.4768E2,1.09255E5,7.686033E-2,1.0550995E-1,-7.244011E-2,7.686033E-2,-7.873233E-2,-9.503694E-2,7.912221E-2,-1.7593097E-3,-3.4872867E-2,-8.8276945E-2,8.641024E-2,1.0365305E-1,-4.490019E-2,9.715382E-2,-8.539527E-2,-3.310334E-2,3.0304855E-2,1.0550994E-1],"split_indices":[3,3,5,3,4,4,3,0,4,4,0,3,3,3,4,0,5,0,0,4,5,3,3,5,5,5,4,0,0,0,0,0,0,0,0,0,0,0,0,0,0,0,0,0,0],"split_type":[0,0,0,0,0,0,0,0,0,0,0,0,0,0,0,0,0,0,0,0,0,0,0,0,0,0,0,0,0,0,0,0,0,0,0,0,0,0,0,0,0,0,0,0,0],"sum_hessian":[2.4607706E2,4.138682E1,2.0469025E2,3.3657955E1,7.728864E0,1.10946594E2,9.3743645E1,2.218932E1,1.1468637E1,3.4904547E0,4.2384095E0,5.8589775E1,5.2356823E1,4.11375E1,5.260614E1,1.246591E0,1.0222046E1,1.7452273E0,1.7452273E0,1.944682E1,3.9142956E1,2.0194775E1,3.216205E1,3.216205E1,8.975455E0,4.288273E1,9.72341E0,1.7452273E0,8.476819E0,1.7701591E1,1.7452273E0,3.0666138E1,8.476819E0,9.474092E0,1.0720682E1,9.972728E0,2.218932E1,5.235682E0,2.6926365E1,2.9918184E0,5.983637E0,2.5929092E1,1.6953638E1,3.9890912E0,5.7343187E0],"tree_param":{"num_deleted":"0","num_feature":"12","num_nodes":"45","size_leaf_vector":"1"}},{"base_weights":[-5.7902142E-2,1.4684279E0,-1.3881071E0,1.8472891E0,4.169109E-1,-7.641539E-1,-1.6301597E0,1.9547733E0,1.263137E0,1.4976373E-1,1.728985E0,-1.1294041E0,4.726012E-1,-1.0983343E-2,-1.6476547E0,7.4974634E-2,1.9670799E0,9.1851616E-1,1.8370165E0,1.4753393E0,-6.464078E-2,4.7021497E-2,2.0972679E0,-7.032012E-1,-1.4463528E0,1.0282091E-1,8.839571E-2,-1.6639986E0,-1.7808035E-2,9.8888926E-2,9.200387E-2,6.1535127E-2,-2.9547503E-2,8.0261566E-2,1.02401234E-1,1.005966E-1,3.352457E-2,-1.39003685E-2,5.232E-2,1.07719146E-1,1.0060089E-1,-5.9171528E-2,-2.4689906E-3,2.812457E-2,-8.004713E-2,-1.6767666E-2,1.0579294E-1,-2.7293859E-2,-8.405907E-2],"categories":[],"categories_nodes":[],"categories_segments":[],"categories_sizes":[],"default_left":[0,0,0,0,0,0,0,0,0,0,0,0,0,0,0,0,0,0,0,0,0,0,0,0,0,0,0,0,0,0,0,0,0,0,0,0,0,0,0,0,0,0,0,0,0,0,0,0,0],"id":1,"left_children":[1,3,5,7,9,11,13,15,17,19,21,23,25,-1,27,-1,29,31,33,35,37,-1,39,41,43,-1,45,47,-1,-1,-1,-1,-1,-1,-1,-1,-1,-1,-1,-1,-1,-1,-1,-1,-1,-1,-1,-1,-1],"loss_changes":[5.336149E2,4.8756927E1,2.1209534E1,5.6490784E0,1.1362615E1,1.7731007E1,2.4968262E0,4.257202E-1,2.7652473E0,7.6546125E0,1.5925331E0,4.093395E0,5.4457035E0,0E0,2.1095886E0,0E0,1.005249E-1,4.1167226E0,2.5657082E-1,1.6194258E0,5.4957943E0,0E0,1.8190384E-2,4.0578732E0,5.396908E0,0E0,6.1876044E0,1.8961182E0,0E0,0E0,0E0,0E0,0E0,0E0,0E0,0E0,0E0,0E0,0E0,0E0,0E0,0E0,0E0,0E0,0E0,0E0,0E0,0E0,0E0],"parents":[2147483647,0,0,1,1,2,2,3,3,4,4,5,5,6,6,7,7,8,8,9,9,10,10,11,11,12,12,14,14,16,16,17,17,18,18,19,19,20,20,22,22,23,23,24,24,26,26,27,27],"right_children":[2,4,6,8,10,12,14,16,18,20,22,24,26,-1,28,-1,30,32,34,36,38,-1,40,42,44,-1,46,48,-1,-1,-1,-1,-1,-1,-1,-1,-1,-1,-1,-1,-1,-1,-1,-1,-1,-1,-1,-1,-1],"split_conditions":[7.054E-1,6.817E-1,7.251E-1,6.718E-1,9.3246E4,8.164E-1,7.568E-1,6.555E-1,8.5214E4,6.5517E4,7.823E-1,7.132E-1,6.6148E4,-1.0983343E-2,1.05232E5,7.4974634E-2,7.614E-1,8.1788E4,9.4386E4,6.989E-1,7.992E-1,4.7021497E-2,1.02193E5,8.029E-1,7.759E-1,1.0282091E-1,9.0209E4,5.6899E4,-1.7808035E-2,9.8888926E-2,9.200387E-2,6.1535127E-2,-2.9547503E-2,8.0261566E-2,1.02401234E-1,1.005966E-1,3.352457E-2,-1.39003685E-2,5.232E-2,1.07719146E-1,1.0060089E-1,-5.9171528E-2,-2.4689906E-3,2.812457E-2,-8.004713E-2,-1.6767666E-2,1.0579294E-1,-2.7293859E-2,-8.405907E-2],"split_indices":[11,11,11,11,0,9,9,9,0,0,9,11,0,0,0,0,9,0,0,11,9,0,0,9,9,0,0,0,0,0,0,0,0,0,0,0,0,0,0,0,0,0,0,0,0,0,0,0,0],"split_type":[0,0,0,0,0,0,0,0,0,0,0,0,0,0,0,0,0,0,0,0,0,0,0,0,0,0,0,0,0,0,0,0,0,0,0,0,0,0,0,0,0,0,0,0,0,0,0,0,0],"sum_hessian":[2.628216E2,1.22388336E2,1.4043324E2,8.9971596E1,3.241674E1,3.9251755E1,1.0118149E2,7.5989494E1,1.3982101E1,2.6933E1,5.4837384E0,3.0302526E1,8.949227E0,1.2396207E0,9.994187E1,1.9999995E0,7.3989494E1,8.736029E0,5.2460732E0,3.74976E0,2.318324E1,1.7457671E0,3.7379715E0,1.292381E1,1.7378716E1,1.7471036E0,7.2021236E0,9.86929E1,1.2489675E0,6.8240944E1,5.748553E0,7.238889E0,1.4971395E0,2.4999654E0,2.7461076E0,2.2498083E0,1.4999518E0,1.9448343E1,3.7348983E0,2.2383158E0,1.4996556E0,7.451043E0,5.472767E0,1.241808E0,1.6136908E1,5.95707E0,1.2450539E0,1.4937105E0,9.7199196E1],"tree_param":{"num_deleted":"0","num_feature":"12","num_nodes":"49","size_leaf_vector":"1"}},{"base_weights":[9.483218E-3,-6.1136335E-1,1.6789718E0,-8.9445287E-1,2.4599051E-1,1.4323673E0,1.8510563E0,3.5486525E-1,-1.1726848E0,1.422967E0,-1.0369424E0,1.8765787E0,2.840393E-1,1.8745161E0,7.040741E-2,-3.1744927E-1,1.9106497E0,-1.3801323E0,-5.3109485E-1,1.7430977E0,7.718486E-1,-1.2456663E0,5.6758124E-1,1.9204779E0,6.0862165E-2,-6.0360204E-2,6.4096713E-1,1.7540301E0,1.920945E0,8.4472775E-2,-4.353274E-2,9.535727E-2,9.610783E-2,-8.2676366E-2,-5.932756E-2,5.2633632E-2,-6.71979E-2,5.818943E-2,9.620578E-2,-1.668037E-2,9.039933E-2,-2.4472287E-2,-6.927571E-2,1.0807935E-1,-5.1352806E-2,9.5753655E-2,9.828522E-2,1.51471E-2,7.5479925E-2,9.164809E-2,6.403048E-2,9.540429E-2,9.6726224E-2],"categories":[],"categories_nodes":[],"categories_segments":[],"categories_sizes":[],"default_left":[0,0,0,0,0,0,0,0,0,0,0,0,0,0,0,0,0,0,0,0,0,0,0,0,0,0,0,0,0,0,0,0,0,0,0,0,0,0,0,0,0,0,0,0,0,0,0,0,0,0,0,0,0],"id":2,"left_children":[1,3,5,7,9,11,13,15,17,19,21,23,25,27,-1,29,31,33,35,37,39,41,43,45,-1,-1,47,49,51,-1,-1,-1,-1,-1,-1,-1,-1,-1,-1,-1,-1,-1,-1,-1,-1,-1,-1,-1,-1,-1,-1,-1,-1],"loss_changes":[2.5752423E2,4.3956047E1,2.8581085E0,4.732614E1,6.788229E1,1.4120228E1,4.121704E-1,2.5939077E1,1.4820541E1,4.8871574E0,7.203638E0,5.7772064E-1,4.1097436E0,2.1073914E-1,0E0,1.9224758E1,2.9182434E-4,4.453308E0,3.502588E1,1.6482773E0,8.851679E0,2.0129204E0,6.2936244E0,4.5700073E-3,0E0,0E0,1.8292627E0,3.9157486E-1,4.737854E-3,0E0,0E0,0E0,0E0,0E0,0E0,0E0,0E0,0E0,0E0,0E0,0E0,0E0,0E0,0E0,0E0,0E0,0E0,0E0,0E0,0E0,0E0,0E0,0E0],"parents":[2147483647,0,0,1,1,2,2,3,3,4,4,5,5,6,6,7,7,8,8,9,9,10,10,11,11,12,12,13,13,15,15,16,16,17,17,18,18,19,19,20,20,21,21,22,22,23,23,26,26,27,27,28,28],"right_children":[2,4,6,8,10,12,14,16,18,20,22,24,26,28,-1,30,32,34,36,38,40,42,44,46,-1,-1,48,50,52,-1,-1,-1,-1,-1,-1,-1,-1,-1,-1,-1,-1,-1,-1,-1,-1,-1,-1,-1,-1,-1,-1,-1,-1],"split_conditions":[4.909763E2,4.589213E2,5.155793E2,6.4916E4,8.4985E4,9.4129E4,6.086775E2,4.029124E2,4.400256E2,7.9661E4,9.923E-1,9.2816E4,9.895E-1,5.281585E2,7.040741E-2,5.6533E4,6.372E4,4.065734E2,7.8111E4,4.636641E2,9.906E-1,9.861E-1,9.2816E4,9.1054E4,6.0862165E-2,-6.0360204E-2,9.918E-1,5.269714E2,9.905E4,8.4472775E-2,-4.353274E-2,9.535727E-2,9.610783E-2,-8.2676366E-2,-5.932756E-2,5.2633632E-2,-6.71979E-2,5.818943E-2,9.620578E-2,-1.668037E-2,9.039933E-2,-2.4472287E-2,-6.927571E-2,1.0807935E-1,-5.1352806E-2,9.5753655E-2,9.828522E-2,1.51471E-2,7.5479925E-2,9.164809E-2,6.403048E-2,9.540429E-2,9.6726224E-2],"split_indices":[2,2,2,0,0,0,2,2,2,0,7,0,7,2,0,0,0,2,0,2,7,7,0,0,0,0,7,2,0,0,0,0,0,0,0,0,0,0,0,0,0,0,0,0,0,0,0,0,0,0,0,0,0],"split_type":[0,0,0,0,0,0,0,0,0,0,0,0,0,0,0,0,0,0,0,0,0,0,0,0,0,0,0,0,0,0,0,0,0,0,0,0,0,0,0,0,0,0,0,0,0,0,0,0,0,0,0,0,0],"sum_hessian":[2.4845647E2,1.8110678E2,6.7349686E1,1.3615108E2,4.4955704E1,2.7681276E1,3.9668407E1,2.4798906E1,1.1135218E2,2.3446047E1,2.1509657E1,1.9960062E1,7.721215E0,3.767296E1,1.9954472E0,1.7315996E1,7.48291E0,8.414521E1,2.720697E1,1.5718059E1,7.7279882E0,1.9033669E1,2.4759877E0,1.8714058E1,1.2460042E0,1.4911575E0,6.2300572E0,1.0479107E1,2.7193853E1,3.741754E0,1.3574244E1,5.736273E0,1.7466376E0,3.4881702E1,4.9263504E1,9.227763E0,1.7979206E1,3.7421436E0,1.1975915E1,3.7389264E0,3.9890618E0,2.9705558E0,1.6063112E1,1.2382389E0,1.2377486E0,1.6716406E1,1.9976518E0,4.484811E0,1.7452468E0,8.981628E0,1.4974788E0,1.3967372E1,1.32264805E1],"tree_param":{"num_deleted":"0","num_feature":"12","num_nodes":"53","size_leaf_vector":"1"}},{"base_weights":[3.0523231E-2,1.2993598E0,-1.0223763E0,1.6215308E0,5.951678E-1,-1.1276786E0,1.4662722E0,-3.5753593E-2,1.6727498E0,2.4404237E-1,1.6844823E0,1.3463664E0,-1.2123884E0,2.9151369E-2,1.9364276E0,1.7814703E0,1.4154167E0,1.6098881E0,-1.5017481E-1,1.8972334E0,1.4471108E0,1.0275234E-1,8.969353E-1,-8.0365616E-1,-1.4655058E0,1.0009444E-1,1.9035755E0,5.2212823E-2,8.992075E-2,5.1730044E-2,9.2442095E-2,5.1066525E-2,9.703201E-2,-2.8469298E-2,1.9457351E-2,9.294627E-2,1.0020646E-1,1.5737094E-2,9.592395E-2,1.7798238E-2,6.734828E-2,-4.357344E-2,5.5011302E-2,-7.616177E-2,-3.294739E-2,9.626515E-2,9.409028E-2],"categories":[],"categories_nodes":[],"categories_segments":[],"categories_sizes":[],"default_left":[0,0,0,0,0,0,0,0,0,0,0,0,0,0,0,0,0,0,0,0,0,0,0,0,0,0,0,0,0,0,0,0,0,0,0,0,0,0,0,0,0,0,0,0,0,0,0],"id":3,"left_children":[1,3,5,7,9,11,13,-1,15,17,19,21,23,-1,25,27,29,31,33,35,37,-1,39,41,43,-1,45,-1,-1,-1,-1,-1,-1,-1,-1,-1,-1,-1,-1,-1,-1,-1,-1,-1,-1,-1,-1],"loss_changes":[3.44937E2,2.6564316E1,3.6977844E1,9.614532E0,1.4057958E1,2.8371536E1,2.3786917E0,0E0,2.1993713E0,1.4965876E1,4.5244598E-1,1.4274426E0,1.3541977E1,0E0,8.030891E-3,6.903534E-1,3.8538094E0,1.2118855E0,4.876623E0,1.9340515E-2,2.2602835E0,0E0,6.676688E-1,6.4630013E0,3.7638702E0,0E0,1.1692047E-3,0E0,0E0,0E0,0E0,0E0,0E0,0E0,0E0,0E0,0E0,0E0,0E0,0E0,0E0,0E0,0E0,0E0,0E0,0E0,0E0],"parents":[2147483647,0,0,1,1,2,2,3,3,4,4,5,5,6,6,8,8,9,9,10,10,11,11,12,12,14,14,15,15,16,16,17,17,18,18,19,19,20,20,22,22,23,23,24,24,26,26],"right_children":[2,4,6,8,10,12,14,-1,16,18,20,22,24,-1,26,28,30,32,34,36,38,-1,40,42,44,-1,46,-1,-1,-1,-1,-1,-1,-1,-1,-1,-1,-1,-1,-1,-1,-1,-1,-1,-1,-1,-1],"split_conditions":[7.927E-1,7.664E-1,4.961706E2,3.938825E2,4.916745E2,2.020976E2,5.055947E2,-3.5753593E-2,7.465E-1,2.025649E2,5.097596E2,8.09E-1,8.23E-1,2.9151369E-2,5.142944E2,6.457E-1,4.909763E2,7.78E-1,4.636641E2,2.3597E2,5.168186E2,1.0275234E-1,1.994182E2,8.213E-1,4.657586E2,1.0009444E-1,8.093E-1,5.2212823E-2,8.992075E-2,5.1730044E-2,9.2442095E-2,5.1066525E-2,9.703201E-2,-2.8469298E-2,1.9457351E-2,9.294627E-2,1.0020646E-1,1.5737094E-2,9.592395E-2,1.7798238E-2,6.734828E-2,-4.357344E-2,5.5011302E-2,-7.616177E-2,-3.294739E-2,9.626515E-2,9.409028E-2],"split_indices":[9,9,2,2,2,3,2,0,9,3,2,9,9,0,2,9,2,9,2,3,2,0,3,9,2,0,9,0,0,0,0,0,0,0,0,0,0,0,0,0,0,0,0,0,0,0,0],"split_type":[0,0,0,0,0,0,0,0,0,0,0,0,0,0,0,0,0,0,0,0,0,0,0,0,0,0,0,0,0,0,0,0,0,0,0,0,0,0,0,0,0,0,0,0,0,0,0],"sum_hessian":[2.581946E2,1.17090385E2,1.4110422E2,8.033621E1,3.6754173E1,1.3537604E2,5.7281723E0,1.7232172E0,7.861299E1,2.7794884E1,8.959291E0,4.481739E0,1.308943E2,1.989902E0,3.7382705E0,5.526435E1,2.3348642E1,6.2254705E0,2.1569412E1,4.7246647E0,4.234627E0,1.7392365E0,2.7425025E0,5.005915E1,8.083515E1,1.2491329E0,2.4891376E0,1.2416986E0,5.402265E1,1.2428619E1,1.0920023E1,2.2398224E0,3.9856482E0,1.2136105E1,9.433309E0,3.4782174E0,1.2464473E0,1.2446371E0,2.9899898E0,1.2454188E0,1.4970837E0,4.8337463E1,1.7216872E0,7.543581E1,5.3993444E0,1.2456986E0,1.243439E0],"tree_param":{"num_deleted":"0","num_feature":"12","num_nodes":"47","size_leaf_vector":"1"}},{"base_weights":[-6.9701625E-3,1.3207086E0,-1.195341E0,1.6566415E0,4.153423E-1,-6.113207E-1,-1.4716465E0,1.7236732E0,1.3349158E0,2.3856427E-1,1.4397684E0,-6.8502396E-1,9.213066E-2,-1.509135E0,5.9915196E-2,1.7736087E0,1.6870447E0,1.0170733E0,1.8152207E0,1.4586245E0,1.0515009E-3,9.53932E-2,1.0965534E0,3.0902857E-1,-7.6890194E-1,-1.1822306E-2,-1.5271989E0,8.802774E-2,9.098239E-2,4.7440823E-2,8.669001E-2,9.357674E-2,2.9607473E-2,9.361652E-2,9.00054E-2,6.1295807E-2,1.0306951E-1,-1.7212927E-2,2.815221E-2,5.9635874E-2,4.901931E-2,6.330233E-2,-1.4915982E-2,-4.6225574E-2,-1.8236414E-3,-7.758393E-2,-5.192147E-2],"categories":[],"categories_nodes":[],"categories_segments":[],"categories_sizes":[],"default_left":[0,0,0,0,0,0,0,0,0,0,0,0,0,0,0,0,0,0,0,0,0,0,0,0,0,0,0,0,0,0,0,0,0,0,0,0,0,0,0,0,0,0,0,0,0,0,0],"id":4,"left_children":[1,3,5,7,9,11,13,15,17,19,21,23,-1,25,-1,27,29,31,33,35,37,-1,39,41,43,-1,45,-1,-1,-1,-1,-1,-1,-1,-1,-1,-1,-1,-1,-1,-1,-1,-1,-1,-1,-1,-1],"loss_changes":[3.9537534E2,3.5997665E1,2.133812E1,1.8616791E0,5.800724E0,7.680956E0,8.98468E0,1.3067627E-1,2.2723503E0,7.9159937E0,7.573252E-1,3.4377193E0,0E0,2.0351105E0,0E0,1.8157959E-2,1.4224701E0,3.2522535E0,5.1078796E-3,6.2438107E-1,4.4373965E0,0E0,3.0379534E-2,1.864784E0,4.3334465E0,0E0,1.0443115E0,0E0,0E0,0E0,0E0,0E0,0E0,0E0,0E0,0E0,0E0,0E0,0E0,0E0,0E0,0E0,0E0,0E0,0E0,0E0,0E0],"parents":[2147483647,0,0,1,1,2,2,3,3,4,4,5,5,6,6,7,7,8,8,9,9,10,10,11,11,13,13,15,15,16,16,17,17,18,18,19,19,20,20,22,22,23,23,24,24,26,26],"right_children":[2,4,6,8,10,12,14,16,18,20,22,24,-1,26,-1,28,30,32,34,36,38,-1,40,42,44,-1,46,-1,-1,-1,-1,-1,-1,-1,-1,-1,-1,-1,-1,-1,-1,-1,-1,-1,-1,-1,-1],"split_conditions":[7.054E-1,6.806E-1,7.289E-1,6.703E-1,9.4617E4,1.05232E5,1.254765E3,7.9177E4,8.3607E4,1.033419E3,1.273762E3,1.002303E3,9.213066E-2,5.6899E4,5.9915196E-2,6.602E-1,8.0412E4,7.1501E4,8.6793E4,1.012746E3,1.142268E3,9.53932E-2,1.05232E5,7.107E-1,9.4386E4,-1.1822306E-2,1.21179E3,8.802774E-2,9.098239E-2,4.7440823E-2,8.669001E-2,9.357674E-2,2.9607473E-2,9.361652E-2,9.00054E-2,6.1295807E-2,1.0306951E-1,-1.7212927E-2,2.815221E-2,5.9635874E-2,4.901931E-2,6.330233E-2,-1.4915982E-2,-4.6225574E-2,-1.8236414E-3,-7.758393E-2,-5.192147E-2],"split_indices":[11,11,11,11,0,0,1,0,0,1,1,1,0,0,0,11,0,0,0,1,1,0,0,11,0,0,1,0,0,0,0,0,0,0,0,0,0,0,0,0,0,0,0,0,0,0,0],"split_type":[0,0,0,0,0,0,0,0,0,0,0,0,0,0,0,0,0,0,0,0,0,0,0,0,0,0,0,0,0,0,0,0,0,0,0,0,0,0,0,0,0,0,0,0,0,0,0],"sum_hessian":[2.5059048E2,1.1835793E2,1.3223256E2,8.632671E1,3.2031216E1,4.246832E1,8.976424E1,7.144177E1,1.4884941E1,2.7317266E1,4.713947E0,4.122999E1,1.2383317E0,8.8521324E1,1.2429173E0,3.022964E1,4.1212135E1,8.957386E0,5.927555E0,4.4513702E0,2.2865896E1,1.9941736E0,2.7197733E0,3.208264E0,3.8021725E1,1.2388424E0,8.728248E1,2.3551783E1,6.6778574E0,2.4546964E0,3.875744E1,2.975026E0,5.9823604E0,1.2403135E0,4.6872416E0,3.211514E0,1.2398562E0,1.4163372E1,8.702524E0,1.487987E0,1.2317864E0,1.2455736E0,1.9626906E0,3.1359238E1,6.6624866E0,8.311949E1,4.1629868E0],"tree_param":{"num_deleted":"0","num_feature":"12","num_nodes":"47","size_leaf_vector":"1"}},{"base_weights":[-3.192492E-2,1.4249887E0,-1.0094665E0,1.6360171E0,8.945221E-1,-4.240644E-1,-1.3810238E0,1.1794633E0,1.6605916E0,3.5374326E-1,1.4874713E0,-7.9907167E-1,6.4946854E-1,-1.4330354E0,-4.3876278E-1,3.392148E-2,8.737584E-2,1.6955167E0,1.6162081E0,8.238118E-1,-8.566617E-2,1.3466462E0,1.8626795E0,1.2265462E0,-9.63163E-1,1.1862954E0,4.454171E-3,-1.3309582E0,-1.6225826E0,7.0452917E-1,-1.6112176E0,8.628225E-2,8.472591E-2,6.2292524E-2,8.226862E-2,-2.7654981E-3,7.2380595E-2,-4.4636592E-2,3.3806615E-2,7.5284205E-2,1.1481176E-2,8.767331E-2,9.6711405E-2,1.08830236E-1,-1.5173583E-2,-5.3184688E-2,-5.0445027E-3,1.3828675E-2,7.6356374E-2,-4.437783E-2,5.152238E-2,-7.252902E-2,-5.8473587E-2,-8.155504E-2,-8.062817E-2,3.768793E-2,3.2778975E-2,-8.025396E-2,-8.086626E-2],"categories":[],"categories_nodes":[],"categories_segments":[],"categories_sizes":[],"default_left":[0,0,0,0,0,0,0,0,0,0,0,0,0,0,0,0,0,0,0,0,0,0,0,0,0,0,0,0,0,0,0,0,0,0,0,0,0,0,0,0,0,0,0,0,0,0,0,0,0,0,0,0,0,0,0,0,0,0,0],"id":5,"left_children":[1,3,5,7,9,11,13,15,17,19,21,23,25,27,29,-1,-1,31,33,35,37,39,41,43,45,47,49,51,53,55,57,-1,-1,-1,-1,-1,-1,-1,-1,-1,-1,-1,-1,-1,-1,-1,-1,-1,-1,-1,-1,-1,-1,-1,-1,-1,-1,-1,-1],"loss_changes":[3.5458493E2,1.1191376E1,3.24088E1,8.0244446E-1,9.12335E0,2.3290047E1,4.4670258E0,1.0397153E0,1.0519409E-1,3.0736647E0,7.170944E-1,1.4250935E1,5.1859465E0,1.6712799E0,6.391363E0,0E0,0E0,1.1291504E-3,3.2279968E-1,3.9427357E0,4.7287235E0,1.7530117E0,2.8931618E-2,4.67032E0,3.4380722E0,2.5344486E0,6.2260766E0,1.084549E0,2.571106E-3,5.8152676E-3,8.201599E-5,0E0,0E0,0E0,0E0,0E0,0E0,0E0,0E0,0E0,0E0,0E0,0E0,0E0,0E0,0E0,0E0,0E0,0E0,0E0,0E0,0E0,0E0,0E0,0E0,0E0,0E0,0E0,0E0],"parents":[2147483647,0,0,1,1,2,2,3,3,4,4,5,5,6,6,7,7,8,8,9,9,10,10,11,11,12,12,13,13,14,14,17,17,18,18,19,19,20,20,21,21,22,22,23,23,24,24,25,25,26,26,27,27,28,28,29,29,30,30],"right_children":[2,4,6,8,10,12,14,16,18,20,22,24,26,28,30,-1,-1,32,34,36,38,40,42,44,46,48,50,52,54,56,58,-1,-1,-1,-1,-1,-1,-1,-1,-1,-1,-1,-1,-1,-1,-1,-1,-1,-1,-1,-1,-1,-1,-1,-1,-1,-1,-1,-1],"split_conditions":[6.93E-1,6.703E-1,7.289E-1,9.851E-1,9.902E-1,9.911E-1,9.931E-1,6.444E-1,6.46E-1,9.88E-1,9.921E-1,7.766E-1,7.087E-1,7.659E-1,8.593E-1,3.392148E-2,8.737584E-2,6.555E-1,6.471E-1,7.599E-1,9.898E-1,9.919E-1,6.817E-1,9.865E-1,8.203E-1,7.992E-1,8.169E-1,9.904E-1,9.906E-1,8.512E-1,9.936E-1,8.628225E-2,8.472591E-2,6.2292524E-2,8.226862E-2,-2.7654981E-3,7.2380595E-2,-4.4636592E-2,3.3806615E-2,7.5284205E-2,1.1481176E-2,8.767331E-2,9.6711405E-2,1.08830236E-1,-1.5173583E-2,-5.3184688E-2,-5.0445027E-3,1.3828675E-2,7.6356374E-2,-4.437783E-2,5.152238E-2,-7.252902E-2,-5.8473587E-2,-8.155504E-2,-8.062817E-2,3.768793E-2,3.2778975E-2,-8.025396E-2,-8.086626E-2],"split_indices":[11,11,11,7,7,7,7,11,11,7,7,9,11,11,9,0,0,9,11,9,7,7,11,7,9,9,9,7,7,9,7,0,0,0,0,0,0,0,0,0,0,0,0,0,0,0,0,0,0,0,0,0,0,0,0,0,0,0,0],"split_type":[0,0,0,0,0,0,0,0,0,0,0,0,0,0,0,0,0,0,0,0,0,0,0,0,0,0,0,0,0,0,0,0,0,0,0,0,0,0,0,0,0,0,0,0,0,0,0,0,0,0,0,0,0,0,0,0,0,0,0],"sum_hessian":[2.4897237E2,9.9973434E1,1.4899893E2,7.152115E1,2.8452286E1,5.7851593E1,9.114735E1,3.6530836E0,6.7868065E1,1.4880784E1,1.3571502E1,4.2874607E1,1.4976986E1,8.63793E1,4.76804E0,1.9410483E0,1.7120352E0,3.7981033E1,2.9887032E1,7.189572E0,7.6912127E0,9.867854E0,3.703647E0,3.2129157E0,3.966169E1,8.173999E0,6.8029866E0,5.6143986E1,3.023532E1,2.4140427E0,2.3539975E0,1.2183226E0,3.676271E1,2.1816874E0,2.7705345E1,2.984091E0,4.2054806E0,3.7346475E0,3.956565E0,8.638003E0,1.2298509E0,1.4659842E0,2.2376628E0,1.9821236E0,1.2307919E0,3.5520428E1,4.1412616E0,2.2277827E0,5.946216E0,3.6391053E0,3.1638815E0,3.2252632E1,2.3891356E1,1.6341612E1,1.3893707E1,1.2035639E0,1.2104788E0,1.1742805E0,1.1797168E0],"tree_param":{"num_deleted":"0","num_feature":"12","num_nodes":"59","size_leaf_vector":"1"}},{"base_weights":[-2.1951629E-2,-1.0906407E0,1.4027269E0,-1.1721255E0,7.6377624E-1,1.0179495E0,1.5967759E0,-1.3610004E0,-6.2341356E-1,9.323658E-2,4.7306946E-1,1.6850892E0,8.5083836E-1,1.6090019E0,1.2821077E0,-1.5443718E0,-1.1539425E0,1.9172726E0,-8.191837E-1,7.009459E-2,-7.316513E-2,1.8472047E0,1.45562E0,3.2753304E-1,1.1675011E0,1.3923746E0,1.6187438E0,4.1643243E-2,8.28678E-2,-7.547381E-2,-7.9399034E-2,-6.1045624E-2,-1.7536124E-2,9.15089E-2,1.0020705E-1,-5.6449223E-2,-2.6617507E-2,-4.083112E-2,4.874336E-2,8.630795E-2,9.90344E-2,8.7856345E-2,5.192184E-2,5.105809E-2,-1.3864686E-2,8.5808724E-2,5.042196E-2,8.6650394E-2,4.5712486E-2,7.927983E-2,8.200308E-2],"categories":[],"categories_nodes":[],"categories_segments":[],"categories_sizes":[],"default_left":[0,0,0,0,0,0,0,0,0,0,0,0,0,0,0,0,0,0,0,0,0,0,0,0,0,0,0,0,0,0,0,0,0,0,0,0,0,0,0,0,0,0,0,0,0,0,0,0,0,0,0],"id":6,"left_children":[1,3,5,7,9,11,13,15,17,-1,19,21,23,25,27,29,31,33,35,-1,37,39,41,43,45,47,49,-1,-1,-1,-1,-1,-1,-1,-1,-1,-1,-1,-1,-1,-1,-1,-1,-1,-1,-1,-1,-1,-1,-1,-1],"loss_changes":[3.7644968E2,2.1347794E1,7.912674E0,1.4025314E1,1.9032099E0,3.9608536E0,2.710266E-1,3.8224945E0,1.7236624E1,0E0,2.3867705E0,2.6473618E-1,4.708025E0,1.4309692E-1,4.4416094E-1,8.123779E-2,2.543476E0,1.8748283E-2,2.8590984E0,0E0,2.3080938E0,6.7373276E-2,3.7058878E-1,4.493444E0,1.5447464E0,4.7529507E-1,4.585266E-2,0E0,0E0,0E0,0E0,0E0,0E0,0E0,0E0,0E0,0E0,0E0,0E0,0E0,0E0,0E0,0E0,0E0,0E0,0E0,0E0,0E0,0E0,0E0,0E0],"parents":[2147483647,0,0,1,1,2,2,3,3,4,4,5,5,6,6,7,7,8,8,10,10,11,11,12,12,13,13,14,14,15,15,16,16,17,17,18,18,20,20,21,21,22,22,23,23,24,24,25,25,26,26],"right_children":[2,4,6,8,10,12,14,16,18,-1,20,22,24,26,28,30,32,34,36,-1,38,40,42,44,46,48,50,-1,-1,-1,-1,-1,-1,-1,-1,-1,-1,-1,-1,-1,-1,-1,-1,-1,-1,-1,-1,-1,-1,-1,-1],"split_conditions":[8.711E-1,4.948013E2,8.914E-1,8.51E-1,8.438E-1,1.069321E3,6.086775E2,8.264E-1,9.7741E2,9.323658E-2,1.253276E3,8.832E-1,1.135127E3,8.922E-1,1.453922E3,8.074E-1,1.215347E3,9.33357E2,1.09325E3,7.009459E-2,5.131843E2,9.97835E2,1.04025E3,1.101958E3,4.787776E2,8.919E-1,9.05E-1,4.1643243E-2,8.28678E-2,-7.547381E-2,-7.9399034E-2,-6.1045624E-2,-1.7536124E-2,9.15089E-2,1.0020705E-1,-5.6449223E-2,-2.6617507E-2,-4.083112E-2,4.874336E-2,8.630795E-2,9.90344E-2,8.7856345E-2,5.192184E-2,5.105809E-2,-1.3864686E-2,8.5808724E-2,5.042196E-2,8.6650394E-2,4.5712486E-2,7.927983E-2,8.200308E-2],"split_indices":[6,2,6,6,6,1,2,6,1,0,1,6,1,6,1,6,1,1,1,0,2,1,1,1,2,6,6,0,0,0,0,0,0,0,0,0,0,0,0,0,0,0,0,0,0,0,0,0,0,0,0],"split_type":[0,0,0,0,0,0,0,0,0,0,0,0,0,0,0,0,0,0,0,0,0,0,0,0,0,0,0,0,0,0,0,0,0,0,0,0,0,0,0,0,0,0,0,0,0,0,0,0,0,0,0],"sum_hessian":[2.4725134E2,1.4127628E2,1.0597507E2,1.3532977E2,5.9465127E0,3.552766E1,7.04474E1,1.0067567E2,3.46541E1,1.2421753E0,4.7043376E0,7.11664E0,2.8411022E1,6.781262E1,2.634781E0,5.3391705E1,4.7283962E1,2.4792047E0,3.2174892E1,1.7420828E0,2.9622545E0,4.1703544E0,2.9462857E0,1.0710778E1,1.7700243E1,2.9183607E0,6.4894264E1,1.1991634E0,1.4356174E0,2.9658794E1,2.373291E1,4.364498E1,3.638981E0,1.2380124E0,1.2411923E0,1.5468164E1,1.6706728E1,1.7329377E0,1.229317E0,2.1870823E0,1.9832722E0,1.7102478E0,1.236038E0,4.9891315E0,5.721647E0,3.9780838E0,1.3722159E1,1.7042131E0,1.2141477E0,2.539991E1,3.9494354E1],"tree_param":{"num_deleted":"0","num_feature":"12","num_nodes":"51","size_leaf_vector":"1"}},{"base_weights":[-7.957629E-2,1.1376178E0,-3.2576638E-1,1.5336412E0,7.545741E-1,-6.246582E-1,1.2298932E-1,8.840818E-1,1.6224285E0,3.448811E-1,1.4084916E0,-6.85346E-1,1.3796467E0,2.1931056E-2,1.6495056E0,8.531263E-2,3.082603E-3,1.6024058E0,8.941186E-2,1.230537E-1,8.098109E-2,1.1071291E0,1.7668371E0,8.907653E-2,-7.1073776E-1,1.9135925E0,1.5111081E-2,-9.42943E-2,9.6896863E-1,1.7024622E0,1.5999098E0,7.98045E-2,8.395841E-2,-3.075992E-2,2.4946397E-2,8.246767E-2,3.4225073E-2,9.212383E-2,8.580287E-2,-3.7656378E-2,4.147848E-2,8.6000405E-2,1.0540054E-1,4.521637E-2,-9.377955E-3,6.275662E-2,-8.416212E-3,8.794447E-2,8.222022E-2,8.0547675E-2,7.9531476E-2],"categories":[],"categories_nodes":[],"categories_segments":[],"categories_sizes":[],"default_left":[0,0,0,0,0,0,0,0,0,0,0,0,0,0,0,0,0,0,0,0,0,0,0,0,0,0,0,0,0,0,0,0,0,0,0,0,0,0,0,0,0,0,0,0,0,0,0,0,0,0,0],"id":7,"left_children":[1,3,5,7,9,11,13,15,17,19,21,23,25,27,29,-1,-1,31,-1,33,-1,35,37,-1,39,41,-1,43,45,47,49,-1,-1,-1,-1,-1,-1,-1,-1,-1,-1,-1,-1,-1,-1,-1,-1,-1,-1,-1,-1],"loss_changes":[7.243816E1,6.1690483E0,2.6968863E1,1.1531639E0,5.5383015E0,1.4679684E1,1.2400207E1,1.625828E0,5.8395386E-2,3.5939534E0,8.5992336E-1,7.337311E0,2.040413E0,8.29821E0,1.3102531E-2,0E0,0E0,7.6026917E-3,0E0,3.004058E0,0E0,9.911909E-1,1.3964653E-2,0E0,7.5703926E0,8.924675E-2,0E0,6.2540526E0,2.6820316E0,7.899284E-3,2.579689E-4,0E0,0E0,0E0,0E0,0E0,0E0,0E0,0E0,0E0,0E0,0E0,0E0,0E0,0E0,0E0,0E0,0E0,0E0,0E0,0E0],"parents":[2147483647,0,0,1,1,2,2,3,3,4,4,5,5,6,6,7,7,8,8,9,9,10,10,11,11,12,12,13,13,14,14,17,17,19,19,21,21,22,22,24,24,25,25,27,27,28,28,29,29,30,30],"right_children":[2,4,6,8,10,12,14,16,18,20,22,24,26,28,30,-1,-1,32,-1,34,-1,36,38,-1,40,42,-1,44,46,48,50,-1,-1,-1,-1,-1,-1,-1,-1,-1,-1,-1,-1,-1,-1,-1,-1,-1,-1,-1,-1],"split_conditions":[6.303E-1,5.919E-1,9.907E-1,9.865E-1,9.908E-1,7.663E-1,1.0555E5,9.845E-1,5.867E-1,1.003E5,9.92E-1,5.621E4,8.6879E4,7.55E-1,6.937E-1,8.531263E-2,3.082603E-3,5.805E-1,8.941186E-2,6.135E-1,8.098109E-2,7.6204E4,9.922E-1,8.907653E-2,1.05169E5,7.6357E4,1.5111081E-2,6.551E-1,9.924E-1,9.932E-1,9.918E-1,7.98045E-2,8.395841E-2,-3.075992E-2,2.4946397E-2,8.246767E-2,3.4225073E-2,9.212383E-2,8.580287E-2,-3.7656378E-2,4.147848E-2,8.6000405E-2,1.0540054E-1,4.521637E-2,-9.377955E-3,6.275662E-2,-8.416212E-3,8.794447E-2,8.222022E-2,8.0547675E-2,7.9531476E-2],"split_indices":[8,8,7,7,7,8,4,7,8,4,7,4,4,8,8,0,0,8,0,8,0,4,7,0,4,4,0,8,7,7,7,0,0,0,0,0,0,0,0,0,0,0,0,0,0,0,0,0,0,0,0],"split_type":[0,0,0,0,0,0,0,0,0,0,0,0,0,0,0,0,0,0,0,0,0,0,0,0,0,0,0,0,0,0,0,0,0,0,0,0,0,0,0,0,0,0,0,0,0,0,0,0,0,0,0],"sum_hessian":[2.4173361E2,4.0667664E1,2.0106595E2,1.999506E1,2.0672604E1,1.20684525E2,8.0381424E1,2.40444E0,1.759062E1,1.2709708E1,7.9628954E0,1.1713775E2,3.5467794E0,7.5390434E1,4.990988E0,1.202408E0,1.2020321E0,1.5695311E1,1.8953093E0,1.0825826E1,1.8838825E0,4.3253546E0,3.6375408E0,1.1934223E0,1.1594433E2,2.371513E0,1.1752665E0,6.7149506E1,8.240934E0,2.413678E0,2.5773096E0,1.4502169E1,1.1931419E0,3.6523216E0,7.1735044E0,1.8946038E0,2.4307506E0,1.4610932E0,2.1764476E0,1.1283896E2,3.1053658E0,1.188314E0,1.1831989E0,5.7356534E0,6.141385E1,6.5842233E0,1.6567112E0,1.2240026E0,1.1896753E0,1.1766961E0,1.4006137E0],"tree_param":{"num_deleted":"0","num_feature":"12","num_nodes":"51","size_leaf_vector":"1"}},{"base_weights":[-2.1482443E-2,1.2497615E0,-3.2810828E-1,1.5116677E0,6.2272364E-1,-7.773795E-1,8.180246E-1,1.1442769E0,1.6015134E0,-8.406935E-1,1.6103873E0,-1.2678639E0,-5.090867E-1,1.3669089E0,-6.8146065E-2,1.4941028E0,-1.7092299E-2,1.5899043E0,1.7057519E0,-1.057479E0,-2.4738505E-3,8.542158E-2,1.5895317E0,-1.403783E0,-1.0906867E0,2.6549944E-1,-1.1439732E0,6.1409914E-1,1.477552E0,-7.3785E-1,1.4609298E0,8.422919E-2,4.9697813E-2,8.015283E-2,7.8542784E-2,8.837575E-2,8.262115E-2,-2.4272783E-2,-7.0681736E-2,7.9866074E-2,7.795765E-2,-3.527739E-2,-7.308366E-2,-7.688892E-2,-4.349046E-2,-8.980315E-3,6.370737E-2,-6.0395528E-2,2.3203624E-2,-1.9839434E-2,6.400036E-2,6.697075E-2,8.0455E-2,-4.843001E-2,6.509405E-2,4.9666215E-2,7.9904184E-2],"categories":[],"categories_nodes":[],"categories_segments":[],"categories_sizes":[],"default_left":[0,0,0,0,0,0,0,0,0,0,0,0,0,0,0,0,0,0,0,0,0,0,0,0,0,0,0,0,0,0,0,0,0,0,0,0,0,0,0,0,0,0,0,0,0,0,0,0,0,0,0,0,0,0,0,0,0],"id":8,"left_children":[1,3,5,7,9,11,13,15,17,19,21,23,25,27,29,31,-1,33,35,37,-1,-1,39,41,43,45,47,49,51,53,55,-1,-1,-1,-1,-1,-1,-1,-1,-1,-1,-1,-1,-1,-1,-1,-1,-1,-1,-1,-1,-1,-1,-1,-1,-1,-1],"loss_changes":[9.343334E1,7.6496506E0,9.9441025E1,1.0845337E0,1.9835838E1,1.8256622E1,2.6451977E1,3.3564863E0,3.1936646E-2,9.485285E-1,1.6748428E-2,1.1813126E0,4.4102478E1,2.7971573E0,2.1300219E1,4.9787235E-1,0E0,5.9432983E-3,8.7070465E-3,8.8432217E-1,0E0,0E0,1.5945435E-3,1.1220627E0,2.1029568E0,1.813591E1,5.0671387E0,2.896759E0,5.3204346E-1,6.8082356E0,4.0630913E-1,0E0,0E0,0E0,0E0,0E0,0E0,0E0,0E0,0E0,0E0,0E0,0E0,0E0,0E0,0E0,0E0,0E0,0E0,0E0,0E0,0E0,0E0,0E0,0E0,0E0,0E0],"parents":[2147483647,0,0,1,1,2,2,3,3,4,4,5,5,6,6,7,7,8,8,9,9,10,10,11,11,12,12,13,13,14,14,15,15,17,17,18,18,19,19,22,22,23,23,24,24,25,25,26,26,27,27,28,28,29,29,30,30],"right_children":[2,4,6,8,10,12,14,16,18,20,22,24,26,28,30,32,-1,34,36,38,-1,-1,40,42,44,46,48,50,52,54,56,-1,-1,-1,-1,-1,-1,-1,-1,-1,-1,-1,-1,-1,-1,-1,-1,-1,-1,-1,-1,-1,-1,-1,-1,-1,-1],"split_conditions":[2.075564E2,2.020976E2,1.208614E3,9.90204E2,1.078229E3,1.067326E3,2.467211E2,1.987328E2,2.012015E2,9.908E-1,9.88E-1,9.905E-1,2.321742E2,9.871E-1,1.275547E3,9.71568E2,-1.7092299E-2,9.903E-1,1.05194E3,9.74641E2,-2.4738505E-3,8.542158E-2,1.243634E3,2.099705E2,9.99154E2,9.91E-1,9.935E-1,1.244635E3,9.91E-1,9.928E-1,9.889E-1,8.422919E-2,4.9697813E-2,8.015283E-2,7.8542784E-2,8.837575E-2,8.262115E-2,-2.4272783E-2,-7.0681736E-2,7.9866074E-2,7.795765E-2,-3.527739E-2,-7.308366E-2,-7.688892E-2,-4.349046E-2,-8.980315E-3,6.370737E-2,-6.0395528E-2,2.3203624E-2,-1.9839434E-2,6.400036E-2,6.697075E-2,8.0455E-2,-4.843001E-2,6.509405E-2,4.9666215E-2,7.9904184E-2],"split_indices":[3,3,1,1,1,1,3,3,3,7,7,7,3,7,1,1,0,7,1,1,0,0,1,3,1,7,7,1,7,7,7,0,0,0,0,0,0,0,0,0,0,0,0,0,0,0,0,0,0,0,0,0,0,0,0,0,0],"split_type":[0,0,0,0,0,0,0,0,0,0,0,0,0,0,0,0,0,0,0,0,0,0,0,0,0,0,0,0,0,0,0,0,0,0,0,0,0,0,0,0,0,0,0,0,0,0,0,0,0,0,0,0,0,0,0,0,0],"sum_hessian":[2.3969789E2,4.658025E1,1.9311763E2,3.2856483E1,1.3723765E1,1.3873505E2,5.4382584E1,6.456212E0,2.6400272E1,5.529995E0,8.19377E0,4.9054737E1,8.968031E1,3.3582165E1,2.080042E1,5.2260303E0,1.2301813E0,2.375473E1,2.6455417E0,4.3406873E0,1.1893073E0,1.4372013E0,6.756569E0,2.775945E1,2.1295286E1,4.0395832E1,4.928448E1,4.303232E0,2.9278933E1,1.4465034E1,6.335387E0,3.7846434E0,1.4413872E0,1.4052138E1,9.702592E0,1.2258095E0,1.4197322E0,1.6655864E0,2.675101E0,5.3775496E0,1.3790194E0,2.125313E0,2.5634138E1,7.0417113E0,1.4253575E1,2.8027563E1,1.236827E1,4.7399826E1,1.8846555E0,1.7089477E0,2.5942845E0,1.4281789E1,1.4997143E1,1.2994946E1,1.4700881E0,1.436811E0,4.8985763E0],"tree_param":{"num_deleted":"0","num_feature":"12","num_nodes":"57","size_leaf_vector":"1"}},{"base_weights":[-6.8266713E-3,-9.7023064E-1,1.2331254E0,-1.245254E0,-5.894352E-1,7.181361E-1,1.5063294E0,-1.3068334E0,-2.5117204E-1,1.3035659E0,-7.009008E-1,1.6286814E0,6.049751E-1,1.5197936E0,5.3705674E-2,-8.282083E-3,-1.3287722E0,-9.2419785E-1,8.234771E-2,3.8676474E-2,9.663778E-2,-9.378556E-1,9.946664E-2,8.387884E-2,1.6077667E0,4.9239653E-1,1.6069535E0,1.4121107E0,1.5400622E0,-6.7283235E-2,-1.6014338E-2,-2.4819952E-2,-7.737615E-2,-5.6259543E-2,-1.9070776E-2,-6.250546E-2,1.9270038E-2,8.1302784E-2,7.9465225E-2,2.8397832E-2,-4.6637308E-2,7.7044696E-2,8.45388E-2,3.30826E-2,7.517131E-2,7.808202E-2,7.290637E-2],"categories":[],"categories_nodes":[],"categories_segments":[],"categories_sizes":[],"default_left":[0,0,0,0,0,0,0,0,0,0,0,0,0,0,0,0,0,0,0,0,0,0,0,0,0,0,0,0,0,0,0,0,0,0,0,0,0,0,0,0,0,0,0,0,0,0,0],"id":9,"left_children":[1,3,5,7,9,11,13,15,17,19,21,23,25,27,-1,-1,29,31,-1,-1,-1,33,35,-1,37,39,41,43,45,-1,-1,-1,-1,-1,-1,-1,-1,-1,-1,-1,-1,-1,-1,-1,-1,-1,-1],"loss_changes":[2.8556653E2,1.4088844E1,1.4706268E1,4.7816772E0,1.1903965E1,3.733101E0,3.9744568E-1,1.8415756E0,5.820898E0,1.0462303E0,1.0104311E1,4.088402E-3,3.6350641E0,1.4453125E-1,0E0,0E0,1.2294388E0,8.9698124E-1,0E0,0E0,0E0,4.285145E0,4.6964216E0,0E0,9.407997E-4,3.119646E0,1.8016815E-2,7.189636E-1,9.8526E-2,0E0,0E0,0E0,0E0,0E0,0E0,0E0,0E0,0E0,0E0,0E0,0E0,0E0,0E0,0E0,0E0,0E0,0E0],"parents":[2147483647,0,0,1,1,2,2,3,3,4,4,5,5,6,6,7,7,8,8,9,9,10,10,11,11,12,12,13,13,16,16,17,17,21,21,22,22,24,24,25,25,26,26,27,27,28,28],"right_children":[2,4,6,8,10,12,14,16,18,20,22,24,26,28,-1,-1,30,32,-1,-1,-1,34,36,-1,38,40,42,44,46,-1,-1,-1,-1,-1,-1,-1,-1,-1,-1,-1,-1,-1,-1,-1,-1,-1,-1],"split_conditions":[8.702E-1,8.416E-1,8.922E-1,7.583E-1,9.84774E2,1.018708E3,9.339E-1,6.516E-1,8.327E-1,7.286E-1,1.190491E3,8.775E-1,1.26603E3,5.67E-1,5.3705674E-2,-8.282083E-3,1.246342E3,1.104499E3,8.234771E-2,3.8676474E-2,9.663778E-2,7.316E-1,6.422E-1,8.387884E-2,8.832E-1,1.234857E3,7.231E-1,9.024E-1,7.522E-1,-6.7283235E-2,-1.6014338E-2,-2.4819952E-2,-7.737615E-2,-5.6259543E-2,-1.9070776E-2,-6.250546E-2,1.9270038E-2,8.1302784E-2,7.9465225E-2,2.8397832E-2,-4.6637308E-2,7.7044696E-2,8.45388E-2,3.30826E-2,7.517131E-2,7.808202E-2,7.290637E-2],"split_indices":[6,6,6,8,1,1,6,8,6,8,1,6,1,8,0,0,1,1,0,0,0,8,8,0,6,1,8,6,8,0,0,0,0,0,0,0,0,0,0,0,0,0,0,0,0,0,0],"split_type":[0,0,0,0,0,0,0,0,0,0,0,0,0,0,0,0,0,0,0,0,0,0,0,0,0,0,0,0,0,0,0,0,0,0,0,0,0,0,0,0,0,0,0,0,0,0,0],"sum_hessian":[2.3905284E2,1.3452846E2,1.0452439E2,7.811276E1,5.6415695E1,3.6230293E1,6.82941E1,7.3556244E1,4.5565166E0,3.1371963E0,5.32785E1,4.0049086E0,3.2225384E1,6.6230896E1,2.0631988E0,1.3874047E0,7.216884E1,3.363802E0,1.1927147E0,1.7027693E0,1.434427E0,4.1108128E1,1.2170369E1,1.199807E0,2.8051016E0,2.8970383E1,3.2550025E0,1.0491537E1,5.573936E1,7.0979904E1,1.1889367E0,1.9947644E0,1.3690375E0,3.075419E1,1.0353939E1,2.127729E0,1.004264E1,1.4090778E0,1.3960239E0,2.751173E1,1.4586523E0,1.8204013E0,1.4346012E0,1.13812E0,9.353416E0,4.412005E1,1.161931E1],"tree_param":{"num_deleted":"0","num_feature":"12","num_nodes":"47","size_leaf_vector":"1"}},{"base_weights":[1.9535404E-2,-4.8265067E-1,1.1586226E0,-2.0203906E-1,-9.759979E-1,4.194725E-1,1.3350902E0,-6.3869226E-1,1.1824319E0,-1.2033548E0,-4.249249E-1,1.0564673E0,-8.278117E-1,1.4817091E0,1.0469003E0,1.724769E-1,-9.602253E-1,1.5035837E0,7.822891E-1,-9.2817545E-1,-1.3638538E0,8.296997E-2,-1.5462434E0,3.7132108E-1,1.6313828E0,-1.3822793E0,3.4476787E-2,1.5261172E0,1.3285958E0,-2.6308611E-2,1.2520578E0,-3.9585147E-2,5.224645E-2,-6.390709E-2,-2.8740615E-2,8.298518E-2,7.10168E-2,1.3874771E-2,7.970421E-2,-6.882854E-2,-1.099389E-2,-5.519058E-2,-7.181284E-2,-3.393458E-2,6.872195E-2,-7.6019675E-2,-7.9650216E-2,7.492494E-2,-2.5192385E-3,7.484297E-2,9.137335E-2,-8.341579E-2,-4.3718554E-2,7.847965E-2,7.5659245E-2,3.5185147E-2,7.577003E-2,5.1669266E-2,7.597095E-2],"categories":[],"categories_nodes":[],"categories_segments":[],"categories_sizes":[],"default_left":[0,0,0,0,0,0,0,0,0,0,0,0,0,0,0,0,0,0,0,0,0,0,0,0,0,0,0,0,0,0,0,0,0,0,0,0,0,0,0,0,0,0,0,0,0,0,0,0,0,0,0,0,0,0,0,0,0,0,0],"id":10,"left_children":[1,3,5,7,9,11,13,15,17,19,21,23,25,27,29,31,33,35,37,39,41,43,45,47,49,51,-1,53,55,-1,57,-1,-1,-1,-1,-1,-1,-1,-1,-1,-1,-1,-1,-1,-1,-1,-1,-1,-1,-1,-1,-1,-1,-1,-1,-1,-1,-1,-1],"loss_changes":[1.3082487E2,2.197369E1,9.127457E0,6.11646E1,7.210243E0,1.0715305E1,2.386917E0,2.0061384E1,3.1174622E0,1.7993202E0,9.572471E0,3.5164986E0,3.8357942E0,2.5457764E-1,6.147505E0,1.8366798E1,6.749302E0,1.7490196E-1,4.426236E0,4.7665596E0,4.8447037E-1,1.1379371E1,6.3266754E-3,1.9361463E0,1.2803459E-1,4.8509932E-1,0E0,1.6311646E-2,9.8263264E-1,0E0,9.851799E-1,0E0,0E0,0E0,0E0,0E0,0E0,0E0,0E0,0E0,0E0,0E0,0E0,0E0,0E0,0E0,0E0,0E0,0E0,0E0,0E0,0E0,0E0,0E0,0E0,0E0,0E0,0E0,0E0],"parents":[2147483647,0,0,1,1,2,2,3,3,4,4,5,5,6,6,7,7,8,8,9,9,10,10,11,11,12,12,13,13,14,14,15,15,16,16,17,17,18,18,19,19,20,20,21,21,22,22,23,23,24,24,25,25,27,27,28,28,30,30],"right_children":[2,4,6,8,10,12,14,16,18,20,22,24,26,28,30,32,34,36,38,40,42,44,46,48,50,52,-1,54,56,-1,58,-1,-1,-1,-1,-1,-1,-1,-1,-1,-1,-1,-1,-1,-1,-1,-1,-1,-1,-1,-1,-1,-1,-1,-1,-1,-1,-1,-1],"split_conditions":[4.810053E2,7.9303E4,4.923956E2,4.386483E2,4.654065E2,9.1511E4,9.9065E4,6.5578E4,7.5124E4,8.3039E4,9.5567E4,9.892E-1,9.909E-1,9.493E4,5.055947E2,3.833479E2,4.103945E2,4.480012E2,4.636641E2,4.432489E2,4.299383E2,9.909E-1,4.770608E2,8.1878E4,8.2246E4,1.00495E5,3.4476787E-2,5.014912E2,5.142944E2,-2.6308611E-2,9.913E-1,-3.9585147E-2,5.224645E-2,-6.390709E-2,-2.8740615E-2,8.298518E-2,7.10168E-2,1.3874771E-2,7.970421E-2,-6.882854E-2,-1.099389E-2,-5.519058E-2,-7.181284E-2,-3.393458E-2,6.872195E-2,-7.6019675E-2,-7.9650216E-2,7.492494E-2,-2.5192385E-3,7.484297E-2,9.137335E-2,-8.341579E-2,-4.3718554E-2,7.847965E-2,7.5659245E-2,3.5185147E-2,7.577003E-2,5.1669266E-2,7.597095E-2],"split_indices":[2,4,2,2,2,4,4,4,4,4,4,7,7,4,2,2,2,2,2,2,2,7,2,4,4,4,0,2,2,0,7,0,0,0,0,0,0,0,0,0,0,0,0,0,0,0,0,0,0,0,0,0,0,0,0,0,0,0,0],"split_type":[0,0,0,0,0,0,0,0,0,0,0,0,0,0,0,0,0,0,0,0,0,0,0,0,0,0,0,0,0,0,0,0,0,0,0,0,0,0,0,0,0,0,0,0,0,0,0,0,0,0,0,0,0,0,0,0,0,0,0],"sum_hessian":[2.287013E2,1.5872478E2,6.9976524E1,1.0117648E2,5.754829E1,1.3486619E1,5.6489906E1,7.6917274E1,2.4259209E1,4.0740097E1,1.6808195E1,8.927365E0,4.559253E0,3.7441322E1,1.9048584E1,2.1834023E1,5.5083252E1,1.3457951E1,1.0801257E1,1.50082E1,2.5731897E1,1.1568368E1,5.239826E0,4.0731993E0,4.8541656E0,3.339088E0,1.2201655E0,2.902352E1,8.417804E0,2.1976676E0,1.6850916E1,1.0371778E1,1.1462244E1,3.0184717E1,2.4898535E1,4.6804175E0,8.777534E0,6.659946E0,4.141311E0,9.1902275E0,5.8179717E0,5.6041336E0,2.0127764E1,7.276785E0,4.291583E0,3.3744562E0,1.86537E0,1.1089867E0,2.9642127E0,2.8790255E0,1.9751403E0,2.1361032E0,1.2029846E0,6.653962E0,2.2369558E1,1.9372838E0,6.4805202E0,9.26949E0,7.581426E0],"tree_param":{"num_deleted":"0","num_feature":"12","num_nodes":"59","size_leaf_vector":"1"}},{"base_weights":[1.3977964E-2,1.2621169E0,-8.74813E-1,1.4150765E0,8.958012E-1,-5.46371E-1,-1.276782E0,1.4286084E0,1.0851847E0,5.028161E-1,1.3919798E0,-6.764886E-1,8.312412E-1,-3.598563E-2,-1.2879012E0,1.439593E0,1.1605074E0,3.0213503E-2,7.217817E-2,8.387146E-1,-3.923012E-1,1.2295027E0,1.689989E0,8.85116E-1,-7.546443E-1,1.4761103E0,-1.9389911E-1,-1.366897E0,-1.1960783E0,7.280381E-2,6.649106E-2,3.9443363E-2,7.4515514E-2,2.9582947E-2,9.189524E-2,4.1130442E-2,-7.316979E-2,7.091123E-2,2.618756E-2,8.9464456E-2,8.034616E-2,-1.2683523E-3,9.691605E-2,-1.7686782E-2,-4.1626416E-2,8.956455E-2,3.7964728E-2,6.6269754E-4,-1.983097E-2,-6.334388E-2,-7.14876E-2,1.4871984E-2,-6.491404E-2],"categories":[],"categories_nodes":[],"categories_segments":[],"categories_sizes":[],"default_left":[0,0,0,0,0,0,0,0,0,0,0,0,0,0,0,0,0,0,0,0,0,0,0,0,0,0,0,0,0,0,0,0,0,0,0,0,0,0,0,0,0,0,0,0,0,0,0,0,0,0,0,0,0],"id":11,"left_children":[1,3,5,7,9,11,13,15,17,19,21,23,25,-1,27,29,31,-1,-1,33,35,37,39,41,43,45,47,49,51,-1,-1,-1,-1,-1,-1,-1,-1,-1,-1,-1,-1,-1,-1,-1,-1,-1,-1,-1,-1,-1,-1,-1,-1],"loss_changes":[2.4935175E2,5.238327E0,1.7333E1,2.9438782E-1,5.36973E0,1.2951227E1,3.6566925E-1,1.8656921E-1,4.4787407E-1,4.6204367E0,5.893192E-1,8.057173E0,4.122071E0,0E0,4.1983795E-1,1.1010742E-1,3.0561733E-1,0E0,0E0,2.7583776E0,5.4564657E0,1.0491047E0,3.5414696E-2,3.0172853E0,1.9630737E0,8.64748E-1,1.0111208E-1,1.9559479E-1,4.0857506E0,0E0,0E0,0E0,0E0,0E0,0E0,0E0,0E0,0E0,0E0,0E0,0E0,0E0,0E0,0E0,0E0,0E0,0E0,0E0,0E0,0E0,0E0,0E0,0E0],"parents":[2147483647,0,0,1,1,2,2,3,3,4,4,5,5,6,6,7,7,8,8,9,9,10,10,11,11,12,12,14,14,15,15,16,16,19,19,20,20,21,21,22,22,23,23,24,24,25,25,26,26,27,27,28,28],"right_children":[2,4,6,8,10,12,14,16,18,20,22,24,26,-1,28,30,32,-1,-1,34,36,38,40,42,44,46,48,50,52,-1,-1,-1,-1,-1,-1,-1,-1,-1,-1,-1,-1,-1,-1,-1,-1,-1,-1,-1,-1,-1,-1,-1,-1],"split_conditions":[6.961E-1,6.732E-1,7.419E-1,1.416303E3,2.229151E2,1.234857E3,2.066197E2,6.703E-1,2.393965E2,2.182894E2,6.858E-1,2.031248E2,7.208E-1,-3.598563E-2,1.066116E3,1.318047E3,2.240424E2,3.0213503E-2,7.217817E-2,2.146288E2,6.826E-1,6.833E-1,2.35699E2,1.994182E2,7.048E-1,1.284605E3,1.254765E3,1.000908E3,2.365496E2,7.280381E-2,6.649106E-2,3.9443363E-2,7.4515514E-2,2.9582947E-2,9.189524E-2,4.1130442E-2,-7.316979E-2,7.091123E-2,2.618756E-2,8.9464456E-2,8.034616E-2,-1.2683523E-3,9.691605E-2,-1.7686782E-2,-4.1626416E-2,8.956455E-2,3.7964728E-2,6.6269754E-4,-1.983097E-2,-6.334388E-2,-7.14876E-2,1.4871984E-2,-6.491404E-2],"split_indices":[11,11,11,1,3,1,3,11,3,3,11,3,11,0,1,1,3,0,0,3,11,11,3,3,11,1,1,1,3,0,0,0,0,0,0,0,0,0,0,0,0,0,0,0,0,0,0,0,0,0,0,0,0],"split_type":[0,0,0,0,0,0,0,0,0,0,0,0,0,0,0,0,0,0,0,0,0,0,0,0,0,0,0,0,0,0,0,0,0,0,0,0,0,0,0,0,0,0,0,0,0,0,0,0,0,0,0,0,0],"sum_hessian":[2.2477596E2,9.348872E1,1.3128723E2,6.595034E1,2.753838E1,7.2251656E1,5.9035583E1,6.335169E1,2.598652E0,1.5367202E1,1.2171179E1,6.601631E1,6.235341E0,1.1552943E0,5.7880287E1,6.085821E1,2.49348E0,1.1096282E0,1.4890238E0,1.1174064E1,4.1931386E0,7.8767276E0,4.2944508E0,3.146525E0,6.286979E1,3.8275828E0,2.407758E0,3.1113285E1,2.6767004E1,5.2912853E1,7.9453573E0,1.1723824E0,1.3210976E0,8.9589205E0,2.2151432E0,1.9646711E0,2.2284675E0,6.2148414E0,1.6618863E0,1.9560611E0,2.3383899E0,1.6876085E0,1.4589164E0,1.0226877E1,5.264291E1,2.658604E0,1.1689789E0,1.1908579E0,1.2169002E0,1.2006963E1,1.9106321E1,1.7143699E0,2.5052635E1],"tree_param":{"num_deleted":"0","num_feature":"12","num_nodes":"53","size_leaf_vector":"1"}},{"base_weights":[8.108312E-2,-7.997179E-1,1.1398711E0,-1.0375972E0,-2.6587203E-1,3.3225185E-1,1.3099385E0,-1.0744375E0,3.781663E-2,1.7252929E0,-4.3133625E-1,8.223634E-2,1.7894946E-1,1.0105497E0,1.3989885E0,-1.2173626E0,-8.533705E-1,9.0141565E-2,8.3420955E-2,-6.7339724E-1,8.8442665E-1,6.351477E-1,-1.0769999E-1,8.2674E-1,1.3880786E0,1.4865894E0,1.3825157E0,-5.7454288E-2,-6.860127E-2,-4.7058307E-2,-1.2705204E-4,1.1876418E-2,-4.056415E-2,1.46740405E-2,6.74544E-2,1.5375464E-2,8.496462E-2,-6.1995536E-2,4.7659324E-3,5.247421E-2,-4.5892324E-2,6.0611844E-2,7.615515E-2,7.55191E-2,7.2799474E-2,4.20432E-2,6.991113E-2],"categories":[],"categories_nodes":[],"categories_segments":[],"categories_sizes":[],"default_left":[0,0,0,0,0,0,0,0,0,0,0,0,0,0,0,0,0,0,0,0,0,0,0,0,0,0,0,0,0,0,0,0,0,0,0,0,0,0,0,0,0,0,0,0,0,0,0],"id":12,"left_children":[1,3,5,7,9,11,13,15,-1,17,19,-1,21,23,25,27,29,-1,-1,31,33,35,37,39,41,43,45,-1,-1,-1,-1,-1,-1,-1,-1,-1,-1,-1,-1,-1,-1,-1,-1,-1,-1,-1,-1],"loss_changes":[2.0963731E2,1.5583084E1,1.4020935E1,5.610016E0,1.2461959E1,3.5728197E0,2.2481537E0,2.6280746E0,0E0,1.279068E-2,1.1122673E1,0E0,2.0792143E0,1.3414822E0,9.378052E-2,5.334549E-1,2.4397087E0,0E0,0E0,3.704832E0,1.4900365E0,2.1391482E0,2.244459E0,5.052332E0,1.5028954E-1,7.4825287E-3,4.654312E-1,0E0,0E0,0E0,0E0,0E0,0E0,0E0,0E0,0E0,0E0,0E0,0E0,0E0,0E0,0E0,0E0,0E0,0E0,0E0,0E0],"parents":[2147483647,0,0,1,1,2,2,3,3,4,4,5,5,6,6,7,7,9,9,10,10,12,12,13,13,14,14,15,15,16,16,19,19,20,20,21,21,22,22,23,23,24,24,25,25,26,26],"right_children":[2,4,6,8,10,12,14,16,-1,18,20,-1,22,24,26,28,30,-1,-1,32,34,36,38,40,42,44,46,-1,-1,-1,-1,-1,-1,-1,-1,-1,-1,-1,-1,-1,-1,-1,-1,-1,-1,-1,-1],"split_conditions":[2.0366E0,8.51E-1,8.818E-1,1.27151E3,9.7741E2,1.02285E3,2.2038E0,8.315E-1,3.781663E-2,8.62E-1,1.220331E3,8.223634E-2,8.757E-1,1.194154E3,2.2584E0,1.124762E3,1.215347E3,9.0141565E-2,8.3420955E-2,8.542E-1,1.253276E3,8.742E-1,8.764E-1,1.178698E3,1.244635E3,1.190491E3,8.974E-1,-5.7454288E-2,-6.860127E-2,-4.7058307E-2,-1.2705204E-4,1.1876418E-2,-4.056415E-2,1.46740405E-2,6.74544E-2,1.5375464E-2,8.496462E-2,-6.1995536E-2,4.7659324E-3,5.247421E-2,-4.5892324E-2,6.0611844E-2,7.615515E-2,7.55191E-2,7.2799474E-2,4.20432E-2,6.991113E-2],"split_indices":[10,6,6,1,1,1,10,6,0,6,1,0,6,1,10,1,1,0,0,6,1,6,6,1,1,1,6,0,0,0,0,0,0,0,0,0,0,0,0,0,0,0,0,0,0,0,0],"split_type":[0,0,0,0,0,0,0,0,0,0,0,0,0,0,0,0,0,0,0,0,0,0,0,0,0,0,0,0,0,0,0,0,0,0,0,0,0,0,0,0,0,0,0,0,0,0,0],"sum_hessian":[2.2479245E2,1.22710304E2,1.0208215E2,8.488565E1,3.7824654E1,1.775707E1,8.432508E1,8.3177505E1,1.7081442E0,2.9020402E0,3.4922615E1,1.8571702E0,1.58999E1,1.9331589E1,6.499349E1,5.051703E1,3.2660477E1,1.2279164E0,1.6741238E0,2.9496199E1,5.4264154E0,6.135441E0,9.76446E0,1.3001486E1,6.330104E0,1.0287146E1,5.4706345E1,3.504583E1,1.5471196E1,2.9605534E1,3.0549445E0,3.8778236E0,2.5618374E1,2.3886228E0,3.0377927E0,4.6911044E0,1.4443368E0,1.4846636E0,8.279796E0,1.1529439E1,1.4720466E0,2.7494848E0,3.5806189E0,5.7872605E0,4.499885E0,1.5416815E0,5.3164665E1],"tree_param":{"num_deleted":"0","num_feature":"12","num_nodes":"47","size_leaf_vector":"1"}},{"base_weights":[3.160224E-2,-7.8580105E-1,1.088147E0,-1.1675515E0,-4.2448562E-1,6.113629E-1,1.3625308E0,3.6274008E-3,-1.2044369E0,1.475447E0,-5.2467406E-1,3.431766E-1,1.5499183E0,1.3760182E0,1.0821092E0,-1.2205849E0,-8.3060527E-1,8.567735E-2,5.245467E-2,-6.9587684E-1,2.826038E-1,1.1566031E0,1.623097E-1,8.269567E-2,1.5186032E0,1.2735784E0,1.3943399E0,2.3804596E-2,7.101504E-2,-5.631088E-2,-6.486118E-2,-4.701274E-3,-7.002803E-2,-4.2953048E-2,-1.9253371E-2,-1.609984E-2,5.2441735E-2,7.749621E-2,3.960527E-2,-2.9212595E-3,3.461672E-2,7.6999985E-2,7.168274E-2,2.0921072E-2,6.900169E-2,7.081221E-2,6.571762E-2],"categories":[],"categories_nodes":[],"categories_segments":[],"categories_sizes":[],"default_left":[0,0,0,0,0,0,0,0,0,0,0,0,0,0,0,0,0,0,0,0,0,0,0,0,0,0,0,0,0,0,0,0,0,0,0,0,0,0,0,0,0,0,0,0,0,0,0],"id":13,"left_children":[1,3,5,7,9,11,13,-1,15,17,19,21,23,25,27,29,31,-1,-1,33,35,37,39,-1,41,43,45,-1,-1,-1,-1,-1,-1,-1,-1,-1,-1,-1,-1,-1,-1,-1,-1,-1,-1,-1,-1],"loss_changes":[1.9818488E2,1.7846085E1,1.3095001E1,2.8777084E0,1.2652742E1,9.203285E0,2.4028015E-1,0E0,3.687973E-1,3.3799696E-1,8.726589E0,4.1837864E0,2.645874E-2,1.1377716E-1,5.9754324E-1,4.2355347E-1,1.0620413E0,0E0,0E0,2.642128E0,5.117969E0,7.416115E-1,2.7218442E0,0E0,1.1345863E-2,8.372612E-1,9.009552E-2,0E0,0E0,0E0,0E0,0E0,0E0,0E0,0E0,0E0,0E0,0E0,0E0,0E0,0E0,0E0,0E0,0E0,0E0,0E0,0E0],"parents":[2147483647,0,0,1,1,2,2,3,3,4,4,5,5,6,6,8,8,9,9,10,10,11,11,12,12,13,13,14,14,15,15,16,16,19,19,20,20,21,21,22,22,24,24,25,25,26,26],"right_children":[2,4,6,8,10,12,14,-1,16,18,20,22,24,26,28,30,32,-1,-1,34,36,38,40,-1,42,44,46,-1,-1,-1,-1,-1,-1,-1,-1,-1,-1,-1,-1,-1,-1,-1,-1,-1,-1,-1,-1],"split_conditions":[2.048E0,1.8306E0,2.2141E0,2.078892E2,2.025649E2,2.336575E2,2.796E0,3.6274008E-3,2.793001E2,2.000947E2,2.470308E2,2.020976E2,2.0814E0,5.67E-1,2.8478E0,2.365496E2,7.264E-1,8.567735E-2,5.245467E-2,1.9651E0,1.9276E0,6.856E-1,2.231415E2,8.269567E-2,2.457754E2,2.3356E0,7.505E-1,2.3804596E-2,7.101504E-2,-5.631088E-2,-6.486118E-2,-4.701274E-3,-7.002803E-2,-4.2953048E-2,-1.9253371E-2,-1.609984E-2,5.2441735E-2,7.749621E-2,3.960527E-2,-2.9212595E-3,3.461672E-2,7.6999985E-2,7.168274E-2,2.0921072E-2,6.900169E-2,7.081221E-2,6.571762E-2],"split_indices":[10,10,10,3,3,3,10,0,3,3,3,3,10,8,10,3,8,0,0,10,10,8,3,0,3,10,8,0,0,0,0,0,0,0,0,0,0,0,0,0,0,0,0,0,0,0,0],"split_type":[0,0,0,0,0,0,0,0,0,0,0,0,0,0,0,0,0,0,0,0,0,0,0,0,0,0,0,0,0,0,0,0,0,0,0,0,0,0,0,0,0,0,0,0,0,0,0],"sum_hessian":[2.2948074E2,1.2938281E2,1.0009792E2,6.2912327E1,6.647048E1,3.6563404E1,6.3534523E1,1.8172067E0,6.1095123E1,3.3295836E0,6.31409E1,2.8437555E1,8.12585E0,6.0618954E1,2.9155676E0,5.856535E1,2.5297701E0,2.136459E0,1.1931245E0,5.2093266E1,1.1047634E1,5.1729293E0,2.3264626E1,1.8805534E0,6.2452965E0,9.197067E0,5.1421886E1,1.0442842E0,1.8712834E0,2.624691E1,3.2318443E1,1.1035738E0,1.4261965E0,3.415885E1,1.7934414E1,6.1751122E0,4.872522E0,2.4880862E0,2.684843E0,1.6424467E1,6.8401585E0,4.988724E0,1.2565721E0,1.0181627E0,8.178905E0,4.036745E1,1.1054438E1],"tree_param":{"num_deleted":"0","num_feature":"12","num_nodes":"47","size_leaf_vector":"1"}},{"base_weights":[1.8625952E-2,1.0642892E0,-2.4717583E-1,1.2829845E0,5.43816E-1,-7.2909397E-1,3.0254593E-1,1.0111561E0,1.3667942E0,-1.0599011E0,1.1695426E0,1.5219691E-1,-8.454939E-1,1.2093816E0,-2.9021576E-1,1.4402399E0,-2.0834645E-2,1.3169549E0,1.4179888E0,-7.7660136E-2,-2.8830057E-2,6.0443544E-1,1.3865649E0,-4.5422424E-2,8.986656E-2,-1.0746002E0,-4.6215484E-1,9.6460557E-1,1.3311907E0,-9.739365E-1,5.2551883E-1,6.923643E-2,7.6230004E-2,6.946065E-2,2.8903639E-2,7.292431E-2,6.9453746E-2,5.6575514E-2,-1.401612E-3,7.232887E-2,6.864091E-2,5.9178025E-2,-1.8444242E-2,-3.3154767E-2,-5.8362275E-2,7.328247E-2,-4.6075925E-2,5.7504434E-2,-3.1305905E-2,5.1521625E-2,6.881797E-2,-5.1695686E-2,2.6400616E-2,5.081473E-2,-3.890534E-2],"categories":[],"categories_nodes":[],"categories_segments":[],"categories_sizes":[],"default_left":[0,0,0,0,0,0,0,0,0,0,0,0,0,0,0,0,0,0,0,0,0,0,0,0,0,0,0,0,0,0,0,0,0,0,0,0,0,0,0,0,0,0,0,0,0,0,0,0,0,0,0,0,0,0,0],"id":14,"left_children":[1,3,5,7,9,11,13,15,17,19,21,23,25,27,29,31,-1,33,35,-1,-1,37,39,41,-1,43,45,47,49,51,53,-1,-1,-1,-1,-1,-1,-1,-1,-1,-1,-1,-1,-1,-1,-1,-1,-1,-1,-1,-1,-1,-1,-1,-1],"loss_changes":[6.0607662E1,5.0305595E0,4.6060547E1,7.089615E-1,1.3121616E1,9.503857E0,4.3658295E1,4.4930887E0,6.0684204E-2,8.749652E-1,1.1535597E0,3.5141118E0,7.1873817E0,9.5721436E-1,2.7393002E1,2.6403427E-2,0E0,6.434822E-1,1.37348175E-2,0E0,0E0,8.70049E-1,5.6009293E-3,3.8360858E0,0E0,1.9528389E0,2.7110676E1,3.1475172E0,2.9121017E-1,2.4069576E0,1.4328255E1,0E0,0E0,0E0,0E0,0E0,0E0,0E0,0E0,0E0,0E0,0E0,0E0,0E0,0E0,0E0,0E0,0E0,0E0,0E0,0E0,0E0,0E0,0E0,0E0],"parents":[2147483647,0,0,1,1,2,2,3,3,4,4,5,5,6,6,7,7,8,8,9,9,10,10,11,11,12,12,13,13,14,14,15,15,17,17,18,18,21,21,22,22,23,23,25,25,26,26,27,27,28,28,29,29,30,30],"right_children":[2,4,6,8,10,12,14,16,18,20,22,24,26,28,30,32,-1,34,36,-1,-1,38,40,42,-1,44,46,48,50,52,54,-1,-1,-1,-1,-1,-1,-1,-1,-1,-1,-1,-1,-1,-1,-1,-1,-1,-1,-1,-1,-1,-1,-1,-1],"split_conditions":[2.072196E2,2.020976E2,3.267004E2,2.767636E2,2.897519E2,6.388E-1,2.378423E2,1.902431E2,6.93E-1,2.82708E2,3.025761E2,6.357E-1,3.107328E2,3.34347E2,3.504194E2,1.834582E2,-2.0834645E-2,6.704E-1,2.967959E2,-7.7660136E-2,-2.8830057E-2,2.95338E2,3.078449E2,5.899E-1,8.986656E-2,2.124101E2,2.191873E2,2.349406E2,2.167066E2,7.535E-1,2.662257E2,6.923643E-2,7.6230004E-2,6.946065E-2,2.8903639E-2,7.292431E-2,6.9453746E-2,5.6575514E-2,-1.401612E-3,7.232887E-2,6.864091E-2,5.9178025E-2,-1.8444242E-2,-3.3154767E-2,-5.8362275E-2,7.328247E-2,-4.6075925E-2,5.7504434E-2,-3.1305905E-2,5.1521625E-2,6.881797E-2,-5.1695686E-2,2.6400616E-2,5.081473E-2,-3.890534E-2],"split_indices":[3,3,5,5,5,8,3,3,8,5,5,8,5,5,5,3,0,8,5,0,0,5,5,8,0,3,3,3,3,8,3,0,0,0,0,0,0,0,0,0,0,0,0,0,0,0,0,0,0,0,0,0,0,0,0],"split_type":[0,0,0,0,0,0,0,0,0,0,0,0,0,0,0,0,0,0,0,0,0,0,0,0,0,0,0,0,0,0,0,0,0,0,0,0,0,0,0,0,0,0,0,0,0,0,0,0,0,0,0,0,0,0,0],"sum_hessian":[2.1806087E2,4.4195587E1,1.7386528E2,3.1119589E1,1.3075997E1,9.264622E1,8.121907E1,7.3336535E0,2.3785934E1,3.669973E0,9.406025E0,1.0808974E1,8.183724E1,3.210432E1,4.911475E1,5.639057E0,1.694596E0,1.2052533E1,1.1733402E1,1.8161912E0,1.8537816E0,2.6099515E0,6.7960734E0,9.649807E0,1.1591679E0,5.1223198E1,3.0614044E1,1.0667647E1,2.1436672E1,2.6719439E1,2.2395313E1,3.4010828E0,2.2379744E0,1.0978865E1,1.0736678E0,4.8876266E0,6.845776E0,1.4235872E0,1.1863642E0,1.2665689E0,5.529505E0,2.0106008E0,7.639206E0,9.413046E0,4.181015E1,5.8910723E0,2.4722973E1,9.553663E0,1.1139843E0,2.7990565E0,1.8637617E1,2.5693424E1,1.0260128E0,1.627011E1,6.1252046E0],"tree_param":{"num_deleted":"0","num_feature":"12","num_nodes":"55","size_leaf_vector":"1"}},{"base_weights":[-1.3779165E-2,1.1371871E0,-2.7726984E-1,8.1528157E-1,1.3566396E0,-8.026576E-1,1.5089971E-1,1.0631839E0,-5.0317015E-2,4.465663E-2,1.394828E0,-4.6865824E-1,-1.0350507E0,1.1594502E0,-3.1702477E-1,1.3034612E0,5.9192723E-1,1.570207E0,1.3618131E0,-8.293296E-1,9.1402817E-1,1.621363E-2,-1.0662242E0,5.903451E-1,1.3105377E0,-5.501832E-1,1.1825898E0,6.8971455E-2,5.198461E-2,-3.0684207E-2,7.463158E-2,6.967004E-2,9.285563E-2,6.7675345E-2,7.1948834E-2,-6.071598E-2,-2.6582498E-2,6.471731E-3,6.893953E-2,-5.9682395E-2,-3.7932824E-2,3.0356462E-3,7.015473E-2,1.0594572E-1,6.320991E-2,-3.629328E-2,4.6963718E-2,6.905245E-2,5.909418E-3],"categories":[],"categories_nodes":[],"categories_segments":[],"categories_sizes":[],"default_left":[0,0,0,0,0,0,0,0,0,0,0,0,0,0,0,0,0,0,0,0,0,0,0,0,0,0,0,0,0,0,0,0,0,0,0,0,0,0,0,0,0,0,0,0,0,0,0,0,0],"id":15,"left_children":[1,3,5,7,9,11,13,15,-1,-1,17,19,21,23,25,27,29,31,33,35,37,-1,39,41,43,45,47,-1,-1,-1,-1,-1,-1,-1,-1,-1,-1,-1,-1,-1,-1,-1,-1,-1,-1,-1,-1,-1,-1],"loss_changes":[6.684007E1,2.9003677E0,4.034388E1,7.515876E0,4.321289E-1,6.250576E0,4.663247E1,1.6588173E0,0E0,0E0,1.3059235E-1,1.647753E1,2.012272E0,2.6926842E0,2.3600288E1,1.9441605E-1,5.371998E0,1.8125439E-1,1.215744E-2,3.003254E0,2.4926267E0,0E0,1.8193665E0,2.827976E0,9.2697906E-1,1.5285547E1,1.9185486E0,0E0,0E0,0E0,0E0,0E0,0E0,0E0,0E0,0E0,0E0,0E0,0E0,0E0,0E0,0E0,0E0,0E0,0E0,0E0,0E0,0E0,0E0],"parents":[2147483647,0,0,1,1,2,2,3,3,4,4,5,5,6,6,7,7,10,10,11,11,12,12,13,13,14,14,15,15,16,16,17,17,18,18,19,19,20,20,22,22,23,23,24,24,25,25,26,26],"right_children":[2,4,6,8,10,12,14,16,-1,-1,18,20,22,24,26,28,30,32,34,36,38,-1,40,42,44,46,48,-1,-1,-1,-1,-1,-1,-1,-1,-1,-1,-1,-1,-1,-1,-1,-1,-1,-1,-1,-1,-1,-1],"split_conditions":[2.063053E2,6.6148E4,8.0207E4,2.031248E2,9.848E-1,2.182894E2,2.321742E2,1.952597E2,-5.0317015E-2,4.465663E-2,6.8996E4,7.5133E4,9.816E-1,9.883E-1,1.04321E5,1.902431E2,1.994182E2,1.984077E2,9.923E-1,6.7781E4,9.901E-1,1.621363E-2,9.914E-1,8.7798E4,8.1001E4,9.926E-1,2.732891E2,6.8971455E-2,5.198461E-2,-3.0684207E-2,7.463158E-2,6.967004E-2,9.285563E-2,6.7675345E-2,7.1948834E-2,-6.071598E-2,-2.6582498E-2,6.471731E-3,6.893953E-2,-5.9682395E-2,-3.7932824E-2,3.0356462E-3,7.015473E-2,1.0594572E-1,6.320991E-2,-3.629328E-2,4.6963718E-2,6.905245E-2,5.909418E-3],"split_indices":[3,0,0,3,7,3,3,3,0,0,0,0,7,7,0,3,3,3,7,0,7,0,7,0,0,7,3,0,0,0,0,0,0,0,0,0,0,0,0,0,0,0,0,0,0,0,0,0,0],"split_type":[0,0,0,0,0,0,0,0,0,0,0,0,0,0,0,0,0,0,0,0,0,0,0,0,0,0,0,0,0,0,0,0,0,0,0,0,0,0,0,0,0,0,0,0,0,0,0,0,0],"sum_hessian":[2.2039871E2,4.105675E1,1.7934195E2,1.664335E1,2.4413399E1,8.052874E1,9.881322E1,1.46496935E1,1.9936578E0,1.8583157E0,2.2555082E1,3.304127E1,4.748747E1,3.1315887E1,6.749733E1,9.702647E0,4.9470463E0,3.5732837E0,1.89818E1,2.6205587E1,6.8356814E0,1.0646164E0,4.642285E1,6.569688E0,2.4746199E1,5.8415028E1,9.082302E0,7.533051E0,2.1695957E0,2.1154594E0,2.8315866E0,2.210852E0,1.3624318E0,1.7137114E1,1.8446866E0,1.1427002E1,1.4778585E1,2.5428858E0,4.2927957E0,3.282402E1,1.359883E1,3.977641E0,2.5920467E0,1.3416365E0,2.3404564E1,5.225189E1,6.163141E0,7.655012E0,1.4272898E0],"tree_param":{"num_deleted":"0","num_feature":"12","num_nodes":"49","size_leaf_vector":"1"}},{"base_weights":[4.218653E-2,9.57315E-1,-6.047561E-1,1.1941848E0,6.084304E-1,-2.3384695E-1,-1.0748963E0,4.5570154E-3,1.2348465E0,4.306836E-1,1.1208603E0,1.292336E0,-3.543107E-1,2.2932546E-2,-1.1169474E0,1.3227895E0,1.1423653E0,1.1213247E0,2.1041942E-1,1.5466772E0,9.3913555E-1,1.9086574E0,6.018631E-1,-5.4683167E-1,5.577628E-1,-7.897272E-1,-1.238903E0,5.9687305E-2,6.84931E-2,5.06241E-2,6.867414E-2,4.528484E-2,8.9627095E-2,1.8871514E-2,-5.3685706E-2,6.915634E-2,8.938377E-2,3.953513E-3,6.408169E-2,7.473171E-2,1.097466E-1,6.722891E-3,5.7403754E-2,-7.804118E-2,-2.5537997E-2,6.4455657E-3,8.04063E-2,-6.962617E-2,-2.247433E-2,-5.576258E-3,-6.409862E-2],"categories":[],"categories_nodes":[],"categories_segments":[],"categories_sizes":[],"default_left":[0,0,0,0,0,0,0,0,0,0,0,0,0,0,0,0,0,0,0,0,0,0,0,0,0,0,0,0,0,0,0,0,0,0,0,0,0,0,0,0,0,0,0,0,0,0,0,0,0,0,0],"id":16,"left_children":[1,3,5,7,9,11,13,-1,15,17,19,21,23,-1,25,27,29,31,33,35,37,39,41,43,45,47,49,-1,-1,-1,-1,-1,-1,-1,-1,-1,-1,-1,-1,-1,-1,-1,-1,-1,-1,-1,-1,-1,-1,-1,-1],"loss_changes":[1.2293372E2,7.106888E0,2.1212864E1,2.2973785E0,3.167512E0,1.2501823E1,3.4595947E0,0E0,4.0177155E-1,3.9278293E0,6.930399E-1,2.116994E0,1.1066859E1,0E0,2.0837402E0,1.538086E-1,7.2280884E-1,9.0363455E-1,4.1984663E0,1.0558462E-1,1.8491001E0,3.1153297E-1,5.9899163E-1,1.9034605E0,4.9480944E0,2.9076614E0,1.8469887E0,0E0,0E0,0E0,0E0,0E0,0E0,0E0,0E0,0E0,0E0,0E0,0E0,0E0,0E0,0E0,0E0,0E0,0E0,0E0,0E0,0E0,0E0,0E0,0E0],"parents":[2147483647,0,0,1,1,2,2,3,3,4,4,5,5,6,6,8,8,9,9,10,10,11,11,12,12,14,14,15,15,16,16,17,17,18,18,19,19,20,20,21,21,22,22,23,23,24,24,25,25,26,26],"right_children":[2,4,6,8,10,12,14,-1,16,18,20,22,24,-1,26,28,30,32,34,36,38,40,42,44,46,48,50,-1,-1,-1,-1,-1,-1,-1,-1,-1,-1,-1,-1,-1,-1,-1,-1,-1,-1,-1,-1,-1,-1,-1,-1],"split_conditions":[7.863E-1,7.561E-1,8.319E-1,6.555E-1,8.9388E4,6.2253E4,6.574E-1,4.5570154E-3,6.881E-1,6.932E4,9.3398E4,7.202E-1,9.4386E4,2.2932546E-2,8.431E-1,7.087E-1,7.53E-1,6.8256E4,7.507E-1,7.796E-1,9.6171E4,5.7894E4,8.155E-1,6.208E-1,7.321E-1,8.357E-1,6.7E-1,5.9687305E-2,6.84931E-2,5.06241E-2,6.867414E-2,4.528484E-2,8.9627095E-2,1.8871514E-2,-5.3685706E-2,6.915634E-2,8.938377E-2,3.953513E-3,6.408169E-2,7.473171E-2,1.097466E-1,6.722891E-3,5.7403754E-2,-7.804118E-2,-2.5537997E-2,6.4455657E-3,8.04063E-2,-6.962617E-2,-2.247433E-2,-5.576258E-3,-6.409862E-2],"split_indices":[9,9,9,9,0,0,8,0,8,0,0,8,0,0,9,9,8,0,8,9,0,0,9,8,8,9,8,0,0,0,0,0,0,0,0,0,0,0,0,0,0,0,0,0,0,0,0,0,0,0,0],"split_type":[0,0,0,0,0,0,0,0,0,0,0,0,0,0,0,0,0,0,0,0,0,0,0,0,0,0,0,0,0,0,0,0,0,0,0,0,0,0,0,0,0,0,0,0,0,0,0,0,0,0,0],"sum_hessian":[2.076458E2,8.5997955E1,1.2164785E2,5.1221745E1,3.477621E1,6.800023E1,5.3647617E1,1.8210645E0,4.9400677E1,2.5820015E1,8.956194E0,4.9746923E0,6.3025536E1,1.4317989E0,5.221582E1,2.532161E1,2.407907E1,6.2434845E0,1.957653E1,2.6789262E0,6.277268E0,2.6284835E0,2.3462086E0,5.204075E1,1.0984787E1,1.4177104E1,3.8038715E1,6.7680054E0,1.8553604E1,1.5415743E1,8.663326E0,4.725445E0,1.5180396E0,1.7323486E1,2.253043E0,1.5959009E0,1.0830255E0,1.7878102E0,4.4894576E0,1.0745021E0,1.5539815E0,1.2643125E0,1.0818961E0,1.7876962E0,5.025305E1,7.800097E0,3.1846895E0,5.1149907E0,9.062113E0,1.3997264E0,3.663899E1],"tree_param":{"num_deleted":"0","num_feature":"12","num_nodes":"51","size_leaf_vector":"1"}},{"base_weights":[-7.432029E-2,-8.6389834E-1,1.0077982E0,-4.634317E-1,-1.2112354E0,5.492666E-1,1.2673188E0,-5.482356E-1,7.5923455E-1,-3.2330863E-2,-1.2212585E0,2.9032826E-1,9.207495E-1,3.4884136E-2,1.2834685E0,8.223393E-2,-5.976567E-1,4.839322E-1,7.1273826E-2,-1.2614449E0,-1.086096E0,1.2205411E0,-4.91187E-2,3.2014418E-1,1.2405472E0,1.3226737E0,1.2173823E0,-2.5290674E-2,-6.633082E-2,5.223624E-2,-1.0507308E-2,-6.3518435E-2,-5.094828E-2,-1.1867279E-2,-6.406856E-2,4.4788197E-2,7.089216E-2,-1.1353597E-2,6.919827E-2,7.945512E-2,-6.2590106E-3,5.277104E-2,7.4266605E-2,6.753456E-2,6.5548696E-2,2.7186224E-2,6.317854E-2],"categories":[],"categories_nodes":[],"categories_segments":[],"categories_sizes":[],"default_left":[0,0,0,0,0,0,0,0,0,0,0,0,0,0,0,0,0,0,0,0,0,0,0,0,0,0,0,0,0,0,0,0,0,0,0,0,0,0,0,0,0,0,0,0,0,0,0],"id":17,"left_children":[1,3,5,7,9,11,13,15,17,-1,19,21,23,-1,25,-1,27,29,-1,31,33,35,37,39,41,43,45,-1,-1,-1,-1,-1,-1,-1,-1,-1,-1,-1,-1,-1,-1,-1,-1,-1,-1,-1,-1],"loss_changes":[1.7550183E2,1.6518417E1,1.0311287E1,5.719244E0,3.5990143E-1,3.0124664E0,5.090256E-1,5.590167E0,6.562042E-1,0E0,3.3940887E-1,5.8270626E0,2.470683E0,0E0,1.3941193E-1,0E0,3.377243E0,9.8537576E-1,0E0,1.0421753E-1,2.3735104E0,3.161497E-1,3.4480042E0,2.5256567E0,3.803749E-1,1.1062622E-2,6.2339973E-1,0E0,0E0,0E0,0E0,0E0,0E0,0E0,0E0,0E0,0E0,0E0,0E0,0E0,0E0,0E0,0E0,0E0,0E0,0E0,0E0],"parents":[2147483647,0,0,1,1,2,2,3,3,4,4,5,5,6,6,7,7,8,8,10,10,11,11,12,12,14,14,16,16,17,17,19,19,20,20,21,21,22,22,23,23,24,24,25,25,26,26],"right_children":[2,4,6,8,10,12,14,16,18,-1,20,22,24,-1,26,-1,28,30,-1,32,34,36,38,40,42,44,46,-1,-1,-1,-1,-1,-1,-1,-1,-1,-1,-1,-1,-1,-1,-1,-1,-1,-1,-1,-1],"split_conditions":[2.0366E0,7.335E-1,2.2141E0,3.588246E2,2.68291E2,3.259083E2,5.894E-1,2.725614E2,3.712762E2,-3.2330863E-2,1.8003E0,2.897519E2,2.1151E0,3.4884136E-2,3.379378E2,8.223393E-2,2.0067E0,1.9912E0,7.1273826E-2,3.639211E2,1.8086E0,6.826E-1,6.968E-1,3.307595E2,6.788E-1,2.3206E0,3.404902E2,-2.5290674E-2,-6.633082E-2,5.223624E-2,-1.0507308E-2,-6.3518435E-2,-5.094828E-2,-1.1867279E-2,-6.406856E-2,4.4788197E-2,7.089216E-2,-1.1353597E-2,6.919827E-2,7.945512E-2,-6.2590106E-3,5.277104E-2,7.4266605E-2,6.753456E-2,6.5548696E-2,2.7186224E-2,6.317854E-2],"split_indices":[10,11,10,5,5,5,11,5,5,0,10,5,10,0,5,0,10,10,0,5,10,11,11,5,11,10,5,0,0,0,0,0,0,0,0,0,0,0,0,0,0,0,0,0,0,0,0],"split_type":[0,0,0,0,0,0,0,0,0,0,0,0,0,0,0,0,0,0,0,0,0,0,0,0,0,0,0,0,0,0,0,0,0,0,0,0,0,0,0,0,0,0,0,0,0,0,0],"sum_hessian":[2.0540535E2,1.1875479E2,8.6650566E1,5.5158783E1,6.359601E1,3.131751E1,5.5333054E1,5.1581127E1,3.577657E0,1.1092635E0,6.2486744E1,1.8454203E1,1.2863307E1,1.525493E0,5.380756E1,1.1368473E0,5.044428E1,2.5315726E0,1.0460844E0,4.8166042E1,1.4320703E1,4.93378E0,1.3520423E1,4.469409E0,8.393898E0,3.377228E1,2.0035278E1,4.479985E1,5.6444287E0,1.4002317E0,1.131341E0,4.645632E1,1.7097203E0,2.678554E0,1.1642149E1,1.8645588E0,3.0692213E0,1.2026975E1,1.493448E0,1.1610315E0,3.3083777E0,4.779363E0,3.6145349E0,9.948516E0,2.3823765E1,1.285552E0,1.8749727E1],"tree_param":{"num_deleted":"0","num_feature":"12","num_nodes":"47","size_leaf_vector":"1"}},{"base_weights":[2.6338259E-2,9.4893014E-1,-7.705967E-1,1.2668247E0,4.879374E-1,-3.0058527E-1,-1.043203E0,1.3040738E0,1.2000611E0,7.7514194E-2,1.3221202E0,-6.947275E-1,3.5390738E-1,-1.00912206E-1,-1.0765891E0,1.2954556E0,1.3395392E0,2.612899E-2,1.2463114E0,-6.354713E-2,1.5856105E-1,1.0123012E0,1.4884754E0,5.5986654E-2,-7.8455615E-1,4.8565447E-1,-7.0844285E-2,7.403486E-2,-6.720352E-2,-1.1088309E0,-3.383403E-1,6.54465E-2,6.455408E-2,6.645282E-2,7.006745E-2,5.4861873E-2,6.482506E-2,-1.8596844E-3,2.9813139E-2,6.765863E-2,5.5169347E-3,8.551793E-2,6.599899E-2,-4.08259E-3,-5.01769E-2,9.823304E-3,5.7567816E-2,-5.63728E-2,-3.91554E-3,6.1645187E-2,-6.807354E-2],"categories":[],"categories_nodes":[],"categories_segments":[],"categories_sizes":[],"default_left":[0,0,0,0,0,0,0,0,0,0,0,0,0,0,0,0,0,0,0,0,0,0,0,0,0,0,0,0,0,0,0,0,0,0,0,0,0,0,0,0,0,0,0,0,0,0,0,0,0,0,0],"id":18,"left_children":[1,3,5,7,9,11,13,15,17,19,21,23,25,27,29,31,33,-1,35,-1,37,39,41,-1,43,45,-1,-1,-1,47,49,-1,-1,-1,-1,-1,-1,-1,-1,-1,-1,-1,-1,-1,-1,-1,-1,-1,-1,-1,-1],"loss_changes":[1.4840619E2,1.3709152E1,1.3876015E1,1.3768768E-1,1.3071789E1,1.0255304E1,2.1563263E0,1.0856628E-2,6.212864E-1,2.7966902E0,6.489067E-1,4.0442104E0,3.4860077E0,4.6115828E0,1.5756531E0,1.6746521E-3,4.4965744E-3,0E0,1.3887024E-1,0E0,2.068301E0,1.3523593E0,3.0626106E-1,0E0,3.6390696E0,2.6774037E0,0E0,0E0,0E0,1.217392E0,4.4531727E0,0E0,0E0,0E0,0E0,0E0,0E0,0E0,0E0,0E0,0E0,0E0,0E0,0E0,0E0,0E0,0E0,0E0,0E0,0E0,0E0],"parents":[2147483647,0,0,1,1,2,2,3,3,4,4,5,5,6,6,7,7,8,8,9,9,10,10,11,11,12,12,13,13,14,14,15,15,16,16,18,18,20,20,21,21,22,22,24,24,25,25,29,29,30,30],"right_children":[2,4,6,8,10,12,14,16,18,20,22,24,26,28,30,32,34,-1,36,-1,38,40,42,-1,44,46,-1,-1,-1,48,50,-1,-1,-1,-1,-1,-1,-1,-1,-1,-1,-1,-1,-1,-1,-1,-1,-1,-1,-1,-1],"split_conditions":[7.054E-1,6.732E-1,7.289E-1,8.9964E4,9.912E-1,9.905E-1,9.816E-1,6.621E-1,9.1054E4,9.844E-1,8.0207E4,6.1326E4,7.264E-1,6.6485E4,9.933E-1,9.879E-1,6.71E-1,2.612899E-2,9.899E-1,-6.354713E-2,8.5214E4,7.678E4,9.919E-1,5.5986654E-2,9.87E-1,7.189E-1,-7.0844285E-2,7.403486E-2,-6.720352E-2,1.0501E5,7.414E-1,6.54465E-2,6.455408E-2,6.645282E-2,7.006745E-2,5.4861873E-2,6.482506E-2,-1.8596844E-3,2.9813139E-2,6.765863E-2,5.5169347E-3,8.551793E-2,6.599899E-2,-4.08259E-3,-5.01769E-2,9.823304E-3,5.7567816E-2,-5.63728E-2,-3.91554E-3,6.1645187E-2,-6.807354E-2],"split_indices":[11,11,11,0,7,7,7,11,0,7,0,0,11,0,7,7,11,0,7,0,0,0,7,0,7,11,0,0,0,0,11,0,0,0,0,0,0,0,0,0,0,0,0,0,0,0,0,0,0,0,0],"split_type":[0,0,0,0,0,0,0,0,0,0,0,0,0,0,0,0,0,0,0,0,0,0,0,0,0,0,0,0,0,0,0,0,0,0,0,0,0,0,0,0,0,0,0,0,0,0,0,0,0,0,0],"sum_hessian":[2.0184569E2,9.354776E1,1.08297935E2,5.5367233E1,3.8180527E1,3.975491E1,6.854302E1,3.553909E1,1.9828146E1,2.559006E1,1.2590468E1,2.4812542E1,1.49423685E1,2.3454373E0,6.6197586E1,2.8591326E1,6.947762E0,1.2671305E0,1.8561016E1,1.4508473E0,2.4139212E1,4.3985853E0,8.191883E0,1.1704495E0,2.3642092E1,1.390764E1,1.0347276E0,1.0322082E0,1.313229E0,6.342749E1,2.770093E0,7.006608E0,2.1584719E1,5.940344E0,1.0074184E0,4.675083E0,1.3885932E1,1.6679558E1,7.459653E0,3.1921864E0,1.2063992E0,3.5357826E0,4.6561007E0,5.615867E0,1.8026226E1,9.695716E0,4.211925E0,6.230149E1,1.1260028E0,1.0924273E0,1.6776657E0],"tree_param":{"num_deleted":"0","num_feature":"12","num_nodes":"51","size_leaf_vector":"1"}},{"base_weights":[5.718762E-2,8.967084E-1,-8.668615E-2,1.0810883E0,6.7503667E-1,-1.918246E-1,6.0280174E-1,1.0229312E0,7.7966735E-2,8.473142E-2,5.787163E-1,-2.4431224E-1,1.4081117E0,4.0006804E-1,1.0807445E0,1.2623267E0,8.176724E-1,4.269482E-1,7.256029E-2,2.3858143E-1,-3.1898072E-1,1.4612293E0,6.451774E-2,1.0943948E-1,1.312427E0,1.6654085E0,5.2011275E-1,6.2915355E-2,6.4142086E-2,3.100336E-2,6.537195E-2,-1.269882E-3,4.188369E-2,-1.1643869E-2,4.051486E-2,-2.8228734E-2,-6.9182687E-3,6.98688E-2,7.942769E-2,4.8005562E-2,-4.9200878E-3,8.8855706E-2,5.6691337E-2,9.496422E-2,6.477286E-2,5.0691247E-2,6.912626E-3],"categories":[],"categories_nodes":[],"categories_segments":[],"categories_sizes":[],"default_left":[0,0,0,0,0,0,0,0,0,0,0,0,0,0,0,0,0,0,0,0,0,0,0,0,0,0,0,0,0,0,0,0,0,0,0,0,0,0,0,0,0,0,0,0,0,0,0],"id":19,"left_children":[1,3,5,7,9,11,13,15,-1,-1,17,19,21,23,25,27,29,31,-1,33,35,37,-1,39,41,43,45,-1,-1,-1,-1,-1,-1,-1,-1,-1,-1,-1,-1,-1,-1,-1,-1,-1,-1,-1,-1],"loss_changes":[2.2910976E1,1.1342468E0,1.1738764E1,4.2136765E-1,1.2375422E0,1.17993355E1,2.076033E0,6.637287E-1,0E0,0E0,1.5245898E0,4.905327E0,2.7911186E-2,3.989072E0,2.0917082E0,5.092621E-4,7.038069E-1,1.822161E0,0E0,4.9107404E0,5.2264824E0,2.5000572E-2,0E0,2.017282E0,3.016343E-1,2.7027035E-1,6.14164E-1,0E0,0E0,0E0,0E0,0E0,0E0,0E0,0E0,0E0,0E0,0E0,0E0,0E0,0E0,0E0,0E0,0E0,0E0,0E0,0E0],"parents":[2147483647,0,0,1,1,2,2,3,3,4,4,5,5,6,6,7,7,10,10,11,11,12,12,13,13,14,14,15,15,16,16,17,17,19,19,20,20,21,21,23,23,24,24,25,25,26,26],"right_children":[2,4,6,8,10,12,14,16,-1,-1,18,20,22,24,26,28,30,32,-1,34,36,38,-1,40,42,44,46,-1,-1,-1,-1,-1,-1,-1,-1,-1,-1,-1,-1,-1,-1,-1,-1,-1,-1,-1,-1],"split_conditions":[6.283E-1,5.919E-1,7.516E-1,5.867E-1,6.2253E4,1.08264E5,7.652E-1,5.627E-1,7.7966735E-2,8.473142E-2,6.254E-1,6.585E-1,7.332E-1,9.0209E4,7.715E-1,5.553E-1,8.5214E4,8.0729E4,7.256029E-2,7.7737E4,7.174E-1,7.202E-1,6.451774E-2,6.4555E4,9.2816E4,8.4036E4,7.7335E4,6.2915355E-2,6.4142086E-2,3.100336E-2,6.537195E-2,-1.269882E-3,4.188369E-2,-1.1643869E-2,4.051486E-2,-2.8228734E-2,-6.9182687E-3,6.98688E-2,7.942769E-2,4.8005562E-2,-4.9200878E-3,8.8855706E-2,5.6691337E-2,9.496422E-2,6.477286E-2,5.0691247E-2,6.912626E-3],"split_indices":[8,8,8,8,0,0,8,8,0,0,8,8,8,0,8,8,0,0,0,0,8,8,0,0,0,0,0,0,0,0,0,0,0,0,0,0,0,0,0,0,0,0,0,0,0,0,0],"split_type":[0,0,0,0,0,0,0,0,0,0,0,0,0,0,0,0,0,0,0,0,0,0,0,0,0,0,0,0,0,0,0,0,0,0,0,0,0,0,0,0,0,0,0,0,0,0,0],"sum_hessian":[1.8968391E2,2.7751362E1,1.6193254E2,1.5150024E1,1.2601337E1,1.4050696E2,2.1425587E1,1.3507461E1,1.6425637E0,1.0876865E0,1.1513651E1,1.360439E2,4.463065E0,1.5044161E1,6.3814254E0,6.235234E0,7.272227E0,9.807632E0,1.7060182E0,1.8218935E1,1.1782496E2,3.0756702E0,1.387395E0,1.1409659E1,3.6345022E0,3.1237586E0,3.2576666E0,5.213782E0,1.0214521E0,5.1816154E0,2.0906112E0,4.6673365E0,5.1402955E0,9.984957E0,8.233979E0,4.9930855E1,6.7894104E1,2.0484128E0,1.0272576E0,2.2403102E0,9.169349E0,1.0090673E0,2.6254346E0,1.9138515E0,1.209907E0,1.4207523E0,1.8369144E0],"tree_param":{"num_deleted":"0","num_feature":"12","num_nodes":"47","size_leaf_vector":"1"}},{"base_weights":[1.9099427E-2,-6.329933E-1,9.850533E-1,-1.046472E0,-3.0542418E-1,5.743877E-1,1.2406244E0,-1.0823144E0,-2.664118E-1,-3.7768418E-1,9.393093E-1,3.328812E-1,1.1722273E0,1.2988E0,1.2066991E0,-1.1922345E0,-9.874205E-1,-3.3998594E-2,1.0120033E-2,7.189188E-2,-4.1500428E-1,8.164882E-2,6.0704845E-1,6.0725665E-1,-7.165575E-1,8.1850255E-1,1.3521752E0,1.3125422E0,1.2800248E0,2.2182047E-2,1.2371635E0,-3.440901E-2,-6.352107E-2,-3.7068874E-3,-5.576694E-2,-2.9592413E-2,-8.830388E-3,-2.2196088E-3,6.739509E-2,5.9233166E-2,8.84268E-3,-8.488374E-2,-5.9487047E-3,7.3038064E-2,1.6670644E-2,6.894965E-2,6.3770704E-2,6.446219E-2,6.6013254E-2,6.429403E-2,6.315589E-2,5.2803256E-2,6.3531205E-2],"categories":[],"categories_nodes":[],"categories_segments":[],"categories_sizes":[],"default_left":[0,0,0,0,0,0,0,0,0,0,0,0,0,0,0,0,0,0,0,0,0,0,0,0,0,0,0,0,0,0,0,0,0,0,0,0,0,0,0,0,0,0,0,0,0,0,0,0,0,0,0,0,0],"id":20,"left_children":[1,3,5,7,9,11,13,15,17,19,21,23,25,27,29,31,33,-1,-1,-1,35,-1,37,39,41,43,45,47,49,-1,51,-1,-1,-1,-1,-1,-1,-1,-1,-1,-1,-1,-1,-1,-1,-1,-1,-1,-1,-1,-1,-1,-1],"loss_changes":[1.245883E2,1.5993111E1,8.366234E0,1.4593468E0,5.9259515E0,4.414959E0,9.6969604E-2,5.2051926E-1,4.4456097E-1,4.2191133E0,8.3315635E-1,6.2713213E0,5.600281E-1,4.6634674E-3,7.214699E-1,9.1119385E-1,3.128807E0,0E0,0E0,0E0,2.5723486E0,0E0,1.1796155E0,4.2908564E0,2.6466355E0,9.242823E-1,1.2000084E-2,1.8749237E-3,7.5244904E-4,0E0,1.8083954E-1,0E0,0E0,0E0,0E0,0E0,0E0,0E0,0E0,0E0,0E0,0E0,0E0,0E0,0E0,0E0,0E0,0E0,0E0,0E0,0E0,0E0,0E0],"parents":[2147483647,0,0,1,1,2,2,3,3,4,4,5,5,6,6,7,7,8,8,9,9,10,10,11,11,12,12,13,13,14,14,15,15,16,16,20,20,22,22,23,23,24,24,25,25,26,26,27,27,28,28,30,30],"right_children":[2,4,6,8,10,12,14,16,18,20,22,24,26,28,30,32,34,-1,-1,-1,36,-1,38,40,42,44,46,48,50,-1,52,-1,-1,-1,-1,-1,-1,-1,-1,-1,-1,-1,-1,-1,-1,-1,-1,-1,-1,-1,-1,-1,-1],"split_conditions":[8.727E-1,8.372E-1,8.919E-1,4.728079E2,5.041621E2,4.909763E2,9.046E-1,4.073614E2,8.301E-1,5.7894E4,5.113972E2,4.777182E2,8.832E-1,8.987E-1,9.056E-1,6.0925E4,7.5667E4,-3.3998594E-2,1.0120033E-2,7.189188E-2,4.420752E2,8.164882E-2,1.08264E5,8.797E-1,4.82777E2,5.032489E2,1.00505E5,7.4494E4,9.032E-1,2.2182047E-2,9.085E-1,-3.440901E-2,-6.352107E-2,-3.7068874E-3,-5.576694E-2,-2.9592413E-2,-8.830388E-3,-2.2196088E-3,6.739509E-2,5.9233166E-2,8.84268E-3,-8.488374E-2,-5.9487047E-3,7.3038064E-2,1.6670644E-2,6.894965E-2,6.3770704E-2,6.446219E-2,6.6013254E-2,6.429403E-2,6.315589E-2,5.2803256E-2,6.3531205E-2],"split_indices":[6,6,6,2,2,2,6,2,6,0,2,2,6,6,6,0,0,0,0,0,2,0,0,6,2,2,0,0,6,0,6,0,0,0,0,0,0,0,0,0,0,0,0,0,0,0,0,0,0,0,0,0,0],"split_type":[0,0,0,0,0,0,0,0,0,0,0,0,0,0,0,0,0,0,0,0,0,0,0,0,0,0,0,0,0,0,0,0,0,0,0,0,0,0,0,0,0,0,0,0,0,0,0,0,0,0,0,0,0],"sum_hessian":[1.9779329E2,1.18080154E2,7.971313E1,5.2195568E1,6.588458E1,3.0578285E1,4.9134846E1,4.9902626E1,2.2929401E0,6.2269672E1,3.6149132E0,2.1779943E1,8.798342E0,1.809876E1,3.1036083E1,2.3120731E1,2.6781895E1,1.2182603E0,1.0746799E0,1.2542405E0,6.101543E1,1.1707368E0,2.4441764E0,1.7265806E1,4.514138E0,2.9666982E0,5.8316436E0,1.0449943E1,7.6488185E0,1.1915168E0,2.9844566E1,3.1047955E0,2.0015936E1,3.2903292E0,2.3491566E1,3.502998E1,2.5985453E1,1.3005706E0,1.143606E0,7.3736677E0,9.8921385E0,1.708729E0,2.8054092E0,1.2765462E0,1.690152E0,4.321745E0,1.5098985E0,2.6016426E0,7.8483E0,5.68102E0,1.9677984E0,4.6542835E0,2.5190283E1],"tree_param":{"num_deleted":"0","num_feature":"12","num_nodes":"53","size_leaf_vector":"1"}},{"base_weights":[-2.6573298E-2,-6.820424E-1,9.545923E-1,-3.7906364E-1,-1.001552E0,1.1612577E0,6.227294E-1,-4.3414715E-1,7.682977E-1,-1.0411446E0,-1.0227814E-1,3.3082314E-2,1.1779726E0,6.9309443E-1,-1.3327076E-2,-2.118324E-1,-5.554836E-1,9.8760664E-2,-4.9535327E-2,-9.560327E-1,-1.1691017E0,2.3029648E-2,-2.8833231E-2,1.1018436E0,1.252319E0,5.7612467E-1,1.3480885E0,-6.4232275E-2,3.3156246E-2,6.4967E-2,-1.7059512E-2,-1.0385471E-2,-3.717203E-2,-1.8522633E-3,-5.01992E-2,-5.5429924E-2,-6.286532E-2,5.911999E-2,-3.287235E-3,6.1545562E-2,6.310742E-2,4.2520307E-2,8.992768E-3,7.974261E-2,3.8769893E-2],"categories":[],"categories_nodes":[],"categories_segments":[],"categories_sizes":[],"default_left":[0,0,0,0,0,0,0,0,0,0,0,0,0,0,0,0,0,0,0,0,0,0,0,0,0,0,0,0,0,0,0,0,0,0,0,0,0,0,0,0,0,0,0,0,0],"id":21,"left_children":[1,3,5,7,9,11,13,15,17,19,21,-1,23,25,27,29,31,-1,-1,33,35,-1,-1,37,39,41,43,-1,-1,-1,-1,-1,-1,-1,-1,-1,-1,-1,-1,-1,-1,-1,-1,-1,-1],"loss_changes":[1.2606134E2,1.1375587E1,5.3841095E0,3.8119955E0,2.0364075E0,4.039917E-1,1.34834E0,1.5524769E0,5.865852E0,5.9662247E-1,6.4403677E-1,0E0,2.6493835E-1,2.0782118E0,2.580665E0,3.9723363E0,2.4337263E0,0E0,0E0,1.4497776E0,1.16781235E-1,0E0,0E0,2.175352E0,4.9819946E-3,2.501533E0,5.808377E-1,0E0,0E0,0E0,0E0,0E0,0E0,0E0,0E0,0E0,0E0,0E0,0E0,0E0,0E0,0E0,0E0,0E0,0E0],"parents":[2147483647,0,0,1,1,2,2,3,3,4,4,5,5,6,6,7,7,8,8,9,9,10,10,12,12,13,13,14,14,15,15,16,16,19,19,20,20,23,23,24,24,25,25,26,26],"right_children":[2,4,6,8,10,12,14,16,18,20,22,-1,24,26,28,30,32,-1,-1,34,36,-1,-1,38,40,42,44,-1,-1,-1,-1,-1,-1,-1,-1,-1,-1,-1,-1,-1,-1,-1,-1,-1,-1],"split_conditions":[2.0556E0,7.346E-1,6.703E-1,7.583E-1,7.607E-1,5.894E-1,7.561E-1,7.098E-1,1.9494E0,7.636E-1,7.648E-1,3.3082314E-2,2.3935E0,7.462E-1,6.767E-1,1.9785E0,1.8928E0,9.8760664E-2,-4.9535327E-2,1.7155E0,1.648E0,2.3029648E-2,-2.8833231E-2,2.3856E0,6.283E-1,6.922E-1,7.507E-1,-6.4232275E-2,3.3156246E-2,6.4967E-2,-1.7059512E-2,-1.0385471E-2,-3.717203E-2,-1.8522633E-3,-5.01992E-2,-5.5429924E-2,-6.286532E-2,5.911999E-2,-3.287235E-3,6.1545562E-2,6.310742E-2,4.2520307E-2,8.992768E-3,7.974261E-2,3.8769893E-2],"split_indices":[10,11,11,8,8,11,8,11,10,11,8,0,10,8,11,10,10,0,0,10,10,0,0,10,8,8,8,0,0,0,0,0,0,0,0,0,0,0,0,0,0,0,0,0,0],"split_type":[0,0,0,0,0,0,0,0,0,0,0,0,0,0,0,0,0,0,0,0,0,0,0,0,0,0,0,0,0,0,0,0,0,0,0,0,0,0,0,0,0,0,0,0,0],"sum_hessian":[1.9601413E2,1.1751084E2,7.850329E1,6.0315742E1,5.7195103E1,4.8376892E1,3.0126396E1,5.7552704E1,2.7630372E0,5.478315E1,2.411953E0,1.5660965E0,4.6810795E1,2.7125576E1,3.0008192E0,2.0320726E1,3.723198E1,1.6386803E0,1.1243569E0,3.2899643E1,2.1883505E1,1.1030983E0,1.3088546E0,2.312814E1,2.3682657E1,2.301545E1,4.1101274E0,1.0421712E0,1.9586481E0,1.6023127E0,1.8718414E1,1.3062545E1,2.4169434E1,1.6315233E0,3.126812E1,1.2980004E1,8.903501E0,2.1635433E1,1.4927056E0,7.452319E0,1.6230337E1,1.3601229E1,9.414221E0,2.872435E0,1.2376921E0],"tree_param":{"num_deleted":"0","num_feature":"12","num_nodes":"45","size_leaf_vector":"1"}},{"base_weights":[-3.084112E-2,-1.9140586E-1,9.0731585E-1,1.085604E0,-3.1472915E-1,1.2767175E0,6.9809574E-1,1.4377605E0,8.311009E-1,-6.290042E-1,-1.3614649E-1,6.953156E-2,1.2519703E0,-4.5403078E-1,1.0581385E0,1.2652739E0,1.6567336E0,-3.0373827E-2,1.055361E0,8.8285834E-1,-7.5772655E-1,3.2357883E-1,-3.2147735E-1,1.2281245E0,1.2620656E0,1.4262863E-1,-5.9491605E-2,8.016793E-1,1.3444971E0,6.0945105E-2,6.592156E-2,9.186413E-2,7.134042E-2,6.431198E-2,3.1291973E-2,2.569973E-2,7.329702E-2,-2.3930525E-2,-5.7855647E-2,-2.937387E-3,6.2483262E-2,-3.851331E-2,-4.4712215E-3,6.0732927E-2,6.1897505E-2,6.261891E-2,6.5261565E-2,3.2278802E-2,-1.9639099E-2,6.657811E-2,2.3114825E-2,7.962995E-2,6.323593E-2],"categories":[],"categories_nodes":[],"categories_segments":[],"categories_sizes":[],"default_left":[0,0,0,0,0,0,0,0,0,0,0,0,0,0,0,0,0,0,0,0,0,0,0,0,0,0,0,0,0,0,0,0,0,0,0,0,0,0,0,0,0,0,0,0,0,0,0,0,0,0,0,0,0],"id":22,"left_children":[1,3,5,7,9,11,13,15,17,19,21,-1,23,25,27,29,31,-1,33,35,37,39,41,43,45,47,-1,49,51,-1,-1,-1,-1,-1,-1,-1,-1,-1,-1,-1,-1,-1,-1,-1,-1,-1,-1,-1,-1,-1,-1,-1,-1],"loss_changes":[2.8129843E1,2.5111275E1,2.1091442E0,1.2585506E0,8.160962E0,2.7812958E-2,7.2270765E0,2.2249699E-1,2.6297822E0,1.0253603E1,7.8999953E0,0E0,1.9464493E-3,1.8211653E0,9.74844E-1,8.118629E-3,1.07748985E-1,0E0,6.9933367E-1,8.891189E-1,5.4125443E0,9.432284E0,6.881934E0,3.1518936E-4,2.3765564E-3,6.1684805E-1,0E0,1.2593131E0,1.2412834E-1,0E0,0E0,0E0,0E0,0E0,0E0,0E0,0E0,0E0,0E0,0E0,0E0,0E0,0E0,0E0,0E0,0E0,0E0,0E0,0E0,0E0,0E0,0E0,0E0],"parents":[2147483647,0,0,1,1,2,2,3,3,4,4,5,5,6,6,7,7,8,8,9,9,10,10,12,12,13,13,14,14,15,15,16,16,18,18,19,19,20,20,21,21,22,22,23,23,24,24,25,25,27,27,28,28],"right_children":[2,4,6,8,10,12,14,16,18,20,22,-1,24,26,28,30,32,-1,34,36,38,40,42,44,46,48,-1,50,52,-1,-1,-1,-1,-1,-1,-1,-1,-1,-1,-1,-1,-1,-1,-1,-1,-1,-1,-1,-1,-1,-1,-1,-1],"split_conditions":[1.244635E3,6.115E-1,3.542554E2,3.056679E2,1.066116E3,1.253276E3,1.273762E3,5.867E-1,1.116464E3,2.715013E2,3.162885E2,6.953156E-2,6.397E-1,1.25753E3,3.660404E2,5.588E-1,1.055123E3,-3.0373827E-2,3.273506E2,9.37849E2,2.967959E2,1.109189E3,1.145231E3,5.805E-1,3.518861E2,6.746E-1,-5.9491605E-2,3.56939E2,1.310223E3,6.0945105E-2,6.592156E-2,9.186413E-2,7.134042E-2,6.431198E-2,3.1291973E-2,2.569973E-2,7.329702E-2,-2.3930525E-2,-5.7855647E-2,-2.937387E-3,6.2483262E-2,-3.851331E-2,-4.4712215E-3,6.0732927E-2,6.1897505E-2,6.261891E-2,6.5261565E-2,3.2278802E-2,-1.9639099E-2,6.657811E-2,2.3114825E-2,7.962995E-2,6.323593E-2],"split_indices":[1,8,5,5,1,1,1,8,1,5,5,0,8,1,5,8,1,0,5,1,5,1,1,8,5,8,0,5,1,0,0,0,0,0,0,0,0,0,0,0,0,0,0,0,0,0,0,0,0,0,0,0,0],"split_type":[0,0,0,0,0,0,0,0,0,0,0,0,0,0,0,0,0,0,0,0,0,0,0,0,0,0,0,0,0,0,0,0,0,0,0,0,0,0,0,0,0,0,0,0,0,0,0,0,0,0,0,0,0],"sum_hessian":[1.8674184E2,1.594518E2,2.7290033E1,1.4042459E1,1.4540933E2,9.867621E0,1.7422413E1,5.8910236E0,8.151435E0,5.2687798E1,9.272154E1,1.7610883E0,8.106534E0,4.148221E0,1.3274191E1,3.2953048E0,2.5957189E0,1.09935E0,7.052085E0,4.1339507E0,4.855385E1,2.6639791E1,6.608175E1,2.4112754E0,5.695258E0,2.290699E0,1.857522E0,7.0026836E0,6.2715077E0,1.7600057E0,1.5352991E0,1.4539723E0,1.1417465E0,4.586644E0,2.4654405E0,2.5321136E0,1.6018372E0,2.8580215E1,1.9973633E1,1.8855476E1,7.7843156E0,2.2522799E1,4.3558952E1,1.017309E0,1.3939663E0,4.6514196E0,1.0438385E0,1.1811583E0,1.1095407E0,2.7340178E0,4.268666E0,1.5259479E0,4.7455597E0],"tree_param":{"num_deleted":"0","num_feature":"12","num_nodes":"53","size_leaf_vector":"1"}},{"base_weights":[1.1851331E-2,7.575506E-1,-5.7953846E-1,1.0108635E0,3.995399E-1,-3.5222155E-1,-1.1400709E0,9.41995E-1,1.3026273E0,1.9153772E-1,1.0458411E0,-4.0122542E-1,7.0787854E-2,-1.1697209E0,-1.6967312E-2,9.8396647E-1,-1.0000258E-2,1.2729896E0,7.514034E-2,7.0955753E-1,-2.2611225E-1,1.2783887E0,1.6059772E-3,8.165004E-2,-4.436542E-1,-1.23884E0,-1.065236E0,4.41624E-2,6.2244203E-2,7.439845E-2,6.1977815E-2,2.2101765E-2,8.343059E-2,-4.7191817E-2,7.02116E-3,2.7234426E-2,8.51691E-2,-3.5867658E-2,-1.4951065E-2,-6.1750825E-2,-6.444215E-2,-4.04776E-2,-6.1991822E-2],"categories":[],"categories_nodes":[],"categories_segments":[],"categories_sizes":[],"default_left":[0,0,0,0,0,0,0,0,0,0,0,0,0,0,0,0,0,0,0,0,0,0,0,0,0,0,0,0,0,0,0,0,0,0,0,0,0,0,0,0,0,0,0],"id":23,"left_children":[1,3,5,7,9,11,13,15,17,19,21,23,-1,25,-1,27,-1,29,-1,31,33,35,-1,-1,37,39,41,-1,-1,-1,-1,-1,-1,-1,-1,-1,-1,-1,-1,-1,-1,-1,-1],"loss_changes":[8.0100586E1,7.285595E0,1.2907257E1,9.453392E-1,4.4750786E0,6.244051E0,6.9390106E-1,1.8244171E0,5.3297997E-2,5.4485354E0,1.9106627E0,6.0526485E0,0E0,2.0353317E-1,0E0,9.648018E-1,0E0,5.624485E-2,0E0,2.8841205E0,3.667907E0,2.0557032E0,0E0,0E0,2.7193203E0,3.238678E-3,5.009384E-1,0E0,0E0,0E0,0E0,0E0,0E0,0E0,0E0,0E0,0E0,0E0,0E0,0E0,0E0,0E0,0E0],"parents":[2147483647,0,0,1,1,2,2,3,3,4,4,5,5,6,6,7,7,8,8,9,9,10,10,11,11,13,13,15,15,17,17,19,19,20,20,21,21,24,24,25,25,26,26],"right_children":[2,4,6,8,10,12,14,16,18,20,22,24,-1,26,-1,28,-1,30,-1,32,34,36,-1,-1,38,40,42,-1,-1,-1,-1,-1,-1,-1,-1,-1,-1,-1,-1,-1,-1,-1,-1],"split_conditions":[7.927E-1,7.614E-1,8.456E-1,7.473E-1,7.424E-1,1.0555E5,7.64E-1,7.443E-1,7.727E-1,6.606E-1,7.876E-1,5.8497E4,7.0787854E-2,7.351E-1,-1.6967312E-2,8.9964E4,-1.0000258E-2,7.5E-1,7.514034E-2,7.868E-1,6.994E-1,7.6566E4,1.6059772E-3,8.165004E-2,6.944E-1,9.8067E4,8.593E-1,4.41624E-2,6.2244203E-2,7.439845E-2,6.1977815E-2,2.2101765E-2,8.343059E-2,-4.7191817E-2,7.02116E-3,2.7234426E-2,8.51691E-2,-3.5867658E-2,-1.4951065E-2,-6.1750825E-2,-6.444215E-2,-4.04776E-2,-6.1991822E-2],"split_indices":[9,9,9,8,8,4,8,8,8,8,9,4,0,8,0,4,0,8,0,9,8,4,0,0,8,4,9,0,0,0,0,0,0,0,0,0,0,0,0,0,0,0,0],"split_type":[0,0,0,0,0,0,0,0,0,0,0,0,0,0,0,0,0,0,0,0,0,0,0,0,0,0,0,0,0,0,0,0,0,0,0,0,0,0,0,0,0,0,0],"sum_hessian":[1.8163443E2,8.033627E1,1.0129816E2,4.704748E1,3.3288788E1,7.207077E1,2.9227392E1,3.8063015E1,8.984467E0,2.5183777E1,8.10501E0,7.012703E1,1.9437407E0,2.8183775E1,1.0436176E0,3.6713696E1,1.3493217E0,7.8258233E0,1.1586438E0,1.124115E1,1.3942627E1,6.5926547E0,1.5123557E0,1.4327866E0,6.869424E1,1.6962606E1,1.1221168E1,2.6488644E1,1.022505E1,1.0532491E0,6.772574E0,8.789404E0,2.4517462E0,4.7133245E0,9.229302E0,2.4180992E0,4.1745553E0,2.3750158E1,4.494408E1,1.5757722E1,1.204885E0,4.553321E0,6.6678467E0],"tree_param":{"num_deleted":"0","num_feature":"12","num_nodes":"43","size_leaf_vector":"1"}},{"base_weights":[-5.2445844E-2,6.2286955E-1,-8.1211853E-1,1.744194E-1,1.1833057E0,-5.1179767E-1,-1.0250192E0,-1.4700449E-1,1.0059671E0,1.3926963E-2,1.2052025E0,-6.820749E-1,5.230853E-1,-1.1776148E0,-8.349669E-1,7.981349E-1,-2.4606179E-1,7.601303E-1,1.4254214E0,1.2481092E0,1.176862E0,6.586396E-2,-7.901597E-1,5.2814692E-2,2.2423661E-1,-8.898847E-1,-1.2399862E0,4.296221E-1,-9.7989374E-1,7.920135E-2,2.9605813E-3,-2.5799397E-2,5.2888035E-3,7.078365E-2,2.5548149E-2,8.391461E-2,6.6677675E-2,6.34381E-2,6.152882E-2,1.4117963E-2,6.0813595E-2,4.271819E-2,-1.4623933E-2,-5.0866526E-2,-2.4407087E-2,-1.100487E-2,3.4598514E-2,-3.1187562E-2,-6.4108126E-2,-6.1144788E-2,-6.3855045E-2,-1.399859E-2,5.1791787E-2,-6.1164368E-2,-3.258906E-2],"categories":[],"categories_nodes":[],"categories_segments":[],"categories_sizes":[],"default_left":[0,0,0,0,0,0,0,0,0,0,0,0,0,0,0,0,0,0,0,0,0,0,0,0,0,0,0,0,0,0,0,0,0,0,0,0,0,0,0,0,0,0,0,0,0,0,0,0,0,0,0,0,0,0,0],"id":24,"left_children":[1,3,5,7,9,11,13,15,17,-1,19,21,23,25,27,29,31,33,35,37,39,41,43,-1,45,47,49,51,53,-1,-1,-1,-1,-1,-1,-1,-1,-1,-1,-1,-1,-1,-1,-1,-1,-1,-1,-1,-1,-1,-1,-1,-1,-1,-1],"loss_changes":[9.264701E1,2.4027954E1,5.4339943E0,1.4194687E1,8.419037E-1,6.2126484E0,1.4422874E0,3.586009E0,1.5266886E0,0E0,5.0453186E-2,2.4474068E0,7.937584E-1,4.9502563E-1,4.0590973E0,2.1100616E0,3.2925334E0,1.5247006E0,1.2708664E-1,5.968094E-3,8.808632E-1,1.0800772E0,1.814848E0,0E0,6.6342765E-1,5.130317E-1,1.4373779E-2,9.7959423E-1,1.5868759E0,0E0,0E0,0E0,0E0,0E0,0E0,0E0,0E0,0E0,0E0,0E0,0E0,0E0,0E0,0E0,0E0,0E0,0E0,0E0,0E0,0E0,0E0,0E0,0E0,0E0,0E0],"parents":[2147483647,0,0,1,1,2,2,3,3,4,4,5,5,6,6,7,7,8,8,10,10,11,11,12,12,13,13,14,14,15,15,16,16,17,17,18,18,19,19,20,20,21,21,22,22,24,24,25,25,26,26,27,27,28,28],"right_children":[2,4,6,8,10,12,14,16,18,-1,20,22,24,26,28,30,32,34,36,38,40,42,44,-1,46,48,50,52,54,-1,-1,-1,-1,-1,-1,-1,-1,-1,-1,-1,-1,-1,-1,-1,-1,-1,-1,-1,-1,-1,-1,-1,-1,-1,-1],"split_conditions":[7.121E-1,2.2038E0,7.346E-1,9.912E-1,9.806E-1,9.918E-1,9.906E-1,1.9749E0,9.922E-1,1.3926963E-2,2.346E0,9.861E-1,9.925E-1,9.855E-1,9.908E-1,7.107E-1,9.895E-1,9.915E-1,9.925E-1,2.2634E0,2.3505E0,1.8611E0,9.899E-1,5.2814692E-2,9.928E-1,7.636E-1,1.7914E0,1.7247E0,1.7642E0,7.920135E-2,2.9605813E-3,-2.5799397E-2,5.2888035E-3,7.078365E-2,2.5548149E-2,8.391461E-2,6.6677675E-2,6.34381E-2,6.152882E-2,1.4117963E-2,6.0813595E-2,4.271819E-2,-1.4623933E-2,-5.0866526E-2,-2.4407087E-2,-1.100487E-2,3.4598514E-2,-3.1187562E-2,-6.4108126E-2,-6.1144788E-2,-6.3855045E-2,-1.399859E-2,5.1791787E-2,-6.1164368E-2,-3.258906E-2],"split_indices":[11,10,11,7,7,7,7,10,7,0,10,7,7,7,7,11,7,7,7,10,10,10,7,0,7,11,10,10,10,0,0,0,0,0,0,0,0,0,0,0,0,0,0,0,0,0,0,0,0,0,0,0,0,0,0],"split_type":[0,0,0,0,0,0,0,0,0,0,0,0,0,0,0,0,0,0,0,0,0,0,0,0,0,0,0,0,0,0,0,0,0,0,0,0,0,0,0,0,0,0,0,0,0,0,0,0,0,0,0,0,0,0,0],"sum_hessian":[1.805919E2,9.5604095E1,8.498781E1,5.3108063E1,4.2496033E1,3.525566E1,4.9732147E1,3.8302666E1,1.4805394E1,1.0041664E0,4.1491867E1,3.0274384E1,4.981275E0,2.758431E1,2.2147837E1,3.6335654E0,3.46691E1,9.334543E0,5.470851E0,1.6504429E1,2.4987438E1,3.822559E0,2.6451826E1,1.7891142E0,3.192161E0,4.9142094E0,2.26701E1,2.277246E0,1.987059E1,1.7608191E0,1.8727462E0,1.961822E1,1.5050882E1,2.5708358E0,6.763707E0,1.4578947E0,4.012956E0,7.5778713E0,8.926557E0,1.0544394E0,2.3932999E1,1.1943977E0,2.6281614E0,1.5096551E1,1.1355274E1,1.6370285E0,1.5551325E0,2.927862E0,1.9863476E0,1.5522461E1,7.1476393E0,1.0491635E0,1.2280825E0,1.1408079E1,8.462511E0],"tree_param":{"num_deleted":"0","num_feature":"12","num_nodes":"55","size_leaf_vector":"1"}},{"base_weights":[-2.9367516E-3,8.4349704E-1,-2.1837026E-1,3.5183147E-1,1.0755732E0,-9.895885E-1,2.9886866E-2,1.1420174E0,-6.668498E-1,1.1941297E0,3.9607397E-1,-9.21913E-1,-1.3493536E0,3.9061436E-1,-3.8205183E-1,1.26775E0,2.8699024E-2,-3.293071E-1,-7.509562E-2,1.258343E0,1.0195397E0,-5.8289826E-2,1.1267686E0,-9.9438256E-1,1.0438139E-2,-8.825281E-2,-1.2463568E0,-7.736111E-2,9.352658E-1,-6.8038994E-1,6.6703665E-1,6.082191E-2,6.7059256E-2,-4.7803767E-2,1.0094101E-2,7.416996E-2,6.1434805E-2,1.625472E-2,6.1833438E-2,8.336041E-2,2.9090537E-2,-5.8830585E-2,-4.0836405E-2,-6.626826E-2,-6.0358442E-2,1.5379326E-2,-1.9846462E-2,5.020085E-2,1.5673315E-2,-5.4136068E-2,-2.3458656E-2,6.849381E-2,-2.5675375E-2],"categories":[],"categories_nodes":[],"categories_segments":[],"categories_sizes":[],"default_left":[0,0,0,0,0,0,0,0,0,0,0,0,0,0,0,0,0,0,0,0,0,0,0,0,0,0,0,0,0,0,0,0,0,0,0,0,0,0,0,0,0,0,0,0,0,0,0,0,0,0,0,0,0],"id":25,"left_children":[1,3,5,7,9,11,13,15,17,19,21,23,25,27,29,31,-1,33,-1,35,37,-1,39,41,-1,-1,43,45,47,49,51,-1,-1,-1,-1,-1,-1,-1,-1,-1,-1,-1,-1,-1,-1,-1,-1,-1,-1,-1,-1,-1,-1],"loss_changes":[3.2902954E1,4.1770706E0,2.753787E1,9.44901E0,2.003416E0,8.527603E-1,1.6168276E1,4.7214317E-1,1.4454007E0,2.373848E-1,4.216297E0,2.4155369E0,2.374258E-1,1.4785445E1,1.5898647E1,2.039051E-2,0E0,1.2158086E0,0E0,1.03284836E-1,8.585272E-1,0E0,7.412796E-1,8.968735E-1,0E0,0E0,1.37553215E-2,3.8381944E0,1.1460304E0,3.36092E0,9.332144E0,0E0,0E0,0E0,0E0,0E0,0E0,0E0,0E0,0E0,0E0,0E0,0E0,0E0,0E0,0E0,0E0,0E0,0E0,0E0,0E0,0E0,0E0],"parents":[2147483647,0,0,1,1,2,2,3,3,4,4,5,5,6,6,7,7,8,8,9,9,10,10,11,11,12,12,13,13,14,14,15,15,17,17,19,19,20,20,22,22,23,23,26,26,27,27,28,28,29,29,30,30],"right_children":[2,4,6,8,10,12,14,16,18,20,22,24,26,28,30,32,-1,34,-1,36,38,-1,40,42,-1,-1,44,46,48,50,52,-1,-1,-1,-1,-1,-1,-1,-1,-1,-1,-1,-1,-1,-1,-1,-1,-1,-1,-1,-1,-1,-1],"split_conditions":[2.099705E2,6.5098E4,7.5275E4,1.952597E2,2.075564E2,7.3159E4,2.378423E2,1.91091E2,6.2581E4,2.043061E2,2.086451E2,7.3387E4,2.187254E2,8.3141E4,1.02023E5,1.845502E2,2.8699024E-2,5.8347E4,-7.509562E-2,6.7272E4,7.1905E4,-5.8289826E-2,2.09463E2,6.8331E4,1.0438139E-2,-8.825281E-2,2.241112E2,2.227008E2,2.35699E2,8.8092E4,2.657591E2,6.082191E-2,6.7059256E-2,-4.7803767E-2,1.0094101E-2,7.416996E-2,6.1434805E-2,1.625472E-2,6.1833438E-2,8.336041E-2,2.9090537E-2,-5.8830585E-2,-4.0836405E-2,-6.626826E-2,-6.0358442E-2,1.5379326E-2,-1.9846462E-2,5.020085E-2,1.5673315E-2,-5.4136068E-2,-2.3458656E-2,6.849381E-2,-2.5675375E-2],"split_indices":[3,0,4,3,3,0,3,3,4,3,3,4,3,0,4,3,0,0,0,4,0,0,3,0,0,0,3,3,3,4,3,0,0,0,0,0,0,0,0,0,0,0,0,0,0,0,0,0,0,0,0,0,0],"split_type":[0,0,0,0,0,0,0,0,0,0,0,0,0,0,0,0,0,0,0,0,0,0,0,0,0,0,0,0,0,0,0,0,0,0,0,0,0,0,0,0,0,0,0,0,0,0,0,0,0,0,0,0,0],"sum_hessian":[1.8043825E2,3.6607628E1,1.4383063E2,1.1738662E1,2.4868967E1,3.5024853E1,1.0880577E2,6.6107426E0,5.127919E0,2.1174515E1,3.6944513E0,2.9479471E1,5.5453825E0,5.800863E1,5.079714E1,5.4126673E0,1.198075E0,3.6518137E0,1.4761056E0,1.5480756E1,5.6937594E0,1.1775081E0,2.5169432E0,2.7703825E1,1.7756474E0,1.1011249E0,4.4442577E0,3.1200518E1,2.6808113E1,3.954998E1,1.1247159E1,3.1863077E0,2.2263596E0,1.6751946E0,1.9766191E0,1.801911E0,1.3678844E1,1.3562051E0,4.3375545E0,1.263708E0,1.2532351E0,1.3675826E1,1.4027998E1,1.4734699E0,2.970788E0,1.4152544E1,1.7047974E1,2.4139095E1,2.6690166E0,1.3615263E1,2.5934717E1,7.049954E0,4.1972055E0],"tree_param":{"num_deleted":"0","num_feature":"12","num_nodes":"53","size_leaf_vector":"1"}},{"base_weights":[-1.2875955E-2,-7.398909E-1,6.451149E-1,-1.1445647E0,-4.110318E-1,2.6855412E-1,1.1520617E0,-2.5819937E-2,-1.1659517E0,-6.3036305E-1,1.9570725E-1,1.743521E-1,1.1976066E0,1.0951904E0,1.2000638E0,-1.2099948E0,-8.858872E-1,3.7735894E-2,-7.1566695E-1,3.9431572E-2,7.6602034E-2,6.625076E-2,1.250955E-1,1.467459E0,8.792446E-1,1.2041236E0,-1.3323694E-2,1.2235688E0,1.1930925E0,-6.0296305E-2,-6.440609E-2,-5.6307004E-3,-6.2341448E-2,1.6196541E-2,-4.014518E-2,3.202079E-2,-2.2007456E-2,4.5895975E-2,2.8425117E-3,7.891565E-2,6.502323E-2,2.2403836E-2,6.193127E-2,6.1905295E-2,5.9843373E-2,6.2422242E-2,6.081281E-2,5.9821513E-2,5.8885913E-2],"categories":[],"categories_nodes":[],"categories_segments":[],"categories_sizes":[],"default_left":[0,0,0,0,0,0,0,0,0,0,0,0,0,0,0,0,0,0,0,0,0,0,0,0,0,0,0,0,0,0,0,0,0,0,0,0,0,0,0,0,0,0,0,0,0,0,0,0,0],"id":26,"left_children":[1,3,5,7,9,11,13,-1,15,17,19,21,23,25,27,29,31,-1,33,35,-1,-1,37,39,41,43,-1,45,47,-1,-1,-1,-1,-1,-1,-1,-1,-1,-1,-1,-1,-1,-1,-1,-1,-1,-1,-1,-1],"loss_changes":[8.406629E1,1.111071E1,1.7609535E1,5.028496E-1,6.129359E0,4.632368E0,1.0732651E-1,0E0,4.4649124E-1,3.9970713E0,2.5538888E0,2.7237763E0,4.1862297E-1,2.6693287E0,3.490448E-3,9.941101E-3,1.372889E0,0E0,2.8900547E0,3.1556563E0,0E0,0E0,2.4934707E0,4.881668E-2,3.4639323E-1,4.1046143E-3,0E0,8.8214874E-4,8.392334E-4,0E0,0E0,0E0,0E0,0E0,0E0,0E0,0E0,0E0,0E0,0E0,0E0,0E0,0E0,0E0,0E0,0E0,0E0,0E0,0E0],"parents":[2147483647,0,0,1,1,2,2,3,3,4,4,5,5,6,6,8,8,9,9,10,10,11,11,12,12,13,13,14,14,15,15,16,16,18,18,19,19,22,22,23,23,24,24,25,25,27,27,28,28],"right_children":[2,4,6,8,10,12,14,-1,16,18,20,22,24,26,28,30,32,-1,34,36,-1,-1,38,40,42,44,-1,46,48,-1,-1,-1,-1,-1,-1,-1,-1,-1,-1,-1,-1,-1,-1,-1,-1,-1,-1,-1,-1],"split_conditions":[8.597E-1,8.315E-1,8.922E-1,5.8347E4,8.8664E4,9.9376E4,8.0412E4,-2.5819937E-2,8.276E-1,6.0553E4,1.0501E5,5.9113E4,8.696E-1,7.9177E4,8.999E-1,1.01124E5,8.293E-1,3.7735894E-2,8.332E-1,9.494E4,7.6602034E-2,6.625076E-2,8.62E-1,1.04321E5,1.03569E5,8.979E-1,-1.3323694E-2,8.939E-1,1.08264E5,-6.0296305E-2,-6.440609E-2,-5.6307004E-3,-6.2341448E-2,1.6196541E-2,-4.014518E-2,3.202079E-2,-2.2007456E-2,4.5895975E-2,2.8425117E-3,7.891565E-2,6.502323E-2,2.2403836E-2,6.193127E-2,6.1905295E-2,5.9843373E-2,6.2422242E-2,6.081281E-2,5.9821513E-2,5.8885913E-2],"split_indices":[6,6,6,0,0,0,0,0,6,0,0,0,6,0,6,0,6,0,6,0,0,0,6,0,0,6,0,6,0,0,0,0,0,0,0,0,0,0,0,0,0,0,0,0,0,0,0,0,0],"split_type":[0,0,0,0,0,0,0,0,0,0,0,0,0,0,0,0,0,0,0,0,0,0,0,0,0,0,0,0,0,0,0,0,0,0,0,0,0,0,0,0,0,0,0,0,0,0,0,0,0],"sum_hessian":[1.7573518E2,8.348856E1,9.224662E1,3.742977E1,4.6058792E1,5.2930084E1,3.9316532E1,1.2324072E0,3.6197365E1,3.382965E1,1.2229143E1,4.805728E1,4.872805E0,1.7995777E1,2.1320757E1,3.1278494E1,4.9188714E0,1.9626156E0,3.1867035E1,1.0948757E1,1.2803853E0,1.9727447E0,4.6084534E1,2.6373262E0,2.2354789E0,1.6662756E1,1.3330216E0,4.8769894E0,1.6443768E1,2.9730225E1,1.5482684E0,1.5653359E0,3.3535354E0,2.4670634E0,2.9399971E1,4.8593225E0,6.089435E0,3.6524928E0,4.243204E1,1.5850947E0,1.0522316E0,1.0162438E0,1.2192351E0,2.931868E0,1.3730887E1,1.1078618E0,3.7691276E0,1.3510455E1,2.9333117E0],"tree_param":{"num_deleted":"0","num_feature":"12","num_nodes":"49","size_leaf_vector":"1"}},{"base_weights":[2.0322016E-4,8.4544665E-1,-5.736648E-1,1.166731E0,4.3850383E-1,-2.7531415E-1,-9.5863503E-1,1.1959683E0,1.1117322E0,-3.8166305E-1,7.754532E-1,-7.341314E-1,-1.1333516E-1,-9.836787E-1,4.223757E-3,1.1865215E0,1.2228919E0,1.596655E-2,1.1834717E0,-6.496056E-1,3.9815247E-2,6.576194E-1,1.5811875E0,-1.3721756E0,-4.7334957E-1,1.0217011E-1,-1.9879109E-1,-9.0958846E-1,-1.2287368E0,5.907757E-2,5.974486E-2,6.0727503E-2,6.1860215E-2,5.8855623E-2,6.069533E-2,-1.1556018E-3,-7.561251E-2,4.051321E-2,-4.4460405E-2,7.263085E-2,8.2800694E-2,-3.0643404E-2,-8.01594E-2,-3.3267524E-2,4.7864195E-2,-1.9557841E-2,1.1448616E-2,-1.0006585E-2,-4.7528196E-2,-6.49791E-2,-6.062149E-2],"categories":[],"categories_nodes":[],"categories_segments":[],"categories_sizes":[],"default_left":[0,0,0,0,0,0,0,0,0,0,0,0,0,0,0,0,0,0,0,0,0,0,0,0,0,0,0,0,0,0,0,0,0,0,0,0,0,0,0,0,0,0,0,0,0,0,0,0,0,0,0],"id":27,"left_children":[1,3,5,7,9,11,13,15,17,19,21,23,25,27,-1,29,31,-1,33,35,-1,37,39,41,43,-1,45,47,49,-1,-1,-1,-1,-1,-1,-1,-1,-1,-1,-1,-1,-1,-1,-1,-1,-1,-1,-1,-1,-1,-1],"loss_changes":[8.3960724E1,9.151672E0,1.1841362E1,6.2892914E-2,8.53429E0,4.316666E0,1.1759224E0,6.4926147E-3,7.717705E-1,2.838334E0,2.0781965E0,2.5216637E0,7.9118886E0,7.9813004E-1,0E0,7.8582764E-4,7.87735E-4,0E0,2.4051666E-3,3.9593933E0,0E0,4.5089216E0,2.6861668E-2,7.712822E-1,2.9550636E0,0E0,3.3977895E0,9.812336E-1,1.1785507E-2,0E0,0E0,0E0,0E0,0E0,0E0,0E0,0E0,0E0,0E0,0E0,0E0,0E0,0E0,0E0,0E0,0E0,0E0,0E0,0E0,0E0,0E0],"parents":[2147483647,0,0,1,1,2,2,3,3,4,4,5,5,6,6,7,7,8,8,9,9,10,10,11,11,12,12,13,13,15,15,16,16,18,18,19,19,21,21,22,22,23,23,24,24,26,26,27,27,28,28],"right_children":[2,4,6,8,10,12,14,16,18,20,22,24,26,28,-1,30,32,-1,34,36,-1,38,40,42,44,-1,46,48,50,-1,-1,-1,-1,-1,-1,-1,-1,-1,-1,-1,-1,-1,-1,-1,-1,-1,-1,-1,-1,-1,-1],"split_conditions":[6.968E-1,6.71E-1,7.365E-1,8.9694E4,7.69E-1,7.966E-1,1.04321E5,6.574E-1,9.1674E4,8.8581E4,7.93E-1,7.029E-1,7.001E-1,8.7356E4,4.223757E-3,7.8756E4,7.857E4,1.596655E-2,6.634E-1,8.1788E4,3.9815247E-2,6.93E-1,6.93E-1,6.886E4,9.905E4,1.0217011E-1,8.207E-1,8.062E-1,7.454E-1,5.907757E-2,5.974486E-2,6.0727503E-2,6.1860215E-2,5.8855623E-2,6.069533E-2,-1.1556018E-3,-7.561251E-2,4.051321E-2,-4.4460405E-2,7.263085E-2,8.2800694E-2,-3.0643404E-2,-8.01594E-2,-3.3267524E-2,4.7864195E-2,-1.9557841E-2,1.1448616E-2,-1.0006585E-2,-4.7528196E-2,-6.49791E-2,-6.062149E-2],"split_indices":[11,11,11,0,9,9,0,11,0,0,9,11,11,0,0,0,0,0,11,0,0,11,11,0,0,0,9,9,11,0,0,0,0,0,0,0,0,0,0,0,0,0,0,0,0,0,0,0,0,0,0],"split_type":[0,0,0,0,0,0,0,0,0,0,0,0,0,0,0,0,0,0,0,0,0,0,0,0,0,0,0,0,0,0,0,0,0,0,0,0,0,0,0,0,0,0,0,0,0,0,0,0,0,0,0],"sum_hessian":[1.7309412E2,6.999674E1,1.0309738E2,3.9115093E1,3.088165E1,5.8083145E1,4.5014236E1,2.5538664E1,1.3576428E1,8.992659E0,2.1888992E1,1.5155129E1,4.2928013E1,4.3958843E1,1.0553932E0,1.8905342E1,6.6333213E0,1.1270926E0,1.2449336E1,7.326225E0,1.6664338E0,1.9096281E1,2.7927122E0,4.3970466E0,1.0758082E1,1.6360985E0,4.1291916E1,3.3753803E1,1.0205038E1,1.1864976E1,7.040366E0,4.1908755E0,2.4424455E0,1.0297764E1,2.1515722E0,4.2440186E0,3.0822062E0,1.7381073E1,1.7152061E0,1.0274085E0,1.7653039E0,1.0257035E0,3.3713431E0,9.485116E0,1.2729669E0,2.8483053E1,1.2808863E1,1.843043E0,3.1910763E1,1.9094248E0,8.295613E0],"tree_param":{"num_deleted":"0","num_feature":"12","num_nodes":"51","size_leaf_vector":"1"}},{"base_weights":[-3.1186532E-2,-1.5900363E-1,1.0927697E0,-4.0785173E-1,1.5979613E-1,6.318553E-1,1.1691283E0,1.3705361E-1,-5.0739485E-1,-2.4919294E-1,4.1793033E-1,6.0290404E-2,-2.3363244E-3,1.2581714E0,1.0048655E0,-1.0121424E-1,1.3637671E0,-7.696932E-1,-3.2415202E-1,-3.5529923E-2,-1.1070287E0,1.1296225E0,1.9038926E-1,1.2202024E0,7.768028E-2,1.9659365E-2,1.1868986E0,7.7718675E-2,-1.4358689E-2,5.9189856E-2,7.643468E-2,-3.2084882E-2,-6.435903E-2,5.2098956E-2,-2.805028E-2,-9.815845E-3,4.0042643E-2,-4.395907E-2,-7.221649E-2,7.040688E-2,4.6454493E-2,-3.3392303E-2,2.5614357E-2,6.661472E-2,5.9910726E-2,5.8095157E-2,6.278229E-2],"categories":[],"categories_nodes":[],"categories_segments":[],"categories_sizes":[],"default_left":[0,0,0,0,0,0,0,0,0,0,0,0,0,0,0,0,0,0,0,0,0,0,0,0,0,0,0,0,0,0,0,0,0,0,0,0,0,0,0,0,0,0,0,0,0,0,0],"id":28,"left_children":[1,3,5,7,9,11,13,15,17,19,21,-1,-1,23,25,27,29,31,33,35,37,39,41,43,-1,-1,45,-1,-1,-1,-1,-1,-1,-1,-1,-1,-1,-1,-1,-1,-1,-1,-1,-1,-1,-1,-1],"loss_changes":[2.4638706E1,1.2216747E1,6.1633873E-1,4.6911E0,7.1271486E0,9.693609E-1,2.197361E-1,3.9045782E0,3.5147724E0,4.7877493E0,6.70218E0,0E0,0E0,1.09277725E-1,5.880251E-1,3.4438725E0,6.4484596E-2,1.9920883E0,1.3930131E1,2.812331E0,4.0030766E-1,5.599909E-1,8.66378E0,2.1274567E-2,0E0,0E0,6.989479E-3,0E0,0E0,0E0,0E0,0E0,0E0,0E0,0E0,0E0,0E0,0E0,0E0,0E0,0E0,0E0,0E0,0E0,0E0,0E0,0E0],"parents":[2147483647,0,0,1,1,2,2,3,3,4,4,5,5,6,6,7,7,8,8,9,9,10,10,13,13,14,14,15,15,16,16,17,17,18,18,19,19,20,20,21,21,22,22,23,23,26,26],"right_children":[2,4,6,8,10,12,14,16,18,20,22,-1,-1,24,26,28,30,32,34,36,38,40,42,44,-1,-1,46,-1,-1,-1,-1,-1,-1,-1,-1,-1,-1,-1,-1,-1,-1,-1,-1,-1,-1,-1,-1],"split_conditions":[1.26603E3,9.905E-1,1.275547E3,6.6718E4,1.083106E3,9.9759E4,1.331561E3,1.018708E3,1.10691E3,7.3513E4,7.9786E4,6.0290404E-2,-2.3363244E-3,1.10274E5,1.351197E3,5.621E4,6.5578E4,7.6632E4,7.8206E4,1.04025E3,1.06355E3,9.913E-1,1.143501E3,9.872E-1,7.768028E-2,1.9659365E-2,1.18565E5,7.7718675E-2,-1.4358689E-2,5.9189856E-2,7.643468E-2,-3.2084882E-2,-6.435903E-2,5.2098956E-2,-2.805028E-2,-9.815845E-3,4.0042643E-2,-4.395907E-2,-7.221649E-2,7.040688E-2,4.6454493E-2,-3.3392303E-2,2.5614357E-2,6.661472E-2,5.9910726E-2,5.8095157E-2,6.278229E-2],"split_indices":[1,7,1,4,1,4,1,1,1,4,4,0,0,4,1,4,4,4,4,1,1,7,1,7,0,0,4,0,0,0,0,0,0,0,0,0,0,0,0,0,0,0,0,0,0,0,0],"split_type":[0,0,0,0,0,0,0,0,0,0,0,0,0,0,0,0,0,0,0,0,0,0,0,0,0,0,0,0,0,0,0,0,0,0,0,0,0,0,0,0,0,0,0,0,0,0,0],"sum_hessian":[1.7150609E2,1.539938E2,1.7512283E1,8.64853E1,6.7508514E1,2.4888942E0,1.5023389E1,1.3358734E1,7.3126564E1,2.6121492E1,4.1387024E1,1.3484006E0,1.1404936E0,9.7423E0,5.28109E0,1.118604E1,2.1726937E0,3.0075594E1,4.3050964E1,2.0912718E1,5.2087736E0,1.00265255E1,3.1360497E1,8.632827E0,1.1094725E0,1.2111895E0,4.0699E0,1.1295654E0,1.0056475E1,1.0389707E0,1.133723E0,2.4111782E1,5.963813E0,6.361117E0,3.668985E1,1.7540684E1,3.3720345E0,3.1087894E0,2.099984E0,4.1971664E0,5.829359E0,8.554015E0,2.2806482E1,1.4156915E0,7.2171354E0,2.984733E0,1.0851673E0],"tree_param":{"num_deleted":"0","num_feature":"12","num_nodes":"47","size_leaf_vector":"1"}},{"base_weights":[1.1642074E-2,-6.769447E-1,6.0529876E-1,-1.1777799E0,-5.290488E-1,2.3293196E-1,1.1014783E0,-6.1126035E-2,-1.1746523E0,-6.9665164E-1,-1.5360698E-1,1.3574275E0,1.7301984E-1,1.1255283E0,1.36242155E-2,-1.1692135E0,-1.2055346E0,-8.308242E-1,-3.055845E-1,1.1404903E0,-3.5829017E-1,2.2913724E-2,1.2844288E-1,-5.091525E-1,2.853778E-1,1.1791795E0,9.6410614E-1,-5.835926E-2,-5.9278924E-2,-5.9260376E-2,-6.101002E-2,-2.244441E-3,-4.5581464E-2,-2.713205E-2,5.722645E-2,-3.275493E-3,1.18932486E-1,-3.7373543E-2,1.472175E-2,-6.908163E-2,-5.8503156E-3,1.1068325E-2,6.1924916E-2,5.7875045E-2,5.969311E-2,1.0858076E-2,5.843065E-2],"categories":[],"categories_nodes":[],"categories_segments":[],"categories_sizes":[],"default_left":[0,0,0,0,0,0,0,0,0,0,0,0,0,0,0,0,0,0,0,0,0,0,0,0,0,0,0,0,0,0,0,0,0,0,0,0,0,0,0,0,0,0,0,0,0,0,0],"id":29,"left_children":[1,3,5,7,9,11,13,-1,15,17,19,21,23,25,-1,27,29,31,33,35,37,-1,-1,39,41,43,45,-1,-1,-1,-1,-1,-1,-1,-1,-1,-1,-1,-1,-1,-1,-1,-1,-1,-1,-1,-1],"loss_changes":[6.95331E1,5.8332863E0,1.6877014E1,2.5100708E-3,3.8257504E0,3.515636E0,7.807808E-1,0E0,2.8133392E-3,2.2055397E0,4.970357E0,2.875255E0,3.797398E0,3.2959747E-1,0E0,4.711151E-4,7.4481964E-4,1.9875507E0,3.6911342E0,3.8265457E0,4.1157513E0,0E0,0E0,2.3970923E0,2.5952313E0,9.086609E-3,1.4502163E0,0E0,0E0,0E0,0E0,0E0,0E0,0E0,0E0,0E0,0E0,0E0,0E0,0E0,0E0,0E0,0E0,0E0,0E0,0E0,0E0],"parents":[2147483647,0,0,1,1,2,2,3,3,4,4,5,5,6,6,8,8,9,9,10,10,11,11,12,12,13,13,15,15,16,16,17,17,18,18,19,19,20,20,23,23,24,24,25,25,26,26],"right_children":[2,4,6,8,10,12,14,-1,16,18,20,22,24,26,-1,28,30,32,34,36,38,-1,-1,40,42,44,46,-1,-1,-1,-1,-1,-1,-1,-1,-1,-1,-1,-1,-1,-1,-1,-1,-1,-1,-1,-1],"split_conditions":[8.608E-1,8.118E-1,8.922E-1,9.2423E2,7.328E-1,8.62E-1,1.416303E3,-6.1126035E-2,1.164216E3,1.166903E3,7.385E-1,7.131E-1,8.659E-1,7.443E-1,1.36242155E-2,7.505E-1,7.354E-1,9.74641E2,8.533E-1,7.337E-1,8.449E-1,2.2913724E-2,1.2844288E-1,1.07911E3,1.275547E3,6.303E-1,7.53E-1,-5.835926E-2,-5.9278924E-2,-5.9260376E-2,-6.101002E-2,-2.244441E-3,-4.5581464E-2,-2.713205E-2,5.722645E-2,-3.275493E-3,1.18932486E-1,-3.7373543E-2,1.472175E-2,-6.908163E-2,-5.8503156E-3,1.1068325E-2,6.1924916E-2,5.7875045E-2,5.969311E-2,1.0858076E-2,5.843065E-2],"split_indices":[6,6,6,1,8,6,1,0,1,1,8,8,6,8,0,8,8,1,6,8,6,0,0,1,1,8,8,0,0,0,0,0,0,0,0,0,0,0,0,0,0,0,0,0,0,0,0],"split_type":[0,0,0,0,0,0,0,0,0,0,0,0,0,0,0,0,0,0,0,0,0,0,0,0,0,0,0,0,0,0,0,0,0,0,0,0,0,0,0,0,0,0,0,0,0,0,0],"sum_hessian":[1.7009737E2,7.875216E1,9.134521E1,1.795369E1,6.0798466E1,5.218332E1,3.9161892E1,1.1729529E0,1.6780737E1,4.2033905E1,1.8764563E1,2.6396406E0,4.954368E1,3.8057793E1,1.1040992E0,1.4267995E1,2.5127416E0,3.1296337E1,1.0737567E1,2.5626092E0,1.6201954E1,1.5150995E0,1.124541E0,7.0061827E0,4.2537495E1,2.8564064E1,9.493729E0,1.2694691E1,1.5733043E0,1.0531867E0,1.459555E0,2.9177172E0,2.837862E1,9.228882E0,1.5086849E0,1.2981639E0,1.2644453E0,1.0150076E1,6.0518775E0,2.1725354E0,4.8336473E0,3.9860477E1,2.6770155E0,1.153414E1,1.7029922E1,2.0406017E0,7.453127E0],"tree_param":{"num_deleted":"0","num_feature":"12","num_nodes":"47","size_leaf_vector":"1"}},{"base_weights":[-4.7777403E-2,7.560911E-1,-6.0576385E-1,1.112453E0,3.5441494E-1,-1.989404E-1,-9.2481333E-1,1.1658902E0,1.054373E0,1.1035935E0,2.3475617E-1,-1.0047209E0,-1.1632637E-1,-7.6684606E-1,-1.0727333E0,1.147916E0,1.1743872E0,1.43559845E-2,1.1071125E0,2.9397756E-2,1.3289236E0,-1.374105E-1,7.098953E-1,-7.219301E-2,-7.419669E-1,7.668934E-1,-2.309603E-1,-8.639499E-1,5.6951046E-2,-6.945262E-1,-1.190891E0,5.7174623E-2,5.8251895E-2,5.8984827E-2,5.773154E-2,5.8552917E-2,3.847641E-2,6.2342193E-2,7.08755E-2,1.035733E-2,-3.8952988E-2,2.7396554E-2,1.1016548E-1,-5.8725313E-3,-6.145931E-2,-3.0426653E-3,5.6750175E-2,5.1821895E-2,-1.7082596E-2,-4.737121E-2,-1.3595598E-2,-5.3745564E-2,3.9789017E-2,-6.2565856E-2,-5.8669508E-2],"categories":[],